NO_OF_FRAMES	2500
NO_OF_CAMERAS	7
NO_OF_MARKERS	5
FREQUENCY	250
NO_OF_ANALOG	0
ANALOG_FREQUENCY	0
DESCRIPTION	--
TIME_STAMP	2012-02-07, 12:13:16	12858.26138911
DATA_INCLUDED	3D
MARKER_NAMES	cylinder_tip	cylinder_left	cylinder_right	weight_top	weight_low
-471.227	125.951	1110.686	-402.901	93.699	1171.669	-384.592	159.843	1077.022	-416.389	116.133	933.387	-427.750	116.621	655.774
-471.261	125.956	1110.642	-402.807	93.686	1171.753	-384.627	159.824	1077.021	-416.523	116.005	933.421	-427.663	116.505	655.875
-471.284	125.759	1110.761	-402.841	93.547	1171.739	-384.611	159.692	1077.016	-416.580	115.970	933.624	-427.728	116.381	655.858
-470.870	125.899	1110.970	-402.823	93.446	1171.875	-384.801	159.831	1077.361	-416.616	115.920	933.581	-427.630	116.236	656.032
-471.000	125.888	1110.962	-402.922	93.423	1171.940	-384.790	159.787	1077.328	-416.595	115.785	933.550	-427.631	116.214	656.069
-471.078	125.816	1110.858	-402.892	93.335	1172.057	-384.843	159.558	1077.505	-416.665	115.716	933.748	-427.580	116.079	656.055
-471.039	125.744	1111.044	-402.915	93.226	1172.001	-384.936	159.405	1077.543	-416.635	115.671	933.694	-427.551	115.900	656.248
-470.902	125.497	1111.168	-402.906	93.151	1172.309	-385.015	159.211	1077.676	-416.650	115.608	933.712	-427.348	115.576	656.288
-470.913	125.413	1111.257	-402.917	93.081	1172.339	-385.084	159.063	1077.783	-416.630	115.517	933.763	-427.316	115.475	656.263
-470.928	125.298	1111.384	-402.912	93.015	1172.471	-385.107	158.924	1077.915	-416.643	115.341	933.801	-427.276	115.355	656.391
-471.105	125.153	1111.372	-402.947	92.838	1172.346	-385.160	158.840	1077.913	-416.686	115.374	933.812	-427.299	115.313	656.557
-471.029	125.009	1111.489	-402.944	92.679	1172.399	-385.303	158.657	1078.040	-416.716	115.296	933.802	-427.261	115.210	656.570
-471.122	124.889	1111.430	-403.009	92.682	1172.475	-385.349	158.615	1078.107	-416.709	115.150	933.818	-427.167	115.075	656.640
-471.159	124.749	1111.600	-402.987	92.616	1172.461	-385.395	158.385	1078.183	-416.715	115.092	933.822	-427.012	115.000	656.678
-471.139	124.502	1111.630	-403.010	92.389	1172.489	-385.441	158.300	1078.250	-416.711	114.952	933.886	-426.963	114.936	656.747
-471.140	124.413	1111.707	-403.059	92.417	1172.570	-385.546	158.273	1078.312	-416.727	114.967	933.848	-426.886	114.812	656.762
-471.193	124.313	1111.654	-402.974	92.253	1172.534	-385.586	158.114	1078.319	-416.703	114.922	933.916	-426.808	114.725	656.823
-471.244	124.305	1111.776	-403.102	92.035	1172.570	-385.643	157.955	1078.366	-416.738	114.765	933.961	-426.768	114.645	656.858
-471.331	124.094	1111.798	-403.117	91.972	1172.676	-385.653	157.930	1078.393	-416.728	114.758	933.935	-426.608	114.506	656.955
-471.405	124.016	1111.860	-403.120	91.881	1172.755	-385.760	157.816	1078.549	-416.734	114.695	934.037	-426.607	114.409	656.920
-471.389	123.927	1111.992	-403.164	91.792	1172.749	-385.774	157.752	1078.565	-416.708	114.633	934.026	-426.448	114.310	656.958
-471.411	123.822	1112.107	-403.242	91.635	1172.826	-385.804	157.619	1078.580	-416.667	114.591	934.060	-426.432	114.214	656.982
-471.466	123.761	1112.053	-403.250	91.577	1172.746	-385.847	157.569	1078.637	-416.745	114.472	934.020	-426.286	114.166	656.968
-471.425	123.710	1112.241	-403.289	91.488	1172.872	-385.932	157.499	1078.730	-416.694	114.392	934.029	-426.196	114.064	656.962
-471.483	123.611	1112.248	-403.277	91.407	1172.959	-385.970	157.434	1078.716	-416.691	114.402	934.107	-426.101	113.989	657.004
-471.525	123.392	1112.208	-403.299	91.335	1172.918	-386.002	157.310	1078.722	-416.651	114.252	934.037	-425.925	113.948	657.056
-471.508	123.415	1112.310	-403.355	91.206	1172.938	-386.072	157.208	1078.754	-416.675	114.241	934.049	-425.787	113.828	656.991
-471.560	123.398	1112.394	-403.378	91.209	1173.024	-386.055	157.187	1078.923	-416.652	114.186	934.058	-425.708	113.727	657.003
-471.670	123.206	1112.201	-403.374	91.001	1173.065	-386.138	157.125	1078.898	-416.596	114.198	934.132	-425.574	113.667	656.976
-471.616	123.117	1112.278	-403.456	90.978	1173.145	-386.130	157.035	1078.939	-416.621	114.099	934.110	-425.430	113.552	657.042
-471.607	123.117	1112.411	-403.489	90.860	1173.174	-386.207	156.972	1078.958	-416.602	114.086	934.101	-425.305	113.468	656.923
-471.698	123.050	1112.299	-403.466	90.820	1173.167	-386.287	156.905	1078.961	-416.539	114.078	934.187	-425.155	113.430	657.006
-471.677	123.037	1112.446	-403.506	90.772	1173.186	-386.299	156.826	1078.976	-416.470	114.012	934.109	-425.032	113.402	656.940
-471.777	122.923	1112.348	-403.530	90.613	1173.225	-386.309	156.772	1078.976	-416.372	113.918	934.101	-424.889	113.385	656.978
-471.696	122.847	1112.411	-403.551	90.647	1173.257	-386.381	156.730	1079.060	-416.342	113.834	934.207	-424.743	113.178	656.986
-471.746	122.781	1112.405	-403.588	90.507	1173.269	-386.394	156.665	1079.112	-416.256	113.852	934.270	-424.582	113.071	656.925
-471.733	122.646	1112.363	-403.556	90.466	1173.282	-386.387	156.628	1079.122	-416.278	113.656	934.181	-424.499	113.100	656.993
-471.768	122.700	1112.452	-403.612	90.340	1173.378	-386.446	156.521	1079.084	-416.126	113.670	934.221	-424.384	113.061	656.944
-471.832	122.579	1112.520	-403.641	90.284	1173.386	-386.514	156.494	1079.181	-416.167	113.574	934.322	-424.196	112.911	657.047
-471.804	122.521	1112.415	-403.704	90.206	1173.411	-386.537	156.433	1079.226	-416.117	113.510	934.256	-423.991	112.952	657.113
-471.803	122.435	1112.504	-403.655	90.048	1173.358	-386.534	156.362	1079.254	-416.062	113.434	934.312	-423.862	112.836	657.023
-471.820	122.363	1112.626	-403.673	89.979	1173.533	-386.532	156.415	1079.235	-416.058	113.374	934.277	-423.713	112.812	657.016
-471.870	122.306	1112.558	-403.695	89.942	1173.494	-386.622	156.273	1079.169	-415.998	113.341	934.326	-423.492	112.647	657.062
-471.904	122.277	1112.584	-403.685	89.903	1173.513	-386.592	156.266	1079.316	-415.974	113.193	934.351	-423.443	112.923	657.292
-471.895	122.070	1112.531	-403.756	89.762	1173.536	-386.598	156.133	1079.354	-415.882	113.096	934.297	-423.072	112.546	657.050
-471.933	122.052	1112.548	-403.795	89.708	1173.537	-386.650	156.094	1079.358	-415.806	113.110	934.341	-423.038	112.772	657.246
-471.943	121.777	1112.618	-403.882	89.547	1173.540	-386.681	156.148	1079.430	-415.736	112.948	934.396	-422.759	112.678	657.198
-471.941	121.788	1112.746	-403.861	89.446	1173.566	-386.664	155.977	1079.417	-415.703	112.894	934.429	-422.452	112.515	657.183
-471.918	121.840	1112.650	-403.851	89.377	1173.594	-386.667	155.873	1079.481	-415.670	112.800	934.488	-422.423	112.376	657.166
-471.961	121.708	1112.643	-403.886	89.388	1173.631	-386.774	155.876	1079.392	-415.607	112.751	934.472	-422.148	112.305	657.317
-471.999	121.536	1112.759	-403.922	89.244	1173.639	-386.739	155.909	1079.484	-415.539	112.638	934.456	-421.965	112.269	657.371
-472.014	121.492	1112.820	-403.870	89.204	1173.662	-386.729	155.807	1079.461	-415.514	112.570	934.451	-421.750	112.215	657.284
-471.982	121.440	1112.756	-403.964	89.140	1173.672	-386.739	155.636	1079.578	-415.335	112.478	934.514	-421.492	112.009	657.362
-472.039	121.360	1112.844	-403.972	89.091	1173.708	-386.799	155.822	1079.490	-415.352	112.377	934.557	-421.325	111.886	657.528
-472.003	121.360	1112.903	-403.935	89.059	1173.726	-386.783	155.725	1079.512	-415.291	112.364	934.546	-421.121	111.835	657.475
-472.003	121.201	1112.882	-403.993	89.029	1173.786	-386.768	155.654	1079.573	-415.190	112.131	934.610	-420.846	111.725	657.458
-472.068	121.181	1112.916	-403.957	88.937	1173.837	-386.776	155.684	1079.590	-415.081	112.102	934.672	-420.552	111.622	657.648
-472.138	121.104	1112.928	-403.944	88.974	1173.858	-386.833	155.681	1079.589	-414.957	111.907	934.680	-420.440	111.502	657.570
-472.061	120.987	1113.029	-403.963	88.964	1173.935	-386.809	155.340	1079.661	-414.915	111.911	934.722	-420.178	111.375	657.694
-472.088	121.098	1113.005	-403.938	88.896	1173.945	-386.780	155.522	1079.660	-414.879	111.940	934.770	-419.973	111.291	657.608
-472.051	121.119	1113.131	-403.993	88.943	1173.959	-386.837	155.409	1079.766	-414.752	111.734	934.749	-419.776	111.221	657.828
-472.113	121.101	1113.092	-403.962	88.868	1174.082	-386.792	155.456	1079.725	-414.739	111.720	934.839	-419.562	111.085	657.839
-472.134	121.060	1113.229	-403.961	88.888	1174.189	-386.789	155.237	1079.690	-414.636	111.617	934.830	-419.337	111.114	657.865
-472.158	121.007	1113.222	-403.971	88.816	1174.273	-386.806	155.296	1079.820	-414.517	111.549	934.941	-419.162	110.975	657.952
-472.001	120.728	1113.315	-403.939	88.822	1174.371	-386.790	155.282	1079.815	-414.411	111.665	935.087	-418.972	110.948	658.025
-472.059	120.767	1113.393	-403.950	88.835	1174.425	-386.754	155.181	1079.857	-414.371	111.613	935.041	-418.796	110.824	658.061
-472.078	120.893	1113.441	-403.958	88.809	1174.504	-386.720	155.200	1079.930	-414.269	111.588	935.248	-418.583	110.725	658.179
-472.174	120.533	1113.502	-403.915	88.807	1174.523	-386.673	155.180	1079.939	-414.178	111.555	935.331	-418.324	110.588	658.192
-472.115	120.623	1113.700	-403.903	88.747	1174.693	-386.718	155.128	1079.990	-414.153	111.537	935.347	-418.148	110.566	658.259
-472.178	120.631	1113.673	-403.904	88.740	1174.806	-386.688	155.181	1080.067	-414.032	111.528	935.501	-417.837	110.454	658.398
-472.115	120.634	1113.726	-403.844	88.737	1174.910	-386.688	155.116	1080.138	-413.905	111.446	935.549	-417.519	110.452	658.503
-472.159	120.644	1113.820	-403.866	88.743	1174.982	-386.787	155.112	1080.270	-413.855	111.540	935.672	-417.278	110.371	658.596
-472.204	120.601	1113.822	-403.859	88.655	1175.154	-386.776	155.030	1080.260	-413.738	111.478	935.786	-417.056	110.365	658.766
-472.242	120.648	1113.953	-403.846	88.706	1175.258	-386.816	155.185	1080.399	-413.570	111.059	935.781	-416.788	110.297	658.822
-472.221	120.523	1113.993	-403.813	88.568	1175.316	-386.807	154.981	1080.400	-413.406	110.959	935.865	-416.459	110.182	658.929
-472.281	120.543	1114.110	-403.797	88.570	1175.387	-386.842	155.130	1080.590	-413.307	110.850	935.901	-416.202	110.196	659.023
-472.241	120.502	1114.076	-403.786	88.563	1175.549	-386.849	155.142	1080.657	-413.253	110.832	936.029	-415.956	110.152	659.156
-472.194	120.566	1114.308	-403.814	88.493	1175.734	-386.847	154.997	1080.700	-413.159	110.719	936.065	-415.672	110.054	659.193
-472.276	120.453	1114.337	-403.780	88.407	1175.848	-386.817	154.903	1080.800	-413.110	110.645	936.191	-415.438	109.963	659.375
-472.285	120.520	1114.440	-403.706	88.408	1175.916	-386.863	154.835	1080.781	-412.990	110.612	936.303	-415.274	109.915	659.495
-472.195	120.720	1114.559	-403.749	88.456	1176.038	-386.937	155.003	1081.031	-412.869	110.648	936.384	-415.030	109.861	659.554
-472.254	120.403	1114.627	-403.722	88.326	1176.179	-386.870	154.933	1081.142	-412.734	110.587	936.409	-414.803	109.747	659.632
-472.206	120.463	1114.847	-403.704	88.409	1176.235	-386.947	154.902	1081.200	-412.725	110.462	936.584	-414.553	109.754	659.775
-472.273	120.451	1114.944	-403.750	88.434	1176.390	-386.982	154.971	1081.314	-412.656	110.379	936.642	-414.318	109.735	659.983
-472.259	120.449	1115.140	-403.736	88.387	1176.533	-386.977	155.051	1081.513	-412.570	110.397	936.804	-414.120	109.621	660.092
-472.299	120.623	1115.302	-403.683	88.389	1176.702	-387.013	154.993	1081.562	-412.463	110.251	936.865	-413.833	109.567	660.167
-472.269	120.573	1115.509	-403.711	88.385	1176.815	-386.972	154.959	1081.707	-412.451	110.299	936.895	-413.533	109.514	660.385
-472.265	120.615	1115.775	-403.698	88.346	1176.853	-387.017	154.890	1081.746	-412.456	110.177	937.043	-413.251	109.454	660.511
-472.293	120.687	1115.923	-403.740	88.287	1177.027	-387.037	154.862	1081.793	-412.415	110.196	937.215	-413.026	109.473	660.671
-472.309	120.762	1116.155	-403.632	88.236	1177.153	-387.028	154.964	1081.881	-412.383	110.178	937.184	-412.812	109.433	660.880
-472.346	120.859	1116.363	-403.638	88.156	1177.194	-387.038	154.925	1082.044	-412.284	110.194	937.302	-412.604	109.393	660.914
-472.359	120.869	1116.531	-403.703	88.210	1177.325	-387.059	154.872	1082.099	-412.178	110.199	937.440	-412.343	109.548	661.145
-472.345	120.862	1116.693	-403.679	88.137	1177.489	-387.095	154.897	1082.225	-412.076	110.149	937.491	-412.109	109.285	661.157
-472.348	120.878	1116.855	-403.697	88.102	1177.597	-387.091	154.868	1082.359	-412.022	110.160	937.672	-411.825	109.275	661.299
-472.383	120.955	1117.071	-403.802	88.036	1177.729	-387.142	154.776	1082.492	-411.976	110.096	937.794	-411.607	109.310	661.343
-472.323	120.846	1117.225	-403.792	88.044	1177.774	-387.159	154.728	1082.675	-411.845	110.107	937.919	-411.366	109.183	661.474
-472.340	120.886	1117.352	-403.777	88.047	1177.845	-387.258	154.784	1082.824	-411.801	110.030	938.015	-411.119	109.194	661.576
-472.410	120.867	1117.572	-403.835	88.050	1177.947	-387.170	154.893	1083.049	-411.643	109.995	938.149	-410.930	109.161	661.621
-472.464	121.021	1117.880	-403.752	87.979	1178.042	-387.324	154.812	1083.263	-411.608	109.985	938.250	-410.740	109.116	661.732
-472.514	120.937	1117.952	-403.752	87.989	1178.069	-387.346	154.937	1083.570	-411.467	109.965	938.426	-410.509	109.098	661.908
-472.521	120.985	1118.176	-403.771	88.004	1178.204	-387.353	154.895	1083.818	-411.389	109.905	938.525	-410.324	109.066	661.870
-472.602	120.942	1118.313	-403.732	87.973	1178.307	-387.415	154.935	1083.990	-411.383	109.910	938.650	-410.113	109.112	662.091
-472.624	120.742	1118.507	-403.736	87.950	1178.343	-387.384	154.691	1084.205	-411.349	109.851	938.719	-409.812	108.998	662.116
-472.664	120.767	1118.508	-403.694	87.962	1178.498	-387.387	154.869	1084.443	-411.077	109.952	938.974	-409.596	108.979	662.349
-472.665	120.626	1118.780	-403.707	88.102	1178.609	-387.543	154.638	1084.659	-410.972	109.912	939.304	-409.317	108.993	662.397
-472.638	120.644	1118.936	-403.698	88.055	1178.719	-387.624	154.852	1084.938	-410.957	109.944	939.381	-408.997	108.824	662.516
-472.692	120.588	1119.208	-403.648	87.998	1178.759	-387.662	154.714	1084.932	-410.873	109.837	939.657	-408.796	108.741	662.763
-472.634	120.623	1119.434	-403.665	88.075	1178.854	-387.713	154.697	1085.080	-410.784	109.808	939.743	-408.538	108.700	662.983
-472.689	120.520	1119.646	-403.650	87.991	1178.973	-387.752	154.766	1085.208	-410.773	109.773	939.984	-408.241	108.667	663.167
-472.669	120.701	1119.859	-403.706	87.838	1179.004	-387.757	154.711	1085.378	-410.662	109.759	940.169	-408.003	108.516	663.364
-472.685	120.714	1119.950	-403.686	88.041	1179.137	-387.747	154.772	1085.485	-410.638	109.678	940.351	-407.833	108.434	663.459
-472.675	120.676	1120.182	-403.662	88.038	1179.273	-387.671	154.563	1085.537	-410.516	109.738	940.557	-407.602	108.347	663.626
-472.650	120.699	1120.357	-403.676	88.118	1179.432	-387.674	154.663	1085.704	-410.441	109.733	940.675	-407.346	108.236	663.758
-472.660	120.725	1120.541	-403.699	88.053	1179.523	-387.774	154.730	1085.921	-410.399	109.604	940.922	-407.163	108.113	663.814
-472.698	120.733	1120.696	-403.582	88.000	1179.760	-387.814	154.819	1086.027	-410.313	109.549	941.067	-406.945	108.060	664.031
-472.730	120.601	1120.864	-403.607	88.042	1179.872	-387.813	154.872	1086.290	-410.283	109.648	941.308	-406.746	107.976	664.120
-472.739	120.642	1121.017	-403.641	87.987	1180.082	-387.905	154.903	1086.396	-410.259	109.706	941.519	-406.525	107.951	664.290
-472.681	120.697	1121.202	-403.709	88.105	1180.242	-387.896	154.899	1086.573	-410.139	109.741	941.718	-406.357	107.878	664.443
-472.691	120.471	1121.342	-403.754	88.074	1180.431	-387.923	155.064	1086.856	-410.067	109.688	941.864	-406.151	107.892	664.583
-472.717	120.446	1121.400	-403.681	88.145	1180.599	-387.960	155.105	1087.011	-409.990	109.790	942.100	-405.882	107.797	664.796
-472.654	120.509	1121.668	-403.740	88.154	1180.899	-388.010	155.152	1087.157	-409.919	109.775	942.292	-405.667	107.783	664.957
-472.743	120.416	1121.649	-403.724	88.231	1181.117	-388.099	155.208	1087.439	-409.859	109.868	942.429	-405.502	107.847	665.186
-472.753	120.559	1121.890	-403.782	88.270	1181.328	-388.223	155.238	1087.572	-409.841	109.817	942.629	-405.263	107.840	665.402
-472.667	120.530	1122.119	-403.765	88.294	1181.459	-388.235	155.296	1087.694	-409.704	109.827	942.807	-405.046	107.771	665.516
-472.694	120.541	1122.324	-403.745	88.328	1181.612	-388.091	155.357	1087.953	-409.757	109.871	943.086	-404.834	107.704	665.673
-472.632	120.573	1122.513	-403.759	88.357	1181.870	-388.126	155.415	1088.047	-409.672	109.950	943.357	-404.649	107.711	665.782
-472.849	120.616	1122.662	-403.776	88.468	1182.103	-388.226	155.343	1088.206	-409.526	109.973	943.517	-404.429	107.620	665.977
-472.892	120.712	1122.805	-403.760	88.483	1182.335	-388.199	155.313	1088.244	-409.552	110.047	943.739	-404.105	107.710	666.209
-472.942	120.681	1122.869	-403.795	88.465	1182.472	-388.244	155.306	1088.437	-409.447	110.124	943.998	-403.993	107.521	666.346
-472.959	120.775	1123.025	-403.803	88.500	1182.712	-388.332	155.201	1088.557	-409.362	110.112	944.123	-403.779	107.613	666.514
-473.060	120.796	1123.181	-403.745	88.485	1182.883	-388.329	155.231	1088.623	-409.353	110.132	944.411	-403.679	107.515	666.648
-473.051	120.746	1123.276	-403.802	88.383	1183.015	-388.304	155.102	1088.720	-409.298	110.196	944.587	-403.487	107.472	666.722
-473.066	120.773	1123.327	-403.861	88.395	1183.239	-388.364	155.116	1088.774	-409.194	110.331	944.699	-403.322	107.470	666.835
-473.136	120.807	1123.475	-403.860	88.269	1183.341	-388.343	155.120	1088.855	-409.150	110.377	944.973	-403.080	107.514	666.937
-473.149	120.812	1123.503	-403.845	88.267	1183.516	-388.357	155.023	1089.058	-409.109	110.374	945.096	-402.838	107.534	667.108
-473.108	120.785	1123.611	-403.813	88.218	1183.682	-388.415	154.981	1089.049	-408.985	110.347	945.207	-402.713	107.532	667.157
-473.168	120.741	1123.708	-403.846	88.122	1183.827	-388.496	154.894	1089.255	-408.959	110.335	945.385	-402.499	107.544	667.280
-473.199	120.822	1123.796	-403.868	88.065	1183.911	-388.546	154.806	1089.351	-408.852	110.253	945.487	-402.361	107.561	667.369
-473.159	120.717	1123.934	-403.854	87.976	1184.118	-388.527	154.760	1089.382	-408.900	110.260	945.677	-402.218	107.603	667.492
-473.106	120.600	1124.103	-403.854	87.798	1184.202	-388.552	154.741	1089.554	-408.768	110.263	945.742	-402.097	107.671	667.697
-473.163	120.645	1124.221	-403.824	87.817	1184.416	-388.584	154.646	1089.659	-408.764	110.180	945.899	-401.839	107.589	667.705
-473.179	120.671	1124.380	-403.780	87.862	1184.649	-388.566	154.618	1089.695	-408.712	110.068	946.043	-401.679	107.588	667.803
-473.191	120.604	1124.473	-403.777	87.778	1184.791	-388.560	154.592	1089.891	-408.626	110.111	946.086	-401.494	107.626	668.002
-473.272	120.698	1124.702	-403.812	87.768	1184.934	-388.651	154.596	1089.910	-408.586	110.213	946.178	-401.393	107.663	668.037
-473.202	120.591	1124.889	-403.785	87.711	1185.124	-388.613	154.510	1089.972	-408.667	110.049	946.202	-401.083	107.734	668.249
-473.187	120.645	1125.051	-403.792	87.671	1185.329	-388.633	154.403	1090.134	-408.668	110.128	946.329	-401.076	107.754	668.423
-473.266	120.748	1125.299	-403.855	87.675	1185.470	-388.701	154.415	1090.180	-408.652	110.117	946.448	-400.788	107.734	668.581
-473.335	120.797	1125.600	-403.810	87.648	1185.537	-388.672	154.390	1090.247	-408.590	110.087	946.458	-400.704	107.777	668.705
-473.336	120.799	1125.766	-403.836	87.621	1185.643	-388.707	154.523	1090.442	-408.540	110.130	946.586	-400.478	107.704	668.800
-473.399	120.911	1125.953	-403.915	87.702	1185.779	-388.602	154.472	1090.630	-408.436	109.971	946.557	-400.265	107.779	669.117
-473.362	120.819	1126.206	-403.868	87.671	1185.957	-388.679	154.633	1090.906	-408.458	110.085	946.656	-400.209	107.684	669.164
-473.483	120.900	1126.380	-403.886	87.741	1186.050	-388.680	154.494	1090.841	-408.398	110.129	946.747	-400.079	107.662	669.367
-473.453	120.901	1126.541	-403.931	87.791	1186.174	-388.759	154.629	1090.995	-408.357	109.992	946.812	-399.916	107.665	669.477
-473.452	120.897	1126.661	-403.994	87.858	1186.289	-388.730	154.730	1091.267	-408.320	109.980	946.925	-399.846	107.756	669.642
-473.466	120.864	1126.800	-403.937	87.843	1186.413	-388.764	154.864	1091.423	-408.260	110.043	946.984	-399.700	107.737	669.833
-473.528	120.921	1126.957	-403.933	87.897	1186.548	-388.795	154.795	1091.529	-408.249	110.073	947.060	-399.554	107.721	669.968
-473.453	120.902	1127.178	-403.938	87.846	1186.604	-388.844	154.952	1091.657	-408.181	110.098	947.234	-399.480	107.825	670.114
-473.504	120.891	1127.312	-403.957	87.908	1186.709	-388.803	154.911	1091.749	-408.196	110.060	947.298	-399.374	107.852	670.277
-473.503	120.916	1127.509	-403.916	87.907	1186.818	-388.832	154.960	1091.955	-408.144	110.101	947.343	-399.275	107.790	670.355
-473.515	120.973	1127.588	-403.899	87.986	1186.890	-388.857	155.089	1092.092	-408.062	110.100	947.507	-399.213	107.851	670.543
-473.540	120.930	1127.751	-403.971	88.143	1187.047	-388.845	155.096	1092.206	-408.037	110.170	947.487	-399.077	107.838	670.663
-473.522	120.958	1127.927	-403.997	88.100	1187.080	-388.859	155.074	1092.299	-407.993	110.139	947.608	-398.948	107.782	670.868
-473.509	120.974	1128.014	-404.013	88.156	1187.176	-388.864	155.172	1092.607	-407.950	110.154	947.710	-398.894	107.887	670.987
-473.490	120.960	1128.187	-403.981	88.197	1187.261	-388.885	155.205	1092.674	-407.974	110.154	947.764	-398.770	107.927	671.116
-473.579	120.884	1128.354	-403.951	88.197	1187.443	-388.938	155.221	1092.833	-407.804	110.196	947.935	-398.801	107.947	671.257
-473.604	120.874	1128.481	-403.967	88.185	1187.417	-388.894	155.144	1092.907	-407.844	110.201	947.910	-398.663	107.945	671.353
-473.551	120.814	1128.605	-403.888	88.213	1187.548	-388.859	155.226	1092.983	-407.770	110.179	948.040	-398.624	107.974	671.553
-473.592	120.814	1128.672	-403.876	88.265	1187.640	-388.836	155.259	1093.120	-407.631	110.125	948.221	-398.601	107.946	671.649
-473.522	120.726	1128.781	-403.809	88.193	1187.701	-388.808	155.125	1093.212	-407.602	110.100	948.275	-398.542	107.938	671.814
-473.586	120.736	1128.978	-403.784	88.248	1187.809	-388.860	155.066	1093.289	-407.543	110.029	948.512	-398.439	107.917	671.938
-473.521	120.732	1129.055	-403.748	88.206	1187.890	-388.903	155.038	1093.560	-407.566	110.026	948.626	-398.323	107.954	672.040
-473.539	120.683	1129.188	-403.790	88.163	1188.029	-388.926	154.859	1093.503	-407.556	109.972	948.677	-398.219	107.897	672.121
-473.608	120.707	1129.197	-403.705	88.204	1188.101	-388.919	154.978	1093.824	-407.549	109.928	948.770	-398.271	107.954	672.278
-473.533	120.630	1129.411	-403.681	88.101	1188.328	-388.925	154.818	1093.871	-407.528	109.920	948.901	-398.202	108.023	672.251
-473.520	120.577	1129.534	-403.667	88.114	1188.319	-388.879	154.941	1094.044	-407.490	109.901	949.007	-398.118	108.030	672.370
-473.514	120.574	1129.641	-403.617	88.067	1188.384	-388.900	154.721	1094.027	-407.459	109.871	949.181	-398.082	108.021	672.417
-473.558	120.487	1129.684	-403.600	88.014	1188.490	-388.944	154.652	1094.169	-407.476	109.778	949.137	-398.081	108.021	672.540
-473.435	120.739	1129.895	-403.580	88.100	1188.656	-388.978	154.738	1094.322	-407.452	109.778	949.200	-398.035	108.058	672.646
-473.495	120.384	1129.847	-403.577	88.098	1188.672	-389.013	154.732	1094.405	-407.432	109.800	949.338	-398.042	108.143	672.746
-473.463	120.402	1129.965	-403.526	87.992	1188.802	-389.075	154.614	1094.441	-407.473	109.752	949.382	-398.078	108.160	672.782
-473.367	120.606	1130.070	-403.531	88.089	1188.734	-389.015	154.638	1094.506	-407.377	109.817	949.446	-397.952	108.127	672.719
-473.336	120.488	1130.148	-403.512	88.130	1188.796	-389.093	154.694	1094.467	-407.425	109.748	949.548	-397.993	108.188	672.777
-473.349	120.613	1130.109	-403.468	88.031	1188.845	-389.069	154.704	1094.521	-407.427	109.838	949.510	-397.920	108.211	672.727
-473.420	120.694	1130.232	-403.451	88.074	1188.843	-389.114	154.782	1094.523	-407.334	109.790	949.537	-397.933	108.189	672.799
-473.320	120.546	1130.207	-403.427	88.076	1188.835	-389.049	154.726	1094.444	-407.391	109.778	949.495	-397.944	108.296	672.859
-473.337	120.571	1130.233	-403.428	88.082	1188.863	-389.093	154.743	1094.489	-407.458	109.864	949.491	-397.987	108.307	672.802
-473.348	120.690	1130.201	-403.435	88.204	1188.792	-389.058	154.840	1094.499	-407.435	109.970	949.482	-397.899	108.345	672.708
-473.361	120.728	1130.091	-403.454	88.306	1188.751	-388.995	154.931	1094.301	-407.397	109.916	949.349	-397.929	108.346	672.653
-473.343	120.955	1130.091	-403.478	88.307	1188.719	-388.963	154.848	1094.254	-407.425	109.922	949.371	-397.950	108.420	672.616
-473.363	120.999	1129.958	-403.479	88.417	1188.635	-388.883	154.938	1094.143	-407.432	109.958	949.253	-397.907	108.505	672.583
-473.444	121.130	1129.853	-403.524	88.451	1188.519	-388.935	154.895	1093.884	-407.493	110.038	949.055	-398.013	108.549	672.446
-473.435	120.985	1129.624	-403.503	88.546	1188.358	-388.876	155.009	1093.754	-407.455	110.224	949.011	-397.955	108.634	672.362
-473.517	120.934	1129.451	-403.509	88.693	1188.198	-388.943	155.020	1093.540	-407.486	110.190	948.782	-397.967	108.636	672.253
-473.412	121.123	1129.332	-403.512	88.720	1187.981	-388.839	155.339	1093.288	-407.483	110.344	948.580	-397.999	108.796	672.068
-473.469	121.252	1129.050	-403.583	88.712	1187.832	-388.785	155.425	1093.082	-407.459	110.416	948.546	-398.069	108.958	671.881
-473.482	121.347	1128.848	-403.596	88.763	1187.666	-388.811	155.460	1092.856	-407.541	110.503	948.132	-398.048	109.110	671.638
-473.430	121.506	1128.597	-403.620	88.781	1187.491	-388.772	155.494	1092.642	-407.619	110.458	947.965	-398.108	109.149	671.407
-473.423	121.455	1128.222	-403.643	88.821	1187.319	-388.736	155.311	1092.201	-407.648	110.541	947.751	-398.142	109.295	671.148
-473.295	121.665	1127.862	-403.583	88.757	1187.054	-388.699	155.326	1091.823	-407.675	110.627	947.536	-398.156	109.331	670.753
-473.330	121.781	1127.504	-403.613	88.717	1186.818	-388.671	155.302	1091.491	-407.681	110.647	947.241	-398.199	109.404	670.324
-473.315	121.846	1126.957	-403.568	88.768	1186.426	-388.632	155.201	1091.029	-407.629	110.661	947.007	-398.349	109.488	669.748
-473.183	121.953	1126.469	-403.534	88.657	1186.085	-388.528	154.894	1090.309	-407.621	110.701	946.705	-398.215	109.513	669.354
-473.117	122.037	1125.894	-403.426	88.781	1185.566	-388.509	154.889	1089.899	-407.613	110.748	946.458	-398.423	109.425	668.931
-473.104	122.106	1125.249	-403.457	88.890	1184.928	-388.499	155.044	1089.597	-407.489	110.753	946.191	-398.469	109.233	668.432
-472.982	121.880	1124.583	-403.444	88.954	1184.157	-388.479	155.203	1089.170	-407.413	110.872	945.765	-398.510	109.322	667.966
-472.976	121.513	1123.911	-403.462	89.047	1183.553	-388.424	155.390	1088.755	-407.412	110.982	945.124	-398.562	109.263	667.559
-472.916	121.349	1123.496	-403.515	89.237	1182.870	-388.336	155.524	1088.414	-407.266	110.970	944.530	-398.485	109.485	666.950
-472.707	121.465	1122.906	-403.534	89.300	1182.200	-388.287	155.850	1088.030	-407.288	110.777	943.534	-398.559	109.548	666.286
-472.662	121.290	1122.109	-403.619	89.132	1181.217	-388.258	155.540	1087.095	-407.195	110.643	942.757	-398.601	109.573	665.633
-472.656	121.177	1121.335	-403.416	88.986	1180.271	-388.118	155.234	1086.230	-407.145	110.529	941.899	-398.754	109.709	664.833
-472.684	121.442	1120.651	-403.432	88.964	1179.525	-388.082	155.092	1085.405	-407.194	110.418	940.953	-398.842	109.778	664.080
-472.710	121.549	1119.870	-403.423	88.805	1179.059	-387.947	155.065	1084.796	-407.090	110.470	940.196	-398.988	109.823	663.208
-472.644	121.540	1118.922	-403.404	88.868	1178.622	-387.637	155.167	1083.643	-406.984	110.609	939.353	-398.928	109.901	662.262
-472.414	121.624	1118.078	-403.398	88.730	1178.119	-387.375	154.926	1082.524	-407.043	110.593	938.396	-398.901	109.881	661.161
-472.281	121.625	1117.051	-403.222	88.976	1177.383	-387.200	155.027	1081.751	-406.909	110.680	937.641	-399.012	110.122	660.429
-472.142	121.356	1115.735	-403.288	89.101	1176.532	-387.032	155.121	1081.055	-406.735	110.436	936.865	-399.085	110.146	659.936
-471.986	120.930	1114.421	-403.285	89.171	1175.535	-386.847	154.750	1080.046	-406.561	110.437	935.982	-399.023	110.028	659.024
-471.814	120.944	1113.574	-403.276	89.264	1174.390	-386.749	155.133	1079.470	-406.517	110.702	935.209	-398.958	109.798	657.860
-471.505	120.986	1112.545	-403.257	89.268	1173.099	-386.657	155.298	1078.688	-406.578	110.832	934.245	-399.020	109.861	656.837
-471.431	120.912	1111.271	-403.157	89.148	1171.711	-386.449	155.535	1077.826	-406.496	110.817	933.134	-399.036	110.246	655.860
-471.446	121.008	1110.136	-403.091	88.934	1170.285	-386.231	155.130	1076.441	-406.309	110.472	931.747	-399.285	110.296	654.751
-471.284	121.327	1109.181	-402.985	88.773	1169.375	-385.832	155.075	1074.858	-406.101	110.500	930.218	-399.338	110.377	653.642
-471.185	121.332	1107.795	-402.933	88.348	1168.536	-385.729	155.128	1073.912	-406.138	110.341	929.114	-399.406	110.409	652.370
-471.045	121.108	1106.455	-402.721	88.572	1167.566	-385.421	154.909	1072.980	-406.024	110.143	928.177	-399.517	110.466	650.986
-470.482	120.378	1104.990	-402.713	88.778	1166.602	-384.955	154.437	1071.743	-405.889	109.970	927.210	-399.625	110.202	649.796
-470.106	120.283	1103.531	-402.671	89.048	1165.667	-384.558	153.956	1070.407	-405.535	110.177	926.019	-399.589	110.128	648.745
-469.911	120.437	1102.106	-402.596	89.003	1164.400	-384.281	154.369	1069.643	-405.415	110.336	924.777	-399.323	109.943	647.667
-469.839	120.428	1100.924	-402.606	88.841	1163.025	-384.125	154.551	1068.880	-405.303	110.564	923.610	-399.369	110.140	646.039
-469.634	120.746	1100.015	-402.520	88.466	1161.696	-383.988	154.698	1067.946	-405.163	110.367	922.031	-399.504	110.365	644.872
-469.561	121.033	1098.750	-402.347	88.084	1160.265	-383.494	154.540	1066.256	-405.024	110.139	920.579	-399.722	110.758	643.629
-469.322	121.063	1097.207	-402.065	88.119	1158.858	-383.370	154.588	1064.605	-405.075	110.352	919.538	-399.828	110.945	642.219
-469.139	120.096	1095.566	-401.941	88.078	1157.565	-383.114	154.269	1063.266	-404.951	110.056	918.375	-400.100	110.812	640.992
-468.789	119.995	1094.124	-401.836	88.079	1156.331	-382.870	153.777	1061.683	-404.794	109.938	917.314	-400.231	110.737	639.938
-468.586	119.998	1092.681	-401.793	88.102	1155.348	-382.400	153.460	1060.387	-404.686	110.144	916.063	-400.069	110.551	638.801
-468.313	120.125	1091.346	-401.674	88.083	1154.378	-382.232	153.649	1059.573	-404.530	110.352	914.717	-400.052	110.528	637.348
-468.076	120.048	1089.910	-401.640	87.972	1153.110	-381.918	154.027	1058.862	-404.407	110.348	913.436	-399.975	110.466	635.994
-467.913	120.419	1088.821	-401.472	87.195	1151.744	-381.790	154.103	1057.921	-404.340	110.313	911.756	-400.079	110.406	634.548
-467.727	120.050	1087.747	-401.051	87.050	1150.556	-381.393	154.143	1056.465	-404.190	109.976	910.129	-400.106	110.505	633.496
-467.128	119.153	1086.176	-401.094	86.900	1149.031	-381.019	154.005	1055.447	-403.885	109.821	909.365	-400.170	110.853	632.305
-466.919	118.809	1084.741	-400.983	86.830	1147.608	-380.677	154.029	1054.436	-403.747	109.701	908.642	-400.432	111.190	631.015
-466.756	118.798	1083.458	-400.773	86.752	1146.287	-380.352	153.492	1053.164	-403.519	109.680	907.523	-400.570	111.018	630.077
-466.447	118.687	1082.221	-400.533	86.844	1145.244	-379.947	152.849	1051.670	-403.420	109.778	906.376	-400.680	110.806	629.103
-466.202	118.651	1081.149	-400.346	86.832	1144.214	-379.640	152.574	1050.653	-403.303	109.842	905.329	-400.496	110.749	628.151
-465.888	118.641	1080.102	-400.119	86.296	1143.326	-379.583	152.927	1050.119	-403.267	109.844	904.286	-400.616	110.845	626.858
-465.755	118.846	1079.061	-399.923	86.004	1142.531	-379.271	153.117	1049.445	-403.093	109.835	903.045	-400.732	110.650	625.684
-465.405	118.600	1077.917	-399.581	85.604	1141.804	-379.048	152.927	1048.475	-402.885	109.489	901.828	-400.742	110.469	624.433
-465.154	118.234	1076.860	-399.355	85.713	1140.952	-378.784	152.731	1047.534	-402.700	109.218	900.496	-400.757	110.501	623.402
-464.746	117.743	1076.110	-399.156	85.721	1140.159	-378.464	152.694	1046.469	-402.701	109.044	899.552	-400.727	110.731	622.593
-464.337	117.645	1075.399	-398.815	85.588	1139.245	-378.222	152.884	1045.638	-402.590	108.902	898.821	-400.780	110.984	621.747
-464.107	117.779	1074.671	-398.710	85.625	1138.444	-377.812	152.747	1044.788	-402.389	108.911	898.277	-400.974	110.958	621.020
-463.963	117.859	1073.853	-398.531	85.676	1137.548	-377.501	152.439	1043.876	-402.167	108.673	897.651	-401.020	110.868	620.439
-463.860	117.937	1073.130	-398.373	85.564	1136.735	-377.203	152.037	1043.042	-402.035	108.888	897.299	-401.263	111.046	619.826
-463.588	117.937	1072.516	-398.183	85.668	1136.072	-376.838	151.594	1042.153	-401.938	108.924	896.735	-401.344	110.925	619.227
-463.457	117.911	1071.802	-398.028	85.554	1135.249	-376.559	151.544	1041.515	-401.891	108.941	896.215	-401.340	110.916	618.697
-463.261	117.861	1071.252	-397.804	85.535	1134.599	-376.506	151.569	1041.007	-401.808	109.094	895.669	-401.443	110.924	617.986
-463.080	117.970	1070.818	-397.498	85.399	1133.848	-376.379	151.619	1040.700	-401.734	108.978	895.079	-401.566	110.992	617.603
-462.813	117.948	1070.224	-397.389	85.421	1133.391	-376.222	151.739	1040.426	-401.665	109.154	894.629	-401.666	111.014	617.130
-462.713	118.378	1069.920	-397.121	85.374	1133.021	-376.042	151.867	1040.132	-401.645	109.118	894.103	-401.773	111.089	616.787
-462.530	118.252	1069.397	-396.928	85.344	1132.743	-375.878	152.083	1039.635	-401.669	109.171	893.799	-401.926	111.172	616.401
-462.383	118.415	1069.081	-396.802	85.323	1132.523	-375.662	152.197	1039.347	-401.762	109.200	893.443	-402.079	111.204	616.082
-462.312	118.382	1068.889	-396.658	85.328	1132.464	-375.586	152.158	1039.082	-401.656	109.171	893.172	-402.241	111.229	615.907
-462.250	118.438	1068.772	-396.542	85.371	1132.372	-375.389	152.166	1038.779	-401.610	109.212	892.877	-402.370	111.244	615.735
-462.083	118.421	1068.656	-396.473	85.421	1132.229	-375.241	152.202	1038.674	-401.583	109.245	892.716	-402.446	111.289	615.552
-462.013	118.505	1068.577	-396.329	85.513	1132.242	-375.153	152.266	1038.604	-401.618	109.330	892.663	-402.615	111.288	615.408
-461.954	118.465	1068.544	-396.250	85.539	1132.190	-375.039	152.202	1038.555	-401.607	109.330	892.554	-402.812	111.261	615.384
-461.745	118.428	1068.586	-396.203	85.570	1132.163	-374.968	152.234	1038.653	-401.603	109.273	892.611	-402.890	111.312	615.427
-461.751	118.621	1068.714	-396.145	85.541	1132.249	-374.876	152.231	1038.648	-401.606	109.330	892.689	-402.998	111.321	615.534
-461.711	118.699	1068.854	-396.133	85.528	1132.273	-374.809	152.239	1038.880	-401.632	109.328	892.926	-403.101	111.349	615.678
-461.744	118.862	1069.026	-396.088	85.539	1132.379	-374.878	152.258	1039.077	-401.699	109.410	893.106	-403.285	111.324	615.788
-461.591	118.825	1069.235	-396.062	85.657	1132.537	-374.747	152.293	1039.415	-401.724	109.479	893.427	-403.443	111.299	616.049
-461.586	118.570	1069.694	-396.068	85.670	1132.657	-374.749	152.210	1039.703	-401.752	109.541	893.914	-403.573	111.311	616.290
-461.644	118.481	1070.065	-396.093	85.521	1133.007	-374.782	152.161	1039.925	-401.788	109.406	894.217	-403.747	111.417	616.661
-461.718	118.319	1070.654	-396.053	85.642	1133.394	-374.868	151.955	1040.297	-401.827	109.353	894.736	-403.868	111.353	617.142
-461.800	118.237	1071.281	-396.165	85.850	1134.256	-374.990	151.616	1040.737	-401.880	109.379	895.200	-403.990	111.338	617.591
-461.804	118.133	1071.934	-396.138	86.009	1135.054	-375.042	151.497	1041.139	-402.021	109.231	895.928	-404.117	111.479	618.168
-461.903	118.093	1072.718	-396.066	85.976	1135.875	-375.260	151.196	1041.513	-402.145	109.012	896.421	-404.284	111.263	618.701
-461.935	117.991	1073.455	-396.114	85.775	1136.721	-375.355	151.123	1042.161	-402.285	108.910	897.019	-404.409	111.233	619.463
-461.984	117.896	1074.337	-396.095	85.588	1137.540	-375.588	151.253	1043.019	-402.557	108.655	897.532	-404.680	111.292	620.208
-462.048	117.350	1074.981	-396.137	85.488	1138.483	-375.889	151.534	1043.978	-402.752	108.610	898.123	-404.898	111.190	620.863
-462.386	117.233	1075.611	-396.206	85.317	1139.444	-375.991	151.534	1044.737	-403.009	108.528	898.873	-405.103	111.598	621.915
-462.541	117.265	1076.223	-396.233	85.380	1140.472	-376.185	151.387	1045.988	-403.129	108.450	899.552	-405.246	111.266	622.524
-462.599	117.217	1077.374	-396.435	85.282	1141.429	-376.552	151.148	1046.869	-403.267	108.443	900.680	-405.443	111.543	623.719
-462.784	117.315	1078.981	-396.457	85.305	1142.064	-376.894	151.441	1048.093	-403.626	108.431	902.145	-405.726	111.628	625.063
-463.167	117.200	1080.198	-396.711	85.315	1142.640	-377.144	151.682	1049.246	-403.864	108.654	903.507	-405.962	111.751	626.414
-463.274	116.764	1081.322	-396.710	85.309	1143.713	-377.294	151.725	1050.142	-404.167	108.702	904.818	-406.256	111.643	627.417
-463.539	116.766	1082.910	-396.900	85.450	1145.193	-377.432	151.176	1050.885	-404.317	108.502	906.094	-406.399	111.474	628.805
-463.828	116.580	1084.334	-397.009	85.241	1146.520	-377.904	150.842	1051.919	-404.587	108.350	907.349	-406.697	111.290	629.991
-464.133	116.800	1085.400	-396.940	84.929	1148.158	-378.263	151.145	1053.402	-404.930	108.487	908.432	-407.030	111.332	630.996
-464.313	116.885	1086.828	-397.126	85.121	1149.571	-378.622	151.678	1054.921	-405.251	108.600	909.452	-407.318	111.504	632.094
-464.813	117.402	1088.839	-397.296	85.359	1150.925	-379.182	151.487	1056.546	-405.430	108.615	910.536	-407.498	111.479	633.502
-465.003	117.152	1090.534	-397.383	85.450	1152.541	-379.522	151.425	1057.852	-405.782	108.878	912.600	-407.822	111.904	635.508
-465.096	116.648	1091.995	-397.438	85.119	1153.715	-379.779	151.755	1059.290	-406.046	108.714	914.423	-408.252	111.906	637.236
-465.656	116.844	1093.635	-397.547	85.414	1155.303	-380.025	151.347	1060.367	-406.298	108.717	915.948	-408.472	111.712	638.620
-465.779	116.880	1095.267	-397.571	85.074	1156.577	-380.393	150.973	1061.524	-406.683	108.496	917.417	-408.620	111.385	639.952
-465.929	116.863	1097.003	-397.972	85.059	1158.081	-380.749	151.156	1063.707	-407.008	108.839	918.645	-409.022	111.133	641.305
-466.495	117.364	1099.226	-398.148	85.404	1159.711	-381.149	151.565	1065.825	-407.332	108.942	920.344	-409.389	111.378	642.572
-466.608	117.279	1100.845	-398.145	85.438	1161.601	-381.572	151.622	1067.472	-407.573	108.690	922.056	-409.443	111.572	644.040
-466.977	116.717	1102.374	-398.338	85.566	1163.690	-382.281	152.019	1069.206	-407.972	108.924	924.039	-409.975	111.971	646.692
-467.151	117.147	1103.851	-398.350	85.970	1165.738	-382.452	151.826	1070.317	-408.098	108.920	925.704	-410.218	111.959	648.828
-467.621	116.997	1106.112	-398.571	85.645	1167.001	-382.629	151.523	1071.344	-408.653	108.783	927.531	-410.342	111.627	650.651
-467.782	117.904	1108.835	-398.714	85.795	1167.835	-382.810	151.638	1073.457	-408.892	108.998	928.914	-410.695	111.497	652.067
-467.957	117.773	1110.927	-398.866	85.704	1169.883	-383.295	151.980	1075.735	-409.036	108.959	930.817	-411.028	111.681	653.382
-468.383	117.741	1112.093	-399.002	85.613	1172.035	-383.639	152.388	1077.768	-409.497	109.513	933.268	-410.995	111.688	655.387
-468.442	117.282	1114.125	-399.135	86.198	1174.702	-384.077	152.484	1079.597	-409.537	109.427	935.231	-411.380	112.136	657.844
-468.879	117.319	1116.255	-399.229	86.030	1176.590	-384.418	151.879	1080.750	-409.894	109.359	936.891	-411.488	112.333	659.980
-469.099	118.135	1119.014	-399.386	86.201	1177.608	-384.771	151.789	1082.771	-410.204	109.273	938.220	-411.760	112.125	661.713
-469.589	118.208	1121.094	-399.436	85.993	1179.177	-385.330	152.027	1084.530	-410.421	109.127	940.318	-411.960	111.934	663.135
-469.704	118.195	1122.456	-399.590	86.068	1181.352	-385.530	152.358	1086.545	-410.647	109.378	942.572	-412.110	111.988	664.531
-469.826	117.756	1124.268	-399.857	86.505	1184.231	-386.012	153.230	1088.683	-411.007	110.139	945.075	-412.292	112.023	666.838
-470.168	118.525	1126.989	-400.019	86.814	1185.908	-386.293	152.927	1090.318	-411.243	109.882	946.778	-412.538	112.330	669.141
-470.632	118.441	1129.336	-400.021	86.942	1187.780	-386.398	152.390	1092.256	-411.622	109.828	947.958	-412.738	112.385	671.438
-470.785	118.923	1131.341	-400.095	86.776	1189.361	-386.865	152.632	1094.265	-411.744	109.708	949.836	-413.049	112.333	673.325
-470.844	118.680	1133.300	-400.179	86.831	1191.094	-387.332	153.076	1096.033	-412.043	109.845	952.358	-413.167	112.305	674.814
-471.059	118.660	1135.324	-400.440	87.244	1193.517	-387.725	153.709	1098.240	-412.252	110.211	955.129	-413.321	112.216	676.967
-471.268	119.039	1137.812	-400.541	87.745	1195.350	-387.848	153.373	1100.032	-412.527	110.502	956.787	-413.572	112.427	679.328
-471.882	119.385	1139.746	-400.506	87.612	1197.640	-388.145	153.127	1102.289	-412.785	110.780	958.328	-413.788	112.690	681.668
-472.095	119.428	1141.979	-400.518	87.398	1199.637	-388.529	153.251	1104.063	-412.965	110.058	960.137	-413.995	112.689	683.706
-472.138	119.314	1144.144	-400.744	87.366	1201.740	-388.794	153.472	1105.718	-413.180	110.108	962.281	-414.158	112.726	685.050
-472.394	120.038	1146.941	-400.773	87.996	1203.061	-389.267	154.014	1107.672	-413.355	110.606	964.889	-414.289	112.548	686.731
-472.636	120.424	1148.516	-400.785	88.141	1205.170	-389.501	153.937	1109.251	-413.728	110.847	966.811	-414.500	112.583	689.087
-472.804	119.879	1150.590	-400.788	87.914	1207.430	-389.673	153.675	1111.503	-413.820	111.079	968.614	-414.668	112.490	691.238
-472.924	119.781	1152.547	-400.903	87.933	1209.572	-389.960	154.100	1113.544	-413.909	110.784	970.355	-414.910	112.748	693.508
-473.009	120.103	1155.144	-400.989	88.354	1211.736	-390.290	154.332	1115.623	-414.250	110.763	972.545	-415.232	112.951	694.993
-473.434	121.037	1157.466	-401.119	88.874	1213.043	-390.719	154.571	1117.716	-414.596	110.720	974.691	-415.323	112.781	697.086
-473.449	121.065	1159.204	-401.129	88.785	1214.911	-390.888	154.341	1119.634	-414.787	111.442	976.452	-415.619	112.697	699.291
-473.530	120.433	1161.179	-400.996	88.661	1216.785	-391.143	154.585	1121.157	-414.869	111.208	978.470	-415.744	112.589	701.249
-473.627	120.302	1163.367	-401.192	88.655	1219.099	-391.279	154.508	1122.912	-415.112	111.183	980.434	-415.945	112.657	703.508
-473.958	121.311	1166.062	-401.101	89.527	1221.256	-391.542	154.887	1124.667	-415.295	111.336	982.489	-416.259	112.859	705.112
-474.059	121.685	1168.151	-400.916	89.323	1223.001	-391.718	155.115	1126.729	-415.396	111.129	984.151	-416.237	112.874	706.809
-474.191	121.364	1169.930	-400.884	89.095	1224.651	-391.881	154.742	1128.570	-415.741	111.360	985.781	-416.407	112.786	708.711
-474.307	121.197	1171.437	-400.905	88.994	1226.056	-392.108	154.236	1130.034	-415.810	111.378	987.857	-416.595	112.726	710.693
-474.237	120.774	1173.120	-400.936	88.805	1227.681	-392.263	154.595	1131.706	-415.857	111.187	989.696	-416.741	112.410	712.525
-474.628	121.467	1175.170	-400.822	89.341	1229.632	-392.554	154.700	1133.374	-416.079	111.178	991.714	-417.092	112.259	713.902
-474.609	121.646	1177.563	-400.753	89.496	1231.613	-392.862	154.933	1135.141	-416.371	111.648	993.833	-417.276	112.642	715.680
-474.614	121.407	1179.455	-400.584	89.413	1233.599	-393.005	154.695	1137.356	-416.539	111.579	994.833	-417.357	112.437	717.493
-474.605	121.028	1181.270	-400.564	89.221	1235.338	-393.208	154.696	1138.991	-416.544	111.408	996.534	-417.557	112.361	719.094
-475.004	120.956	1182.660	-400.740	88.989	1236.232	-393.457	154.635	1140.517	-416.665	111.040	997.955	-417.704	112.555	721.141
-474.823	121.322	1184.471	-400.593	89.162	1237.388	-393.890	154.994	1142.017	-416.762	110.836	999.672	-417.888	112.532	723.072
-474.960	121.391	1186.425	-400.468	89.287	1239.336	-393.943	154.963	1143.024	-416.861	110.583	1001.455	-418.200	112.277	724.097
-474.997	121.205	1188.333	-400.153	89.310	1241.213	-394.050	154.870	1144.124	-417.174	110.845	1002.993	-418.497	112.380	725.351
-474.974	121.036	1190.071	-400.019	89.249	1242.878	-394.049	154.248	1145.889	-417.377	111.204	1004.218	-418.523	112.178	726.970
-475.159	120.902	1191.463	-400.150	88.914	1244.376	-394.161	154.293	1147.341	-417.305	111.002	1005.615	-418.618	111.993	728.561
-475.297	120.855	1192.406	-400.087	88.837	1245.271	-394.319	154.361	1148.729	-417.275	110.510	1006.998	-418.705	111.825	729.823
-475.345	120.797	1193.893	-400.030	88.847	1246.131	-394.515	154.298	1150.027	-417.534	110.557	1008.334	-418.819	111.782	731.280
-475.361	120.558	1195.220	-400.019	88.477	1247.153	-394.741	154.221	1151.234	-417.543	110.108	1009.620	-419.072	111.862	732.861
-475.310	120.135	1196.609	-399.883	88.272	1248.286	-394.950	154.247	1152.422	-417.608	110.258	1010.792	-419.231	112.131	733.836
-475.283	120.020	1197.977	-399.820	88.196	1249.696	-395.067	153.665	1153.722	-417.798	110.466	1011.999	-419.227	112.178	734.633
-475.527	120.154	1199.113	-399.690	88.248	1250.999	-395.192	153.579	1154.590	-417.850	110.594	1013.216	-419.309	111.983	735.620
-475.543	119.899	1200.195	-399.724	88.105	1251.991	-395.375	153.639	1155.433	-417.890	110.548	1014.436	-419.544	111.731	736.606
-475.493	119.955	1201.530	-399.776	88.111	1252.782	-395.574	153.756	1156.421	-418.006	110.501	1015.453	-419.771	111.638	737.846
-475.631	119.757	1202.594	-399.686	88.266	1253.662	-395.693	153.815	1157.343	-418.108	110.424	1016.409	-419.902	111.481	738.703
-475.656	119.718	1203.588	-399.630	88.111	1254.563	-395.929	153.615	1158.105	-418.239	110.537	1017.286	-419.980	111.301	739.495
-475.853	120.114	1204.676	-399.637	87.931	1255.401	-396.053	153.632	1158.824	-418.342	110.447	1017.985	-420.165	111.126	740.096
-475.841	120.132	1205.425	-399.634	87.919	1256.292	-396.175	153.848	1159.788	-418.438	110.335	1018.677	-420.309	111.228	741.107
-475.901	119.977	1206.060	-399.602	87.736	1256.910	-396.206	154.087	1160.520	-418.525	110.211	1019.297	-420.443	111.247	742.013
-475.905	119.690	1206.659	-399.643	87.628	1257.445	-396.280	154.231	1161.195	-418.709	110.060	1019.773	-420.691	111.304	742.767
-476.052	119.799	1207.173	-399.632	87.470	1257.935	-396.318	154.358	1162.127	-418.847	110.101	1020.180	-420.840	111.537	743.276
-476.132	119.774	1207.511	-399.744	87.399	1258.403	-396.397	154.287	1162.773	-418.920	110.039	1020.449	-420.967	111.605	743.724
-476.250	119.982	1207.935	-399.817	87.330	1258.849	-396.521	154.173	1163.443	-419.029	110.082	1020.865	-421.042	111.574	744.079
-476.182	119.897	1208.266	-399.864	87.284	1259.280	-396.692	154.005	1163.893	-419.111	110.140	1021.169	-421.137	111.607	744.419
-476.334	119.776	1208.618	-400.088	87.273	1259.584	-396.768	153.940	1164.172	-419.235	110.239	1021.480	-421.345	111.564	744.736
-476.290	119.652	1209.012	-400.139	87.410	1259.817	-396.784	153.770	1164.336	-419.275	110.338	1021.784	-421.378	111.527	744.812
-476.428	119.518	1209.152	-400.222	87.290	1259.986	-397.048	154.043	1164.701	-419.288	110.384	1021.926	-421.573	111.486	744.996
-476.503	119.474	1209.350	-400.291	87.332	1260.093	-397.112	154.028	1164.765	-419.372	110.410	1022.117	-421.578	111.387	745.179
-476.571	119.463	1209.522	-400.297	87.241	1260.175	-397.180	153.873	1164.774	-419.631	110.317	1022.248	-421.681	111.385	745.318
-476.596	119.253	1209.518	-400.413	87.185	1260.199	-397.315	153.904	1164.823	-419.661	110.188	1022.209	-421.829	111.291	745.333
-476.738	119.145	1209.562	-400.557	87.040	1260.040	-397.380	153.902	1164.813	-419.713	110.167	1022.213	-421.839	111.425	745.273
-476.860	119.160	1209.422	-400.596	86.918	1259.994	-397.504	153.698	1164.725	-419.823	110.083	1022.168	-422.007	111.323	745.202
-476.967	119.001	1209.375	-400.672	86.817	1259.890	-397.625	153.747	1164.645	-419.911	109.989	1021.984	-422.162	111.286	745.099
-477.082	118.888	1208.958	-400.798	86.605	1259.633	-397.695	153.462	1164.453	-420.156	109.848	1021.626	-422.318	111.177	744.835
-477.200	118.841	1208.715	-400.896	86.317	1259.400	-397.848	153.578	1164.285	-420.171	109.625	1021.431	-422.410	111.020	744.608
-477.272	118.790	1208.369	-401.026	86.122	1259.118	-397.901	153.207	1163.848	-420.248	109.509	1021.089	-422.520	110.953	744.327
-477.375	118.603	1207.874	-401.046	86.139	1258.754	-398.061	153.184	1163.465	-420.369	109.339	1020.818	-422.690	110.947	743.987
-477.484	118.530	1207.492	-401.116	85.966	1258.290	-398.107	153.242	1162.834	-420.372	109.252	1020.459	-422.786	110.710	743.648
-477.618	118.120	1207.041	-401.232	85.889	1257.810	-398.164	153.180	1162.227	-420.511	109.114	1020.141	-422.915	110.541	743.019
-477.740	117.919	1206.583	-401.322	85.856	1257.367	-398.343	152.909	1161.211	-420.595	109.015	1019.822	-422.914	110.225	742.321
-477.895	117.872	1206.083	-401.425	85.758	1256.713	-398.431	152.717	1160.562	-420.416	109.056	1019.364	-423.044	109.885	741.450
-477.916	117.876	1205.443	-401.589	85.706	1255.962	-398.517	152.737	1159.961	-420.655	109.072	1018.780	-423.267	109.868	740.792
-477.993	117.145	1204.227	-401.718	85.623	1255.183	-398.502	152.477	1159.157	-420.798	108.963	1017.772	-423.421	109.861	739.995
-478.000	117.152	1203.439	-401.712	85.604	1254.204	-398.507	152.035	1158.136	-420.966	108.914	1016.957	-423.545	109.956	739.338
-478.189	117.040	1202.368	-401.898	85.441	1253.181	-398.513	152.246	1157.501	-420.991	108.730	1016.117	-423.689	110.057	738.638
-478.252	117.069	1201.490	-402.094	85.303	1252.219	-398.581	151.782	1156.478	-421.016	108.529	1015.193	-423.940	110.010	737.609
-478.303	117.046	1200.509	-402.240	85.018	1251.292	-398.602	151.580	1155.617	-421.177	108.362	1014.036	-423.999	110.103	736.755
-478.336	116.637	1199.097	-402.371	84.473	1249.956	-398.567	151.348	1154.719	-421.121	108.209	1012.707	-424.152	110.023	735.644
-478.553	116.596	1197.835	-402.326	84.122	1248.866	-398.515	151.287	1153.838	-421.144	107.951	1011.309	-424.288	109.940	734.314
-478.415	116.038	1196.716	-402.414	84.161	1247.844	-398.333	151.095	1152.860	-421.071	107.919	1010.444	-424.511	109.655	733.285
-478.337	115.671	1195.077	-402.526	84.334	1246.864	-398.447	151.321	1151.532	-421.134	107.775	1009.485	-424.681	109.090	732.092
-478.504	115.939	1193.709	-402.712	84.476	1245.897	-398.300	151.585	1150.550	-421.151	107.937	1008.352	-424.655	108.916	730.943
-478.470	115.855	1192.513	-402.933	84.629	1244.716	-398.182	151.471	1149.187	-421.217	107.905	1006.886	-424.838	108.846	729.516
-478.337	116.344	1191.157	-403.087	84.271	1243.484	-398.041	151.583	1147.999	-421.201	107.820	1005.476	-425.111	109.188	728.336
-478.435	116.163	1189.682	-403.134	83.887	1242.211	-397.922	151.185	1146.312	-421.301	107.822	1003.885	-425.322	109.349	726.942
-478.293	115.768	1188.314	-403.094	83.613	1240.229	-397.929	150.817	1144.957	-421.156	107.527	1002.361	-425.382	109.623	725.538
-478.253	115.457	1186.447	-403.128	83.520	1238.480	-397.621	150.956	1143.315	-421.095	107.201	1001.205	-425.605	109.091	724.047
-478.191	114.912	1184.519	-403.286	83.503	1236.952	-397.535	151.098	1141.933	-421.043	107.108	999.799	-425.660	108.643	722.707
-478.044	114.981	1182.853	-403.414	83.784	1235.807	-397.515	151.239	1141.023	-421.068	107.330	998.360	-425.618	108.365	720.967
-477.986	115.591	1181.203	-403.578	83.901	1234.764	-397.375	151.509	1140.196	-421.076	107.399	996.919	-425.668	108.373	719.288
-477.936	115.298	1179.822	-403.545	83.499	1233.513	-397.065	151.073	1138.462	-420.833	107.520	995.349	-425.820	108.452	717.466
-477.835	115.251	1177.968	-403.462	83.074	1231.603	-396.799	150.108	1136.165	-420.721	107.291	993.233	-425.848	108.673	716.035
-477.744	114.691	1175.473	-403.468	83.182	1229.674	-396.472	150.269	1134.436	-420.793	106.575	991.580	-425.898	108.980	714.439
-477.673	114.660	1173.669	-403.715	83.274	1227.625	-396.324	149.834	1132.359	-420.583	106.446	990.340	-426.060	108.648	713.061
-477.625	114.755	1171.941	-403.704	83.171	1226.064	-396.059	149.852	1130.774	-420.482	106.506	988.478	-425.976	108.005	711.132
-477.226	114.619	1170.380	-403.739	83.268	1225.098	-395.821	150.188	1129.711	-420.477	106.687	986.552	-426.056	107.921	709.264
-477.204	115.163	1168.810	-403.615	83.358	1223.586	-395.453	149.779	1128.081	-420.365	106.641	984.478	-426.114	108.150	707.356
-477.144	114.081	1166.080	-403.649	83.017	1221.688	-395.224	149.789	1125.989	-420.249	106.006	982.700	-425.978	108.415	705.549
-477.065	113.990	1164.053	-403.663	82.865	1219.553	-394.986	149.547	1123.809	-419.927	105.674	981.037	-426.196	108.396	704.216
-476.927	113.690	1162.353	-403.710	82.764	1217.546	-394.716	149.068	1121.842	-419.953	105.744	979.439	-426.180	108.340	702.778
-476.514	113.526	1160.500	-403.785	82.417	1215.941	-394.488	149.063	1120.525	-419.808	105.752	977.713	-426.034	107.562	700.148
-476.384	113.182	1158.106	-403.582	82.507	1214.135	-394.361	149.215	1119.103	-419.743	105.657	975.708	-425.999	107.605	698.150
-476.204	112.987	1155.562	-403.603	82.060	1211.993	-393.987	148.501	1117.312	-419.646	105.335	973.381	-426.083	107.600	696.249
-476.231	112.763	1153.511	-403.558	81.867	1210.092	-393.510	148.256	1114.844	-419.426	104.986	972.016	-426.017	107.784	694.325
-475.926	112.474	1151.893	-403.540	81.504	1208.671	-393.399	147.818	1112.906	-419.247	104.803	970.041	-426.085	107.768	692.832
-475.617	112.371	1149.987	-403.441	80.991	1206.949	-393.074	148.045	1111.259	-419.142	104.812	967.865	-425.815	107.446	690.799
-475.250	111.278	1147.153	-403.484	80.764	1204.467	-392.885	148.145	1109.643	-419.123	104.857	965.876	-425.834	107.183	688.383
-475.082	111.035	1144.993	-403.290	80.304	1202.226	-392.509	147.472	1107.707	-418.801	103.993	963.589	-425.861	107.225	686.429
-475.075	111.128	1143.334	-403.198	80.371	1200.442	-392.122	147.423	1105.253	-418.364	103.684	961.975	-426.024	107.418	684.413
-474.719	110.919	1141.105	-403.191	80.135	1199.183	-391.615	147.105	1103.765	-418.276	103.976	960.066	-425.985	107.255	683.012
-474.383	110.176	1138.535	-403.065	79.762	1197.477	-391.234	147.032	1102.323	-418.176	104.056	958.121	-425.759	107.231	681.391
-474.079	110.037	1136.401	-403.048	79.400	1194.900	-391.132	147.429	1101.048	-417.918	104.212	955.949	-425.806	106.772	678.998
-473.771	109.920	1134.468	-402.983	79.125	1192.138	-390.772	146.928	1098.925	-417.999	103.525	953.770	-425.799	106.506	676.587
-473.529	110.103	1132.514	-402.874	79.009	1190.448	-390.231	146.643	1096.583	-417.621	103.001	952.277	-425.818	106.595	674.654
-473.409	109.878	1130.167	-402.744	78.847	1189.339	-389.795	146.011	1094.294	-417.316	103.304	950.264	-425.944	106.730	672.923
-473.063	109.359	1127.537	-402.540	78.825	1187.519	-389.308	145.997	1092.895	-417.102	103.657	948.541	-425.963	106.440	671.392
-472.741	109.366	1125.718	-402.538	78.323	1185.376	-389.020	146.735	1091.944	-417.071	103.727	946.447	-425.728	106.081	669.477
-472.371	108.827	1124.033	-402.456	78.036	1183.321	-388.651	146.106	1089.934	-416.855	102.956	944.261	-425.718	105.721	667.075
-472.031	108.763	1121.694	-402.536	77.834	1181.185	-388.329	146.272	1087.635	-416.444	102.506	942.398	-425.635	106.003	665.056
-471.792	108.681	1119.241	-402.276	77.560	1179.781	-387.970	145.791	1085.494	-416.387	102.405	940.780	-425.787	106.171	663.184
-471.504	108.729	1117.116	-401.963	77.943	1178.241	-387.573	145.186	1083.422	-416.066	102.603	939.048	-425.783	105.807	661.757
-471.271	108.301	1115.544	-402.001	78.122	1176.336	-387.037	145.260	1082.257	-416.005	103.023	937.394	-425.594	105.513	660.274
-470.972	108.593	1114.113	-402.008	77.990	1174.411	-386.731	145.417	1081.140	-415.752	102.728	935.110	-425.486	105.189	658.339
-470.705	108.509	1112.108	-401.994	77.587	1172.990	-386.335	145.151	1079.556	-415.693	101.659	933.333	-425.437	104.873	656.512
-470.140	107.714	1109.495	-401.933	77.266	1171.391	-385.796	145.655	1077.830	-415.279	101.316	931.720	-425.267	104.850	654.707
-470.065	108.141	1107.712	-401.749	77.345	1169.427	-385.323	144.892	1075.601	-415.193	101.524	930.117	-425.257	104.978	653.040
-469.879	107.889	1106.140	-401.726	77.628	1168.147	-384.910	144.463	1073.785	-414.922	101.559	928.774	-425.444	104.811	651.453
-469.515	107.904	1104.400	-401.573	77.668	1166.515	-384.658	144.712	1072.713	-414.732	101.788	927.447	-425.380	104.483	650.170
-469.323	108.181	1103.103	-401.449	77.681	1164.842	-384.525	144.806	1071.427	-414.706	101.641	925.882	-425.132	104.057	648.818
-468.932	107.687	1101.078	-401.344	77.479	1163.679	-384.063	144.772	1070.214	-414.359	101.586	924.476	-424.951	103.752	647.052
-468.470	107.729	1099.178	-401.369	77.203	1162.821	-383.641	145.026	1068.977	-414.065	101.273	923.078	-424.850	103.763	645.678
-468.211	107.779	1097.948	-401.266	77.124	1161.593	-383.243	144.900	1067.896	-413.998	101.170	921.702	-424.689	103.805	644.485
-467.891	107.913	1097.179	-401.223	77.376	1160.271	-382.732	145.045	1066.832	-413.872	101.318	920.478	-424.388	104.078	643.199
-467.810	108.299	1095.836	-401.176	77.409	1158.855	-382.203	144.738	1065.469	-413.739	101.367	919.343	-424.409	104.254	642.041
-467.591	108.327	1094.592	-401.027	77.523	1157.530	-381.861	144.409	1064.234	-413.607	101.646	918.236	-424.328	104.188	641.314
-467.451	108.671	1093.612	-401.019	77.555	1156.458	-381.727	144.542	1063.477	-413.360	101.826	917.141	-424.244	104.049	640.522
-467.289	108.783	1092.659	-400.871	77.454	1155.628	-381.534	144.850	1062.959	-413.075	101.800	916.273	-424.057	103.909	639.416
-467.059	108.245	1091.385	-400.766	77.299	1155.042	-381.398	145.065	1062.358	-412.950	101.629	915.515	-423.904	103.525	638.422
-466.832	107.863	1090.277	-400.546	77.090	1154.494	-381.024	145.152	1061.644	-412.723	101.522	914.912	-423.560	103.350	637.482
-466.535	107.870	1089.409	-400.345	77.447	1154.057	-380.746	145.126	1060.984	-412.528	101.242	914.168	-423.412	103.105	636.679
-466.390	107.725	1088.765	-400.253	77.364	1153.309	-380.646	145.176	1060.392	-412.302	101.102	913.648	-423.232	103.113	636.039
-466.073	107.582	1088.343	-400.157	77.343	1152.804	-380.242	145.113	1059.704	-412.095	101.051	913.139	-423.038	102.996	635.468
-465.922	107.639	1087.902	-400.126	77.336	1152.384	-380.152	145.207	1059.197	-411.809	101.098	912.596	-422.840	102.893	635.016
-465.603	107.681	1087.507	-400.029	77.390	1152.015	-380.113	145.258	1058.854	-411.740	101.167	912.125	-422.772	102.745	634.565
-465.456	107.736	1087.194	-399.964	77.233	1151.712	-379.881	145.267	1058.594	-411.646	101.063	911.727	-422.588	102.633	634.266
-465.336	107.749	1086.997	-399.831	77.268	1151.472	-379.735	145.279	1058.440	-411.502	101.079	911.570	-422.379	102.517	634.051
-465.248	107.784	1086.854	-399.869	77.303	1151.392	-379.561	145.077	1058.204	-411.443	101.139	911.444	-422.221	102.400	633.889
-465.209	107.830	1086.793	-399.786	77.253	1151.420	-379.491	145.142	1058.174	-411.292	101.164	911.355	-421.989	102.371	633.921
-465.150	107.833	1086.850	-399.777	77.360	1151.475	-379.473	145.335	1058.295	-411.208	101.141	911.402	-421.863	102.261	634.029
-465.132	107.794	1087.062	-399.673	77.272	1151.595	-379.517	145.382	1058.461	-411.131	101.127	911.632	-421.729	102.259	634.109
-465.075	107.758	1087.306	-399.625	77.374	1151.842	-379.426	145.522	1058.781	-411.107	100.977	911.821	-421.512	102.153	634.344
-464.969	107.652	1087.598	-399.593	77.403	1152.196	-379.510	145.457	1059.070	-411.105	101.209	912.328	-421.359	102.085	634.671
-465.225	107.740	1087.958	-399.620	77.409	1152.493	-379.398	145.333	1059.678	-411.019	100.875	912.860	-421.194	101.960	635.120
-465.260	107.799	1088.341	-399.576	77.499	1153.038	-379.443	145.128	1060.187	-411.067	100.958	913.251	-421.016	101.807	635.784
-465.399	107.881	1088.802	-399.589	77.458	1153.631	-379.646	145.177	1060.875	-411.073	100.970	913.818	-420.931	101.828	636.391
-465.474	108.032	1089.626	-399.656	77.094	1154.083	-379.752	145.284	1061.559	-411.120	101.012	914.310	-420.959	101.790	636.896
-465.835	108.415	1090.673	-399.719	77.234	1154.608	-379.824	145.337	1062.150	-411.255	101.055	914.939	-420.866	101.847	637.600
-465.984	108.881	1091.882	-399.837	77.313	1155.164	-379.931	145.207	1062.807	-411.197	101.159	915.846	-420.744	102.130	638.427
-466.195	109.053	1093.158	-399.863	77.413	1155.910	-380.219	144.867	1063.326	-411.317	101.094	916.811	-420.649	102.366	639.668
-466.224	108.858	1094.109	-399.793	77.493	1156.994	-380.428	144.684	1064.132	-411.397	101.180	917.684	-420.424	102.338	640.857
-466.255	108.634	1095.101	-399.885	77.465	1158.208	-380.706	144.788	1065.059	-411.423	101.004	918.693	-420.281	101.948	642.008
-466.421	108.717	1096.439	-399.921	77.416	1159.613	-381.116	145.401	1066.486	-411.567	100.890	919.873	-420.121	101.592	642.928
-466.649	108.399	1097.479	-399.856	77.266	1160.883	-381.312	145.547	1067.486	-411.614	100.855	921.097	-420.072	101.130	643.972
-466.856	108.283	1098.309	-399.980	77.263	1162.196	-381.606	145.574	1068.613	-411.820	100.676	922.353	-419.965	100.724	644.950
-467.071	108.202	1099.770	-400.148	77.389	1163.128	-381.817	145.321	1070.004	-412.087	100.751	923.466	-420.091	100.617	645.797
-467.501	108.677	1101.846	-400.243	77.768	1164.072	-382.249	145.657	1071.362	-412.239	101.103	924.757	-419.961	100.771	647.039
-467.774	108.737	1103.533	-400.219	77.984	1165.478	-382.476	145.621	1072.420	-412.333	101.220	926.439	-419.863	100.928	648.473
-467.856	108.420	1105.089	-400.294	77.905	1167.157	-382.795	145.294	1073.611	-412.583	101.141	928.153	-419.760	101.110	650.718
-468.227	108.839	1106.793	-400.475	77.797	1168.552	-383.115	144.970	1074.947	-412.737	100.933	929.351	-419.521	101.425	652.732
-468.424	108.768	1108.308	-400.536	77.583	1170.343	-383.621	145.737	1076.989	-412.647	100.824	930.882	-419.200	100.982	654.200
-468.843	108.804	1110.407	-400.622	77.664	1172.151	-383.986	145.529	1078.772	-412.820	100.845	932.198	-419.147	100.625	655.516
-469.229	109.222	1112.595	-400.825	78.083	1173.495	-384.601	145.646	1080.411	-413.103	101.279	933.833	-419.197	100.419	656.605
-469.604	109.172	1114.452	-401.014	78.242	1175.165	-384.959	145.856	1081.959	-413.203	101.587	936.174	-419.151	100.702	657.767
-469.901	109.130	1115.945	-401.060	78.470	1177.292	-385.157	145.708	1082.849	-413.296	101.506	938.171	-418.925	100.579	660.002
-470.138	109.502	1117.782	-401.028	78.116	1179.036	-385.543	145.793	1084.458	-413.309	101.198	939.749	-418.735	101.105	662.705
-470.369	109.745	1120.250	-401.371	78.068	1180.472	-386.214	146.400	1086.802	-413.733	101.120	941.464	-418.413	100.861	664.894
-470.657	109.566	1122.513	-401.437	78.438	1182.334	-386.532	146.487	1088.872	-413.884	101.183	942.866	-418.306	100.636	666.430
-471.101	109.528	1124.530	-401.639	78.570	1184.515	-387.128	146.846	1091.203	-414.001	101.720	944.991	-418.090	100.487	667.596
-471.519	110.011	1126.396	-401.656	79.124	1186.871	-387.520	146.392	1092.538	-414.133	102.060	947.785	-418.080	100.186	669.350
-471.755	109.688	1128.490	-401.742	79.076	1188.720	-387.876	146.096	1093.451	-414.133	101.617	949.659	-417.932	100.101	671.556
-472.194	110.607	1131.317	-402.051	79.119	1190.089	-388.290	146.700	1095.696	-414.508	101.470	951.483	-417.659	100.768	674.535
-472.295	110.612	1133.708	-402.144	79.023	1191.591	-388.865	146.983	1098.698	-414.679	101.959	952.773	-417.463	100.766	676.705
-472.649	110.560	1135.357	-402.244	79.190	1194.487	-389.287	147.751	1101.023	-414.822	101.883	955.172	-417.278	100.790	677.943
-473.106	110.404	1137.841	-402.233	79.603	1197.241	-389.621	147.178	1102.449	-414.963	102.239	957.854	-417.074	100.142	679.810
-473.413	110.975	1140.663	-402.529	79.862	1199.014	-390.117	147.142	1104.129	-415.031	102.400	960.118	-416.963	99.889	681.913
-473.749	111.022	1143.027	-402.543	80.049	1200.490	-390.466	147.274	1105.898	-415.178	102.206	961.901	-416.921	100.452	684.872
-473.985	110.947	1145.005	-402.602	79.647	1202.477	-391.150	147.527	1108.465	-415.296	101.918	963.608	-416.650	101.139	687.038
-474.288	110.890	1147.371	-402.765	80.029	1205.274	-391.480	148.023	1110.761	-415.454	102.336	966.245	-416.201	100.606	689.089
-474.644	111.758	1150.422	-402.781	80.167	1207.687	-391.757	147.635	1112.459	-415.631	102.541	968.800	-416.059	100.002	690.979
-475.160	111.856	1152.488	-402.955	80.564	1209.242	-392.147	147.809	1114.934	-415.779	102.773	970.905	-415.944	99.683	692.907
-475.106	111.796	1154.618	-402.893	80.450	1211.394	-392.548	147.799	1117.154	-415.786	102.481	972.784	-415.971	100.287	695.535
-475.236	111.492	1157.169	-402.933	80.324	1213.693	-393.190	148.617	1119.380	-415.710	102.431	975.313	-415.712	100.852	698.122
-475.464	112.084	1160.490	-402.970	81.056	1215.930	-393.561	148.471	1121.158	-415.998	103.014	977.913	-415.359	100.313	700.672
-475.861	112.354	1162.391	-402.866	81.318	1218.179	-393.670	148.581	1123.133	-416.239	102.894	979.775	-415.118	99.758	702.497
-476.093	112.154	1164.729	-402.915	81.083	1220.667	-393.854	148.472	1125.703	-416.025	103.296	981.560	-415.123	99.793	704.317
-476.192	112.629	1167.509	-402.868	81.381	1223.056	-394.339	148.785	1128.083	-416.121	102.726	984.046	-414.948	100.354	706.908
-476.497	112.757	1170.093	-402.876	81.806	1225.008	-394.663	149.177	1130.010	-416.108	102.756	986.807	-414.735	100.416	709.719
-476.566	112.953	1172.164	-402.825	81.882	1226.624	-395.069	148.714	1131.600	-416.479	103.108	989.102	-414.337	99.984	712.025
-476.806	112.454	1174.583	-402.649	81.525	1229.283	-395.393	148.613	1134.193	-416.406	103.427	990.923	-414.227	99.499	713.847
-476.789	112.651	1177.374	-402.584	81.465	1231.837	-395.723	148.879	1136.381	-416.418	103.090	993.240	-414.218	99.477	715.240
-476.972	113.703	1179.847	-402.624	82.410	1234.038	-396.157	149.755	1139.281	-416.359	103.140	995.754	-413.982	99.695	718.051
-476.942	112.918	1182.211	-402.402	82.430	1235.706	-396.436	149.698	1140.894	-416.478	103.199	998.116	-413.645	99.734	720.763
-477.046	112.627	1184.654	-402.291	82.079	1237.535	-396.457	149.139	1142.240	-416.657	103.523	999.873	-413.483	99.743	723.412
-477.351	113.329	1187.307	-402.069	82.077	1239.940	-396.870	149.263	1144.589	-416.475	103.140	1002.135	-413.141	99.561	724.846
-477.329	114.091	1189.688	-402.038	82.625	1242.436	-396.944	149.498	1146.683	-416.335	102.875	1004.046	-413.020	99.220	726.793
-477.362	113.685	1191.937	-401.872	83.116	1244.625	-397.258	149.809	1148.895	-416.407	103.370	1006.571	-412.924	99.444	729.064
-477.187	113.057	1194.082	-401.698	82.660	1246.517	-397.537	149.567	1151.019	-416.334	103.630	1008.422	-412.560	99.497	731.365
-477.436	113.272	1195.990	-401.390	82.144	1248.152	-397.657	149.039	1152.743	-416.416	103.225	1010.627	-412.436	99.668	733.849
-477.478	113.622	1198.786	-401.236	82.428	1249.589	-397.931	149.404	1154.601	-416.418	103.232	1012.597	-412.109	99.538	735.337
-477.461	113.594	1201.006	-401.108	82.903	1251.959	-398.253	149.470	1156.227	-416.239	103.124	1014.617	-411.953	98.902	736.998
-477.385	113.391	1203.286	-400.861	82.700	1254.109	-398.431	149.745	1158.145	-416.275	103.732	1016.621	-411.600	98.779	738.953
-477.561	113.266	1204.678	-400.780	82.841	1256.272	-398.565	149.670	1160.073	-416.153	103.772	1018.357	-411.533	98.777	741.033
-477.632	113.741	1207.163	-400.530	82.459	1257.729	-398.854	149.589	1162.077	-416.035	103.294	1020.338	-411.227	99.037	742.744
-477.549	113.672	1209.468	-400.342	82.627	1258.665	-399.007	149.798	1163.933	-415.949	103.037	1022.225	-410.852	99.076	744.962
-477.512	113.479	1211.622	-400.072	83.109	1260.413	-399.142	149.836	1165.080	-415.947	102.861	1023.869	-410.588	98.945	746.989
-477.479	113.528	1213.031	-399.764	83.071	1262.442	-399.147	149.912	1166.496	-415.959	103.105	1025.303	-410.452	98.566	748.348
-477.292	113.253	1214.551	-399.532	82.914	1264.351	-398.970	149.500	1168.090	-415.771	103.309	1026.997	-410.179	98.608	749.964
-477.361	113.706	1216.320	-399.358	82.880	1266.038	-399.153	149.057	1169.735	-415.498	103.327	1028.565	-410.120	98.651	751.539
-477.148	113.483	1217.916	-399.178	83.026	1267.099	-399.196	149.197	1171.167	-415.322	103.026	1030.067	-409.856	98.859	752.562
-477.150	113.261	1219.520	-398.981	82.988	1268.183	-399.323	149.759	1172.768	-415.105	102.768	1031.517	-409.456	98.941	754.107
-477.285	113.420	1221.059	-398.837	82.686	1269.355	-399.487	149.949	1174.103	-415.115	102.758	1032.962	-409.219	98.847	755.613
-477.032	113.447	1222.417	-398.607	82.836	1270.619	-399.635	150.129	1175.099	-415.133	102.889	1033.890	-408.902	98.614	757.267
-477.036	113.374	1223.740	-398.440	82.960	1272.054	-399.764	150.079	1175.987	-415.008	103.006	1035.094	-408.493	98.401	758.458
-476.975	113.289	1225.126	-398.165	82.854	1273.252	-399.630	149.668	1177.120	-414.904	103.055	1036.567	-408.203	98.174	759.440
-476.917	113.681	1226.562	-398.179	82.727	1274.078	-399.740	149.582	1178.276	-414.790	103.103	1037.840	-408.145	98.240	760.363
-476.955	113.454	1227.722	-398.060	82.927	1274.877	-399.643	149.410	1179.029	-414.684	103.137	1038.889	-407.967	98.435	761.150
-476.990	113.341	1228.240	-397.965	83.042	1275.630	-399.659	149.121	1179.666	-414.501	103.096	1039.807	-407.690	98.745	762.155
-476.932	113.462	1228.953	-397.765	83.140	1276.579	-399.756	149.428	1180.617	-414.297	102.870	1040.573	-407.312	98.500	762.921
-476.816	113.270	1229.836	-397.727	82.936	1277.424	-399.880	149.597	1181.600	-414.194	102.801	1041.088	-406.952	98.410	763.623
-476.816	113.254	1230.657	-397.656	82.855	1278.148	-400.040	149.930	1182.563	-414.075	102.748	1041.693	-406.767	98.387	764.290
-476.695	113.134	1231.500	-397.527	82.674	1278.800	-400.069	149.893	1183.182	-414.030	102.781	1042.103	-406.429	98.258	764.969
-476.694	113.013	1232.148	-397.526	82.733	1279.404	-400.182	149.913	1183.691	-413.929	102.760	1042.580	-406.222	98.170	765.576
-476.763	112.903	1232.683	-397.429	82.659	1279.828	-400.239	150.033	1184.288	-413.845	102.784	1043.161	-405.892	98.250	766.022
-476.750	112.947	1233.060	-397.408	82.733	1280.291	-400.240	149.937	1184.667	-413.741	102.698	1043.574	-405.658	98.097	766.486
-476.749	112.866	1233.365	-397.326	82.634	1280.622	-400.164	149.687	1184.822	-413.652	102.665	1043.846	-405.411	98.057	766.724
-476.750	112.875	1233.557	-397.362	82.658	1280.737	-400.239	149.727	1185.205	-413.621	102.628	1043.916	-405.237	98.097	766.914
-476.850	112.885	1233.689	-397.433	82.589	1280.980	-400.327	149.788	1185.284	-413.541	102.482	1044.128	-405.039	98.017	767.028
-476.858	112.820	1233.689	-397.487	82.547	1280.989	-400.394	149.712	1185.323	-413.471	102.468	1044.185	-404.790	98.010	767.080
-476.907	112.879	1233.729	-397.506	82.599	1280.842	-400.331	149.563	1185.319	-413.472	102.499	1044.069	-404.529	97.888	767.084
-476.989	112.725	1233.438	-397.567	82.496	1280.700	-400.407	149.689	1185.096	-413.381	102.474	1043.950	-404.282	97.882	766.997
-477.055	112.742	1233.199	-397.695	82.475	1280.426	-400.479	149.791	1184.870	-413.320	102.622	1043.706	-404.089	97.856	766.743
-477.124	112.780	1232.778	-397.823	82.521	1280.092	-400.587	149.782	1184.482	-413.271	102.547	1043.466	-403.869	97.920	766.491
-477.161	112.781	1232.439	-397.973	82.462	1279.662	-400.638	149.913	1184.255	-413.144	102.614	1042.953	-403.663	97.890	766.135
-477.158	112.731	1231.800	-398.081	82.360	1279.166	-400.666	149.904	1183.750	-413.102	102.812	1042.395	-403.517	97.888	765.662
-477.388	112.752	1231.012	-398.249	82.431	1278.578	-400.778	149.835	1183.110	-413.105	102.764	1041.970	-403.326	97.924	765.151
-477.518	112.930	1230.298	-398.447	82.412	1277.893	-400.824	149.697	1182.434	-413.070	102.658	1041.591	-403.150	97.968	764.477
-477.604	112.988	1229.415	-398.615	82.546	1277.121	-400.770	149.336	1181.587	-413.010	102.617	1041.080	-402.980	98.004	763.854
-477.687	112.842	1228.646	-398.646	82.540	1276.212	-400.690	149.173	1180.619	-412.987	102.647	1040.636	-402.787	97.966	762.984
-477.739	112.537	1227.992	-398.861	82.407	1275.387	-400.691	148.806	1179.568	-412.847	102.633	1039.768	-402.771	97.830	762.044
-477.893	112.718	1227.390	-398.980	82.091	1274.583	-400.752	148.967	1178.880	-412.810	102.723	1038.870	-402.545	97.670	760.959
-477.870	112.115	1225.734	-399.207	81.806	1273.757	-400.747	148.819	1178.054	-412.745	102.417	1037.608	-402.395	97.595	759.782
-478.033	112.250	1224.434	-399.382	81.707	1272.839	-400.639	148.936	1177.119	-412.666	102.193	1036.306	-402.122	97.106	758.800
-478.134	112.070	1223.092	-399.707	81.543	1271.455	-400.772	149.063	1175.950	-412.505	102.073	1034.849	-401.857	96.878	757.968
-478.241	112.114	1221.688	-399.893	81.342	1270.274	-400.740	148.960	1175.186	-412.569	101.942	1033.515	-401.549	96.984	757.008
-478.405	111.754	1220.282	-400.028	81.296	1269.224	-400.642	148.932	1174.235	-412.474	101.497	1032.444	-401.528	97.266	756.086
-478.237	111.157	1219.004	-400.227	81.476	1268.140	-400.461	148.488	1172.695	-412.256	101.292	1031.509	-401.435	97.407	754.894
-478.252	111.131	1217.302	-400.469	81.650	1266.949	-400.352	148.119	1171.144	-411.997	101.451	1030.056	-401.366	97.510	753.367
-478.402	110.804	1215.393	-400.850	81.193	1265.672	-400.288	147.877	1169.841	-411.876	101.572	1028.553	-401.215	97.347	751.525
-478.381	110.709	1213.908	-400.864	80.854	1264.461	-400.303	147.681	1168.464	-411.822	101.122	1026.901	-401.160	97.009	749.582
-478.545	111.200	1212.429	-400.957	80.945	1262.721	-400.161	147.708	1166.781	-411.838	100.822	1025.298	-400.883	96.451	748.158
-478.578	110.546	1210.895	-401.254	80.433	1260.234	-399.964	147.501	1165.022	-411.776	100.752	1023.672	-400.522	96.232	746.578
-478.391	109.986	1208.725	-401.454	80.366	1258.700	-399.788	147.608	1164.002	-411.731	100.299	1021.961	-400.341	96.414	745.219
-478.467	109.557	1206.540	-401.712	80.310	1257.676	-399.708	147.332	1162.612	-411.424	100.276	1020.818	-400.215	96.736	743.998
-478.337	109.446	1204.345	-401.842	79.975	1256.568	-399.558	147.166	1161.135	-411.370	100.620	1019.139	-400.014	96.950	742.107
-478.495	109.821	1202.812	-401.862	79.705	1254.762	-399.386	147.055	1159.178	-411.277	100.456	1017.156	-399.929	96.548	739.802
-478.331	109.565	1201.111	-402.055	79.532	1252.779	-399.256	146.912	1156.897	-411.215	100.662	1014.878	-400.025	96.448	738.112
-478.383	109.378	1198.730	-402.179	79.400	1250.569	-399.144	146.592	1155.214	-410.995	100.196	1013.353	-399.755	95.940	736.262
-478.284	108.929	1196.436	-402.509	79.209	1248.616	-398.802	146.120	1153.690	-410.765	99.879	1011.701	-399.508	96.093	734.436
-478.277	109.018	1194.375	-402.553	79.207	1247.536	-398.608	146.518	1152.399	-410.607	99.971	1009.798	-399.438	96.463	732.982
-478.206	108.779	1192.630	-402.580	79.250	1245.959	-398.151	146.385	1150.958	-410.532	99.951	1007.956	-399.288	96.786	731.158
-478.088	109.336	1190.745	-402.850	79.267	1244.039	-398.052	146.650	1148.629	-410.281	100.079	1005.780	-399.221	96.350	729.184
-478.045	108.819	1187.912	-402.969	78.953	1241.611	-397.749	146.388	1146.616	-410.458	99.936	1003.855	-399.123	96.225	727.251
-478.184	108.943	1185.813	-403.103	78.623	1239.974	-397.458	146.188	1144.710	-410.134	99.789	1002.484	-399.021	95.968	724.707
-477.756	108.412	1184.249	-403.110	78.573	1238.025	-397.301	145.887	1142.881	-410.049	99.535	1000.451	-399.053	96.040	722.951
-477.678	108.496	1181.990	-403.217	78.634	1236.137	-397.018	146.123	1141.231	-410.010	99.843	998.302	-398.742	96.233	721.364
-477.664	108.568	1179.731	-403.296	78.823	1234.291	-397.008	146.521	1139.463	-409.768	99.236	996.113	-398.589	96.229	719.388
-477.528	108.019	1177.058	-403.590	78.227	1232.262	-396.657	145.249	1137.217	-409.694	99.201	994.613	-398.292	95.947	717.782
-477.594	107.707	1175.408	-403.576	77.754	1230.846	-396.423	145.235	1135.532	-409.429	99.530	992.843	-398.149	96.032	715.710
-477.451	107.831	1173.428	-403.533	77.661	1228.874	-396.347	144.748	1133.378	-409.429	99.060	990.571	-398.012	96.028	713.206
-477.404	108.052	1171.480	-403.609	77.780	1226.611	-396.075	145.115	1131.952	-409.294	98.706	988.474	-398.017	96.236	711.069
-477.224	107.461	1168.692	-403.642	78.051	1224.628	-396.093	145.302	1129.938	-409.120	98.454	986.109	-397.884	96.267	709.429
-477.116	107.052	1166.898	-403.775	77.409	1223.074	-395.831	144.728	1127.875	-408.944	98.451	984.784	-397.665	95.829	707.841
-476.995	106.978	1165.008	-403.694	77.289	1221.515	-395.434	144.413	1126.148	-408.649	98.509	983.553	-397.322	96.105	706.341
-476.984	106.973	1162.827	-403.765	77.315	1219.734	-395.343	144.185	1124.068	-408.829	98.584	981.222	-397.368	96.101	704.221
-476.793	106.756	1160.947	-403.842	77.427	1217.612	-395.172	144.675	1122.261	-408.593	98.252	978.663	-397.231	96.095	701.776
-476.718	106.077	1158.549	-404.102	77.206	1215.094	-395.046	144.554	1120.386	-408.657	97.848	976.403	-397.305	96.303	699.802
-476.322	105.623	1156.844	-403.947	76.535	1213.402	-394.588	143.716	1118.380	-408.498	97.349	975.053	-397.295	95.612	697.756
-476.536	106.076	1154.762	-403.731	76.494	1212.057	-394.234	143.006	1116.353	-408.018	97.392	973.724	-396.904	95.568	696.290
-476.412	105.933	1152.686	-403.763	76.493	1210.186	-394.023	142.648	1115.126	-407.900	97.568	971.981	-396.912	95.931	694.914
-476.158	105.269	1150.006	-403.953	76.588	1208.428	-393.817	143.011	1113.601	-407.730	97.361	969.864	-396.829	96.020	692.894
-475.930	104.618	1148.598	-404.055	76.223	1206.764	-393.853	143.543	1111.532	-407.698	96.863	967.361	-396.776	96.134	690.518
-475.657	104.381	1146.771	-403.882	75.288	1204.754	-393.632	142.862	1109.536	-407.625	96.760	965.560	-396.908	95.990	688.735
-475.553	104.460	1144.894	-403.637	75.113	1202.961	-393.277	142.325	1107.717	-407.431	96.482	964.156	-396.838	95.400	686.749
-475.326	104.663	1142.808	-403.554	75.189	1201.323	-392.885	141.532	1105.779	-407.269	96.521	962.469	-396.546	95.277	685.052
-475.166	104.005	1140.299	-403.691	75.478	1199.744	-392.573	141.709	1104.319	-407.076	96.753	960.968	-396.549	95.554	683.699
-475.105	103.446	1138.824	-403.751	75.398	1197.977	-392.411	142.159	1103.057	-406.840	96.529	959.020	-396.500	95.806	682.286
-474.689	103.539	1137.248	-403.751	74.731	1196.313	-392.222	142.163	1101.714	-406.957	96.154	956.936	-396.341	95.830	680.357
-474.789	103.680	1135.764	-403.572	74.191	1194.787	-391.920	141.685	1099.756	-406.714	95.803	955.211	-396.488	95.646	678.540
-474.476	103.560	1133.875	-403.545	73.991	1192.712	-391.521	141.155	1097.924	-406.622	95.782	953.834	-396.404	94.981	676.612
-474.441	103.070	1131.343	-403.590	74.361	1191.188	-391.082	140.243	1095.802	-406.648	95.831	952.461	-396.377	94.756	674.731
-474.240	102.787	1129.855	-403.442	74.656	1189.703	-391.119	140.420	1094.648	-406.524	95.741	951.070	-396.503	95.047	673.362
-474.082	102.835	1128.123	-403.478	74.780	1188.456	-390.925	141.255	1093.348	-406.307	95.447	949.311	-396.469	95.404	672.083
-473.934	102.913	1126.638	-403.376	74.077	1186.940	-390.919	141.578	1092.217	-406.031	95.448	947.383	-396.456	95.831	670.788
-473.872	103.162	1125.554	-403.324	73.936	1185.473	-390.656	140.990	1090.788	-406.031	95.323	946.324	-396.522	95.744	669.488
-473.576	102.996	1123.932	-403.361	74.071	1184.058	-390.397	140.814	1089.223	-406.021	95.232	945.205	-396.469	95.238	668.076
-473.545	102.657	1122.048	-403.306	74.080	1182.622	-390.257	140.596	1087.648	-405.953	95.460	943.570	-396.354	94.943	666.333
-473.129	102.434	1120.867	-403.276	74.248	1181.053	-390.021	140.044	1085.818	-405.979	95.648	942.072	-396.437	94.807	664.416
-472.950	102.695	1119.487	-403.132	74.482	1179.927	-389.832	140.478	1084.327	-405.990	95.712	940.610	-396.589	94.894	663.011
-473.060	103.012	1118.002	-403.132	74.303	1179.048	-389.799	140.720	1083.340	-405.862	95.770	939.029	-396.606	94.897	661.673
-473.046	103.123	1116.559	-402.892	74.102	1177.835	-389.680	140.717	1082.415	-405.781	94.947	937.523	-396.590	95.197	660.647
-472.978	103.248	1115.229	-402.843	74.000	1176.096	-389.418	140.755	1081.283	-405.652	94.812	936.553	-396.705	95.547	659.610
-473.050	103.602	1114.288	-402.835	74.120	1174.772	-389.248	140.572	1080.119	-405.413	94.856	935.751	-396.690	95.473	658.692
-472.790	102.770	1113.126	-402.812	74.181	1173.590	-388.950	140.283	1079.001	-405.377	95.215	934.678	-396.658	95.363	657.834
-472.446	102.316	1111.824	-402.755	74.212	1172.347	-388.841	140.155	1077.872	-405.341	95.269	933.376	-396.577	94.894	656.489
-472.248	102.214	1110.691	-402.866	73.978	1171.313	-388.713	139.575	1076.309	-405.331	95.405	932.047	-396.532	94.865	654.766
-472.226	102.462	1109.392	-402.799	73.850	1170.331	-388.505	139.764	1074.802	-405.414	95.330	930.760	-396.715	94.944	653.372
-472.129	102.447	1108.145	-402.562	73.606	1169.279	-388.378	140.151	1073.867	-405.413	95.124	929.355	-396.740	95.054	652.225
-471.957	102.368	1106.842	-402.481	73.536	1168.101	-388.405	140.286	1073.151	-405.521	94.981	928.104	-396.851	95.349	650.890
-471.995	102.522	1105.676	-402.385	73.301	1167.003	-388.210	139.886	1072.046	-405.298	94.237	926.953	-396.992	95.489	649.575
-472.012	102.573	1104.578	-402.371	73.305	1165.828	-388.047	139.883	1071.083	-405.107	94.108	926.296	-397.056	95.490	649.032
-472.050	101.862	1103.270	-402.373	73.286	1164.805	-387.941	139.640	1070.161	-404.996	94.006	925.706	-397.183	95.549	648.455
-471.787	101.264	1102.411	-402.397	73.335	1163.887	-387.832	139.303	1069.180	-404.987	94.280	924.923	-397.104	95.556	647.956
-471.540	101.179	1101.593	-402.388	73.195	1162.967	-387.684	139.296	1068.453	-404.907	94.521	924.185	-397.082	95.699	647.323
-471.466	101.324	1100.796	-402.503	73.133	1162.130	-387.534	139.148	1067.706	-404.844	94.795	923.376	-397.100	95.784	646.514
-471.447	101.447	1100.014	-402.502	72.842	1161.531	-387.203	138.871	1066.677	-404.859	94.933	922.664	-397.244	95.564	645.331
-471.357	101.304	1099.225	-402.522	72.654	1160.969	-387.204	139.060	1066.019	-404.990	95.198	921.643	-397.317	95.348	644.286
-471.280	101.427	1098.315	-402.612	72.418	1160.296	-387.060	139.092	1065.498	-405.016	95.210	920.637	-397.417	95.210	643.292
-471.120	101.465	1097.518	-402.310	71.978	1159.522	-386.998	139.036	1064.901	-405.167	95.102	919.778	-397.553	95.285	642.538
-471.044	101.649	1096.692	-402.360	71.921	1158.924	-386.823	139.199	1064.464	-405.178	94.891	919.114	-397.705	95.403	641.762
-470.981	101.803	1095.909	-402.446	71.784	1158.163	-386.898	139.298	1064.012	-405.148	94.778	918.447	-397.857	95.484	640.980
-471.012	101.622	1095.281	-402.472	71.818	1157.708	-386.806	139.325	1063.512	-405.175	94.647	917.932	-398.086	95.670	640.320
-470.942	101.711	1094.897	-402.332	71.653	1157.184	-386.622	139.387	1063.220	-405.200	94.544	917.466	-398.356	95.841	639.735
-470.827	101.560	1094.517	-402.497	71.874	1156.807	-386.561	139.399	1062.873	-405.196	94.531	917.137	-398.651	95.894	639.313
-470.869	101.393	1094.121	-402.523	71.911	1156.454	-386.477	139.570	1062.729	-405.218	94.576	916.808	-398.811	95.849	638.864
-470.690	101.355	1093.796	-402.621	71.905	1156.248	-386.349	139.613	1062.545	-405.284	94.671	916.469	-399.079	95.868	638.659
-470.640	101.283	1093.513	-402.605	72.032	1156.121	-386.260	139.811	1062.430	-405.371	94.819	916.303	-399.362	95.805	638.466
-470.670	101.478	1093.420	-402.650	72.106	1155.989	-386.101	139.830	1062.408	-405.466	94.842	916.156	-399.568	95.878	638.419
-470.616	101.498	1093.316	-402.710	72.068	1155.932	-386.138	139.938	1062.482	-405.578	95.042	916.206	-399.883	95.818	638.480
-470.637	101.686	1093.393	-402.729	72.051	1156.015	-386.082	140.028	1062.606	-405.642	95.137	916.238	-400.071	95.903	638.516
-470.667	101.833	1093.668	-402.763	72.009	1156.176	-386.132	140.085	1062.784	-405.764	95.240	916.456	-400.324	95.828	638.632
-470.676	101.967	1093.860	-402.801	71.950	1156.426	-386.079	140.221	1063.194	-405.897	95.221	916.711	-400.499	95.897	638.792
-470.649	102.169	1094.413	-402.937	71.831	1156.748	-386.078	140.269	1063.543	-405.980	95.309	917.091	-400.709	95.998	639.046
-470.838	102.390	1094.794	-402.952	71.792	1157.057	-386.060	140.350	1063.837	-406.117	95.452	917.519	-400.999	96.025	639.351
-470.918	102.437	1095.189	-402.990	71.687	1157.549	-386.103	140.192	1064.369	-406.328	95.598	918.265	-401.093	96.326	639.965
-470.918	102.557	1095.657	-402.973	71.585	1158.184	-386.094	140.004	1064.770	-406.494	95.844	918.846	-401.257	96.236	640.590
-470.933	102.412	1096.350	-402.974	71.574	1159.066	-386.226	140.152	1065.727	-406.675	96.212	919.673	-401.603	96.277	641.552
-470.970	102.428	1097.248	-403.131	71.446	1159.877	-386.356	140.218	1066.440	-406.780	96.401	920.389	-401.797	96.727	642.767
-471.023	102.448	1098.321	-403.313	71.952	1160.758	-386.387	140.383	1067.460	-406.851	96.628	921.183	-402.152	97.166	644.151
-471.121	102.147	1099.341	-403.350	72.153	1161.447	-386.689	140.460	1068.608	-406.833	96.847	922.411	-402.397	97.395	645.476
-471.203	102.057	1100.472	-403.278	72.307	1162.323	-386.787	140.457	1069.604	-406.954	96.270	923.475	-402.579	97.349	646.604
-471.222	101.713	1101.498	-403.247	72.137	1163.437	-387.000	140.764	1070.909	-407.027	96.251	924.593	-402.818	97.287	647.704
-471.476	101.796	1102.700	-403.268	72.068	1164.929	-387.203	140.867	1072.053	-407.316	95.712	925.755	-403.035	97.222	648.837
-471.733	102.901	1104.323	-403.276	71.889	1166.250	-387.301	141.108	1073.497	-407.595	95.853	927.280	-403.552	96.952	649.857
-471.646	102.578	1105.810	-403.254	71.512	1167.839	-387.078	140.723	1074.633	-407.974	96.581	928.510	-403.831	96.983	650.661
-471.652	102.595	1107.738	-403.341	71.847	1169.438	-387.151	140.143	1076.425	-408.180	97.156	929.846	-404.281	97.249	651.849
-471.640	102.283	1109.628	-403.468	72.353	1170.846	-387.580	140.910	1078.726	-408.317	96.938	931.471	-404.502	97.774	654.039
-471.883	102.168	1111.493	-403.427	72.159	1172.625	-387.790	141.306	1080.243	-408.508	96.869	933.301	-404.791	98.098	656.361
-472.350	103.223	1113.520	-403.412	72.115	1174.530	-387.981	141.506	1081.819	-408.587	96.947	935.486	-404.848	97.986	658.550
-472.320	103.369	1115.393	-403.374	71.902	1176.750	-388.254	141.677	1083.417	-408.821	96.873	937.596	-405.126	97.753	660.626
-472.387	103.221	1117.558	-403.289	72.250	1178.440	-388.235	140.936	1085.105	-409.252	97.357	939.507	-405.497	97.691	661.665
-472.195	102.771	1119.917	-403.408	72.553	1180.607	-388.523	141.557	1087.889	-409.352	97.711	941.126	-405.904	98.059	663.586
-472.480	102.977	1121.899	-403.377	72.182	1182.660	-388.844	141.910	1090.279	-409.586	97.286	943.509	-406.451	98.216	666.300
-472.841	103.503	1124.979	-403.260	72.015	1185.012	-389.253	141.992	1092.308	-409.721	97.305	946.015	-406.705	98.351	668.823
-472.958	103.333	1127.131	-403.203	72.561	1186.997	-389.179	141.375	1094.073	-410.254	97.634	948.569	-406.912	98.099	671.312
-473.120	103.316	1129.836	-403.323	73.186	1189.656	-389.545	141.222	1096.265	-410.505	97.919	950.821	-407.286	98.116	673.236
-473.382	103.891	1132.801	-403.197	72.580	1192.025	-389.935	142.080	1099.167	-410.927	97.603	952.980	-407.723	98.441	675.730
-473.571	104.115	1135.982	-403.228	72.766	1194.747	-390.250	142.951	1102.078	-410.918	97.349	955.462	-408.191	98.545	678.485
-473.842	103.548	1138.271	-403.126	73.388	1197.196	-390.292	142.021	1103.991	-411.318	98.270	958.663	-408.401	98.264	681.259
-473.826	104.109	1141.031	-402.997	73.623	1200.298	-390.565	141.733	1106.000	-411.474	98.329	961.375	-408.724	98.521	683.574
-473.973	104.263	1144.336	-402.933	73.081	1202.736	-391.010	142.499	1109.063	-411.792	97.713	963.718	-409.138	98.778	686.891
-474.001	104.009	1147.311	-402.960	73.483	1205.137	-391.391	142.739	1112.268	-412.186	97.625	966.175	-409.650	98.564	689.389
-474.495	104.704	1149.858	-402.796	74.166	1208.437	-391.581	142.419	1114.711	-412.500	98.821	969.649	-410.057	98.124	691.889
-474.558	105.248	1153.662	-402.758	73.941	1211.167	-391.877	142.100	1116.592	-412.632	98.272	972.665	-410.382	98.638	694.476
-474.542	104.865	1156.821	-402.563	73.957	1213.177	-392.302	142.806	1119.697	-412.961	97.804	975.394	-410.625	99.020	698.451
-474.694	104.875	1159.696	-402.467	74.322	1216.842	-392.570	143.209	1123.069	-413.520	98.604	977.616	-410.956	98.642	701.239
-474.948	105.667	1163.355	-402.297	74.633	1220.066	-392.598	142.632	1125.330	-413.600	98.713	981.184	-411.557	98.581	703.238
-475.149	105.695	1166.493	-402.223	75.078	1222.426	-393.000	142.542	1127.638	-413.737	98.193	984.494	-411.832	98.865	706.442
-475.086	105.323	1169.304	-401.962	74.866	1225.318	-393.534	142.756	1131.311	-414.117	98.099	986.481	-412.104	99.215	710.366
-475.258	105.616	1173.160	-401.849	74.692	1228.735	-393.635	142.757	1133.860	-414.275	98.563	989.911	-412.481	98.725	712.936
-475.426	105.746	1176.065	-401.671	75.086	1231.145	-393.990	142.771	1136.630	-414.552	98.593	993.237	-412.834	98.618	714.582
-475.191	105.212	1179.164	-401.313	74.817	1233.974	-394.378	142.546	1139.324	-414.768	98.515	995.712	-413.327	98.886	718.459
-475.530	105.619	1183.031	-401.291	74.991	1237.007	-394.767	142.983	1142.466	-414.983	98.361	999.008	-413.458	99.007	721.965
-475.536	105.601	1185.799	-400.883	75.215	1239.782	-394.939	142.589	1144.809	-415.221	98.398	1002.080	-413.769	99.154	724.550
-475.337	104.913	1189.021	-400.622	74.776	1242.843	-394.987	142.306	1148.165	-415.486	98.453	1004.323	-414.284	98.799	727.126
-475.593	105.764	1192.255	-400.535	75.016	1245.802	-395.345	142.474	1150.750	-415.527	98.185	1007.629	-414.559	99.104	730.113
-475.666	104.771	1195.292	-400.191	74.904	1248.062	-395.691	142.691	1153.228	-415.644	97.990	1010.542	-415.089	99.192	733.507
-475.588	104.598	1198.623	-399.990	74.336	1251.134	-395.822	142.030	1155.956	-416.057	98.208	1013.245	-415.117	99.262	735.799
-475.781	105.338	1201.554	-399.816	74.112	1253.775	-396.117	142.200	1158.874	-416.006	98.131	1015.704	-415.506	98.969	738.537
-475.645	104.467	1204.718	-399.517	74.875	1256.253	-396.321	141.981	1161.436	-416.181	98.049	1019.222	-415.734	98.661	741.306
-475.869	104.183	1207.465	-399.208	74.274	1258.742	-396.627	141.796	1164.155	-416.462	97.677	1021.787	-416.384	99.279	744.013
-475.862	104.728	1210.937	-398.989	74.047	1261.482	-397.045	141.759	1166.601	-416.593	97.805	1024.017	-416.459	99.256	746.769
-475.817	104.413	1213.562	-398.734	74.240	1264.054	-397.291	142.033	1169.073	-416.655	97.243	1026.386	-416.699	99.169	749.921
-475.872	103.895	1215.885	-398.507	74.274	1267.050	-397.235	141.888	1171.407	-416.837	97.499	1029.521	-417.009	98.887	752.102
-475.948	103.685	1218.737	-398.410	73.698	1269.122	-397.481	140.974	1173.855	-417.207	97.735	1031.753	-417.723	99.286	754.254
-475.800	103.905	1222.091	-398.028	73.630	1270.663	-397.769	141.259	1175.890	-417.382	97.386	1034.255	-417.910	99.221	756.649
-475.965	104.020	1224.140	-397.945	73.418	1273.314	-398.169	141.463	1178.284	-417.609	97.221	1036.565	-418.128	99.273	759.527
-475.863	103.292	1226.501	-397.731	73.471	1276.185	-398.431	141.512	1181.234	-417.925	97.624	1039.056	-418.300	99.194	761.926
-475.993	103.256	1229.332	-397.581	73.560	1277.971	-398.563	141.360	1183.312	-417.963	97.708	1041.436	-418.722	99.035	763.540
-476.141	103.889	1232.194	-397.426	73.674	1279.717	-398.886	141.100	1184.951	-418.071	97.472	1043.622	-419.080	99.119	765.640
-476.181	104.085	1234.005	-397.271	73.278	1281.554	-399.150	141.314	1186.777	-418.288	97.137	1045.727	-419.503	99.188	767.914
-476.218	103.461	1235.966	-397.191	73.348	1284.078	-399.296	141.694	1188.689	-418.775	96.889	1047.400	-419.849	99.442	770.297
-476.033	102.947	1238.137	-396.998	73.622	1286.000	-399.503	141.764	1191.207	-418.884	97.625	1049.115	-420.209	99.658	772.534
-476.332	103.696	1240.429	-396.978	73.854	1287.474	-399.548	141.237	1192.595	-419.001	97.479	1050.920	-420.520	99.412	774.182
-476.225	103.728	1242.390	-396.962	73.660	1289.484	-399.708	141.404	1194.432	-419.217	97.371	1052.827	-420.856	99.477	775.636
-476.313	103.688	1244.437	-396.788	73.249	1290.988	-399.927	141.634	1196.010	-419.258	97.340	1055.064	-421.320	99.209	777.265
-476.400	103.485	1245.955	-396.804	72.967	1292.470	-400.054	141.246	1197.902	-419.470	97.239	1056.611	-421.523	99.173	778.722
-476.412	103.275	1247.562	-396.697	73.434	1293.771	-400.251	141.083	1199.405	-419.820	97.387	1057.741	-421.773	99.427	780.507
-476.684	103.996	1249.056	-396.705	73.691	1294.982	-400.480	141.524	1200.614	-420.118	97.703	1059.477	-422.213	99.346	782.345
-476.725	104.191	1250.653	-396.605	73.623	1296.571	-400.449	141.470	1201.734	-420.238	97.708	1060.763	-422.531	99.604	783.530
-476.741	104.070	1252.333	-396.660	73.372	1297.956	-400.657	141.616	1203.143	-420.352	97.581	1062.079	-422.925	99.687	784.542
-476.661	103.962	1253.793	-396.693	73.444	1299.379	-400.906	141.805	1204.459	-420.491	97.523	1063.268	-423.054	99.393	785.944
-476.568	103.943	1255.183	-396.652	73.521	1300.495	-401.124	142.405	1205.956	-420.694	97.621	1064.423	-423.499	99.369	787.108
-476.851	103.830	1256.321	-396.799	73.525	1301.550	-401.198	142.276	1207.201	-420.886	97.613	1065.797	-423.896	99.260	788.249
-477.018	103.957	1256.967	-396.736	73.602	1302.345	-401.418	142.041	1208.098	-421.116	97.606	1066.543	-424.225	99.233	789.087
-477.074	104.156	1257.621	-396.819	74.072	1303.159	-401.553	141.985	1208.722	-421.310	97.801	1067.328	-424.564	99.296	790.165
-477.130	104.444	1258.738	-396.766	74.184	1303.719	-401.659	141.963	1209.417	-421.333	97.990	1068.100	-424.945	99.583	791.032
-477.204	104.589	1259.609	-396.712	74.094	1304.403	-401.756	141.924	1210.126	-421.544	98.060	1069.069	-425.285	99.680	791.941
-477.298	104.550	1260.251	-396.822	74.107	1305.107	-401.791	141.882	1210.457	-421.736	97.941	1069.869	-425.554	99.588	792.593
-477.328	104.386	1260.706	-396.812	74.161	1305.658	-401.924	141.679	1210.782	-421.999	97.801	1070.520	-425.847	99.498	793.200
-477.367	104.418	1261.272	-396.770	74.096	1306.253	-402.036	141.740	1211.203	-422.178	97.751	1070.765	-426.404	99.391	793.708
-477.420	104.507	1261.791	-396.847	74.174	1306.701	-402.145	141.741	1211.507	-422.382	97.988	1071.279	-426.689	99.435	794.054
-477.542	104.678	1262.213	-396.857	74.102	1307.088	-402.255	141.955	1211.921	-422.498	98.043	1071.575	-427.025	99.471	794.279
-477.530	104.530	1262.451	-397.001	74.231	1307.382	-402.310	142.127	1212.229	-422.617	98.109	1071.849	-427.390	99.484	794.533
-477.683	104.796	1262.714	-397.124	74.309	1307.722	-402.429	142.085	1212.374	-422.907	98.251	1072.032	-427.656	99.581	794.736
-477.776	104.854	1262.952	-397.163	74.416	1307.828	-402.544	142.290	1212.622	-423.077	98.390	1072.154	-427.947	99.582	794.814
-477.868	105.000	1263.073	-397.376	74.422	1307.936	-402.654	142.731	1212.968	-423.313	98.472	1072.229	-428.232	99.542	794.923
-478.030	105.070	1263.221	-397.484	74.576	1307.965	-402.737	142.806	1212.926	-423.510	98.535	1072.183	-428.550	99.602	794.908
-478.154	105.193	1263.057	-397.643	74.762	1307.844	-402.883	142.659	1212.613	-423.694	98.692	1072.170	-428.904	99.666	794.949
-478.331	105.438	1262.873	-397.686	74.912	1307.631	-403.004	143.106	1212.804	-423.856	98.698	1072.063	-429.248	99.620	794.730
-478.491	105.395	1262.644	-397.872	75.017	1307.415	-403.077	142.712	1212.331	-424.062	98.891	1071.754	-429.473	99.698	794.644
-478.651	105.479	1262.350	-398.020	75.104	1307.111	-403.166	142.708	1211.956	-424.279	99.019	1071.467	-429.730	99.795	794.385
-478.741	105.600	1262.008	-398.203	75.241	1306.748	-403.310	142.818	1211.771	-424.414	98.919	1071.195	-429.984	99.891	794.099
-478.951	105.716	1261.584	-398.363	75.284	1306.158	-403.410	142.975	1211.482	-424.702	99.087	1070.832	-430.370	99.933	793.669
-479.041	105.620	1260.874	-398.609	75.505	1305.698	-403.599	143.128	1211.033	-424.801	99.295	1070.417	-430.680	100.038	793.178
-479.450	106.187	1260.586	-398.861	75.577	1304.996	-403.705	142.981	1210.529	-424.993	99.496	1069.774	-430.962	100.075	792.642
-479.618	106.205	1259.982	-399.129	75.500	1304.448	-403.864	143.138	1210.032	-425.313	99.453	1069.368	-431.248	100.308	792.175
-479.888	106.255	1259.181	-399.349	75.568	1303.982	-404.138	143.504	1209.809	-425.519	99.407	1068.719	-431.573	100.474	791.434
-480.088	106.035	1258.583	-399.611	75.367	1303.521	-404.363	143.467	1209.174	-425.693	99.059	1067.932	-431.880	100.529	790.656
-480.104	105.472	1257.707	-399.836	75.075	1303.017	-404.487	143.656	1208.182	-425.696	99.079	1067.095	-432.080	100.589	789.679
-480.105	105.573	1256.640	-400.097	75.063	1301.951	-404.692	143.740	1207.262	-425.873	99.062	1066.004	-432.330	100.682	788.516
-480.378	105.447	1255.410	-400.290	74.685	1300.715	-404.829	143.876	1206.495	-425.983	99.111	1064.795	-432.622	100.844	787.355
-480.646	105.412	1254.106	-400.612	74.626	1299.649	-404.746	143.366	1205.291	-426.245	98.992	1063.757	-433.048	100.613	786.386
-480.770	105.318	1252.768	-400.825	74.498	1298.443	-404.728	142.830	1203.747	-426.334	99.047	1062.592	-433.195	100.573	785.481
-480.962	105.189	1251.121	-401.072	74.428	1297.004	-404.855	142.782	1202.633	-426.520	99.196	1061.189	-433.524	100.694	784.284
-481.200	105.211	1250.175	-401.372	74.383	1295.784	-404.938	142.691	1201.594	-426.753	99.198	1059.931	-433.894	100.680	783.021
-481.189	104.718	1248.717	-401.730	74.146	1294.712	-404.953	142.729	1200.692	-426.699	98.868	1059.295	-434.156	100.554	781.545
-481.291	104.439	1246.954	-401.981	73.854	1293.794	-404.965	142.874	1199.738	-426.838	98.846	1058.219	-434.366	100.972	780.286
-481.603	104.727	1245.459	-402.130	74.015	1292.271	-405.031	142.799	1197.955	-427.122	98.763	1056.296	-434.788	100.917	778.802
-481.745	104.803	1243.990	-402.472	74.000	1290.935	-404.950	143.039	1196.955	-427.290	98.818	1054.709	-435.079	100.593	777.455
-481.979	104.868	1242.234	-402.807	74.360	1289.538	-404.757	142.788	1195.457	-427.525	98.966	1053.100	-435.397	100.566	776.023
-482.079	104.401	1240.856	-403.279	74.334	1288.310	-404.771	142.585	1193.897	-427.717	98.988	1051.502	-435.832	100.433	774.786
-482.162	105.019	1239.292	-403.524	73.956	1287.104	-404.844	142.611	1192.424	-427.753	98.701	1050.272	-436.298	100.665	773.349
-482.232	104.567	1236.995	-403.622	74.048	1285.747	-404.967	142.940	1190.837	-427.902	98.809	1049.183	-436.496	100.867	771.943
-482.444	105.053	1235.498	-403.976	74.303	1283.943	-404.894	143.447	1189.509	-428.014	98.988	1047.613	-436.858	100.828	770.250
-482.651	105.407	1234.146	-404.366	74.271	1282.139	-404.772	143.151	1187.989	-428.323	98.969	1046.041	-437.257	100.790	768.800
-482.642	105.214	1232.528	-404.569	74.522	1280.571	-404.654	143.106	1186.821	-428.467	99.359	1044.399	-437.475	100.366	767.227
-482.746	105.329	1230.621	-404.796	74.316	1279.359	-404.660	142.977	1185.436	-428.652	99.381	1042.922	-437.709	100.529	765.622
-482.823	105.325	1229.086	-405.180	74.135	1278.312	-404.688	142.888	1184.103	-428.697	99.069	1041.570	-438.062	100.717	764.041
-482.876	105.020	1226.873	-405.329	74.304	1276.754	-404.650	143.602	1182.417	-428.841	99.084	1039.920	-438.425	100.988	762.483
-482.982	105.055	1225.203	-405.535	74.399	1275.012	-404.713	143.358	1180.344	-429.094	99.462	1038.300	-438.635	101.172	760.845
-482.861	105.610	1223.785	-405.772	74.522	1272.802	-404.734	143.319	1178.952	-429.180	99.355	1036.366	-438.997	100.832	759.416
-483.204	105.832	1221.766	-405.886	74.189	1271.413	-404.579	142.974	1177.417	-429.248	99.519	1034.698	-439.037	100.513	757.852
-483.232	105.780	1219.867	-405.825	74.457	1270.312	-404.473	142.809	1175.875	-429.360	99.459	1033.346	-439.292	100.413	755.914
-483.341	105.333	1218.001	-406.185	74.775	1268.834	-404.366	143.210	1174.146	-429.437	99.340	1031.728	-439.637	100.581	754.200
-483.111	105.004	1216.579	-406.471	74.835	1267.245	-404.410	143.729	1172.959	-429.652	99.317	1030.076	-439.929	100.805	752.471
-483.071	105.172	1214.543	-406.645	74.776	1265.585	-404.428	143.454	1171.170	-429.664	99.142	1028.306	-440.227	101.100	750.883
-483.245	105.711	1213.032	-406.793	74.537	1263.872	-404.204	143.021	1169.379	-429.646	99.027	1026.086	-440.456	100.901	749.771
-483.321	105.579	1211.142	-406.864	73.886	1262.058	-404.121	142.487	1167.608	-429.583	98.997	1024.649	-440.522	100.660	748.390
-483.460	105.058	1208.941	-406.783	74.018	1260.356	-403.934	142.381	1166.149	-429.631	98.740	1023.560	-440.714	100.543	746.324
-483.169	104.195	1207.358	-406.922	74.111	1258.694	-403.755	142.343	1164.355	-429.800	99.146	1022.100	-440.774	100.472	744.261
-483.241	104.525	1205.780	-407.150	74.419	1257.065	-403.719	142.844	1163.085	-429.914	99.085	1020.271	-441.047	100.933	742.444
-483.132	104.522	1203.870	-407.251	74.038	1255.599	-403.612	142.798	1161.566	-429.807	99.155	1018.221	-441.296	100.986	741.034
-483.127	104.663	1201.714	-407.345	73.228	1253.915	-403.401	141.893	1159.562	-429.918	98.489	1016.272	-441.354	100.669	739.880
-483.213	104.130	1199.994	-407.310	73.009	1252.419	-403.524	141.878	1157.946	-429.758	97.889	1014.727	-441.464	100.913	738.148
