NO_OF_FRAMES	2500
NO_OF_CAMERAS	7
NO_OF_MARKERS	5
FREQUENCY	250
NO_OF_ANALOG	0
ANALOG_FREQUENCY	0
DESCRIPTION	--
TIME_STAMP	2012-02-07, 12:14:52	12954.74935093
DATA_INCLUDED	3D
MARKER_NAMES	cylinder_tip	cylinder_left	cylinder_right	weight_top	weight_low
-475.264	141.115	1105.460	-408.071	109.227	1168.442	-387.913	173.623	1072.914	-414.847	132.242	927.708	-413.823	133.104	650.870
-475.331	141.220	1105.584	-408.215	109.265	1168.452	-387.883	173.582	1072.867	-414.861	132.325	927.756	-413.875	133.118	650.687
-475.390	141.291	1105.542	-408.241	109.336	1168.445	-387.943	173.591	1072.916	-414.871	132.355	927.757	-413.862	133.087	650.741
-474.894	141.535	1105.646	-408.287	109.337	1168.542	-387.994	174.078	1073.222	-414.772	132.244	927.779	-413.837	133.093	650.742
-474.932	141.457	1105.571	-408.336	109.440	1168.499	-388.022	173.964	1073.221	-414.857	132.363	927.682	-413.941	133.193	650.773
-475.006	141.526	1105.600	-408.335	109.405	1168.560	-388.011	173.866	1073.120	-414.853	132.391	927.811	-413.868	133.157	650.828
-474.979	141.522	1105.690	-408.361	109.451	1168.683	-388.079	174.223	1073.401	-414.953	132.388	927.812	-413.937	133.138	650.825
-474.779	141.572	1105.661	-408.408	109.505	1168.600	-388.050	174.240	1073.468	-414.838	132.315	927.759	-413.838	132.940	650.627
-474.690	141.531	1105.660	-408.373	109.589	1168.588	-388.016	174.176	1073.429	-414.870	132.431	927.892	-413.847	132.944	650.720
-474.647	141.582	1105.731	-408.373	109.575	1168.642	-387.982	174.048	1073.399	-414.917	132.436	927.955	-413.912	132.947	650.708
-474.672	141.513	1105.747	-408.359	109.437	1168.634	-388.107	174.129	1073.637	-415.012	132.498	928.006	-413.921	132.816	650.758
-474.714	141.529	1105.857	-408.375	109.525	1168.666	-388.056	173.945	1073.493	-415.032	132.453	928.028	-413.991	132.937	650.872
-474.673	141.444	1105.784	-408.381	109.435	1168.698	-388.132	174.060	1073.630	-415.035	132.443	928.121	-414.016	132.672	650.841
-474.711	141.449	1105.933	-408.403	109.523	1168.732	-388.112	174.040	1073.732	-415.046	132.332	928.123	-414.154	132.664	650.872
-474.699	141.447	1105.982	-408.450	109.425	1168.760	-388.151	174.064	1073.779	-415.103	132.267	928.167	-414.205	132.647	650.946
-474.717	141.417	1105.946	-408.415	109.426	1168.798	-388.186	174.209	1073.907	-415.185	132.255	928.263	-414.280	132.732	651.018
-474.712	141.399	1106.120	-408.421	109.274	1168.828	-388.167	173.965	1073.837	-415.223	132.359	928.415	-414.325	132.555	651.022
-474.730	141.357	1106.116	-408.591	109.946	1169.120	-388.199	174.037	1073.852	-415.216	132.290	928.436	-414.474	132.426	651.028
-474.807	141.384	1106.276	-408.559	110.023	1169.187	-388.260	173.928	1073.957	-415.295	132.269	928.469	-414.574	132.487	651.178
-474.783	141.536	1106.301	-408.576	109.885	1169.132	-388.258	174.162	1074.113	-415.333	132.268	928.562	-414.691	132.528	651.226
-474.791	141.661	1106.459	-408.476	109.579	1169.167	-388.197	174.090	1074.128	-415.381	132.296	928.584	-414.815	132.561	651.426
-474.831	141.493	1106.439	-408.416	109.569	1169.312	-388.279	174.098	1074.155	-415.383	132.236	928.689	-414.919	132.261	651.394
-474.744	141.808	1106.665	-408.450	109.724	1169.248	-388.297	174.162	1074.229	-415.438	132.313	928.755	-415.001	132.359	651.460
-474.781	141.736	1106.724	-408.465	109.628	1169.402	-388.340	174.163	1074.287	-415.509	132.267	928.736	-415.134	132.188	651.481
-474.787	141.882	1106.837	-408.429	109.628	1169.447	-388.360	174.158	1074.312	-415.568	132.323	928.861	-415.174	132.060	651.505
-474.795	142.024	1106.964	-408.356	109.587	1169.547	-388.337	174.217	1074.394	-415.549	132.304	928.977	-415.259	132.300	651.729
-474.868	142.070	1107.080	-408.384	109.656	1169.620	-388.358	174.239	1074.420	-415.643	132.284	929.044	-415.355	132.274	651.768
-474.918	142.029	1107.091	-408.336	109.648	1169.725	-388.413	174.264	1074.479	-415.609	132.239	929.123	-415.381	132.241	651.866
-474.896	142.299	1107.272	-408.369	109.724	1169.770	-388.395	174.280	1074.508	-415.732	132.392	929.351	-415.512	132.187	651.960
-474.917	142.301	1107.363	-408.393	109.657	1169.821	-388.421	174.362	1074.616	-415.733	132.405	929.297	-415.591	132.167	651.983
-474.982	142.304	1107.491	-408.367	109.719	1169.866	-388.461	174.300	1074.669	-415.801	132.434	929.387	-415.721	132.044	652.120
-474.890	142.545	1107.605	-408.396	109.706	1169.993	-388.499	174.356	1074.667	-415.814	132.312	929.320	-415.729	132.149	652.153
-474.958	142.445	1107.663	-408.386	109.703	1170.007	-388.541	174.312	1074.747	-415.896	132.447	929.496	-415.824	132.070	652.211
-474.990	142.474	1107.725	-408.416	109.781	1170.109	-388.530	174.362	1074.806	-415.899	132.450	929.570	-415.892	132.137	652.235
-474.985	142.485	1107.742	-408.395	109.778	1170.090	-388.589	174.244	1074.839	-415.887	132.429	929.617	-415.897	131.958	652.248
-475.035	142.533	1107.872	-408.406	109.866	1170.267	-388.653	174.272	1074.829	-415.891	132.370	929.682	-415.929	132.039	652.383
-475.039	142.542	1107.962	-408.404	109.838	1170.222	-388.656	174.382	1074.884	-415.900	132.340	929.716	-415.973	131.959	652.456
-475.079	142.516	1108.015	-408.406	109.791	1170.294	-388.741	174.312	1074.976	-415.992	132.522	929.809	-415.973	131.994	652.380
-475.102	142.541	1108.073	-408.450	109.823	1170.350	-388.783	174.250	1074.959	-416.025	132.556	929.885	-416.060	132.077	652.515
-475.133	142.541	1108.111	-408.438	109.781	1170.370	-388.740	174.327	1075.089	-416.040	132.504	929.892	-416.061	131.899	652.482
-475.121	142.567	1108.248	-408.455	109.714	1170.440	-388.803	174.353	1075.124	-416.035	132.314	929.875	-416.100	131.983	652.540
-475.157	142.476	1108.262	-408.498	109.718	1170.458	-388.830	174.241	1075.136	-416.102	132.527	929.996	-416.052	131.941	652.612
-475.168	142.498	1108.245	-408.447	109.742	1170.452	-388.854	174.243	1075.162	-416.083	132.511	930.041	-416.125	131.869	652.721
-475.209	142.487	1108.285	-408.492	109.733	1170.512	-388.903	174.306	1075.190	-416.035	132.347	930.007	-416.188	131.916	652.635
-475.210	142.380	1108.269	-408.521	109.685	1170.578	-388.980	174.249	1075.270	-416.090	132.512	930.041	-416.202	131.872	652.779
-475.179	142.477	1108.414	-408.479	109.738	1170.559	-388.893	174.204	1075.228	-416.105	132.375	930.126	-416.238	131.831	652.687
-475.208	142.483	1108.408	-408.556	109.718	1170.545	-388.986	174.275	1075.227	-416.166	132.428	930.170	-416.281	131.874	652.741
-475.200	142.310	1108.459	-408.526	109.718	1170.626	-388.924	174.165	1075.337	-416.205	132.416	930.173	-416.311	131.816	652.819
-475.242	142.380	1108.557	-408.523	109.686	1170.739	-388.991	174.239	1075.376	-416.169	132.285	930.133	-416.389	131.805	652.865
-475.270	142.240	1108.446	-408.591	109.691	1170.658	-389.036	174.256	1075.373	-416.255	132.466	930.246	-416.392	131.857	652.844
-475.252	142.346	1108.475	-408.569	109.614	1170.601	-389.075	174.180	1075.292	-416.243	132.433	930.270	-416.488	131.769	652.964
-475.300	142.387	1108.486	-408.617	109.632	1170.755	-389.056	174.201	1075.377	-416.339	132.284	930.238	-416.530	131.646	652.948
-475.249	142.303	1108.521	-408.514	109.630	1170.732	-389.066	174.163	1075.375	-416.317	132.311	930.348	-416.611	131.664	652.877
-475.284	142.278	1108.593	-408.573	109.588	1170.729	-389.071	174.107	1075.420	-416.315	132.234	930.293	-416.677	131.643	652.907
-475.249	142.209	1108.528	-408.570	109.551	1170.724	-389.076	174.219	1075.453	-416.421	132.246	930.299	-416.762	131.577	652.919
-475.276	142.290	1108.595	-408.598	109.582	1170.727	-389.028	174.197	1075.449	-416.428	132.172	930.318	-416.847	131.470	652.985
-475.209	142.262	1108.656	-408.551	109.586	1170.799	-389.062	174.130	1075.438	-416.456	132.095	930.345	-416.952	131.421	652.942
-475.159	142.261	1108.604	-408.553	109.480	1170.763	-389.075	174.082	1075.483	-416.461	132.065	930.353	-417.052	131.313	653.023
-475.214	142.107	1108.665	-408.603	109.534	1170.863	-389.041	174.104	1075.561	-416.480	131.923	930.342	-417.155	131.303	652.963
-475.236	142.195	1108.640	-408.606	109.549	1170.784	-388.988	174.116	1075.514	-416.450	131.952	930.389	-417.179	131.195	653.083
-475.204	142.254	1108.721	-408.579	109.532	1170.837	-389.085	174.080	1075.534	-416.577	132.039	930.460	-417.375	131.135	652.976
-475.155	142.151	1108.723	-408.628	109.443	1170.810	-389.009	174.025	1075.578	-416.509	131.893	930.416	-417.455	131.008	653.072
-475.137	142.135	1108.759	-408.485	109.469	1170.865	-389.011	174.061	1075.607	-416.613	132.043	930.504	-417.523	130.923	653.073
-475.175	142.056	1108.657	-408.560	109.381	1170.867	-388.986	174.011	1075.663	-416.558	131.863	930.445	-417.644	130.944	653.038
-475.151	141.903	1108.679	-408.561	109.378	1170.945	-389.046	173.989	1075.649	-416.623	131.770	930.466	-417.721	130.787	653.191
-475.132	142.033	1108.756	-408.564	109.315	1170.890	-388.992	173.927	1075.610	-416.694	131.690	930.545	-417.780	130.678	653.097
-475.166	142.011	1108.796	-408.552	109.297	1170.894	-388.980	173.911	1075.645	-416.771	131.781	930.643	-417.908	130.718	653.200
-475.195	141.867	1108.810	-408.490	109.310	1170.929	-388.993	173.952	1075.644	-416.748	131.734	930.599	-417.985	130.591	653.175
-474.992	141.532	1108.674	-408.508	109.283	1170.924	-388.979	173.931	1075.665	-416.734	131.757	930.557	-418.022	130.530	653.151
-475.037	141.552	1108.713	-408.502	109.257	1170.943	-389.052	173.881	1075.671	-416.749	131.768	930.583	-418.115	130.497	653.174
-475.059	141.556	1108.701	-408.479	109.174	1170.975	-388.983	173.902	1075.739	-416.749	131.660	930.578	-418.113	130.517	653.233
-475.043	141.517	1108.738	-408.467	109.183	1170.988	-389.012	173.897	1075.784	-416.825	131.699	930.650	-418.227	130.512	653.254
-475.066	141.486	1108.803	-408.507	109.128	1170.987	-388.981	173.933	1075.736	-416.803	131.676	930.648	-418.333	130.459	653.309
-475.249	141.601	1108.894	-408.478	109.075	1170.955	-389.034	173.824	1075.765	-416.806	131.671	930.690	-418.321	130.369	653.337
-475.152	141.505	1108.845	-408.469	109.091	1171.045	-389.023	173.801	1075.806	-416.779	131.616	930.629	-418.333	130.439	653.296
-475.195	141.425	1108.873	-408.455	109.009	1171.038	-389.065	173.809	1075.817	-416.849	131.681	930.723	-418.347	130.383	653.316
-475.199	141.477	1108.906	-408.492	108.998	1171.008	-389.015	173.717	1075.773	-416.843	131.660	930.714	-418.408	130.432	653.329
-475.182	141.492	1108.855	-408.510	109.006	1171.020	-389.061	173.794	1075.880	-416.844	131.650	930.708	-418.436	130.397	653.306
-475.269	141.520	1108.899	-408.460	109.034	1171.057	-389.068	173.837	1075.825	-416.840	131.557	930.684	-418.409	130.326	653.331
-475.156	141.496	1108.930	-408.493	108.977	1171.074	-388.992	173.851	1075.914	-416.857	131.672	930.799	-418.497	130.379	653.320
-475.229	141.524	1108.918	-408.502	108.862	1170.947	-389.075	173.842	1075.953	-416.844	131.671	930.740	-418.551	130.497	653.436
-475.196	141.451	1108.856	-408.468	109.023	1171.015	-389.062	173.802	1075.855	-416.864	131.717	930.712	-418.527	130.494	653.338
-475.205	141.458	1108.862	-408.492	108.918	1171.046	-389.063	173.852	1075.880	-416.940	131.715	930.699	-418.537	130.530	653.342
-475.223	141.481	1108.888	-408.483	108.919	1170.987	-389.077	173.873	1075.879	-416.945	131.699	930.688	-418.578	130.434	653.241
-475.244	141.402	1108.835	-408.483	108.955	1170.989	-389.027	173.895	1075.906	-416.922	131.575	930.658	-418.632	130.391	653.235
-475.248	141.463	1108.870	-408.530	108.956	1170.947	-389.092	173.852	1075.868	-416.971	131.714	930.732	-418.630	130.498	653.376
-475.176	141.498	1108.950	-408.557	108.886	1170.971	-389.143	173.838	1075.906	-416.855	131.616	930.678	-418.721	130.418	653.266
-475.183	141.526	1108.794	-408.534	108.914	1170.973	-389.069	173.791	1075.921	-416.971	131.672	930.652	-418.670	130.388	653.180
-475.215	141.610	1108.826	-408.541	108.846	1170.896	-389.059	173.810	1075.877	-416.980	131.706	930.651	-418.774	130.434	653.232
-475.144	141.409	1108.773	-408.561	108.833	1170.828	-389.095	173.865	1075.917	-416.960	131.641	930.559	-418.857	130.439	653.143
-475.186	141.487	1108.793	-408.578	108.916	1170.919	-389.151	173.897	1075.873	-417.015	131.600	930.596	-418.907	130.395	653.127
-475.236	141.415	1108.753	-408.607	108.801	1170.793	-389.155	173.902	1075.849	-416.989	131.621	930.531	-418.936	130.392	653.149
-475.194	141.276	1108.687	-408.623	108.748	1170.855	-389.167	173.745	1075.872	-417.095	131.587	930.547	-419.009	130.341	653.132
-475.217	141.086	1108.610	-408.609	108.752	1170.747	-389.158	173.725	1075.840	-417.179	131.573	930.500	-419.175	130.401	653.090
-475.205	141.339	1108.675	-408.610	108.638	1170.686	-389.137	173.768	1075.818	-417.102	131.480	930.507	-419.239	130.410	653.064
-475.199	141.167	1108.608	-408.629	108.608	1170.819	-389.183	173.684	1075.831	-417.113	131.443	930.495	-419.265	130.249	652.930
-475.233	141.348	1108.673	-408.606	108.605	1170.684	-389.142	173.648	1075.754	-417.239	131.527	930.424	-419.316	130.186	652.994
-475.190	141.074	1108.543	-408.639	108.582	1170.740	-389.145	173.731	1075.844	-417.228	131.351	930.390	-419.417	130.218	652.983
-475.114	140.981	1108.473	-408.625	108.498	1170.713	-389.151	173.632	1075.820	-417.249	131.396	930.460	-419.476	130.009	652.821
-475.201	141.113	1108.549	-408.578	108.461	1170.659	-389.082	173.616	1075.843	-417.252	131.323	930.335	-419.560	129.951	652.826
-475.116	140.856	1108.427	-408.604	108.410	1170.681	-389.122	173.580	1075.861	-417.265	131.415	930.442	-419.594	129.813	652.766
-475.096	140.840	1108.482	-408.565	108.422	1170.713	-389.132	173.564	1075.745	-417.336	131.396	930.423	-419.547	129.789	652.747
-475.114	140.863	1108.413	-408.599	108.342	1170.694	-389.046	173.546	1075.897	-417.345	131.317	930.399	-419.706	129.858	652.859
-475.177	141.016	1108.499	-408.550	108.327	1170.711	-389.064	173.555	1075.856	-417.329	131.418	930.432	-419.829	129.778	652.781
-475.126	140.765	1108.497	-408.550	108.344	1170.653	-388.971	173.527	1075.851	-417.311	131.142	930.314	-419.884	129.814	652.822
-475.180	140.890	1108.517	-408.475	108.212	1170.650	-389.020	173.678	1075.894	-417.330	131.263	930.516	-419.955	129.838	652.865
-475.149	140.843	1108.499	-408.490	108.260	1170.675	-388.987	173.516	1075.907	-417.316	131.182	930.377	-420.002	129.726	652.890
-475.195	141.095	1108.640	-408.469	108.165	1170.734	-388.921	173.611	1075.946	-417.319	131.193	930.494	-420.046	129.754	652.951
-475.121	140.920	1108.527	-408.486	108.198	1170.690	-388.919	173.637	1075.950	-417.325	131.203	930.525	-420.086	129.760	652.963
-475.091	140.970	1108.606	-408.443	108.232	1170.779	-388.902	173.628	1075.973	-417.334	131.346	930.544	-420.120	129.812	652.919
-475.075	140.933	1108.556	-408.469	108.188	1170.780	-388.828	173.731	1076.013	-417.361	131.213	930.542	-420.107	129.818	652.969
-475.038	141.015	1108.686	-408.388	108.200	1170.792	-388.878	173.704	1076.042	-417.333	131.414	930.622	-420.138	129.820	652.948
-475.001	141.117	1108.713	-408.403	108.225	1170.821	-388.808	173.725	1076.034	-417.372	131.437	930.663	-420.198	129.863	653.004
-475.085	141.244	1108.820	-408.386	108.296	1170.871	-388.868	173.737	1076.069	-417.408	131.504	930.770	-420.217	129.890	653.062
-475.013	141.231	1108.746	-408.390	108.228	1170.910	-388.764	173.756	1076.119	-417.325	131.494	930.671	-420.355	130.404	653.281
-474.998	141.251	1108.856	-408.348	108.327	1170.882	-388.754	173.804	1076.239	-417.289	131.567	930.777	-420.299	130.223	653.252
-475.058	141.432	1108.979	-408.318	108.340	1171.004	-388.735	173.986	1076.238	-417.384	131.682	930.912	-420.337	130.289	653.397
-475.017	141.405	1108.982	-408.296	108.375	1170.995	-388.780	173.966	1076.276	-417.339	131.578	930.831	-420.303	130.248	653.404
-475.046	141.398	1108.972	-408.300	108.347	1171.033	-388.794	173.952	1076.337	-417.419	131.694	930.898	-420.203	130.180	653.464
-475.056	141.536	1109.041	-408.326	108.497	1171.111	-388.712	173.926	1076.309	-417.348	131.803	931.042	-420.222	130.297	653.438
-475.046	141.676	1109.200	-408.356	108.449	1171.161	-388.770	173.812	1076.247	-417.407	131.814	931.105	-420.194	130.236	653.522
-474.999	141.609	1109.182	-408.305	108.392	1171.186	-388.791	174.089	1076.431	-417.440	131.888	931.141	-420.300	130.365	653.527
-475.030	141.642	1109.252	-408.326	108.477	1171.243	-388.771	173.941	1076.445	-417.391	131.925	931.166	-420.225	130.316	653.615
-475.075	141.782	1109.305	-408.268	108.396	1171.200	-388.776	173.902	1076.340	-417.411	132.015	931.229	-420.178	130.377	653.613
-475.119	141.713	1109.346	-408.274	108.360	1171.230	-388.786	174.042	1076.526	-417.400	131.979	931.197	-420.163	130.402	653.689
-475.083	141.747	1109.351	-408.324	108.429	1171.332	-388.802	174.018	1076.547	-417.476	132.105	931.384	-420.192	130.511	653.690
-475.037	141.824	1109.351	-408.311	108.403	1171.255	-388.824	174.324	1076.820	-417.429	132.112	931.385	-420.210	130.420	653.750
-475.095	141.841	1109.431	-408.365	108.301	1171.390	-388.913	174.371	1076.810	-417.440	132.091	931.342	-420.243	130.532	653.821
-475.133	142.002	1109.490	-408.354	108.284	1171.275	-388.854	174.367	1076.835	-417.481	132.305	931.451	-420.251	130.498	653.750
-475.158	142.006	1109.534	-408.315	108.279	1171.353	-388.918	174.472	1077.008	-417.522	132.344	931.469	-420.357	130.521	653.846
-475.151	142.021	1109.599	-408.288	108.383	1171.382	-388.908	174.492	1076.961	-417.473	132.421	931.544	-420.330	130.589	653.823
-475.174	142.134	1109.597	-408.335	108.312	1171.407	-388.894	174.528	1076.978	-417.569	132.439	931.488	-420.408	130.588	653.870
-475.181	142.210	1109.676	-408.361	108.305	1171.283	-388.910	174.653	1077.061	-417.581	132.499	931.517	-420.415	130.640	653.907
-475.201	142.220	1109.592	-408.329	108.270	1171.296	-388.926	174.768	1077.183	-417.615	132.622	931.514	-420.417	130.695	653.917
-475.156	142.325	1109.726	-408.426	108.394	1171.310	-389.030	174.889	1077.101	-417.610	132.679	931.614	-420.473	130.575	653.858
-475.225	142.376	1109.683	-408.344	108.395	1171.240	-389.000	174.998	1077.228	-417.640	132.735	931.578	-420.547	130.568	653.964
-475.246	142.407	1109.802	-408.353	108.403	1171.353	-389.016	175.006	1077.207	-417.713	132.778	931.514	-420.577	130.512	653.985
-475.233	142.504	1109.678	-408.390	108.458	1171.347	-389.023	175.056	1077.189	-417.743	132.733	931.567	-420.633	130.509	653.914
-475.270	142.621	1109.752	-408.460	108.440	1171.301	-389.042	175.166	1077.267	-417.792	132.766	931.575	-420.686	130.614	654.064
-475.259	142.590	1109.822	-408.399	108.489	1171.310	-389.013	175.243	1077.282	-417.783	132.885	931.639	-420.779	130.564	653.965
-475.181	142.602	1109.724	-408.448	108.642	1171.276	-388.959	175.198	1077.240	-417.805	132.874	931.475	-420.791	130.624	653.954
-475.283	142.655	1109.728	-408.445	108.602	1171.290	-388.936	175.192	1077.231	-417.822	132.882	931.602	-420.784	130.556	653.861
-475.253	142.685	1109.805	-408.497	108.713	1171.320	-388.950	175.209	1077.164	-417.820	132.938	931.562	-420.890	130.572	653.898
-475.198	142.759	1109.767	-408.458	108.709	1171.356	-388.964	175.310	1077.179	-417.807	132.833	931.481	-420.886	130.557	653.895
-475.223	142.738	1109.739	-408.440	108.796	1171.278	-388.887	175.336	1077.204	-417.885	132.888	931.487	-420.962	130.677	653.841
-475.155	142.727	1109.660	-408.503	108.768	1171.349	-388.847	175.246	1077.170	-417.845	132.882	931.507	-420.856	130.590	653.826
-475.208	142.743	1109.638	-408.486	108.878	1171.262	-388.867	175.362	1077.096	-417.859	132.896	931.463	-420.938	130.736	653.894
-475.146	142.714	1109.670	-408.456	108.808	1171.228	-388.862	175.277	1077.078	-417.817	132.852	931.470	-420.960	130.648	653.885
-475.140	142.731	1109.659	-408.489	108.878	1171.210	-388.769	175.200	1077.010	-417.799	132.802	931.334	-420.993	130.749	653.766
-475.046	142.729	1109.579	-408.450	108.778	1171.218	-388.755	175.219	1077.028	-417.698	132.825	931.306	-421.002	130.877	653.755
-475.064	142.668	1109.532	-408.467	108.793	1171.211	-388.783	175.151	1077.011	-417.776	132.878	931.386	-420.921	130.828	653.806
-475.042	142.624	1109.544	-408.435	108.726	1171.130	-388.691	175.114	1076.952	-417.712	132.744	931.208	-420.950	130.863	653.655
-475.046	142.608	1109.503	-408.387	108.756	1171.118	-388.657	175.173	1076.934	-417.694	132.877	931.238	-420.911	130.928	653.649
-474.972	142.577	1109.475	-408.401	108.686	1171.026	-388.660	175.082	1076.933	-417.655	132.832	931.138	-420.894	130.920	653.608
-474.948	142.506	1109.454	-408.334	108.588	1171.017	-388.647	175.066	1076.850	-417.672	132.850	931.169	-420.833	131.004	653.598
-474.928	142.419	1109.349	-408.337	108.532	1170.905	-388.587	174.958	1076.800	-417.587	132.847	931.093	-420.764	131.039	653.584
-474.772	142.345	1109.218	-408.329	108.567	1170.908	-388.547	175.100	1076.918	-417.556	132.812	931.092	-420.766	131.103	653.461
-474.868	142.438	1109.345	-408.315	108.494	1170.923	-388.552	175.218	1076.830	-417.524	132.887	931.127	-420.796	131.261	653.538
-474.821	142.377	1109.273	-408.287	108.512	1170.875	-388.484	175.130	1076.782	-417.439	132.926	931.031	-420.743	131.303	653.505
-474.793	142.528	1109.267	-408.301	108.404	1170.798	-388.498	175.167	1076.855	-417.441	132.947	930.956	-420.666	131.259	653.438
-474.599	142.329	1109.064	-408.244	108.515	1170.777	-388.466	175.070	1076.778	-417.349	132.929	930.978	-420.611	131.400	653.406
-474.629	142.480	1109.154	-408.270	108.473	1170.775	-388.438	175.213	1076.813	-417.448	132.944	930.942	-420.659	131.393	653.397
-474.500	142.397	1109.037	-408.273	108.503	1170.703	-388.410	175.154	1076.775	-417.322	132.990	930.902	-420.610	131.429	653.350
-474.525	142.396	1109.047	-408.253	108.495	1170.674	-388.389	175.247	1076.739	-417.339	133.075	930.806	-420.634	131.520	653.268
-474.534	142.553	1109.083	-408.236	108.408	1170.645	-388.383	175.118	1076.720	-417.311	133.040	930.835	-420.566	131.535	653.325
-474.541	142.641	1109.098	-408.244	108.428	1170.591	-388.434	175.243	1076.704	-417.307	133.235	930.852	-420.521	131.625	653.314
-474.584	142.779	1109.091	-408.169	108.587	1170.666	-388.366	175.389	1076.819	-417.287	133.160	930.796	-420.531	131.694	653.211
-474.557	142.868	1109.088	-408.188	108.562	1170.615	-388.344	175.378	1076.692	-417.252	133.280	930.649	-420.504	131.723	653.296
-474.506	142.967	1109.023	-408.235	108.626	1170.498	-388.280	175.511	1076.712	-417.301	133.285	930.661	-420.504	131.769	653.147
-474.541	143.122	1109.052	-408.191	108.739	1170.542	-388.324	175.478	1076.716	-417.199	133.349	930.599	-420.451	131.862	653.205
-474.457	143.239	1109.014	-408.232	108.772	1170.470	-388.264	175.526	1076.615	-417.256	133.507	930.616	-420.461	131.875	653.101
-474.524	143.244	1109.021	-408.248	108.952	1170.557	-388.244	175.633	1076.676	-417.171	133.650	930.663	-420.417	131.887	653.165
-474.470	143.404	1108.967	-408.203	108.951	1170.441	-388.173	175.673	1076.668	-417.260	133.680	930.605	-420.449	131.908	653.190
-474.444	143.499	1108.959	-408.243	109.004	1170.442	-388.153	175.648	1076.575	-417.230	133.844	930.544	-420.405	131.990	653.131
-474.514	143.628	1108.929	-408.184	109.141	1170.464	-388.158	175.879	1076.641	-417.242	133.776	930.513	-420.353	132.093	653.103
-474.481	143.780	1108.920	-408.193	109.209	1170.416	-388.110	175.998	1076.648	-417.198	134.021	930.484	-420.367	132.193	653.058
-474.501	143.987	1108.971	-408.180	109.326	1170.365	-388.006	176.027	1076.608	-417.204	134.103	930.485	-420.379	132.206	653.064
-474.456	144.051	1108.852	-408.206	109.399	1170.346	-388.057	176.197	1076.618	-417.174	134.240	930.494	-420.350	132.221	652.964
-474.428	144.205	1108.861	-408.211	109.448	1170.358	-388.038	176.252	1076.658	-417.157	134.245	930.419	-420.334	132.265	653.096
-474.435	144.210	1108.866	-408.163	109.570	1170.351	-388.023	176.400	1076.589	-417.139	134.325	930.355	-420.288	132.288	652.963
-474.383	144.330	1108.823	-408.180	109.673	1170.384	-387.983	176.631	1076.712	-417.073	134.476	930.357	-420.307	132.356	652.976
-474.373	144.539	1108.803	-408.201	109.656	1170.365	-387.930	176.454	1076.570	-417.114	134.514	930.379	-420.235	132.408	652.996
-474.406	144.662	1108.841	-408.199	109.697	1170.312	-387.919	176.589	1076.631	-417.097	134.537	930.252	-420.219	132.530	652.909
-474.294	144.576	1108.837	-408.167	109.818	1170.327	-387.931	176.533	1076.548	-417.050	134.581	930.327	-420.187	132.492	652.973
-474.349	144.602	1108.784	-408.111	109.794	1170.225	-387.892	176.563	1076.573	-417.039	134.643	930.359	-420.167	132.599	652.923
-474.379	144.687	1108.839	-408.154	109.803	1170.394	-387.856	176.632	1076.498	-417.032	134.681	930.360	-420.055	132.606	652.854
-474.310	144.658	1108.832	-408.121	109.836	1170.343	-387.840	176.608	1076.509	-417.010	134.743	930.394	-420.036	132.755	652.934
-474.230	144.597	1108.854	-408.105	109.768	1170.339	-387.856	176.527	1076.579	-416.929	134.718	930.305	-419.929	132.812	652.881
-474.279	144.490	1108.808	-408.059	109.760	1170.254	-387.897	176.813	1076.705	-416.965	134.753	930.434	-419.893	132.861	652.979
-474.178	144.483	1108.866	-408.057	109.685	1170.321	-387.858	176.500	1076.501	-416.907	134.637	930.432	-419.815	132.844	652.931
-474.243	144.466	1108.851	-408.085	109.690	1170.315	-387.855	176.494	1076.540	-416.920	134.629	930.410	-419.757	132.984	652.924
-474.230	144.289	1108.855	-408.014	109.605	1170.288	-387.875	176.403	1076.536	-416.889	134.507	930.385	-419.734	133.034	652.886
-474.242	144.277	1108.864	-407.948	109.505	1170.245	-387.873	176.386	1076.570	-416.755	134.669	930.383	-419.666	133.109	652.980
-474.193	144.200	1108.934	-408.023	109.458	1170.288	-387.874	176.400	1076.544	-416.744	134.550	930.391	-419.617	133.206	652.949
-474.225	144.176	1108.900	-408.002	109.450	1170.320	-387.870	176.239	1076.573	-416.701	134.595	930.481	-419.509	133.302	652.959
-474.175	143.973	1108.977	-407.953	109.373	1170.293	-387.879	176.286	1076.568	-416.704	134.553	930.473	-419.432	133.297	652.991
-474.192	144.006	1108.927	-407.940	109.331	1170.365	-387.888	176.296	1076.604	-416.647	134.579	930.483	-419.478	133.427	653.034
-474.225	144.016	1108.943	-407.916	109.326	1170.363	-387.907	176.284	1076.654	-416.662	134.564	930.514	-419.378	133.399	653.022
-474.203	143.946	1108.894	-407.914	109.225	1170.347	-387.910	176.221	1076.668	-416.658	134.563	930.486	-419.345	133.452	653.009
-474.164	143.928	1108.990	-407.995	109.303	1170.355	-387.924	176.329	1076.646	-416.626	134.534	930.516	-419.251	133.521	653.087
-474.113	143.935	1109.022	-407.927	109.340	1170.365	-387.898	176.375	1076.710	-416.561	134.670	930.508	-419.245	133.707	653.041
-474.145	143.931	1109.019	-407.919	109.261	1170.389	-387.851	176.211	1076.659	-416.589	134.626	930.621	-419.207	133.662	653.069
-474.117	143.909	1109.059	-407.883	109.378	1170.504	-387.924	176.328	1076.707	-416.607	134.678	930.658	-419.151	133.661	653.160
-474.159	143.968	1109.130	-407.910	109.329	1170.490	-387.880	176.310	1076.716	-416.565	134.672	930.702	-419.182	133.761	653.109
-474.196	144.031	1109.150	-407.892	109.304	1170.522	-387.898	176.372	1076.755	-416.556	134.662	930.606	-419.102	133.768	653.177
-474.119	143.957	1109.157	-407.879	109.339	1170.532	-387.899	176.385	1076.828	-416.582	134.856	930.802	-419.163	133.810	653.272
-474.080	143.990	1109.159	-407.904	109.381	1170.562	-387.897	176.448	1076.889	-416.605	134.828	930.801	-419.070	133.934	653.421
-474.111	143.961	1109.252	-407.885	109.488	1170.688	-387.871	176.424	1076.895	-416.547	134.900	930.894	-419.025	134.042	653.479
-474.132	144.041	1109.259	-407.922	109.464	1170.685	-387.829	176.400	1076.892	-416.532	134.924	930.970	-419.033	134.000	653.477
-474.132	144.111	1109.315	-407.878	109.485	1170.785	-387.862	176.438	1076.952	-416.516	134.984	930.952	-418.973	134.167	653.566
-474.046	144.058	1109.296	-407.919	109.477	1170.776	-387.828	176.475	1076.931	-416.520	134.962	931.081	-418.938	134.195	653.684
-473.996	143.987	1109.407	-407.868	109.553	1170.852	-387.854	176.491	1077.085	-416.600	135.079	931.188	-418.972	134.316	653.709
-474.099	143.979	1109.452	-407.834	109.530	1170.866	-387.921	176.512	1077.051	-416.518	135.053	931.246	-418.948	134.275	653.708
-474.049	143.951	1109.490	-407.837	109.585	1170.965	-387.862	176.425	1077.080	-416.464	135.019	931.278	-418.923	134.330	653.842
-474.051	143.963	1109.558	-407.875	109.603	1171.026	-387.863	176.322	1077.067	-416.475	135.023	931.399	-418.791	134.368	653.806
-473.926	143.568	1109.436	-407.810	109.585	1171.077	-387.912	176.368	1077.124	-416.459	135.032	931.417	-418.728	134.397	653.926
-473.972	143.881	1109.659	-407.793	109.581	1171.139	-387.913	176.395	1077.182	-416.450	135.049	931.511	-418.687	134.599	653.983
-473.914	143.637	1109.503	-407.794	109.540	1171.179	-387.928	176.441	1077.279	-416.458	135.087	931.559	-418.681	134.526	654.045
-473.911	143.750	1109.715	-407.766	109.535	1171.193	-387.962	176.651	1077.418	-416.411	135.084	931.687	-418.550	134.627	654.154
-474.010	143.750	1109.774	-407.776	109.542	1171.351	-387.984	176.712	1077.554	-416.396	135.141	931.722	-418.518	134.754	654.213
-474.115	143.621	1109.860	-407.769	109.440	1171.411	-387.988	176.776	1077.643	-416.390	135.123	931.839	-418.418	134.856	654.267
-474.127	143.664	1109.958	-407.654	109.414	1171.447	-387.942	176.731	1077.611	-416.309	135.273	931.990	-418.368	134.945	654.382
-474.126	143.725	1110.042	-407.719	109.476	1171.522	-387.958	176.726	1077.679	-416.354	135.217	931.939	-418.288	134.997	654.422
-474.126	143.777	1110.106	-407.734	109.434	1171.631	-388.003	176.801	1077.786	-416.270	135.316	932.116	-418.090	135.106	654.520
-474.164	143.809	1110.113	-407.615	109.407	1171.640	-388.056	176.798	1077.850	-416.280	135.360	932.164	-418.076	135.182	654.598
-474.146	143.763	1110.132	-407.604	109.457	1171.658	-388.027	176.830	1077.916	-416.206	135.354	932.254	-417.975	135.296	654.699
-474.121	143.920	1110.321	-407.551	109.382	1171.815	-388.013	176.888	1078.043	-416.257	135.428	932.355	-417.930	135.389	654.871
-474.177	143.903	1110.273	-407.588	109.477	1171.905	-387.952	176.899	1078.067	-416.235	135.420	932.399	-417.784	135.518	654.934
-474.087	143.871	1110.388	-407.522	109.466	1171.941	-387.996	176.813	1078.069	-416.182	135.488	932.549	-417.639	135.577	655.049
-474.174	143.873	1110.406	-407.500	109.537	1172.032	-388.030	176.883	1078.217	-416.206	135.498	932.536	-417.579	135.695	655.020
-474.102	143.912	1110.469	-407.553	109.494	1172.091	-388.013	176.897	1078.276	-416.154	135.576	932.656	-417.464	135.748	655.158
-474.165	143.938	1110.570	-407.490	109.473	1172.134	-387.998	176.967	1078.304	-416.136	135.636	932.668	-417.362	135.920	655.301
-474.164	143.923	1110.587	-407.476	109.429	1172.218	-388.033	177.181	1078.553	-416.074	135.682	932.834	-417.329	135.980	655.241
-474.145	143.939	1110.637	-407.476	109.555	1172.321	-387.973	176.924	1078.427	-416.086	135.586	932.898	-417.210	136.021	655.356
-474.147	144.027	1110.687	-407.448	109.576	1172.368	-388.052	177.201	1078.665	-416.043	135.629	933.023	-417.145	136.109	655.490
-474.173	143.991	1110.676	-407.462	109.507	1172.407	-388.107	177.537	1078.885	-415.997	135.675	933.016	-417.043	136.192	655.634
-474.180	144.060	1110.802	-407.423	109.555	1172.461	-388.052	177.162	1078.678	-415.964	135.739	933.102	-416.978	136.282	655.664
-474.141	144.049	1110.793	-407.419	109.660	1172.497	-387.982	177.075	1078.714	-416.012	135.657	933.053	-416.949	136.255	655.613
-474.143	144.069	1110.822	-407.300	109.553	1172.701	-388.064	177.091	1078.788	-415.967	135.790	933.223	-416.849	136.343	655.796
-474.184	144.085	1110.901	-407.480	109.464	1172.691	-388.056	177.089	1078.846	-415.939	135.783	933.277	-416.798	136.378	655.765
-474.153	144.053	1110.895	-407.478	109.540	1172.791	-388.186	176.992	1078.889	-415.921	135.746	933.357	-416.748	136.471	655.935
-474.030	144.020	1111.007	-407.145	109.618	1172.826	-388.029	177.089	1078.934	-415.831	135.729	933.441	-416.756	136.519	655.926
-474.060	143.926	1110.975	-407.432	109.532	1172.901	-388.039	177.132	1079.134	-415.824	135.724	933.439	-416.666	136.531	655.918
-474.018	143.991	1111.110	-407.441	109.472	1172.919	-387.955	177.119	1079.086	-415.746	135.754	933.560	-416.622	136.609	656.040
-473.987	144.024	1111.137	-407.342	109.524	1172.930	-387.981	177.106	1079.176	-415.689	135.686	933.548	-416.556	136.621	656.080
-474.038	143.917	1111.160	-407.406	109.569	1173.020	-387.993	177.001	1079.252	-415.760	135.656	933.630	-416.545	136.642	656.148
-474.004	143.936	1111.117	-407.391	109.629	1173.103	-387.924	176.982	1079.269	-415.711	135.672	933.630	-416.508	136.665	656.222
-473.949	143.821	1111.159	-407.393	109.613	1173.082	-387.880	176.838	1079.443	-415.660	135.533	933.693	-416.433	136.840	656.151
-473.979	143.824	1111.222	-407.337	109.559	1173.109	-387.966	176.822	1079.325	-415.657	135.711	933.863	-416.431	136.727	656.267
-473.954	143.798	1111.233	-407.402	109.525	1173.115	-387.930	176.878	1079.414	-415.578	135.766	933.845	-416.385	136.778	656.296
-473.871	143.783	1111.343	-407.293	109.674	1173.265	-387.874	176.795	1079.434	-415.592	135.684	933.882	-416.322	136.758	656.306
-474.009	143.754	1111.374	-407.317	109.605	1173.258	-387.927	176.826	1079.562	-415.544	135.690	933.847	-416.300	136.886	656.424
-473.943	143.836	1111.427	-407.278	109.632	1173.274	-387.867	176.706	1079.523	-415.463	135.485	933.911	-416.200	136.893	656.387
-473.932	143.714	1111.427	-407.332	109.612	1173.328	-387.917	176.846	1079.639	-415.509	135.664	933.969	-416.211	136.947	656.466
-473.941	143.813	1111.422	-407.311	109.714	1173.371	-387.925	176.657	1079.656	-415.477	135.712	934.077	-416.101	136.979	656.494
-473.848	143.788	1111.546	-407.232	109.685	1173.314	-387.898	176.741	1079.809	-415.448	135.646	934.065	-416.051	137.072	656.525
-473.933	143.706	1111.585	-407.276	109.711	1173.413	-387.924	176.703	1079.821	-415.444	135.733	934.103	-416.034	137.204	656.593
-473.858	143.692	1111.566	-407.289	109.666	1173.417	-387.895	176.716	1079.821	-415.436	135.717	934.159	-415.917	137.176	656.528
-473.962	143.700	1111.607	-407.221	109.594	1173.375	-387.805	176.607	1079.850	-415.435	135.684	934.243	-415.857	137.317	656.697
-473.896	143.696	1111.633	-407.214	109.584	1173.441	-387.868	176.669	1079.979	-415.325	135.679	934.230	-415.754	137.272	656.714
-473.901	143.717	1111.693	-407.240	109.510	1173.434	-387.852	176.730	1079.942	-415.225	135.662	934.249	-415.629	137.408	656.699
-473.844	143.552	1111.660	-407.235	109.572	1173.455	-387.855	176.589	1080.007	-415.262	135.609	934.183	-415.672	137.511	656.783
-473.802	143.512	1111.661	-407.198	109.612	1173.531	-387.891	176.594	1080.089	-415.157	135.776	934.251	-415.551	137.588	656.837
-473.810	143.537	1111.765	-407.169	109.627	1173.509	-387.870	176.594	1080.019	-415.131	135.781	934.218	-415.427	137.678	656.867
-473.837	143.740	1111.820	-407.158	109.584	1173.512	-387.910	176.484	1080.120	-415.091	135.728	934.272	-415.357	137.772	656.900
-473.840	143.563	1111.739	-407.080	109.656	1173.515	-387.798	176.545	1080.153	-415.081	135.758	934.281	-415.324	137.698	656.874
-473.861	143.596	1111.802	-407.138	109.608	1173.562	-387.728	176.414	1080.187	-415.035	135.792	934.268	-415.174	137.925	656.917
-473.824	143.517	1111.804	-407.113	109.580	1173.540	-387.822	176.554	1080.205	-414.942	135.796	934.341	-415.095	137.909	656.903
-473.769	143.565	1111.809	-407.108	109.540	1173.545	-387.719	176.392	1080.146	-414.877	135.789	934.285	-414.947	138.045	656.862
-473.809	143.492	1111.792	-407.073	109.604	1173.535	-387.701	176.351	1080.182	-414.813	135.780	934.416	-414.816	138.023	656.996
-473.798	143.447	1111.828	-407.087	109.549	1173.557	-387.717	176.345	1080.258	-414.794	135.850	934.363	-414.778	138.180	656.891
-473.751	143.536	1111.813	-407.075	109.583	1173.573	-387.739	176.464	1080.208	-414.770	135.797	934.298	-414.656	138.204	656.964
-473.768	143.470	1111.836	-406.990	109.593	1173.578	-387.639	176.293	1080.187	-414.712	135.855	934.343	-414.482	138.194	656.918
-473.724	143.736	1111.993	-406.986	109.580	1173.556	-387.608	176.374	1080.364	-414.626	135.927	934.336	-414.457	138.264	656.965
-473.634	143.483	1111.861	-406.961	109.694	1173.607	-387.520	176.385	1080.168	-414.569	135.939	934.361	-414.291	138.422	656.978
-473.740	143.626	1111.944	-406.963	109.682	1173.655	-387.590	176.464	1080.250	-414.557	136.031	934.427	-414.241	138.335	657.008
-473.659	143.573	1111.931	-406.943	109.665	1173.663	-387.475	176.400	1080.296	-414.583	135.990	934.349	-414.153	138.402	657.020
-473.651	143.573	1111.814	-406.960	109.760	1173.737	-387.471	176.413	1080.433	-414.508	136.007	934.340	-414.077	138.511	657.029
-473.609	143.562	1111.841	-406.918	109.706	1173.677	-387.547	176.298	1080.309	-414.450	136.051	934.339	-414.012	138.485	657.037
-473.544	143.611	1111.859	-406.877	109.722	1173.699	-387.512	176.589	1080.266	-414.367	136.041	934.411	-413.931	138.584	657.053
-473.626	143.667	1111.919	-406.889	109.726	1173.680	-387.450	176.365	1080.345	-414.329	136.063	934.432	-413.846	138.466	656.986
-473.561	143.750	1111.944	-406.886	109.744	1173.688	-387.441	176.401	1080.378	-414.263	136.002	934.394	-413.814	138.567	657.031
-473.555	143.604	1111.951	-406.821	109.844	1173.734	-387.497	176.460	1080.378	-414.305	136.034	934.403	-413.738	138.475	657.077
-473.529	143.738	1111.933	-406.883	109.782	1173.764	-387.374	176.333	1080.343	-414.267	136.049	934.451	-413.738	138.529	657.069
-473.591	143.839	1112.005	-406.813	109.830	1173.735	-387.353	176.318	1080.302	-414.316	136.090	934.474	-413.675	138.593	657.032
-473.552	143.653	1112.004	-406.841	109.784	1173.740	-387.457	176.382	1080.346	-414.252	136.033	934.494	-413.594	138.596	657.080
-473.559	143.591	1111.922	-406.826	109.783	1173.719	-387.401	176.522	1080.430	-414.258	136.001	934.437	-413.514	138.591	657.106
-473.487	143.614	1112.002	-406.841	109.825	1173.772	-387.339	176.418	1080.443	-414.212	136.041	934.397	-413.397	138.571	656.985
-473.470	143.681	1111.965	-406.743	109.771	1173.762	-387.342	176.378	1080.307	-414.165	136.050	934.569	-413.405	138.638	657.056
-473.476	143.707	1112.022	-406.816	109.789	1173.725	-387.530	176.443	1080.541	-414.127	136.078	934.470	-413.421	138.604	657.008
-473.373	143.566	1112.141	-406.697	109.779	1173.731	-387.338	176.474	1080.377	-414.034	136.048	934.502	-413.302	138.603	657.047
-473.481	143.612	1111.904	-406.773	109.727	1173.643	-387.338	176.467	1080.470	-414.065	136.127	934.436	-413.230	138.541	657.031
-473.461	143.574	1112.005	-406.714	109.812	1173.726	-387.336	176.436	1080.487	-414.071	136.081	934.400	-413.213	138.575	657.099
-473.466	143.592	1111.953	-406.704	109.817	1173.711	-387.278	176.409	1080.506	-414.049	136.106	934.573	-413.124	138.650	657.019
-473.357	143.738	1112.069	-406.676	109.751	1173.711	-387.287	176.335	1080.380	-413.993	136.052	934.564	-413.115	138.630	657.007
-473.352	143.551	1112.036	-406.708	109.763	1173.701	-387.178	176.472	1080.313	-413.992	136.144	934.383	-413.062	138.718	657.052
-473.385	143.688	1111.954	-406.663	109.711	1173.649	-387.288	176.504	1080.534	-413.888	136.119	934.383	-412.977	138.705	657.003
-473.357	143.705	1111.979	-406.686	109.745	1173.711	-387.253	176.474	1080.478	-413.871	136.117	934.408	-412.930	138.749	656.978
-473.292	143.744	1112.024	-406.623	109.768	1173.651	-387.188	176.402	1080.387	-413.877	136.250	934.422	-412.892	138.811	656.946
-473.373	143.729	1112.035	-406.629	109.707	1173.631	-387.155	176.449	1080.395	-413.822	136.186	934.414	-412.810	138.725	657.004
-473.281	143.558	1111.986	-406.631	109.713	1173.666	-387.166	176.590	1080.474	-413.819	136.191	934.382	-412.654	138.829	656.955
-473.277	143.544	1111.965	-406.609	109.657	1173.597	-387.199	176.563	1080.447	-413.786	136.221	934.347	-412.660	138.808	657.014
-473.276	143.470	1111.911	-406.613	109.753	1173.632	-387.167	176.375	1080.321	-413.793	136.131	934.369	-412.627	138.869	656.938
-473.279	143.792	1111.979	-406.596	109.748	1173.678	-387.166	176.584	1080.458	-413.730	136.160	934.410	-412.560	138.833	656.879
-473.246	143.633	1111.958	-406.586	109.693	1173.639	-387.205	176.491	1080.417	-413.673	136.214	934.383	-412.463	138.933	656.896
-473.279	143.677	1111.993	-406.566	109.735	1173.667	-387.097	176.455	1080.351	-413.641	136.225	934.428	-412.373	138.968	656.953
-473.248	143.712	1112.040	-406.571	109.793	1173.681	-387.106	176.449	1080.424	-413.636	136.254	934.406	-412.383	139.013	656.997
-473.172	143.702	1112.052	-406.527	109.729	1173.630	-386.995	176.563	1080.376	-413.558	136.323	934.380	-412.276	138.932	656.899
-473.175	143.862	1112.041	-406.523	109.878	1173.669	-387.097	176.647	1080.391	-413.521	136.245	934.377	-412.223	139.096	656.902
-473.170	143.633	1111.991	-406.515	109.782	1173.663	-387.060	176.601	1080.469	-413.499	136.240	934.275	-412.127	139.119	656.893
-473.167	143.763	1111.992	-406.539	109.871	1173.688	-387.044	176.508	1080.377	-413.483	136.308	934.392	-412.078	139.080	656.928
-473.127	143.767	1112.046	-406.466	109.979	1173.785	-387.055	176.712	1080.419	-413.452	136.275	934.333	-412.071	139.103	656.923
-473.111	143.811	1112.035	-406.455	109.912	1173.722	-386.955	176.556	1080.434	-413.416	136.353	934.389	-411.996	139.095	656.939
-473.022	143.895	1111.930	-406.460	110.001	1173.724	-386.960	176.757	1080.401	-413.413	136.381	934.318	-411.909	139.115	656.842
-473.060	144.023	1112.054	-406.436	109.997	1173.718	-386.958	176.702	1080.345	-413.416	136.318	934.342	-411.884	139.163	656.896
-473.025	144.032	1112.007	-406.424	109.976	1173.705	-386.936	176.876	1080.450	-413.315	136.410	934.343	-411.891	139.125	656.919
-473.063	143.985	1111.990	-406.459	110.017	1173.711	-386.852	176.810	1080.371	-413.269	136.418	934.488	-411.835	139.237	656.947
-473.075	144.039	1111.963	-406.447	109.984	1173.714	-386.898	176.828	1080.454	-413.398	136.441	934.336	-411.810	139.143	656.954
-472.935	143.995	1112.031	-406.388	110.131	1173.797	-386.890	176.791	1080.355	-413.261	136.436	934.398	-411.759	139.154	656.922
-472.997	143.956	1111.984	-406.384	110.061	1173.736	-386.898	176.932	1080.438	-413.256	136.417	934.367	-411.643	139.167	656.907
-472.990	144.090	1112.028	-406.387	110.109	1173.793	-386.862	176.930	1080.398	-413.282	136.478	934.343	-411.623	139.224	656.876
-472.981	144.054	1112.051	-406.369	110.157	1173.823	-386.800	176.870	1080.322	-413.238	136.511	934.392	-411.607	139.197	656.875
-472.957	144.064	1112.089	-406.386	110.128	1173.741	-386.808	176.842	1080.302	-413.206	136.500	934.392	-411.584	139.236	656.909
-472.941	144.041	1112.039	-406.365	110.117	1173.822	-386.788	176.819	1080.325	-413.179	136.500	934.346	-411.569	139.220	656.929
-472.955	144.070	1112.048	-406.379	110.090	1173.776	-386.829	177.002	1080.531	-413.171	136.463	934.372	-411.610	139.208	656.939
-472.932	144.011	1112.068	-406.406	110.148	1173.793	-386.790	176.939	1080.377	-413.092	136.519	934.394	-411.492	139.201	656.881
-472.964	143.997	1112.073	-406.342	110.201	1173.783	-386.805	176.884	1080.417	-413.121	136.477	934.479	-411.504	139.180	656.812
-472.896	143.960	1112.012	-406.361	110.109	1173.807	-386.845	176.961	1080.308	-413.224	136.512	934.392	-411.502	139.204	656.860
-472.933	144.012	1112.007	-406.323	110.136	1173.791	-386.834	176.718	1080.422	-413.139	136.598	934.409	-411.451	139.144	656.897
-472.946	143.890	1112.057	-406.326	110.097	1173.768	-386.878	176.885	1080.420	-413.126	136.438	934.421	-411.460	139.166	656.899
-472.893	144.008	1112.030	-406.363	110.120	1173.736	-386.831	177.004	1080.370	-413.084	136.469	934.386	-411.416	139.085	656.872
-472.944	144.052	1111.991	-406.344	110.199	1173.797	-386.792	176.957	1080.399	-413.087	136.433	934.281	-411.439	139.160	656.870
-472.940	144.073	1112.059	-406.339	110.141	1173.817	-386.761	176.952	1080.386	-413.077	136.342	934.385	-411.365	139.133	656.832
-472.969	144.176	1112.045	-406.273	110.126	1173.769	-386.724	177.072	1080.444	-413.086	136.396	934.388	-411.317	139.100	656.943
-472.951	144.069	1112.034	-406.378	110.107	1173.720	-386.771	176.913	1080.342	-413.073	136.489	934.340	-411.382	139.043	656.970
-472.890	144.160	1112.074	-406.377	110.249	1173.801	-386.748	176.851	1080.274	-413.111	136.448	934.420	-411.251	138.981	656.883
-473.013	144.210	1112.108	-406.379	110.187	1173.844	-386.779	176.937	1080.346	-413.064	136.497	934.420	-411.293	139.075	656.845
-472.905	144.087	1112.044	-406.357	110.175	1173.764	-386.812	177.026	1080.372	-413.005	136.488	934.375	-411.257	139.056	656.867
-472.943	144.163	1112.069	-406.370	110.189	1173.775	-386.754	176.973	1080.405	-413.038	136.416	934.414	-411.199	139.036	656.932
-472.935	144.176	1112.071	-406.362	110.282	1173.865	-386.775	176.864	1080.280	-413.063	136.490	934.384	-411.156	139.076	656.936
-472.951	144.187	1112.141	-406.373	110.306	1173.843	-386.754	176.905	1080.342	-413.102	136.516	934.363	-411.211	139.004	656.904
-472.915	144.143	1112.011	-406.348	110.259	1173.838	-386.752	177.097	1080.460	-412.983	136.502	934.389	-411.180	139.002	656.945
-472.991	144.428	1112.070	-406.348	110.258	1173.856	-386.802	176.942	1080.413	-413.029	136.568	934.385	-411.080	138.931	656.979
-472.973	144.331	1112.121	-406.391	110.234	1173.813	-386.758	176.918	1080.315	-412.981	136.581	934.468	-411.106	139.113	656.957
-472.936	144.265	1112.063	-406.350	110.224	1173.807	-386.812	177.141	1080.466	-412.970	136.570	934.435	-411.120	139.047	657.036
-472.885	144.166	1112.057	-406.371	110.293	1173.861	-386.692	177.139	1080.458	-413.039	136.586	934.470	-411.105	139.029	656.963
-472.932	144.423	1112.160	-406.360	110.319	1173.921	-386.733	177.051	1080.496	-413.009	136.584	934.456	-411.037	139.076	657.011
-472.924	144.280	1112.278	-406.382	110.339	1173.883	-386.675	177.126	1080.507	-413.049	136.638	934.515	-411.065	139.050	657.006
-472.898	144.230	1112.090	-406.335	110.359	1173.908	-386.774	177.219	1080.555	-412.965	136.682	934.496	-411.008	139.049	656.982
-472.955	144.310	1112.115	-406.358	110.346	1173.964	-386.772	177.113	1080.463	-412.980	136.581	934.503	-410.978	138.912	657.016
-472.923	144.421	1112.247	-406.363	110.407	1174.011	-386.812	177.063	1080.661	-412.996	136.735	934.543	-410.933	138.931	657.108
-472.992	144.400	1112.246	-406.336	110.535	1174.017	-386.706	177.122	1080.543	-413.015	136.568	934.548	-410.901	138.992	657.090
-472.919	144.272	1112.279	-406.292	110.523	1174.002	-386.796	177.015	1080.689	-412.935	136.603	934.573	-410.884	138.904	657.133
-472.870	144.280	1112.254	-406.282	110.544	1174.081	-386.801	177.185	1080.578	-412.905	136.602	934.605	-410.876	138.889	657.159
-472.879	144.359	1112.344	-406.296	110.592	1174.108	-386.782	176.954	1080.568	-412.988	136.625	934.666	-410.915	138.899	657.209
-472.869	144.341	1112.386	-406.282	110.582	1174.050	-386.756	177.195	1080.663	-412.931	136.612	934.675	-410.864	138.776	657.323
-472.903	144.225	1112.379	-406.301	110.591	1174.106	-386.796	177.079	1080.711	-412.927	136.514	934.702	-410.950	138.800	657.178
-472.830	144.349	1112.451	-406.271	110.701	1174.183	-386.771	177.104	1080.765	-412.931	136.639	934.707	-410.869	138.797	657.235
-472.919	144.326	1112.472	-406.272	110.628	1174.206	-386.796	176.932	1080.726	-412.911	136.516	934.748	-410.827	138.706	657.257
-472.844	144.265	1112.491	-406.236	110.565	1174.188	-386.757	177.075	1080.797	-412.900	136.385	934.771	-410.890	138.734	657.372
-472.866	144.170	1112.436	-406.243	110.641	1174.164	-386.815	176.990	1080.714	-412.851	136.415	934.703	-410.824	138.661	657.324
-472.873	144.284	1112.571	-406.181	110.681	1174.233	-386.787	177.162	1080.773	-412.910	136.449	934.791	-410.894	138.641	657.328
-472.910	144.341	1112.563	-406.225	110.722	1174.205	-386.905	177.086	1080.817	-412.875	136.409	934.879	-410.930	138.492	657.387
-472.859	144.095	1112.472	-406.209	110.604	1174.211	-386.814	176.988	1080.806	-412.883	136.431	934.790	-410.869	138.574	657.396
-472.843	144.160	1112.565	-406.181	110.620	1174.254	-386.772	176.994	1080.744	-412.831	136.307	934.803	-410.866	138.501	657.342
-472.809	144.201	1112.660	-406.145	110.646	1174.223	-386.785	177.117	1080.813	-412.888	136.220	934.905	-410.964	138.400	657.342
-472.900	144.309	1112.765	-406.201	110.577	1174.210	-386.803	176.977	1080.806	-412.914	136.296	934.823	-410.907	138.406	657.476
-472.832	144.114	1112.592	-406.131	110.586	1174.225	-386.876	176.882	1080.895	-412.941	136.339	934.849	-411.058	138.326	657.293
-472.851	144.153	1112.633	-406.162	110.578	1174.170	-386.850	177.032	1080.824	-412.907	136.338	934.838	-411.049	138.323	657.483
-472.845	144.112	1112.548	-406.183	110.538	1174.184	-386.941	176.891	1080.842	-412.873	136.305	934.855	-411.085	138.228	657.464
-472.797	144.027	1112.589	-406.135	110.518	1174.191	-386.822	176.961	1080.749	-412.926	136.204	934.826	-411.037	138.263	657.503
-472.853	144.180	1112.627	-406.190	110.554	1174.175	-386.934	176.879	1080.789	-412.855	136.177	934.875	-411.114	138.136	657.419
-472.854	144.269	1112.691	-406.158	110.565	1174.172	-386.909	176.974	1080.815	-412.907	136.193	934.862	-411.094	138.075	657.530
-472.831	144.024	1112.544	-406.193	110.541	1174.167	-386.933	176.897	1080.876	-412.979	136.137	934.846	-411.201	138.016	657.534
-472.845	143.996	1112.440	-406.178	110.549	1174.213	-386.805	176.965	1080.749	-412.881	136.171	934.792	-411.206	137.899	657.518
-472.783	144.094	1112.552	-406.117	110.521	1174.207	-386.894	176.867	1080.772	-412.883	136.201	934.885	-411.250	137.916	657.424
-472.823	144.223	1112.558	-406.128	110.501	1174.142	-386.848	177.024	1080.861	-412.918	136.160	934.850	-411.270	137.924	657.463
-472.829	144.166	1112.533	-406.130	110.579	1174.187	-386.927	177.030	1080.853	-412.871	136.106	934.885	-411.279	137.887	657.468
-472.725	144.086	1112.467	-406.149	110.637	1174.211	-386.731	177.020	1080.842	-412.875	136.151	934.910	-411.231	137.826	657.470
-472.809	144.161	1112.459	-406.083	110.633	1174.222	-386.860	177.020	1080.833	-412.895	136.065	934.809	-411.289	137.702	657.535
-472.786	144.291	1112.542	-406.166	110.690	1174.188	-386.816	177.073	1080.868	-412.936	136.187	934.821	-411.346	137.738	657.485
-472.787	144.271	1112.558	-406.165	110.670	1174.207	-386.755	177.047	1080.930	-412.900	136.109	934.853	-411.212	137.699	657.473
-472.746	144.269	1112.513	-406.158	110.773	1174.208	-386.651	177.071	1080.729	-412.904	136.102	934.763	-411.302	137.663	657.542
-472.782	144.303	1112.418	-406.106	110.775	1174.295	-386.667	177.118	1080.791	-412.870	136.218	934.748	-411.362	137.696	657.461
-472.732	144.343	1112.592	-406.132	110.717	1174.244	-386.761	177.115	1080.754	-412.935	136.193	934.819	-411.410	137.627	657.574
-472.746	144.327	1112.581	-406.110	110.732	1174.187	-386.705	177.176	1080.847	-412.884	136.106	934.838	-411.337	137.578	657.528
-472.749	144.325	1112.480	-406.145	110.764	1174.227	-386.731	177.075	1080.838	-412.923	136.128	934.876	-411.320	137.601	657.535
-472.752	144.360	1112.495	-406.154	110.731	1174.234	-386.676	177.135	1080.856	-412.879	136.129	934.953	-411.375	137.493	657.575
-472.755	144.343	1112.527	-406.137	110.828	1174.244	-386.733	177.159	1080.829	-412.875	136.147	934.867	-411.371	137.467	657.572
-472.687	144.333	1112.568	-406.092	110.781	1174.266	-386.678	177.242	1080.853	-412.836	136.114	934.971	-411.371	137.385	657.508
-472.669	144.302	1112.593	-406.087	110.751	1174.299	-386.622	177.156	1080.866	-412.851	136.113	934.915	-411.418	137.425	657.573
-472.685	144.222	1112.645	-406.083	110.789	1174.253	-386.704	177.139	1080.924	-412.909	136.082	934.929	-411.349	137.276	657.602
-472.707	144.248	1112.680	-406.049	110.841	1174.286	-386.751	177.047	1080.889	-412.804	136.049	934.959	-411.382	137.337	657.715
-472.701	144.207	1112.673	-406.069	110.692	1174.266	-386.682	177.011	1080.829	-412.834	136.033	934.995	-411.391	137.309	657.651
-472.667	144.278	1112.727	-406.012	110.764	1174.321	-386.707	176.916	1080.824	-412.899	135.938	934.984	-411.409	137.218	657.679
-472.739	144.225	1112.754	-406.084	110.638	1174.273	-386.770	177.068	1080.893	-412.875	135.942	934.978	-411.425	137.217	657.649
-472.661	144.045	1112.647	-406.029	110.654	1174.273	-386.820	177.005	1080.899	-412.872	135.884	934.965	-411.528	137.157	657.754
-472.663	143.955	1112.733	-406.033	110.639	1174.294	-386.755	176.828	1080.885	-412.914	135.888	934.999	-411.493	137.130	657.705
-472.744	144.037	1112.770	-406.007	110.655	1174.311	-386.809	176.872	1081.006	-413.007	135.811	935.042	-411.494	137.039	657.820
-472.658	144.017	1112.835	-406.011	110.560	1174.283	-386.817	176.861	1081.021	-412.965	135.756	935.041	-411.576	137.012	657.797
-472.661	144.052	1112.830	-405.965	110.538	1174.303	-386.771	176.796	1080.859	-412.946	135.792	935.121	-411.639	136.977	657.731
-472.680	143.970	1112.869	-406.050	110.626	1174.351	-386.788	176.775	1080.907	-413.038	135.655	935.092	-411.626	136.841	657.802
-472.676	143.995	1112.810	-405.986	110.514	1174.258	-386.846	176.893	1081.026	-413.080	135.720	935.126	-411.653	136.821	657.803
-472.728	144.007	1112.879	-406.057	110.513	1174.218	-386.897	176.946	1080.970	-413.024	135.838	935.129	-411.740	136.792	657.742
-472.682	143.952	1112.906	-405.938	110.550	1174.363	-386.808	176.839	1080.892	-413.073	135.691	935.045	-411.804	136.685	657.894
-472.703	143.914	1112.914	-405.959	110.547	1174.290	-386.794	176.811	1080.950	-413.096	135.721	935.057	-411.867	136.620	657.741
-472.672	143.952	1112.881	-405.954	110.581	1174.319	-386.754	176.919	1080.998	-413.044	135.700	935.105	-411.939	136.621	657.847
-472.625	143.826	1112.801	-405.948	110.518	1174.354	-386.801	176.847	1080.980	-413.129	135.564	935.147	-411.922	136.448	657.878
-472.680	143.929	1112.867	-406.010	110.496	1174.296	-386.748	176.742	1080.868	-413.146	135.487	935.107	-412.034	136.405	657.869
-472.667	143.962	1112.943	-405.914	110.520	1174.320	-386.781	176.815	1080.951	-413.173	135.452	935.182	-412.046	136.411	657.822
-472.666	143.936	1112.950	-406.010	110.517	1174.270	-386.796	176.890	1081.017	-413.173	135.459	935.133	-412.059	136.266	657.865
-472.671	143.794	1112.773	-405.950	110.501	1174.278	-386.764	176.649	1080.908	-413.147	135.416	935.132	-412.211	136.225	657.898
-472.638	143.822	1112.804	-405.920	110.505	1174.307	-386.695	176.661	1080.878	-413.264	135.404	935.087	-412.240	136.125	657.954
-472.621	143.744	1112.779	-405.930	110.581	1174.336	-386.802	176.825	1081.045	-413.206	135.300	935.147	-412.270	136.164	657.962
-472.602	143.727	1112.767	-405.933	110.543	1174.308	-386.735	176.825	1081.009	-413.287	135.321	935.119	-412.395	135.995	657.913
-472.610	143.654	1112.754	-405.905	110.440	1174.297	-386.707	176.819	1080.988	-413.211	135.230	935.124	-412.356	135.902	657.947
-472.616	143.913	1112.839	-405.892	110.408	1174.248	-386.728	176.765	1080.955	-413.242	135.197	935.092	-412.426	135.814	657.842
-472.593	143.760	1112.762	-405.864	110.411	1174.284	-386.741	176.603	1080.940	-413.332	135.222	935.087	-412.486	135.880	657.914
-472.529	143.819	1112.867	-405.837	110.461	1174.357	-386.685	176.658	1080.907	-413.313	135.187	935.096	-412.529	135.706	657.882
-472.577	143.749	1112.794	-405.869	110.484	1174.392	-386.676	176.717	1081.004	-413.316	135.269	935.193	-412.509	135.809	657.858
-472.517	143.837	1112.844	-405.881	110.509	1174.285	-386.663	176.629	1080.947	-413.297	135.209	935.133	-412.577	135.747	657.913
-472.584	143.864	1112.892	-405.858	110.485	1174.281	-386.669	176.763	1081.005	-413.324	135.196	935.073	-412.627	135.699	657.919
-472.526	143.848	1112.729	-405.849	110.416	1174.288	-386.694	176.770	1081.008	-413.374	135.166	935.143	-412.716	135.674	658.022
-472.554	143.857	1112.861	-405.801	110.544	1174.361	-386.638	176.794	1080.967	-413.339	135.320	935.183	-412.709	135.565	657.842
-472.447	143.832	1112.904	-405.869	110.472	1174.326	-386.565	176.737	1080.973	-413.379	135.214	935.155	-412.754	135.557	657.941
-472.496	143.870	1112.912	-405.789	110.506	1174.350	-386.545	176.759	1080.906	-413.362	135.212	935.128	-412.735	135.476	657.986
-472.461	143.924	1112.794	-405.821	110.526	1174.382	-386.608	176.892	1081.095	-413.420	135.257	935.214	-412.791	135.461	657.909
-472.530	143.926	1112.939	-405.797	110.481	1174.301	-386.524	176.804	1080.996	-413.330	135.265	935.115	-412.807	135.382	657.974
-472.436	143.923	1112.899	-405.792	110.360	1174.258	-386.549	176.753	1080.923	-413.412	135.199	935.120	-412.860	135.349	657.904
-472.461	143.935	1112.988	-405.799	110.404	1174.309	-386.511	176.804	1080.928	-413.368	135.121	935.147	-412.850	135.354	657.988
-472.447	143.889	1112.975	-405.757	110.429	1174.335	-386.565	176.819	1081.073	-413.396	135.159	935.142	-412.898	135.364	658.021
-472.486	143.878	1112.958	-405.774	110.410	1174.329	-386.545	176.780	1080.986	-413.425	135.124	935.155	-412.936	135.229	658.013
-472.434	143.857	1113.000	-405.698	110.383	1174.276	-386.464	176.737	1081.045	-413.358	135.060	935.134	-412.909	135.258	658.020
-472.447	143.758	1112.970	-405.759	110.401	1174.420	-386.553	176.535	1080.882	-413.419	135.035	935.173	-412.983	135.184	658.043
-472.487	143.768	1112.906	-405.725	110.340	1174.337	-386.563	176.739	1081.044	-413.473	134.993	935.173	-412.977	135.152	658.025
-472.397	143.756	1112.912	-405.772	110.418	1174.371	-386.537	176.548	1080.985	-413.493	134.993	935.122	-413.066	135.107	658.040
-472.485	143.680	1113.014	-405.740	110.316	1174.340	-386.490	176.566	1081.042	-413.461	134.909	935.132	-413.126	135.065	657.997
-472.417	143.690	1113.016	-405.732	110.353	1174.360	-386.573	176.582	1081.029	-413.405	134.890	935.190	-413.189	134.982	658.048
-472.452	143.555	1112.898	-405.718	110.294	1174.352	-386.568	176.587	1081.091	-413.530	134.849	935.187	-413.205	134.934	657.999
-472.440	143.524	1112.948	-405.714	110.317	1174.398	-386.605	176.509	1081.108	-413.521	134.879	935.140	-413.270	134.827	658.065
-472.447	143.509	1113.016	-405.736	110.234	1174.378	-386.556	176.416	1080.942	-413.549	134.728	935.261	-413.341	134.751	658.066
-472.481	143.565	1112.958	-405.745	110.235	1174.376	-386.605	176.474	1081.063	-413.553	134.735	935.169	-413.401	134.607	658.142
-472.472	143.445	1112.952	-405.669	110.251	1174.349	-386.533	176.312	1080.988	-413.586	134.646	935.211	-413.522	134.622	658.150
-472.425	143.472	1113.011	-405.705	110.179	1174.373	-386.597	176.384	1081.081	-413.639	134.661	935.212	-413.565	134.493	658.147
-472.487	143.390	1112.980	-405.745	110.192	1174.339	-386.553	176.455	1081.013	-413.677	134.696	935.168	-413.649	134.468	658.169
-472.392	143.435	1113.026	-405.733	110.188	1174.352	-386.642	176.381	1081.000	-413.738	134.627	935.243	-413.721	134.320	658.136
-472.492	143.401	1112.986	-405.756	110.173	1174.369	-386.648	176.333	1081.116	-413.752	134.562	935.200	-413.803	134.288	658.207
-472.474	143.482	1113.002	-405.734	110.144	1174.304	-386.571	176.320	1080.984	-413.767	134.538	935.172	-413.940	134.148	658.164
-472.519	143.372	1113.018	-405.786	110.179	1174.350	-386.659	176.331	1081.094	-413.801	134.514	935.200	-414.069	134.132	658.210
-472.463	143.356	1112.976	-405.768	110.113	1174.296	-386.700	176.334	1081.088	-413.834	134.479	935.178	-414.149	134.051	658.170
-472.520	143.350	1112.993	-405.766	110.106	1174.347	-386.626	176.165	1081.009	-413.829	134.384	935.184	-414.260	133.983	658.165
-472.534	143.274	1112.894	-405.748	110.027	1174.249	-386.676	176.221	1081.097	-413.892	134.359	935.158	-414.258	133.940	658.179
-472.487	143.237	1112.942	-405.747	110.054	1174.296	-386.684	176.229	1081.058	-413.908	134.347	935.154	-414.356	133.729	658.124
-472.486	143.249	1112.908	-405.789	110.028	1174.280	-386.748	176.119	1080.936	-413.957	134.243	935.155	-414.540	133.731	658.182
-472.547	143.166	1112.941	-405.788	109.948	1174.228	-386.706	176.060	1080.985	-413.976	134.102	935.109	-414.707	134.049	658.290
-472.544	143.174	1112.880	-405.800	109.869	1174.189	-386.699	176.067	1080.923	-413.984	134.172	935.161	-414.630	133.699	658.119
-472.499	143.115	1112.922	-405.833	109.767	1174.146	-386.725	175.947	1080.960	-413.968	133.944	935.084	-414.809	133.911	658.299
-472.540	142.982	1112.751	-405.860	109.744	1174.120	-386.695	176.003	1080.937	-414.048	133.945	935.089	-414.799	133.459	658.095
-472.515	142.972	1112.827	-405.808	109.687	1174.046	-386.713	175.902	1080.945	-414.019	133.864	935.020	-414.772	133.508	658.034
-472.507	142.857	1112.790	-405.817	109.677	1174.104	-386.676	175.840	1080.865	-414.041	133.725	935.011	-414.854	133.425	658.003
-472.518	142.785	1112.667	-405.762	109.538	1174.022	-386.731	175.802	1080.907	-414.049	133.711	935.021	-414.908	133.443	657.979
-472.516	142.689	1112.626	-405.806	109.424	1173.930	-386.744	175.753	1080.882	-414.058	133.522	934.945	-414.903	133.326	657.883
-472.483	142.640	1112.667	-405.778	109.310	1173.840	-386.675	175.564	1080.793	-414.069	133.538	934.927	-414.954	133.296	657.826
-472.506	142.446	1112.610	-405.803	109.228	1173.822	-386.678	175.394	1080.758	-414.020	133.373	934.824	-415.024	133.182	657.777
-472.440	142.379	1112.651	-405.802	109.139	1173.852	-386.664	175.316	1080.635	-414.037	133.242	934.768	-415.012	133.131	657.794
-472.433	142.205	1112.551	-405.656	108.994	1173.775	-386.646	175.198	1080.653	-414.006	133.130	934.812	-415.061	133.071	657.676
-472.521	141.952	1112.431	-405.680	108.812	1173.624	-386.620	175.019	1080.569	-413.979	132.958	934.641	-415.075	132.977	657.630
-472.414	141.923	1112.526	-405.650	108.706	1173.600	-386.600	174.938	1080.522	-413.936	132.721	934.562	-415.102	132.918	657.512
-472.418	141.644	1112.383	-405.585	108.544	1173.541	-386.589	174.694	1080.505	-413.970	132.666	934.525	-415.143	132.775	657.519
-472.360	141.604	1112.394	-405.526	108.450	1173.489	-386.550	174.368	1080.274	-413.881	132.565	934.511	-415.061	132.620	657.522
-472.278	141.361	1112.325	-405.447	108.285	1173.451	-386.529	174.365	1080.302	-413.897	132.520	934.533	-415.231	132.633	657.259
-472.306	141.475	1112.401	-405.481	108.092	1173.296	-386.479	174.293	1080.347	-413.927	132.297	934.394	-415.191	132.594	657.256
-472.216	141.055	1112.077	-405.291	107.940	1173.243	-386.397	173.986	1080.154	-413.871	132.316	934.408	-415.286	132.463	657.205
-472.290	141.080	1112.262	-405.363	107.797	1173.178	-386.388	173.775	1080.065	-413.845	132.104	934.342	-415.368	132.330	657.085
-472.227	140.960	1112.090	-405.241	107.701	1173.141	-386.409	174.002	1080.141	-413.883	132.051	934.313	-415.359	132.239	656.971
-472.106	140.818	1111.997	-405.302	107.653	1173.095	-386.415	173.888	1080.181	-413.905	131.988	934.215	-415.498	132.134	656.877
-472.113	140.819	1111.939	-405.276	107.539	1172.932	-386.262	173.594	1079.903	-413.904	131.936	934.182	-415.538	132.099	656.852
-472.146	140.864	1111.974	-405.384	107.501	1172.972	-386.253	173.577	1079.846	-413.908	131.915	934.131	-415.542	131.856	656.713
-472.183	140.972	1111.938	-405.231	107.464	1172.882	-386.221	173.559	1079.757	-413.910	131.867	934.054	-415.641	131.864	656.703
-472.121	140.985	1111.685	-405.411	107.488	1172.865	-386.221	173.592	1079.720	-413.939	131.883	934.067	-415.701	131.756	656.643
-472.171	141.098	1111.744	-405.412	107.473	1172.851	-386.248	173.833	1079.756	-413.941	131.880	934.011	-415.762	131.721	656.522
-472.143	141.224	1111.723	-405.520	107.601	1172.854	-386.209	173.722	1079.673	-413.970	131.901	933.976	-415.821	131.529	656.415
-472.180	141.362	1111.605	-405.514	107.698	1172.800	-386.124	173.704	1079.589	-414.112	132.165	934.119	-415.904	131.604	656.429
-472.191	141.395	1111.476	-405.592	107.769	1172.784	-386.057	173.411	1079.323	-414.193	132.141	934.101	-415.927	131.381	656.252
-472.289	141.642	1111.620	-405.644	107.811	1172.799	-386.194	173.844	1079.546	-414.244	132.189	934.077	-416.063	131.279	656.199
-472.290	141.699	1111.453	-405.714	107.973	1172.799	-386.164	173.525	1079.300	-414.275	132.154	933.936	-416.137	131.196	656.166
-472.316	141.340	1111.248	-405.751	108.019	1172.797	-386.094	173.587	1079.273	-414.205	131.821	933.818	-416.135	131.139	656.093
-472.313	141.763	1111.422	-405.787	108.018	1172.808	-386.122	173.489	1079.043	-414.280	131.735	933.821	-416.216	130.973	656.000
-472.364	141.772	1111.380	-405.847	108.053	1172.846	-386.117	173.260	1078.923	-414.334	131.727	933.852	-416.158	130.978	656.035
-472.385	141.597	1111.264	-405.893	108.174	1172.893	-386.144	173.250	1078.841	-414.472	131.852	933.906	-416.235	130.863	656.030
-472.424	141.749	1111.353	-405.888	108.178	1172.904	-386.243	173.263	1078.802	-414.448	131.720	933.772	-416.289	130.795	656.005
-472.428	141.480	1111.218	-405.998	108.172	1172.869	-386.249	173.056	1078.844	-414.394	131.425	933.726	-416.284	130.723	655.933
-472.563	141.642	1111.364	-405.961	108.213	1172.960	-386.300	173.047	1078.779	-414.527	131.560	933.655	-416.372	130.674	655.878
-472.581	141.426	1111.318	-405.999	108.088	1172.836	-386.334	172.922	1078.663	-414.544	131.445	933.663	-416.333	130.579	655.876
-472.552	141.422	1111.303	-406.021	108.116	1172.904	-386.354	172.819	1078.623	-414.568	131.275	933.629	-416.363	130.550	655.871
-472.588	141.306	1111.279	-406.082	108.037	1172.872	-386.404	172.684	1078.593	-414.654	131.313	933.704	-416.437	130.483	655.835
-472.623	141.454	1111.429	-406.086	108.071	1172.919	-386.395	172.582	1078.607	-414.630	131.127	933.625	-416.480	130.399	655.967
-472.702	141.240	1111.372	-406.118	108.122	1172.977	-386.468	172.453	1078.558	-414.679	131.132	933.649	-416.541	130.347	655.881
-472.757	140.985	1111.255	-406.121	108.120	1173.007	-386.537	172.422	1078.525	-414.735	131.071	933.665	-416.515	130.277	655.966
-472.746	141.039	1111.455	-406.119	108.121	1173.055	-386.563	172.271	1078.471	-414.750	130.926	933.567	-416.582	130.283	655.996
-472.784	140.841	1111.443	-406.196	108.025	1173.066	-386.538	172.173	1078.490	-414.910	131.047	933.762	-416.613	130.104	656.046
-472.778	140.952	1111.520	-406.208	107.949	1173.047	-386.606	172.145	1078.574	-414.943	130.932	933.756	-416.672	130.084	656.122
-472.904	140.775	1111.496	-406.204	108.123	1173.198	-386.687	171.988	1078.484	-414.981	130.702	933.751	-416.749	130.033	656.145
-472.899	140.842	1111.716	-406.250	108.149	1173.240	-386.711	171.833	1078.502	-415.053	130.671	933.760	-416.761	129.943	656.199
-472.952	140.624	1111.605	-406.267	108.028	1173.277	-386.806	171.740	1078.512	-415.192	130.527	933.873	-416.921	129.854	656.247
-472.974	140.695	1111.925	-406.299	108.034	1173.296	-386.841	171.679	1078.591	-415.327	130.626	933.949	-417.042	129.750	656.462
-473.068	140.538	1111.949	-406.290	108.031	1173.375	-387.006	171.610	1078.605	-415.350	130.560	934.027	-417.066	129.695	656.522
-473.054	140.367	1111.961	-406.349	108.037	1173.465	-387.014	171.527	1078.648	-415.342	130.162	933.918	-417.191	129.704	656.550
-473.175	140.331	1112.156	-406.310	107.963	1173.492	-387.016	171.415	1078.675	-415.396	130.084	933.984	-417.287	129.556	656.513
-473.248	140.146	1112.170	-406.342	107.924	1173.599	-387.138	171.199	1078.567	-415.403	130.006	934.014	-417.396	129.417	656.620
-473.278	140.106	1112.276	-406.351	107.808	1173.650	-387.208	171.172	1078.620	-415.517	129.816	934.040	-417.451	129.434	656.693
-473.379	139.967	1112.351	-406.337	107.798	1173.702	-387.202	171.158	1078.657	-415.641	129.737	934.097	-417.570	129.394	656.701
-473.331	139.967	1112.415	-406.408	107.734	1173.781	-387.228	171.004	1078.596	-415.767	129.937	934.217	-417.645	129.392	656.766
-473.473	139.865	1112.395	-406.436	107.742	1173.801	-387.283	170.983	1078.637	-415.555	129.598	934.229	-417.759	129.258	656.776
-473.401	139.833	1112.457	-406.427	107.686	1173.869	-387.340	170.962	1078.685	-415.786	129.554	934.153	-417.739	129.217	656.776
-473.510	139.706	1112.382	-406.452	107.748	1173.917	-387.391	170.937	1078.672	-415.813	129.565	934.139	-417.983	129.105	656.804
-473.515	139.805	1112.559	-406.526	107.799	1174.046	-387.444	170.866	1078.658	-415.737	129.465	934.333	-418.068	129.159	656.859
-473.557	139.921	1112.676	-406.537	107.692	1174.044	-387.417	170.885	1078.656	-415.697	129.524	934.363	-418.113	129.088	656.855
-473.630	139.887	1112.579	-406.590	107.802	1174.066	-387.514	170.925	1078.747	-415.817	129.494	934.420	-418.204	128.890	656.781
-473.658	139.927	1112.657	-406.617	107.825	1174.071	-387.530	170.914	1078.729	-415.872	129.352	934.350	-418.306	128.888	656.814
-473.707	139.944	1112.692	-406.666	107.982	1174.207	-387.588	170.985	1078.757	-415.905	129.352	934.336	-418.333	128.866	656.954
-473.749	140.006	1112.732	-406.764	108.027	1174.209	-387.600	170.989	1078.709	-415.982	129.393	934.526	-418.342	128.819	656.874
-473.841	139.907	1112.694	-406.792	108.105	1174.262	-387.714	170.969	1078.681	-416.057	129.378	934.417	-418.424	128.822	656.880
-473.907	140.002	1112.620	-406.881	108.106	1174.320	-387.695	171.038	1078.754	-416.112	129.309	934.501	-418.480	128.743	656.936
-473.932	140.026	1112.833	-406.883	108.181	1174.362	-387.830	171.034	1078.721	-416.143	129.414	934.538	-418.506	128.764	656.936
-474.028	140.119	1112.790	-406.946	108.124	1174.432	-387.828	170.943	1078.718	-416.168	129.396	934.501	-418.510	128.778	657.048
-474.086	140.132	1112.781	-407.024	108.237	1174.408	-387.843	170.916	1078.678	-416.141	129.314	934.496	-418.616	128.737	657.006
-474.155	140.054	1112.744	-407.156	108.247	1174.482	-387.966	170.942	1078.677	-416.263	129.387	934.603	-418.545	128.717	657.015
-474.202	140.046	1112.832	-407.148	108.272	1174.559	-387.990	170.921	1078.641	-416.259	129.330	934.576	-418.615	128.725	656.969
-474.311	139.957	1112.865	-407.238	108.211	1174.527	-388.132	170.960	1078.629	-416.334	129.291	934.621	-418.593	128.665	657.014
-474.271	139.929	1112.916	-407.253	108.234	1174.548	-388.201	170.794	1078.650	-416.388	129.274	934.611	-418.607	128.702	657.029
-474.431	139.863	1112.841	-407.326	108.282	1174.579	-388.255	170.710	1078.600	-416.425	129.190	934.627	-418.586	128.671	656.910
-474.399	139.796	1112.787	-407.353	108.178	1174.618	-388.348	170.576	1078.562	-416.404	129.197	934.655	-418.610	128.644	657.016
-474.493	139.517	1112.764	-407.453	108.079	1174.631	-388.424	170.688	1078.663	-416.478	129.185	934.719	-418.639	128.683	657.032
-474.532	139.583	1112.791	-407.480	108.056	1174.649	-388.506	170.453	1078.490	-416.532	129.109	934.620	-418.578	128.574	656.981
-474.628	139.434	1112.683	-407.532	108.082	1174.687	-388.554	170.558	1078.575	-416.563	128.996	934.578	-418.640	128.600	657.030
-474.629	139.399	1112.798	-407.607	107.918	1174.607	-388.649	170.217	1078.409	-416.630	128.828	934.521	-418.618	128.541	657.006
-474.686	139.266	1112.730	-407.619	107.851	1174.564	-388.697	170.124	1078.423	-416.741	129.047	934.643	-418.615	128.490	657.022
-474.769	139.180	1112.633	-407.659	107.697	1174.546	-388.789	170.129	1078.405	-416.651	128.720	934.508	-418.726	128.415	656.877
-474.795	139.073	1112.564	-407.730	107.758	1174.575	-388.827	170.052	1078.483	-416.690	128.639	934.532	-418.689	128.418	656.840
-474.806	138.993	1112.602	-407.729	107.636	1174.536	-388.901	169.908	1078.416	-416.785	128.593	934.369	-418.722	128.324	656.869
-474.932	138.868	1112.498	-407.803	107.563	1174.504	-388.934	169.866	1078.371	-416.823	128.677	934.545	-418.742	128.312	656.794
-474.881	138.809	1112.541	-407.820	107.462	1174.451	-389.001	169.744	1078.286	-416.754	128.369	934.333	-418.767	128.254	656.811
-475.000	138.868	1112.495	-407.959	107.472	1174.450	-389.029	169.788	1078.293	-416.916	128.514	934.340	-418.817	128.150	656.693
-475.008	138.758	1112.456	-407.947	107.441	1174.389	-389.100	169.715	1078.248	-416.942	128.398	934.258	-418.889	128.019	656.569
-475.090	138.654	1112.306	-408.030	107.500	1174.396	-389.084	169.643	1078.233	-416.991	128.288	934.186	-418.938	127.950	656.574
-475.179	138.721	1112.318	-408.106	107.401	1174.274	-389.199	169.410	1078.079	-417.097	128.362	934.168	-418.947	127.923	656.491
-475.141	138.568	1112.235	-408.106	107.437	1174.341	-389.213	169.310	1077.954	-417.143	128.209	934.064	-418.981	127.826	656.533
-475.274	138.727	1112.228	-408.208	107.488	1174.351	-389.299	169.378	1078.021	-417.237	128.092	934.024	-419.127	127.697	656.467
-475.265	138.644	1112.168	-408.250	107.493	1174.298	-389.289	169.340	1078.001	-417.238	128.036	934.102	-419.182	127.713	656.473
-475.320	138.764	1112.118	-408.311	107.521	1174.266	-389.382	169.290	1077.925	-417.317	128.028	933.980	-419.210	127.627	656.528
-475.349	138.605	1112.086	-408.352	107.532	1174.276	-389.436	169.368	1077.979	-417.346	127.881	933.987	-419.262	127.516	656.516
-475.430	138.626	1112.138	-408.460	107.582	1174.233	-389.455	169.380	1077.977	-417.452	127.821	933.879	-419.400	127.500	656.420
-475.456	138.691	1112.121	-408.527	107.603	1174.248	-389.564	169.523	1077.972	-417.490	127.733	933.940	-419.413	127.358	656.440
-475.588	138.803	1112.138	-408.525	107.621	1174.210	-389.539	169.287	1077.848	-417.590	127.708	933.885	-419.439	127.297	656.307
-475.603	138.520	1112.029	-408.660	107.627	1174.185	-389.582	169.419	1077.868	-417.596	127.638	933.914	-419.519	127.231	656.260
-475.670	138.514	1111.919	-408.714	107.661	1174.126	-389.624	169.315	1077.839	-417.710	127.575	933.765	-419.615	127.189	656.290
-475.713	138.490	1111.851	-408.735	107.642	1174.103	-389.746	169.406	1077.845	-417.770	127.469	933.827	-419.679	127.091	656.296
-475.721	138.536	1112.044	-408.779	107.674	1174.148	-389.712	169.351	1077.787	-417.733	127.370	933.734	-419.666	127.037	656.272
-475.804	138.619	1111.899	-408.871	107.585	1174.007	-389.816	169.330	1077.900	-417.831	127.330	933.759	-419.743	127.003	656.192
-475.827	138.422	1111.702	-408.862	107.607	1174.020	-389.838	169.257	1077.821	-417.790	127.343	933.662	-419.693	126.944	656.180
-475.923	138.481	1111.738	-408.980	107.343	1173.884	-389.888	169.237	1077.773	-417.800	127.275	933.591	-419.753	126.890	656.125
-475.952	138.335	1111.687	-409.018	107.457	1173.947	-389.852	169.222	1077.726	-417.887	127.230	933.594	-419.774	126.935	656.101
-476.005	138.327	1111.654	-409.037	107.380	1173.840	-389.921	169.138	1077.675	-417.868	127.175	933.489	-419.741	126.848	656.042
-476.060	138.204	1111.504	-409.144	107.403	1173.799	-389.958	169.169	1077.664	-417.941	127.100	933.454	-419.775	126.808	655.983
-476.089	138.123	1111.537	-409.143	107.246	1173.693	-389.976	169.102	1077.647	-417.964	127.087	933.302	-419.729	126.727	655.957
-476.184	138.045	1111.391	-409.207	107.201	1173.680	-390.000	169.086	1077.684	-417.924	127.021	933.195	-419.712	126.809	655.921
-476.121	137.935	1111.418	-409.203	107.063	1173.581	-390.053	169.015	1077.600	-417.935	126.948	933.204	-419.699	126.763	655.913
-476.213	138.053	1111.381	-409.226	107.068	1173.600	-390.073	168.912	1077.622	-417.948	126.892	933.166	-419.679	126.731	655.876
-476.242	137.983	1111.324	-409.281	106.911	1173.535	-390.044	168.903	1077.544	-417.893	126.812	933.205	-419.594	126.735	655.960
-476.265	137.969	1111.349	-409.271	106.991	1173.519	-390.081	168.889	1077.520	-417.884	126.814	933.145	-419.640	126.620	655.851
-476.308	137.860	1111.266	-409.318	107.008	1173.570	-390.169	168.879	1077.624	-417.914	126.885	933.103	-419.615	126.633	655.862
-476.248	137.841	1111.326	-409.406	106.926	1173.606	-390.144	168.841	1077.611	-417.916	126.865	933.162	-419.554	126.634	655.863
-476.342	137.822	1111.367	-409.455	106.994	1173.562	-390.201	168.858	1077.609	-417.952	126.732	933.119	-419.537	126.669	655.810
-476.371	137.807	1111.336	-409.478	106.990	1173.624	-390.261	168.885	1077.653	-417.912	126.767	933.215	-419.507	126.669	655.885
-476.368	137.871	1111.323	-409.479	107.068	1173.645	-390.287	168.746	1077.608	-417.937	126.676	933.219	-419.505	126.620	655.945
-476.422	137.893	1111.421	-409.539	107.059	1173.646	-390.262	168.775	1077.562	-417.948	126.668	933.271	-419.395	126.633	655.949
-476.431	137.854	1111.483	-409.473	107.181	1173.796	-390.355	168.800	1077.575	-418.019	126.710	933.361	-419.458	126.594	655.918
-476.457	137.967	1111.576	-409.506	107.218	1173.887	-390.312	168.821	1077.656	-418.096	126.696	933.318	-419.454	126.605	656.028
-476.466	137.883	1111.546	-409.513	107.222	1173.822	-390.351	168.852	1077.643	-418.014	126.741	933.594	-419.481	126.594	655.989
-476.476	137.893	1111.525	-409.560	107.322	1174.020	-390.355	168.846	1077.689	-418.096	126.767	933.627	-419.492	126.601	656.153
-476.493	137.962	1111.720	-409.542	107.330	1174.051	-390.371	168.772	1077.685	-418.101	126.665	933.664	-419.498	126.611	656.132
-476.569	138.033	1111.853	-409.541	107.488	1174.147	-390.471	168.856	1077.762	-418.100	126.765	933.808	-419.488	126.535	656.184
-476.567	137.990	1111.913	-409.542	107.507	1174.172	-390.456	168.848	1077.752	-418.109	126.692	933.823	-419.549	126.492	656.223
-476.509	137.922	1111.896	-409.480	107.623	1174.374	-390.432	168.796	1077.764	-418.130	126.715	933.916	-419.562	126.527	656.254
-476.567	137.995	1111.955	-409.518	107.722	1174.448	-390.462	168.829	1077.774	-418.210	126.660	934.040	-419.553	126.394	656.309
-476.573	137.996	1112.160	-409.511	107.780	1174.554	-390.494	168.842	1077.852	-418.250	126.761	934.211	-419.680	126.397	656.371
-476.609	137.923	1112.114	-409.525	107.818	1174.611	-390.588	168.855	1077.845	-418.285	126.643	934.145	-419.670	126.380	656.404
-476.619	137.893	1112.217	-409.541	107.798	1174.599	-390.567	168.930	1077.913	-418.328	126.605	934.316	-419.696	126.366	656.508
-476.595	137.957	1112.353	-409.537	107.837	1174.727	-390.546	168.872	1077.907	-418.379	126.596	934.391	-419.733	126.317	656.489
-476.721	138.175	1112.541	-409.592	107.903	1174.781	-390.586	168.823	1077.923	-418.381	126.649	934.442	-419.831	126.292	656.566
-476.713	138.178	1112.589	-409.559	107.837	1174.801	-390.618	168.826	1078.000	-418.373	126.486	934.573	-419.813	126.268	656.601
-476.749	138.088	1112.636	-409.544	107.832	1174.969	-390.652	168.865	1078.085	-418.460	126.543	934.610	-419.879	126.216	656.610
-476.770	138.037	1112.656	-409.597	107.814	1174.993	-390.653	168.838	1078.123	-418.445	126.500	934.632	-419.711	126.186	656.647
-476.734	137.996	1112.703	-409.553	107.823	1175.087	-390.657	168.609	1077.939	-418.513	126.322	934.787	-419.842	126.154	656.746
-476.762	138.098	1112.840	-409.573	107.795	1175.143	-390.662	168.689	1078.078	-418.516	126.422	934.872	-419.868	126.125	656.790
-476.816	137.949	1112.910	-409.585	107.668	1175.206	-390.733	168.550	1078.026	-418.533	126.330	934.910	-419.962	126.051	656.881
-476.873	137.928	1112.975	-409.609	107.700	1175.285	-390.758	168.600	1078.073	-418.537	126.348	935.063	-419.923	125.977	656.921
-476.895	137.884	1113.045	-409.572	107.652	1175.365	-390.816	168.520	1078.074	-418.593	126.324	935.089	-419.946	125.885	657.066
-476.915	137.836	1113.040	-409.669	107.586	1175.431	-390.869	168.548	1078.140	-418.651	126.272	935.178	-419.917	125.811	657.106
-476.964	137.888	1113.167	-409.653	107.581	1175.579	-390.921	168.549	1078.209	-418.632	126.197	935.336	-419.964	125.804	657.211
-476.977	137.844	1113.360	-409.678	107.541	1175.609	-390.985	168.538	1078.216	-418.641	126.225	935.294	-419.908	125.812	657.359
-477.051	137.863	1113.356	-409.683	107.551	1175.734	-391.009	168.518	1078.272	-418.696	126.163	935.501	-419.953	125.766	657.363
-477.013	137.785	1113.469	-409.750	107.465	1175.845	-391.089	168.491	1078.316	-418.652	126.043	935.456	-420.049	125.642	657.461
-477.107	137.766	1113.505	-409.693	107.535	1175.859	-391.175	168.495	1078.374	-418.690	126.047	935.628	-419.968	125.767	657.546
-477.098	137.796	1113.611	-409.781	107.462	1175.960	-391.238	168.397	1078.328	-418.691	126.096	935.642	-419.895	125.750	657.586
-477.217	137.738	1113.615	-409.827	107.495	1176.072	-391.302	168.369	1078.473	-418.774	126.185	935.707	-419.927	125.646	657.677
-477.179	137.672	1113.823	-409.833	107.567	1176.179	-391.397	168.598	1078.645	-418.815	126.228	935.938	-419.914	125.716	657.997
-477.271	137.738	1113.780	-409.837	107.554	1176.236	-391.464	168.460	1078.578	-418.808	126.267	936.007	-419.927	125.615	657.988
-477.298	137.635	1113.843	-409.863	107.495	1176.289	-391.490	168.487	1078.592	-418.897	126.311	936.146	-419.943	125.558	658.103
-477.287	137.639	1113.888	-409.918	107.510	1176.338	-391.566	168.446	1078.640	-418.844	126.265	936.106	-419.883	125.573	658.141
-477.359	137.622	1113.970	-409.927	107.563	1176.450	-391.536	168.280	1078.650	-418.999	126.292	936.343	-419.880	125.534	658.306
-477.373	137.635	1114.010	-409.976	107.523	1176.464	-391.657	168.741	1078.947	-418.943	126.307	936.306	-419.838	125.540	658.431
-477.447	137.702	1114.106	-410.062	107.593	1176.573	-391.661	168.450	1078.817	-418.912	126.324	936.297	-419.837	125.568	658.390
-477.503	137.649	1114.073	-410.010	107.499	1176.527	-391.801	168.685	1078.961	-418.981	126.346	936.400	-419.852	125.476	658.534
-477.465	137.458	1114.173	-410.138	107.585	1176.606	-391.781	168.375	1078.956	-419.055	126.442	936.568	-419.826	125.704	658.445
-477.550	137.538	1114.188	-410.193	107.726	1176.741	-391.860	168.531	1079.061	-418.991	126.419	936.490	-419.884	125.620	658.547
-477.542	137.531	1114.346	-410.200	107.719	1176.772	-391.886	168.574	1079.080	-419.102	126.517	936.745	-419.794	125.541	658.695
-477.540	137.511	1114.325	-410.141	107.486	1176.782	-391.933	168.597	1079.226	-418.978	126.314	936.656	-419.785	125.563	658.745
-477.618	137.570	1114.442	-410.319	107.724	1176.889	-392.033	168.795	1079.362	-419.064	126.457	936.694	-419.827	125.616	658.772
-477.711	137.549	1114.328	-410.253	107.463	1176.811	-392.034	168.771	1079.400	-419.217	126.543	936.830	-419.863	125.576	658.917
-477.688	137.580	1114.506	-410.242	107.411	1176.853	-392.137	168.806	1079.501	-419.192	126.652	936.866	-419.791	125.491	658.905
-477.750	137.484	1114.516	-410.335	107.375	1176.876	-392.196	168.846	1079.536	-419.287	126.598	936.894	-419.851	125.517	659.007
-477.766	137.464	1114.509	-410.338	107.389	1176.902	-392.250	168.869	1079.590	-419.266	126.557	936.921	-419.874	125.549	659.138
-477.741	137.533	1114.640	-410.399	107.303	1176.917	-392.252	168.875	1079.651	-419.274	126.529	937.004	-419.849	125.395	659.228
-477.828	137.389	1114.687	-410.371	107.326	1177.014	-392.286	168.902	1079.714	-419.289	126.496	937.040	-419.888	125.483	659.353
-477.840	137.409	1114.728	-410.386	107.188	1177.107	-392.340	168.984	1079.872	-419.333	126.512	937.059	-419.911	125.380	659.392
-477.858	137.281	1114.717	-410.468	107.193	1177.190	-392.388	168.873	1079.964	-419.375	126.326	937.128	-419.970	125.396	659.375
-477.862	137.284	1114.818	-410.497	107.077	1177.258	-392.467	168.927	1080.010	-419.414	126.403	937.195	-419.913	125.358	659.605
-477.899	137.296	1114.982	-410.451	107.056	1177.264	-392.453	168.973	1080.190	-419.445	126.387	937.280	-420.020	125.336	659.556
-477.844	137.223	1115.022	-410.452	107.054	1177.335	-392.480	169.017	1080.233	-419.436	126.298	937.373	-420.017	125.326	659.782
-477.886	137.246	1115.172	-410.494	107.050	1177.447	-392.566	169.045	1080.283	-419.479	126.255	937.373	-420.044	125.304	659.791
-477.927	137.182	1115.125	-410.461	107.035	1177.496	-392.534	169.127	1080.402	-419.470	126.294	937.445	-420.032	125.221	659.908
-478.007	137.310	1115.259	-410.485	106.960	1177.609	-392.582	169.150	1080.539	-419.491	126.328	937.509	-420.090	125.179	660.012
-477.912	137.205	1115.335	-410.510	107.100	1177.672	-392.634	169.130	1080.536	-419.549	126.239	937.557	-420.118	125.291	660.192
-477.946	137.190	1115.472	-410.480	107.020	1177.847	-392.666	169.249	1080.705	-419.544	126.192	937.650	-420.132	125.233	660.325
-477.965	137.308	1115.634	-410.503	107.118	1177.852	-392.698	169.160	1080.756	-419.530	126.277	937.676	-420.238	125.229	660.466
-477.970	137.334	1115.797	-410.506	107.103	1177.944	-392.702	169.160	1080.748	-419.510	126.193	937.712	-420.132	125.143	660.570
-477.969	137.291	1115.783	-410.495	106.987	1177.956	-392.778	169.257	1080.857	-419.545	126.168	937.809	-420.170	125.167	660.726
-478.146	137.368	1115.982	-410.449	107.035	1178.061	-392.726	169.237	1081.016	-419.572	126.163	937.887	-420.111	125.169	660.768
-478.121	137.335	1116.011	-410.423	106.967	1178.174	-392.872	169.217	1081.127	-419.635	126.075	937.921	-420.173	125.198	660.953
-478.168	137.358	1116.090	-410.463	106.991	1178.287	-392.810	169.405	1081.214	-419.621	126.087	938.050	-420.170	125.216	661.019
-478.174	137.420	1116.146	-410.399	106.931	1178.420	-392.903	169.469	1081.358	-419.563	126.054	938.074	-420.138	125.192	661.115
-478.247	137.474	1116.258	-410.399	106.887	1178.491	-392.903	169.369	1081.373	-419.678	126.015	938.104	-420.075	125.060	661.232
-478.203	137.451	1116.355	-410.404	106.963	1178.603	-393.037	169.576	1081.552	-419.634	125.971	938.255	-420.150	125.139	661.396
-478.270	137.685	1116.512	-410.434	106.886	1178.632	-393.023	169.481	1081.576	-419.626	126.005	938.272	-420.135	125.124	661.337
-478.182	137.577	1116.509	-410.384	106.838	1178.722	-393.009	169.525	1081.598	-419.653	125.998	938.300	-420.045	125.010	661.436
-478.259	137.609	1116.596	-410.365	106.906	1178.799	-392.979	169.552	1081.664	-419.635	125.949	938.354	-419.975	125.102	661.462
-478.300	137.692	1116.630	-410.387	106.901	1178.833	-393.004	169.469	1081.690	-419.678	125.938	938.393	-420.031	125.044	661.535
-478.278	137.706	1116.651	-410.387	106.818	1178.929	-393.074	169.489	1081.769	-419.673	125.983	938.483	-419.969	125.096	661.624
-478.342	137.805	1116.838	-410.416	106.706	1179.000	-393.101	169.491	1081.743	-419.663	125.890	938.595	-419.938	125.097	661.809
-478.373	137.753	1116.866	-410.452	106.791	1178.988	-393.061	169.534	1081.858	-419.667	125.877	938.613	-419.914	125.089	661.815
-478.344	137.726	1116.887	-410.420	106.759	1179.014	-393.100	169.484	1081.883	-419.690	125.884	938.640	-419.971	125.055	661.819
-478.421	137.760	1116.971	-410.487	106.775	1179.168	-393.154	169.509	1081.878	-419.636	125.910	938.655	-419.843	125.017	661.927
-478.509	137.732	1117.039	-410.482	106.590	1179.180	-393.203	169.515	1081.968	-419.646	125.837	938.690	-419.823	125.031	661.898
-478.581	137.810	1117.153	-410.534	106.547	1179.168	-393.204	169.401	1081.963	-419.703	125.832	938.661	-419.803	125.056	662.057
-478.575	137.705	1117.056	-410.511	106.683	1179.312	-393.192	169.392	1082.027	-419.727	125.841	938.749	-419.893	125.143	661.962
-478.553	137.634	1117.004	-410.558	106.513	1179.302	-393.234	169.365	1082.005	-419.666	125.846	938.723	-419.877	125.039	662.044
-478.557	137.632	1117.077	-410.538	106.546	1179.262	-393.217	169.324	1082.023	-419.712	125.702	938.727	-419.922	125.091	662.001
-478.662	137.566	1117.186	-410.545	106.466	1179.329	-393.327	169.252	1082.014	-419.756	125.758	938.818	-419.807	125.100	662.100
-478.658	137.616	1117.131	-410.607	106.478	1179.291	-393.301	169.355	1081.997	-419.762	125.726	938.763	-419.847	125.047	662.075
-478.723	137.446	1117.158	-410.617	106.404	1179.406	-393.358	169.243	1082.073	-419.762	125.595	938.843	-419.905	124.962	662.073
-478.726	137.525	1117.246	-410.616	106.289	1179.377	-393.383	169.182	1082.031	-419.791	125.576	938.864	-419.849	124.886	662.089
-478.750	137.533	1117.173	-410.556	106.420	1179.495	-393.385	169.156	1082.103	-419.823	125.555	938.879	-419.862	124.948	662.101
-478.816	137.542	1117.099	-410.719	106.423	1179.446	-393.335	169.213	1082.097	-419.861	125.509	938.848	-419.898	124.919	662.138
-478.789	137.554	1117.204	-410.691	106.349	1179.454	-393.435	169.181	1082.067	-419.895	125.588	938.922	-419.915	124.855	662.158
-478.763	137.358	1117.130	-410.719	106.418	1179.501	-393.470	169.092	1082.044	-419.869	125.531	938.895	-419.951	124.880	662.193
-478.643	137.511	1117.177	-410.704	106.457	1179.428	-393.440	169.135	1082.065	-419.892	125.495	938.848	-420.034	124.961	662.185
-478.779	137.436	1117.115	-410.753	106.330	1179.546	-393.423	169.177	1082.123	-419.895	125.541	938.924	-420.051	124.927	662.119
-478.885	137.422	1117.163	-410.726	106.472	1179.542	-393.441	169.104	1082.074	-419.949	125.496	938.953	-420.029	124.904	662.190
-478.816	137.520	1117.222	-410.764	106.408	1179.512	-393.463	169.235	1082.083	-419.970	125.479	938.902	-420.038	124.832	662.151
-478.895	137.516	1117.281	-410.794	106.448	1179.513	-393.493	169.152	1082.103	-419.969	125.407	938.912	-420.078	124.789	662.175
-478.671	137.480	1117.217	-410.801	106.459	1179.555	-393.478	169.137	1082.123	-419.968	125.424	938.950	-420.211	124.795	662.224
-478.699	137.445	1117.232	-410.807	106.338	1179.499	-393.451	169.120	1082.136	-420.045	125.424	938.876	-420.156	124.741	662.250
-478.762	137.521	1117.219	-410.822	106.275	1179.453	-393.479	169.142	1082.102	-420.045	125.438	938.881	-420.156	124.758	662.248
-478.727	137.418	1117.169	-410.868	106.213	1179.600	-393.470	169.129	1082.163	-420.008	125.433	938.870	-420.187	124.787	662.211
-478.791	137.471	1117.212	-410.854	106.305	1179.470	-393.468	169.063	1082.080	-420.014	125.376	938.918	-420.212	124.742	662.185
-478.676	137.324	1117.115	-410.792	106.233	1179.426	-393.486	169.036	1082.071	-420.023	125.337	938.986	-420.165	124.776	662.186
-478.699	137.321	1117.162	-410.859	106.144	1179.348	-393.488	169.005	1082.136	-419.982	125.301	938.951	-420.255	124.835	662.149
-478.772	137.229	1117.115	-410.790	106.103	1179.628	-393.451	169.007	1082.129	-420.054	125.363	938.936	-420.207	124.736	662.163
-478.736	137.060	1117.125	-410.812	106.010	1179.497	-393.506	168.905	1082.095	-420.092	125.230	938.910	-420.196	124.721	662.269
-478.782	136.971	1117.107	-410.892	105.881	1179.553	-393.524	168.830	1082.188	-420.050	125.198	938.919	-420.140	124.742	662.207
-478.716	136.845	1117.088	-410.881	105.794	1179.553	-393.486	168.813	1082.156	-419.946	125.093	938.994	-420.265	124.763	662.194
-478.707	136.815	1117.140	-410.864	105.783	1179.546	-393.518	168.751	1082.173	-420.025	125.036	938.907	-420.099	124.861	662.199
-478.711	136.755	1117.124	-410.818	105.736	1179.485	-393.518	168.692	1082.074	-419.910	125.059	938.883	-420.092	124.755	662.193
-478.713	136.736	1117.179	-410.775	105.798	1179.565	-393.450	168.598	1082.194	-419.884	124.953	938.977	-420.141	124.802	662.272
-478.519	136.230	1116.987	-410.773	105.682	1179.543	-393.493	168.700	1082.151	-419.911	125.003	938.934	-420.125	124.820	662.217
-478.655	136.636	1117.192	-410.735	105.670	1179.508	-393.467	168.589	1082.178	-419.885	124.981	938.912	-420.096	124.844	662.205
-478.585	136.488	1117.101	-410.725	105.650	1179.554	-393.409	168.615	1082.244	-419.818	124.982	938.994	-420.122	124.859	662.246
-478.606	136.568	1117.215	-410.735	105.638	1179.524	-393.421	168.558	1082.236	-419.859	124.969	938.999	-420.088	124.845	662.283
-478.454	136.304	1117.192	-410.683	105.663	1179.612	-393.401	168.567	1082.225	-419.839	125.087	939.058	-420.033	124.902	662.254
-478.546	136.611	1117.292	-410.710	105.663	1179.576	-393.359	168.615	1082.306	-419.769	125.097	939.066	-420.008	124.985	662.284
-478.527	136.483	1117.280	-410.621	105.800	1179.691	-393.322	168.688	1082.366	-419.820	125.090	939.115	-419.962	124.973	662.307
-478.506	136.525	1117.347	-410.605	105.852	1179.744	-393.277	168.658	1082.408	-419.750	125.174	939.071	-419.966	124.983	662.385
-478.527	136.770	1117.547	-410.587	105.813	1179.699	-393.321	168.702	1082.374	-419.759	125.163	939.110	-419.986	124.931	662.464
-478.411	136.521	1117.395	-410.509	105.904	1179.691	-393.294	168.750	1082.412	-419.688	125.185	939.121	-419.947	124.950	662.456
-478.377	136.618	1117.469	-410.463	106.131	1179.867	-393.258	168.785	1082.345	-419.730	125.211	939.142	-419.991	125.015	662.486
-478.387	136.922	1117.677	-410.476	105.888	1179.810	-393.279	168.800	1082.402	-419.685	125.274	939.118	-419.939	125.023	662.602
-478.343	136.947	1117.690	-410.486	106.040	1179.870	-393.225	168.838	1082.422	-419.776	125.309	939.214	-419.910	125.020	662.611
-478.327	137.125	1117.900	-410.401	106.109	1179.906	-393.215	168.823	1082.523	-419.735	125.408	939.166	-419.991	125.025	662.538
-478.311	137.092	1117.857	-410.500	106.178	1179.916	-393.209	168.945	1082.438	-419.736	125.411	939.275	-420.029	125.133	662.677
-478.346	137.146	1117.934	-410.467	106.100	1179.933	-393.215	168.868	1082.485	-419.733	125.394	939.294	-419.944	125.115	662.607
-478.469	137.380	1118.095	-410.445	106.209	1179.961	-393.259	168.879	1082.443	-419.753	125.394	939.298	-419.964	125.118	662.618
-478.424	137.306	1118.026	-410.427	106.195	1179.946	-393.242	168.931	1082.491	-419.772	125.412	939.342	-419.956	125.087	662.679
-478.409	137.185	1118.075	-410.395	106.111	1180.018	-393.260	168.829	1082.484	-419.741	125.383	939.380	-420.032	125.268	662.733
-478.369	137.243	1118.206	-410.377	106.172	1180.015	-393.235	168.795	1082.573	-419.693	125.327	939.316	-419.999	125.188	662.729
-478.441	137.126	1118.203	-410.391	106.120	1180.056	-393.277	168.689	1082.486	-419.884	125.168	939.388	-419.968	125.053	662.678
-478.440	137.004	1118.124	-410.368	105.903	1180.034	-393.217	168.642	1082.609	-419.911	125.103	939.363	-420.037	125.146	662.807
-478.431	136.942	1118.232	-410.369	105.916	1180.061	-393.268	168.580	1082.599	-419.883	125.095	939.395	-419.984	125.169	662.818
-478.364	136.784	1118.220	-410.329	105.835	1180.014	-393.250	168.546	1082.608	-419.939	124.972	939.424	-420.023	125.133	662.772
-478.418	136.712	1118.285	-410.397	105.748	1179.979	-393.292	168.439	1082.623	-419.904	124.980	939.349	-420.048	125.214	662.799
-478.431	136.632	1118.275	-410.365	105.754	1180.055	-393.265	168.420	1082.687	-419.899	124.914	939.399	-420.008	125.188	662.821
-478.412	136.520	1118.197	-410.381	105.704	1180.033	-393.288	168.381	1082.645	-419.890	124.850	939.405	-420.077	125.152	662.822
-478.364	136.348	1118.179	-410.404	105.573	1180.068	-393.283	168.241	1082.729	-419.937	124.886	939.379	-420.085	125.154	662.858
-478.416	136.334	1118.159	-410.401	105.537	1180.070	-393.325	168.363	1082.679	-419.914	124.867	939.374	-420.114	125.134	662.837
-478.388	136.289	1118.225	-410.369	105.541	1180.008	-393.354	168.214	1082.755	-419.940	124.859	939.401	-420.079	125.059	662.742
-478.469	136.321	1118.237	-410.411	105.512	1180.018	-393.292	168.207	1082.734	-419.876	124.833	939.430	-420.026	125.007	662.894
-478.426	136.255	1118.243	-410.467	105.527	1180.054	-393.324	168.259	1082.694	-419.943	124.824	939.395	-420.219	125.202	662.816
-478.421	136.162	1118.271	-410.433	105.519	1180.068	-393.306	168.234	1082.755	-419.929	124.823	939.410	-420.286	125.140	662.822
-478.422	136.090	1118.223	-410.486	105.454	1180.021	-393.355	168.290	1082.748	-419.939	124.862	939.442	-420.267	125.257	662.881
-478.472	136.126	1118.185	-410.449	105.505	1180.053	-393.329	168.169	1082.777	-419.980	124.803	939.410	-420.279	125.132	662.872
-478.427	136.208	1118.266	-410.422	105.491	1180.144	-393.310	168.314	1082.780	-420.017	124.833	939.382	-420.277	125.206	662.878
-478.484	136.230	1118.247	-410.447	105.529	1180.092	-393.401	168.207	1082.704	-419.985	124.775	939.363	-420.231	125.212	662.873
-478.459	136.240	1118.369	-410.529	105.494	1180.035	-393.394	168.227	1082.765	-420.007	124.831	939.439	-420.276	125.174	662.870
-478.487	136.183	1118.234	-410.522	105.449	1180.056	-393.386	168.179	1082.736	-420.057	124.804	939.378	-420.319	125.262	662.865
-478.543	136.184	1118.297	-410.610	105.516	1180.083	-393.440	168.235	1082.715	-420.009	124.839	939.415	-420.362	125.226	662.826
-478.546	136.232	1118.288	-410.610	105.478	1180.006	-393.418	168.194	1082.686	-420.023	124.823	939.435	-420.324	125.219	662.866
-478.531	136.146	1118.165	-410.596	105.503	1180.109	-393.446	168.173	1082.727	-420.015	124.871	939.384	-420.374	125.339	662.862
-478.593	136.091	1118.234	-410.663	105.397	1180.106	-393.494	168.132	1082.734	-420.023	124.809	939.418	-420.328	125.315	662.908
-478.643	136.269	1118.304	-410.662	105.510	1180.069	-393.512	168.138	1082.744	-420.102	124.829	939.443	-420.405	125.422	662.888
-478.598	136.084	1118.116	-410.711	105.485	1180.136	-393.494	168.098	1082.735	-420.115	124.844	939.404	-420.355	125.318	662.900
-478.663	136.022	1118.214	-410.721	105.484	1180.129	-393.586	168.080	1082.776	-420.117	124.833	939.447	-420.380	125.390	662.857
-478.665	136.014	1118.108	-410.755	105.395	1180.062	-393.523	168.093	1082.787	-420.124	124.829	939.406	-420.394	125.400	662.930
-478.654	136.089	1118.248	-410.754	105.483	1180.107	-393.549	168.046	1082.743	-420.144	124.828	939.405	-420.411	125.425	662.833
-478.685	135.926	1118.172	-410.815	105.363	1180.070	-393.592	168.017	1082.746	-420.106	124.813	939.421	-420.405	125.507	662.866
-478.706	135.844	1118.163	-410.799	105.362	1180.095	-393.577	168.012	1082.764	-420.134	124.814	939.478	-420.417	125.541	662.914
-478.723	135.809	1118.130	-410.787	105.389	1180.062	-393.651	168.004	1082.740	-420.119	124.791	939.412	-420.365	125.476	662.838
-478.700	135.859	1118.126	-410.797	105.353	1180.106	-393.684	168.014	1082.741	-420.142	124.782	939.423	-420.434	125.620	662.880
-478.751	135.666	1118.106	-410.817	105.237	1179.966	-393.681	167.927	1082.737	-420.174	124.727	939.378	-420.282	125.484	662.880
-478.744	135.691	1118.083	-410.821	105.277	1180.056	-393.691	167.905	1082.715	-420.142	124.752	939.394	-420.458	125.598	662.826
-478.775	135.697	1118.215	-410.775	105.171	1180.106	-393.672	167.864	1082.720	-420.183	124.725	939.369	-420.461	125.590	662.852
-478.724	135.645	1118.166	-410.781	105.209	1180.032	-393.726	167.878	1082.776	-420.136	124.730	939.377	-420.431	125.665	662.867
-478.740	135.641	1118.202	-410.830	105.281	1180.075	-393.737	167.817	1082.762	-420.145	124.733	939.406	-420.446	125.711	662.830
-478.729	135.591	1118.240	-410.778	105.190	1180.102	-393.727	167.865	1082.758	-420.199	124.755	939.406	-420.416	125.678	662.899
-478.762	135.583	1118.186	-410.820	105.188	1180.073	-393.688	167.850	1082.819	-420.173	124.685	939.390	-420.445	125.731	662.850
-478.719	135.471	1118.129	-410.844	105.184	1180.075	-393.738	167.806	1082.773	-420.137	124.722	939.387	-420.516	125.717	662.909
-478.763	135.650	1118.245	-410.861	105.230	1180.095	-393.760	167.869	1082.814	-420.224	124.743	939.424	-420.481	125.700	662.961
-478.713	135.649	1118.245	-410.866	105.183	1180.062	-393.679	167.772	1082.866	-420.191	124.765	939.406	-420.585	125.766	662.904
-478.768	135.807	1118.315	-410.811	105.150	1180.086	-393.682	167.778	1082.777	-420.213	124.725	939.413	-420.599	125.787	662.921
-478.787	135.713	1118.209	-410.858	105.219	1180.118	-393.731	167.851	1082.865	-420.242	124.829	939.466	-420.664	125.808	662.905
-478.810	135.692	1118.307	-410.862	105.229	1180.134	-393.680	167.896	1082.875	-420.231	124.792	939.480	-420.687	125.763	662.931
-478.763	135.818	1118.478	-410.857	105.277	1180.136	-393.740	167.916	1082.877	-420.248	124.773	939.498	-420.698	125.816	662.971
-478.809	135.882	1118.453	-410.873	105.296	1180.115	-393.749	167.876	1082.757	-420.245	124.832	939.487	-420.761	125.875	662.949
-478.806	135.943	1118.487	-410.851	105.291	1180.080	-393.781	167.871	1082.849	-420.323	124.834	939.514	-420.793	125.803	662.952
-478.811	135.796	1118.425	-410.915	105.320	1180.134	-393.752	167.857	1082.779	-420.290	124.851	939.525	-420.781	125.889	663.008
-478.801	135.785	1118.396	-410.919	105.363	1180.199	-393.787	167.824	1082.914	-420.293	124.826	939.488	-420.780	125.877	662.964
-478.831	136.022	1118.530	-410.913	105.358	1180.185	-393.796	167.910	1082.886	-420.340	124.845	939.512	-420.870	125.954	662.973
-478.857	135.845	1118.402	-410.917	105.379	1180.173	-393.828	167.869	1082.883	-420.360	124.840	939.492	-420.868	125.927	663.017
-478.891	135.929	1118.505	-410.915	105.325	1180.179	-393.820	167.935	1082.820	-420.379	124.823	939.529	-420.869	125.875	662.964
-478.903	135.836	1118.473	-410.931	105.293	1180.140	-393.802	167.869	1082.873	-420.384	124.772	939.519	-420.860	125.949	663.001
-478.868	135.995	1118.575	-410.959	105.324	1180.189	-393.886	167.776	1082.819	-420.376	124.843	939.526	-420.936	125.937	662.968
-478.902	135.717	1118.403	-410.955	105.299	1180.153	-393.826	167.849	1082.823	-420.383	124.881	939.567	-420.895	125.995	663.030
-478.969	135.822	1118.349	-410.972	105.279	1180.195	-393.841	167.811	1082.891	-420.383	124.793	939.516	-420.924	126.102	662.982
-478.894	135.748	1118.369	-410.951	105.299	1180.141	-393.882	167.708	1082.792	-420.463	124.800	939.489	-420.943	126.058	662.979
-478.947	135.685	1118.293	-410.987	105.268	1180.190	-393.870	167.752	1082.843	-420.399	124.804	939.513	-420.928	126.085	663.044
-479.004	135.653	1118.402	-411.039	105.210	1180.116	-393.914	167.787	1082.923	-420.416	124.811	939.487	-420.920	126.082	662.977
-478.949	135.666	1118.400	-410.998	105.251	1180.171	-393.882	167.750	1082.875	-420.379	124.830	939.563	-420.977	126.143	662.961
-478.976	135.601	1118.330	-411.103	105.241	1180.151	-393.921	167.777	1082.876	-420.397	124.872	939.526	-421.014	126.213	662.991
-478.967	135.579	1118.335	-411.065	105.140	1180.119	-393.914	167.783	1082.891	-420.417	124.863	939.485	-420.959	126.229	662.934
-479.026	135.588	1118.366	-411.107	105.153	1180.118	-394.015	167.780	1082.881	-420.379	124.860	939.487	-420.972	126.175	662.950
-479.008	135.498	1118.314	-411.108	105.187	1180.176	-393.972	167.761	1082.929	-420.439	124.900	939.519	-420.963	126.288	662.959
-479.043	135.488	1118.362	-411.099	105.124	1180.222	-393.962	167.708	1082.869	-420.468	124.880	939.529	-420.987	126.279	662.959
-479.053	135.560	1118.328	-411.131	105.099	1180.107	-393.986	167.767	1082.919	-420.429	124.979	939.603	-421.043	126.343	662.965
