NO_OF_FRAMES	2500
NO_OF_CAMERAS	7
NO_OF_MARKERS	5
FREQUENCY	250
NO_OF_ANALOG	0
ANALOG_FREQUENCY	0
DESCRIPTION	--
TIME_STAMP	2012-02-07, 12:06:45	12467.45171912
DATA_INCLUDED	3D
MARKER_NAMES	cylinder_tip	cylinder_left	cylinder_right	weight_top	weight_low
-501.320	520.301	1225.404	-422.439	508.569	1281.780	-433.556	580.655	1190.586	-454.373	532.192	1045.431	-453.773	531.799	768.268
-501.311	520.203	1225.421	-422.435	508.621	1281.790	-433.807	580.831	1190.724	-454.507	532.264	1045.453	-453.843	531.820	768.200
-501.347	520.422	1225.349	-422.508	508.771	1281.805	-433.736	580.788	1190.745	-454.601	532.398	1045.492	-454.007	532.028	768.364
-501.322	521.398	1227.011	-422.453	508.792	1281.887	-433.528	580.656	1190.702	-454.434	532.435	1045.272	-454.102	532.109	768.204
-501.451	521.637	1227.185	-422.500	508.819	1281.859	-433.555	580.763	1190.751	-454.377	532.489	1045.321	-454.044	532.130	768.186
-501.472	521.579	1227.157	-422.525	508.826	1281.929	-433.579	580.737	1190.738	-454.412	532.392	1045.261	-454.158	532.107	768.251
-501.434	521.456	1227.037	-422.485	508.799	1281.859	-433.630	580.726	1190.711	-454.474	532.489	1045.313	-454.094	532.151	768.321
-501.439	521.580	1227.080	-422.520	508.755	1281.918	-433.571	580.601	1190.698	-454.373	532.466	1045.329	-454.126	532.073	768.206
-501.367	521.336	1226.952	-422.551	508.810	1281.958	-433.550	580.529	1190.732	-454.357	532.366	1045.235	-454.050	532.087	768.281
-501.383	521.354	1227.008	-422.557	508.820	1281.957	-433.526	580.486	1190.692	-454.412	532.373	1045.271	-454.099	532.089	768.223
-501.344	521.291	1227.061	-422.527	508.533	1281.783	-433.529	580.492	1190.753	-454.373	532.401	1045.326	-454.168	532.037	768.145
-501.438	521.319	1227.043	-422.516	508.526	1281.777	-433.558	580.398	1190.745	-454.450	532.443	1045.373	-454.300	532.064	768.145
-501.441	521.150	1227.116	-422.555	508.398	1281.821	-433.595	580.440	1190.759	-454.464	532.405	1045.384	-454.250	532.075	768.067
-501.385	521.122	1227.206	-422.600	508.356	1281.767	-433.583	580.365	1190.798	-454.387	532.285	1045.247	-454.375	532.206	768.210
-501.372	520.915	1227.023	-422.598	508.337	1281.838	-433.564	580.239	1190.852	-454.384	532.113	1045.133	-454.386	532.101	768.193
-501.364	520.718	1226.933	-422.570	508.210	1281.754	-433.628	580.231	1190.907	-454.447	532.126	1045.199	-454.457	532.167	768.262
-501.342	520.792	1227.099	-422.563	508.111	1281.831	-433.648	580.219	1190.902	-454.440	532.068	1045.205	-454.527	532.142	768.239
-501.321	520.531	1226.972	-422.577	508.114	1281.848	-433.646	580.163	1190.899	-454.451	532.053	1045.248	-454.535	532.080	768.190
-501.345	520.683	1227.159	-422.559	508.012	1281.809	-433.649	580.075	1190.960	-454.492	531.926	1045.229	-454.588	532.024	768.236
-501.329	520.575	1227.231	-422.574	507.908	1281.845	-433.586	579.892	1190.992	-454.481	531.832	1045.206	-454.668	532.063	768.354
-501.326	520.482	1227.245	-422.548	508.021	1281.909	-433.616	579.965	1191.049	-454.425	531.846	1045.242	-454.616	531.929	768.263
-501.254	520.405	1227.250	-422.487	507.918	1281.972	-433.552	579.765	1191.045	-454.441	531.751	1045.271	-454.698	531.924	768.344
-501.357	520.258	1227.273	-422.489	507.768	1281.772	-433.634	579.790	1191.120	-454.444	531.696	1045.269	-454.737	531.896	768.316
-501.287	520.279	1227.286	-422.422	507.756	1281.861	-433.553	579.531	1190.960	-454.470	531.595	1045.295	-454.752	531.854	768.410
-501.366	520.289	1227.383	-422.455	507.787	1281.960	-433.546	579.613	1191.111	-454.487	531.692	1045.379	-454.844	531.805	768.321
-501.418	520.311	1227.518	-422.451	507.767	1281.958	-433.581	579.674	1191.103	-454.459	531.577	1045.340	-454.888	531.777	768.407
-501.359	520.359	1227.638	-422.399	507.759	1281.980	-433.615	579.708	1191.174	-454.518	531.526	1045.331	-454.905	531.826	768.443
-501.404	520.320	1227.553	-422.394	507.719	1281.983	-433.492	579.256	1191.028	-454.495	531.522	1045.370	-455.013	531.702	768.454
-501.393	520.378	1227.602	-422.380	507.744	1282.044	-433.526	579.575	1191.171	-454.502	531.458	1045.385	-454.982	531.585	768.501
-501.396	520.483	1227.760	-422.386	507.816	1282.104	-433.538	579.647	1191.192	-454.523	531.493	1045.500	-454.986	531.598	768.583
-501.410	520.508	1227.751	-422.293	507.774	1282.194	-433.428	579.435	1191.111	-454.539	531.455	1045.503	-455.006	531.581	768.616
-501.379	520.606	1227.928	-422.371	507.841	1282.161	-433.493	579.574	1191.190	-454.520	531.535	1045.486	-454.956	531.545	768.655
-501.408	520.621	1227.896	-422.349	507.969	1282.298	-433.548	579.582	1191.229	-454.492	531.459	1045.569	-455.065	531.544	768.578
-501.370	520.579	1227.882	-422.314	507.933	1282.206	-433.483	579.596	1191.186	-454.492	531.510	1045.510	-455.045	531.451	768.771
-501.330	520.665	1227.983	-422.327	508.027	1282.293	-433.478	579.639	1191.191	-454.470	531.555	1045.546	-455.076	531.477	768.712
-501.325	520.679	1227.962	-422.287	508.098	1282.326	-433.450	579.560	1191.219	-454.509	531.601	1045.640	-455.005	531.492	768.714
-501.354	520.758	1228.040	-422.245	508.087	1282.399	-433.462	579.655	1191.241	-454.493	531.652	1045.662	-454.985	531.440	768.771
-501.317	520.676	1227.955	-422.274	508.142	1282.385	-433.503	579.874	1191.361	-454.488	531.694	1045.676	-454.948	531.482	768.773
-501.272	520.784	1227.996	-422.273	508.228	1282.407	-433.438	579.635	1191.181	-454.471	531.699	1045.691	-454.884	531.498	768.770
-501.303	520.904	1228.050	-422.244	508.130	1282.430	-433.480	579.951	1191.405	-454.468	531.641	1045.677	-454.870	531.500	768.862
-501.303	521.025	1228.161	-422.263	508.264	1282.459	-433.388	579.774	1191.197	-454.396	531.713	1045.737	-454.835	531.427	768.851
-501.298	520.985	1228.030	-422.215	508.219	1282.487	-433.350	579.488	1191.020	-454.408	531.766	1045.804	-454.816	531.456	768.857
-501.277	521.064	1228.118	-422.237	508.349	1282.522	-433.396	579.858	1191.197	-454.349	531.848	1045.796	-454.733	531.472	768.865
-501.339	521.099	1228.117	-422.239	508.409	1282.523	-433.411	579.908	1191.239	-454.305	531.853	1045.718	-454.692	531.494	768.848
-501.230	521.063	1228.075	-422.191	508.364	1282.546	-433.435	580.196	1191.451	-454.376	531.964	1045.766	-454.778	531.458	768.853
-501.274	521.179	1228.116	-422.223	508.367	1282.441	-433.366	579.893	1191.279	-454.353	532.008	1045.824	-454.671	531.464	768.850
-501.277	521.200	1228.103	-422.227	508.440	1282.549	-433.418	580.610	1191.564	-454.293	532.075	1045.788	-454.593	531.452	768.894
-501.199	521.135	1228.049	-422.220	508.476	1282.425	-433.346	580.248	1191.505	-454.311	532.143	1045.837	-454.585	531.493	768.941
-501.208	521.187	1228.073	-422.225	508.442	1282.553	-433.272	580.051	1191.284	-454.260	532.164	1045.862	-454.596	531.440	768.901
-501.253	521.229	1228.042	-422.246	508.532	1282.542	-433.281	580.278	1191.518	-454.286	532.246	1045.916	-454.563	531.508	768.968
-501.190	521.331	1228.182	-422.219	508.576	1282.662	-433.306	580.427	1191.453	-454.216	532.264	1045.919	-454.510	531.464	768.956
-501.125	521.371	1228.210	-422.222	508.649	1282.593	-433.269	580.365	1191.552	-454.240	532.373	1045.971	-454.485	531.459	769.039
-501.150	521.443	1228.184	-422.155	508.643	1282.595	-433.259	580.376	1191.566	-454.166	532.427	1045.950	-454.510	531.472	768.986
-500.948	521.364	1228.109	-422.176	508.691	1282.646	-433.234	580.468	1191.651	-454.245	532.374	1045.954	-454.534	531.448	769.123
-501.053	521.392	1228.168	-422.143	508.756	1282.725	-433.193	580.566	1191.616	-454.158	532.506	1046.024	-454.520	531.376	769.107
-501.025	521.514	1228.275	-422.096	508.798	1282.758	-433.206	580.493	1191.619	-454.200	532.498	1046.033	-454.475	531.459	769.115
-501.050	521.507	1228.318	-422.073	508.829	1282.822	-433.148	580.544	1191.665	-454.166	532.510	1046.170	-454.578	531.420	769.162
-501.050	521.512	1228.345	-422.012	508.899	1282.841	-433.108	580.531	1191.749	-454.153	532.550	1046.114	-454.572	531.323	769.218
-501.015	521.586	1228.462	-421.988	508.939	1282.904	-433.066	580.554	1191.663	-454.133	532.523	1046.195	-454.640	531.392	769.384
-500.958	521.682	1228.564	-421.941	508.957	1282.931	-433.036	580.527	1191.764	-454.102	532.531	1046.217	-454.674	531.349	769.389
-500.884	521.741	1228.573	-421.871	508.966	1282.987	-432.970	580.580	1191.732	-454.145	532.562	1046.329	-454.679	531.327	769.396
-500.830	521.666	1228.611	-421.851	509.088	1282.993	-432.892	580.610	1191.806	-454.077	532.631	1046.335	-454.725	531.248	769.451
-500.717	521.716	1228.674	-421.755	509.053	1283.020	-433.057	580.705	1191.934	-454.022	532.574	1046.462	-454.698	531.197	769.517
-500.735	521.698	1228.699	-421.724	509.093	1283.046	-432.845	580.688	1191.855	-454.004	532.519	1046.425	-454.744	531.227	769.655
-500.666	521.764	1228.837	-421.703	509.144	1283.074	-432.957	580.652	1191.967	-454.020	532.570	1046.533	-454.739	531.162	769.539
-500.570	521.662	1228.792	-421.611	509.163	1283.212	-432.874	580.730	1192.069	-453.998	532.510	1046.447	-454.825	531.150	769.619
-500.577	521.752	1228.937	-421.490	509.211	1283.202	-432.855	580.656	1192.053	-454.043	532.571	1046.716	-454.762	531.067	769.763
-500.498	521.646	1228.924	-421.510	509.244	1283.230	-432.834	580.699	1192.028	-453.971	532.574	1046.632	-454.811	531.040	769.801
-500.321	521.570	1229.040	-421.399	509.215	1283.306	-432.742	580.682	1192.086	-453.909	532.601	1046.732	-454.875	531.178	769.925
-500.344	521.586	1229.016	-421.323	509.231	1283.310	-432.644	580.744	1192.139	-453.861	532.526	1046.734	-454.841	531.055	769.900
-500.220	521.549	1229.037	-421.283	509.259	1283.334	-432.619	580.718	1192.152	-453.874	532.542	1046.822	-454.858	531.135	770.027
-500.204	521.359	1229.084	-421.247	509.170	1283.298	-432.620	580.670	1192.212	-453.916	532.546	1046.842	-454.966	531.114	770.064
-500.107	521.422	1229.122	-421.184	509.210	1283.414	-432.555	580.677	1192.243	-453.822	532.534	1046.895	-454.972	531.059	770.142
-500.059	521.284	1229.080	-421.049	509.233	1283.374	-432.497	580.746	1192.265	-453.802	532.669	1047.014	-455.017	531.085	770.110
-499.956	521.450	1229.203	-421.005	509.221	1283.395	-432.435	580.629	1192.290	-453.828	532.583	1047.024	-454.994	531.014	770.197
-499.967	521.240	1229.142	-420.941	509.246	1283.399	-432.383	580.720	1192.412	-453.801	532.476	1047.045	-455.047	531.119	770.261
-499.849	521.382	1229.210	-420.867	509.274	1283.452	-432.311	580.604	1192.338	-453.772	532.605	1047.098	-455.031	531.217	770.312
-499.772	521.274	1229.208	-420.840	509.236	1283.553	-432.189	580.587	1192.327	-453.737	532.590	1047.034	-455.057	531.073	770.273
-499.643	521.217	1229.169	-420.763	509.175	1283.505	-432.096	580.606	1192.357	-453.701	532.651	1047.334	-455.052	531.160	770.412
-499.659	521.304	1229.300	-420.662	509.203	1283.564	-432.051	580.570	1192.363	-453.696	532.687	1047.221	-455.084	531.151	770.421
-499.684	521.274	1229.267	-420.597	509.201	1283.636	-431.950	580.512	1192.449	-453.676	532.646	1047.309	-455.085	531.179	770.423
-499.535	521.196	1229.226	-420.519	509.238	1283.634	-431.884	580.600	1192.429	-453.625	532.727	1047.264	-455.108	531.256	770.500
-499.513	521.304	1229.278	-420.443	509.145	1283.655	-431.787	580.592	1192.437	-453.644	532.714	1047.249	-455.125	531.271	770.556
-499.439	521.327	1229.263	-420.428	509.237	1283.663	-431.754	580.643	1192.484	-453.568	532.819	1047.394	-455.050	531.298	770.488
-499.388	521.314	1229.248	-420.352	509.211	1283.664	-431.650	580.478	1192.439	-453.568	532.806	1047.341	-455.104	531.340	770.543
-499.410	521.364	1229.280	-420.295	509.205	1283.699	-431.635	580.638	1192.477	-453.466	532.783	1047.343	-455.116	531.330	770.475
-499.296	521.312	1229.208	-420.230	509.141	1283.687	-431.551	580.654	1192.529	-453.448	532.941	1047.474	-455.065	531.371	770.566
-499.256	521.346	1229.224	-420.134	509.207	1283.668	-431.540	580.661	1192.494	-453.421	532.880	1047.342	-455.156	531.404	770.439
-499.268	521.341	1229.213	-420.093	509.231	1283.666	-431.454	580.675	1192.530	-453.424	532.947	1047.440	-455.105	531.510	770.566
-499.238	521.528	1229.297	-420.064	509.279	1283.682	-431.379	580.666	1192.521	-453.366	532.935	1047.382	-455.060	531.713	770.614
-499.163	521.453	1229.257	-420.053	509.336	1283.727	-431.371	580.700	1192.460	-453.318	532.921	1047.330	-454.984	531.430	770.409
-499.106	521.438	1229.180	-420.047	509.316	1283.658	-431.238	580.630	1192.419	-453.315	532.900	1047.359	-455.039	531.546	770.486
-499.131	521.446	1229.140	-420.001	509.234	1283.626	-431.226	580.695	1192.543	-453.299	533.005	1047.420	-455.095	531.554	770.431
-499.054	521.472	1229.146	-419.922	509.232	1283.616	-431.163	580.798	1192.502	-453.235	533.047	1047.326	-455.118	531.619	770.448
-499.047	521.523	1229.159	-419.892	509.296	1283.677	-431.147	580.719	1192.404	-453.208	533.034	1047.303	-455.078	531.622	770.510
-498.899	521.424	1229.052	-419.834	509.196	1283.563	-431.061	580.834	1192.526	-453.215	533.029	1047.349	-455.040	531.777	770.493
-498.969	521.580	1229.096	-419.779	509.232	1283.616	-431.038	580.788	1192.501	-453.124	533.032	1047.329	-455.059	531.587	770.270
-498.928	521.529	1229.056	-419.752	509.201	1283.555	-430.959	580.691	1192.329	-453.100	533.022	1047.234	-455.150	531.589	770.302
-498.882	521.561	1229.071	-419.770	509.248	1283.573	-430.945	580.774	1192.499	-453.111	533.014	1047.243	-455.133	531.739	770.404
-498.831	521.474	1229.014	-419.746	509.099	1283.522	-430.896	580.731	1192.422	-453.077	533.012	1047.218	-455.091	531.620	770.298
-498.790	521.405	1228.948	-419.673	509.139	1283.450	-430.828	580.709	1192.413	-453.067	532.876	1047.129	-455.070	531.607	770.223
-498.723	521.480	1228.961	-419.662	509.016	1283.454	-430.825	580.683	1192.408	-453.039	532.848	1047.079	-455.131	531.554	770.117
-498.711	521.407	1228.869	-419.651	508.985	1283.471	-430.803	580.533	1192.291	-453.099	532.777	1046.963	-455.103	531.540	770.119
-498.672	521.367	1228.866	-419.559	508.926	1283.359	-430.802	580.581	1192.331	-452.908	532.724	1046.908	-455.143	531.703	770.276
-498.651	521.388	1228.815	-419.569	508.938	1283.395	-430.729	580.486	1192.255	-452.989	532.639	1046.977	-455.115	531.430	770.008
-498.606	521.407	1228.887	-419.546	508.798	1283.288	-430.785	580.602	1192.329	-452.873	532.690	1046.889	-455.106	531.479	769.979
-498.620	521.327	1228.893	-419.487	508.827	1283.330	-430.726	580.522	1192.363	-452.861	532.587	1046.909	-455.166	531.471	769.951
-498.582	521.379	1228.852	-419.473	508.736	1283.219	-430.735	580.405	1192.177	-452.838	532.496	1046.870	-455.129	531.466	769.992
-498.561	521.244	1228.833	-419.452	508.618	1283.203	-430.718	580.534	1192.268	-452.866	532.471	1046.800	-455.150	531.472	769.927
-498.585	521.280	1228.772	-419.429	508.541	1283.147	-430.674	580.344	1192.130	-452.866	532.441	1046.771	-455.167	531.484	769.941
-498.500	521.173	1228.798	-419.414	508.495	1283.151	-430.676	580.339	1192.199	-452.850	532.425	1046.732	-455.165	531.389	769.840
-498.551	521.218	1228.802	-419.400	508.488	1283.185	-430.646	580.204	1192.130	-452.809	532.285	1046.720	-455.151	531.303	769.731
-498.550	521.144	1228.759	-419.379	508.405	1283.100	-430.655	580.256	1192.148	-452.768	532.231	1046.618	-455.065	531.297	769.707
-498.429	520.941	1228.650	-419.316	508.367	1283.059	-430.627	580.222	1192.079	-452.803	532.230	1046.701	-455.074	531.305	769.702
-498.508	521.063	1228.728	-419.339	508.312	1283.049	-430.667	580.172	1192.061	-452.792	532.139	1046.601	-455.153	531.118	769.579
-498.445	520.951	1228.690	-419.296	508.109	1282.915	-430.658	580.084	1192.048	-452.733	532.014	1046.515	-455.127	531.198	769.606
-498.491	520.880	1228.624	-419.241	508.053	1282.960	-430.678	579.967	1191.948	-452.661	531.941	1046.510	-455.072	531.228	769.544
-498.471	520.851	1228.616	-419.272	507.934	1282.856	-430.693	579.859	1191.972	-452.706	531.928	1046.477	-455.020	531.121	769.457
-498.477	520.673	1228.599	-419.261	507.847	1282.780	-430.701	579.848	1191.951	-452.696	531.763	1046.340	-454.996	531.091	769.571
-498.486	520.711	1228.515	-419.223	507.672	1282.702	-430.684	579.771	1191.880	-452.665	531.653	1046.342	-454.989	531.117	769.410
-498.493	520.658	1228.522	-419.245	507.595	1282.663	-430.686	579.698	1191.860	-452.669	531.612	1046.271	-454.957	531.094	769.345
-498.442	520.496	1228.470	-419.298	507.534	1282.627	-430.667	579.583	1191.810	-452.678	531.609	1046.317	-454.833	530.978	769.301
-498.522	520.567	1228.485	-419.263	507.370	1282.593	-430.688	579.509	1191.795	-452.624	531.414	1046.178	-454.846	531.005	769.237
-498.534	520.456	1228.500	-419.237	507.191	1282.506	-430.724	579.463	1191.683	-452.640	531.409	1046.169	-454.754	531.002	769.244
-498.469	520.308	1228.335	-419.266	507.198	1282.411	-430.753	579.326	1191.630	-452.612	531.338	1046.113	-454.764	530.939	769.185
-498.525	520.144	1228.257	-419.270	507.189	1282.433	-430.741	579.273	1191.667	-452.635	531.200	1046.008	-454.706	530.979	769.177
-498.527	519.912	1228.097	-419.318	506.952	1282.330	-430.838	579.260	1191.631	-452.622	531.177	1046.023	-454.748	531.007	769.046
-498.524	519.928	1228.104	-419.253	506.817	1282.268	-430.795	579.169	1191.587	-452.632	531.059	1045.928	-454.758	530.940	769.045
-498.595	519.862	1228.083	-419.288	506.725	1282.232	-430.799	579.144	1191.552	-452.639	531.093	1045.968	-454.777	530.909	769.029
-498.530	519.555	1227.820	-419.317	506.672	1282.239	-430.864	579.127	1191.587	-452.705	530.904	1045.782	-454.686	530.912	768.928
-498.544	519.261	1227.630	-419.322	506.514	1282.096	-430.872	579.083	1191.567	-452.706	530.880	1045.817	-454.688	530.919	768.921
-498.579	519.214	1227.693	-419.290	506.380	1282.024	-430.920	579.020	1191.522	-452.565	530.765	1045.657	-454.618	530.905	768.882
-498.527	519.133	1227.643	-419.348	506.399	1282.075	-430.933	579.016	1191.513	-452.559	530.694	1045.649	-454.579	530.853	768.763
-498.584	519.174	1227.636	-419.411	506.229	1281.968	-430.935	578.836	1191.391	-452.557	530.584	1045.538	-454.618	530.898	768.772
-498.549	518.881	1227.430	-419.351	506.145	1281.955	-430.996	578.916	1191.441	-452.549	530.529	1045.470	-454.536	530.748	768.712
-498.554	518.881	1227.443	-419.405	506.116	1281.934	-431.059	578.823	1191.352	-452.630	530.586	1045.482	-454.480	530.785	768.647
-498.572	518.604	1227.234	-419.425	506.112	1281.860	-431.047	578.917	1191.526	-452.546	530.416	1045.370	-454.451	530.731	768.645
-498.580	518.461	1227.243	-419.447	505.999	1281.835	-431.090	578.719	1191.308	-452.592	530.400	1045.367	-454.425	530.812	768.577
-498.588	518.470	1227.212	-419.462	505.882	1281.741	-431.122	578.648	1191.319	-452.586	530.369	1045.324	-454.407	530.554	768.407
-498.587	518.391	1227.152	-419.427	505.804	1281.728	-431.144	578.543	1191.176	-452.498	530.199	1045.275	-454.404	530.598	768.383
-498.553	518.275	1227.097	-419.595	506.248	1281.968	-431.155	578.447	1191.250	-452.610	530.160	1045.166	-454.350	530.646	768.403
-498.618	518.174	1226.978	-419.633	506.251	1281.939	-431.083	578.440	1191.240	-452.516	530.072	1045.117	-454.302	530.510	768.413
-498.545	518.190	1227.053	-419.642	506.077	1281.786	-431.081	578.175	1191.035	-452.567	530.098	1045.130	-454.335	530.560	768.335
-498.585	518.032	1227.037	-419.539	505.757	1281.723	-431.106	578.315	1191.133	-452.570	530.036	1045.124	-454.266	530.556	768.311
-498.554	517.898	1226.947	-419.499	505.650	1281.666	-431.115	578.158	1191.054	-452.525	529.883	1045.048	-454.288	530.410	768.229
-498.595	517.838	1226.908	-419.583	505.711	1281.660	-431.080	577.873	1190.837	-452.565	529.906	1045.071	-454.198	530.452	768.241
-498.636	517.864	1226.957	-419.503	505.492	1281.615	-431.084	577.810	1190.868	-452.513	529.794	1045.002	-454.200	530.494	768.283
-498.597	517.655	1226.833	-419.541	505.513	1281.557	-431.158	577.759	1190.877	-452.509	529.705	1044.960	-454.245	530.380	768.273
-498.566	517.640	1226.864	-419.549	505.394	1281.584	-431.104	577.809	1190.956	-452.504	529.654	1044.985	-454.284	530.418	768.343
-498.549	517.462	1226.866	-419.524	505.447	1281.639	-431.077	577.420	1190.690	-452.515	529.620	1044.943	-454.210	530.398	768.307
-498.610	517.414	1226.826	-419.521	505.255	1281.502	-431.153	577.691	1191.060	-452.470	529.549	1044.996	-454.223	530.378	768.262
-498.565	517.283	1226.832	-419.493	505.270	1281.594	-431.124	577.451	1190.792	-452.457	529.527	1044.951	-454.191	530.379	768.219
-498.616	517.400	1226.906	-419.488	505.120	1281.537	-431.170	577.545	1190.899	-452.472	529.474	1044.927	-454.139	530.397	768.265
-498.505	517.029	1226.761	-419.495	505.108	1281.545	-431.172	577.429	1190.920	-452.407	529.394	1044.951	-454.195	530.335	768.249
-498.553	516.985	1226.725	-419.458	505.031	1281.518	-431.238	577.482	1191.039	-452.470	529.376	1044.963	-454.171	530.429	768.276
-498.594	517.172	1226.859	-419.491	504.937	1281.535	-431.168	577.037	1190.732	-452.522	529.366	1044.996	-454.178	530.285	768.257
-498.561	517.037	1226.782	-419.497	505.040	1281.598	-431.239	577.388	1191.064	-452.464	529.461	1045.081	-454.192	530.280	768.241
-498.556	517.005	1226.948	-419.454	504.963	1281.575	-431.201	577.153	1190.924	-452.488	529.337	1045.089	-454.132	530.370	768.280
-498.551	516.907	1226.905	-419.420	504.688	1281.578	-431.277	577.208	1190.965	-452.486	529.256	1045.052	-454.115	530.344	768.352
-498.604	516.974	1226.940	-419.415	504.625	1281.557	-431.245	576.989	1190.877	-452.465	529.208	1045.075	-454.116	530.245	768.382
-498.563	516.844	1227.010	-419.473	504.810	1281.666	-431.373	577.202	1191.085	-452.502	529.151	1045.078	-454.068	530.371	768.438
-498.574	516.977	1227.083	-419.373	504.566	1281.693	-431.379	577.216	1191.150	-452.441	529.181	1045.190	-454.095	530.335	768.425
-498.553	516.706	1227.039	-419.368	504.488	1281.624	-431.412	577.329	1191.293	-452.466	529.151	1045.163	-454.047	530.281	768.484
-498.587	516.789	1227.186	-419.361	504.513	1281.701	-431.346	576.881	1191.058	-452.456	529.155	1045.257	-454.101	530.344	768.516
-498.511	516.773	1227.215	-419.293	504.336	1281.605	-431.403	577.155	1191.243	-452.438	529.100	1045.320	-454.028	530.311	768.586
-498.548	516.670	1227.238	-419.345	504.454	1281.690	-431.374	576.801	1191.105	-452.420	529.062	1045.334	-454.024	530.271	768.538
-498.556	516.790	1227.379	-419.371	504.490	1281.808	-431.368	576.894	1191.283	-452.466	529.095	1045.420	-454.031	530.292	768.580
-498.526	516.621	1227.255	-419.342	504.495	1281.838	-431.397	577.004	1191.438	-452.432	529.008	1045.352	-453.943	530.337	768.686
-498.527	516.398	1227.289	-419.354	504.433	1281.888	-431.405	576.592	1191.107	-452.452	528.952	1045.440	-453.995	530.327	768.769
-498.561	516.464	1227.350	-419.368	504.425	1281.935	-431.458	576.809	1191.294	-452.458	528.998	1045.499	-454.004	530.313	768.773
-498.521	516.397	1227.313	-419.364	504.349	1281.909	-431.317	576.738	1191.250	-452.417	528.896	1045.455	-453.982	530.282	768.847
-498.550	516.455	1227.387	-419.401	504.178	1281.877	-431.503	576.948	1191.492	-452.453	528.956	1045.536	-453.940	530.388	768.933
-498.516	516.261	1227.371	-419.408	504.186	1281.966	-431.430	577.027	1191.580	-452.479	528.973	1045.596	-453.875	530.284	768.918
-498.519	516.339	1227.433	-419.423	504.089	1281.934	-431.465	577.046	1191.679	-452.385	528.901	1045.655	-453.947	530.284	768.982
-498.487	516.200	1227.385	-419.408	504.070	1281.941	-431.487	577.050	1191.722	-452.439	528.867	1045.570	-453.889	530.417	769.107
-498.542	516.126	1227.411	-419.428	504.118	1282.042	-431.587	576.964	1191.844	-452.443	528.962	1045.733	-453.927	530.392	769.080
-498.488	516.178	1227.447	-419.415	504.009	1282.025	-431.568	576.895	1191.808	-452.447	528.909	1045.728	-453.848	530.254	769.021
-498.464	516.044	1227.509	-419.383	503.956	1282.068	-431.508	576.746	1191.844	-452.386	528.825	1045.676	-453.891	530.248	769.117
-498.463	516.053	1227.558	-419.392	503.963	1282.066	-431.552	576.897	1192.010	-452.405	528.843	1045.799	-453.814	530.273	769.149
-498.496	516.113	1227.636	-419.363	503.941	1282.153	-431.544	576.806	1191.947	-452.399	528.860	1045.768	-453.772	530.231	769.234
-498.438	515.998	1227.593	-419.350	503.898	1282.150	-431.421	576.567	1191.897	-452.285	528.701	1045.765	-453.781	530.213	769.304
-498.482	516.075	1227.768	-419.349	503.902	1282.198	-431.471	576.631	1192.003	-452.366	528.804	1045.891	-453.747	530.188	769.288
-498.496	516.150	1227.747	-419.302	503.892	1282.266	-431.482	576.659	1192.034	-452.307	528.744	1045.928	-453.775	530.136	769.339
-498.444	515.976	1227.756	-419.272	503.836	1282.229	-431.474	576.750	1192.224	-452.190	528.661	1045.916	-453.737	530.121	769.396
-498.580	516.114	1227.925	-419.286	503.889	1282.310	-431.464	576.647	1192.219	-452.233	528.589	1045.979	-453.703	530.093	769.440
-498.494	516.037	1227.863	-419.285	503.864	1282.313	-431.428	576.673	1192.300	-452.202	528.711	1046.166	-453.547	529.993	769.475
-498.517	516.007	1227.916	-419.278	503.878	1282.434	-431.371	576.572	1192.347	-452.094	528.634	1046.192	-453.465	530.017	769.598
-498.567	516.092	1227.998	-419.214	503.892	1282.415	-431.406	576.568	1192.318	-452.061	528.637	1046.211	-453.544	529.875	769.497
-498.503	516.023	1228.105	-419.198	503.896	1282.505	-431.341	576.556	1192.372	-452.085	528.570	1046.286	-453.587	529.931	769.598
-498.616	516.208	1228.235	-419.190	503.772	1282.476	-431.383	576.630	1192.441	-452.021	528.533	1046.432	-453.422	529.887	769.574
-498.595	516.040	1228.162	-419.237	503.786	1282.480	-431.344	576.492	1192.423	-451.973	528.547	1046.455	-453.328	529.731	769.614
-498.582	516.184	1228.302	-419.128	503.753	1282.585	-431.282	576.451	1192.500	-451.963	528.589	1046.721	-453.277	529.798	769.671
-498.563	516.159	1228.261	-419.216	503.681	1282.644	-431.310	576.572	1192.619	-452.019	528.400	1046.568	-453.205	529.733	769.670
-498.536	516.017	1228.287	-419.172	503.784	1282.698	-431.296	576.490	1192.641	-451.896	528.567	1046.729	-453.214	529.686	769.709
-498.467	516.042	1228.226	-419.118	503.797	1282.676	-431.226	576.389	1192.645	-451.865	528.250	1046.705	-453.121	529.635	769.748
-498.449	515.894	1228.256	-419.128	503.794	1282.731	-431.262	576.344	1192.687	-451.966	528.352	1046.859	-453.038	529.607	769.800
-498.488	516.033	1228.362	-419.125	503.713	1282.859	-431.197	576.183	1192.637	-451.865	528.395	1046.921	-453.039	529.556	769.790
-498.486	515.959	1228.340	-419.146	503.495	1282.832	-431.205	576.305	1192.813	-451.811	528.343	1046.929	-452.978	529.512	769.831
-498.444	515.878	1228.311	-419.044	503.611	1282.975	-431.227	576.220	1192.736	-451.686	528.186	1046.983	-452.919	529.379	769.889
-498.454	515.860	1228.362	-419.102	503.366	1282.846	-431.200	576.149	1192.873	-451.707	528.241	1047.019	-452.881	529.440	769.815
-498.412	515.775	1228.414	-419.063	503.535	1283.089	-431.225	576.184	1192.922	-451.702	528.139	1047.097	-452.813	529.357	769.822
-498.364	515.696	1228.402	-419.069	503.543	1283.087	-431.179	576.075	1192.931	-451.660	528.056	1047.085	-452.673	529.251	769.894
-498.416	515.897	1228.520	-419.022	503.402	1283.150	-431.190	575.962	1192.920	-451.465	527.966	1047.159	-452.628	529.209	769.935
-498.366	515.699	1228.455	-418.952	503.315	1283.080	-431.196	576.050	1193.053	-451.467	527.820	1047.340	-452.587	529.195	769.959
-498.308	515.652	1228.525	-418.968	503.300	1283.244	-431.107	575.954	1192.934	-451.538	527.756	1047.236	-452.503	529.042	769.973
-498.371	515.596	1228.456	-418.934	503.227	1283.214	-431.076	575.701	1192.892	-451.416	527.834	1047.320	-452.491	528.973	770.026
-498.337	515.518	1228.506	-418.927	503.105	1283.217	-431.156	575.890	1193.132	-451.381	527.715	1047.407	-452.355	528.846	770.099
-498.341	515.667	1228.561	-418.968	503.062	1283.313	-431.174	575.771	1193.036	-451.369	527.605	1047.340	-452.262	528.875	770.079
-498.315	515.497	1228.495	-418.875	503.178	1283.374	-431.113	575.695	1193.020	-451.358	527.560	1047.440	-452.233	528.750	770.138
-498.173	515.443	1228.561	-418.854	502.941	1283.348	-431.047	575.706	1193.078	-451.355	527.529	1047.445	-452.142	528.561	770.187
-498.188	515.418	1228.601	-418.816	502.887	1283.298	-431.058	575.529	1193.082	-451.354	527.420	1047.493	-451.993	528.524	770.180
-498.173	515.328	1228.601	-418.800	502.891	1283.496	-431.022	575.574	1193.136	-451.277	527.486	1047.476	-451.949	528.443	770.233
-498.175	515.232	1228.501	-418.764	502.902	1283.499	-431.103	575.533	1193.125	-451.255	527.408	1047.508	-451.890	528.294	770.336
-498.155	515.125	1228.547	-418.724	502.750	1283.442	-431.061	575.432	1193.116	-451.285	527.416	1047.563	-452.042	528.168	770.334
-498.107	515.019	1228.590	-418.732	502.766	1283.475	-430.973	575.411	1193.142	-451.204	527.383	1047.524	-451.993	528.212	770.351
-498.067	514.987	1228.522	-418.798	502.675	1283.485	-430.998	575.261	1193.077	-451.201	527.305	1047.504	-451.910	528.087	770.375
-498.149	515.109	1228.702	-418.803	502.644	1283.571	-430.953	575.394	1193.253	-451.176	527.282	1047.596	-451.936	528.042	770.357
-498.011	514.926	1228.573	-418.692	502.556	1283.555	-430.986	575.374	1193.202	-451.098	527.178	1047.513	-451.828	527.974	770.396
-498.051	514.927	1228.703	-418.711	502.670	1283.546	-431.012	575.393	1193.246	-451.151	527.215	1047.565	-451.843	527.878	770.408
-498.035	514.895	1228.715	-418.716	502.498	1283.420	-430.966	575.201	1193.157	-451.205	527.131	1047.613	-451.791	527.821	770.373
-498.018	514.834	1228.665	-418.705	502.478	1283.610	-430.912	575.144	1193.185	-451.104	527.135	1047.548	-451.756	527.723	770.405
-498.000	514.722	1228.653	-418.692	502.414	1283.503	-430.938	575.177	1193.194	-451.145	526.967	1047.491	-451.743	527.667	770.380
-497.956	514.671	1228.600	-418.682	502.458	1283.616	-430.937	575.198	1193.198	-451.084	526.825	1047.448	-451.588	527.645	770.361
-497.946	514.672	1228.616	-418.677	502.465	1283.518	-430.921	575.177	1193.248	-451.104	526.946	1047.410	-451.565	527.564	770.399
-497.885	514.625	1228.474	-418.641	502.337	1283.513	-430.898	575.211	1193.190	-451.060	526.875	1047.524	-451.560	527.497	770.397
-497.922	514.680	1228.635	-418.660	502.217	1283.498	-430.869	575.198	1193.196	-451.034	526.805	1047.382	-451.573	527.288	770.196
-497.914	514.596	1228.528	-418.645	502.307	1283.568	-430.833	575.082	1193.122	-451.035	526.896	1047.411	-451.559	527.274	770.258
-497.934	514.690	1228.594	-418.632	502.285	1283.529	-430.856	575.232	1193.338	-451.021	526.864	1047.443	-451.422	527.299	770.351
-497.879	514.453	1228.404	-418.650	502.224	1283.612	-430.852	575.018	1193.225	-451.046	526.829	1047.464	-451.463	527.284	770.320
-497.874	514.559	1228.582	-418.629	502.142	1283.512	-430.886	575.095	1193.230	-450.983	526.690	1047.279	-451.441	527.143	770.207
-497.838	514.410	1228.503	-418.584	502.106	1283.533	-430.756	574.968	1193.155	-450.984	526.662	1047.339	-451.390	527.110	770.250
-497.882	514.462	1228.526	-418.618	502.129	1283.545	-430.770	575.094	1193.240	-451.022	526.561	1047.311	-451.333	527.199	770.347
-497.849	514.504	1228.465	-418.582	502.056	1283.479	-430.736	574.944	1193.121	-450.937	526.555	1047.253	-451.290	527.063	770.228
-497.827	514.497	1228.475	-418.583	502.085	1283.466	-430.707	574.933	1193.209	-450.849	526.674	1047.252	-451.278	527.012	770.154
-497.808	514.284	1228.395	-418.518	502.032	1283.489	-430.756	575.128	1193.308	-450.888	526.711	1047.318	-451.170	526.933	770.211
-497.798	514.506	1228.332	-418.560	502.065	1283.419	-430.697	574.927	1193.179	-450.835	526.598	1047.256	-451.146	526.928	770.180
-497.761	514.321	1228.333	-418.539	502.023	1283.478	-430.731	575.053	1193.234	-450.846	526.566	1047.206	-451.095	526.826	770.126
-497.779	514.449	1228.440	-418.533	501.911	1283.321	-430.597	574.931	1193.251	-450.804	526.539	1047.244	-451.136	526.899	770.103
-497.737	514.400	1228.313	-418.474	501.888	1283.336	-430.642	574.997	1193.189	-450.754	526.510	1047.157	-451.099	526.820	770.129
-497.740	514.370	1228.298	-418.472	501.960	1283.333	-430.591	574.983	1193.207	-450.795	526.478	1047.160	-451.069	526.811	770.106
-497.721	514.239	1228.262	-418.445	501.805	1283.284	-430.603	574.874	1193.183	-450.707	526.458	1047.101	-450.930	526.669	770.120
-497.705	514.259	1228.267	-418.436	501.817	1283.354	-430.596	574.921	1193.168	-450.716	526.470	1047.230	-450.931	526.733	770.021
-497.705	514.204	1228.158	-418.351	501.661	1283.186	-430.544	574.905	1193.221	-450.603	526.194	1047.026	-450.788	526.633	770.080
-497.630	514.178	1228.223	-418.453	501.757	1283.278	-430.499	574.744	1193.141	-450.629	526.269	1047.045	-450.781	526.654	770.020
-497.594	514.148	1228.158	-418.376	501.585	1283.193	-430.513	574.733	1193.005	-450.550	526.258	1047.025	-450.841	526.620	770.090
-497.608	514.103	1228.193	-418.328	501.624	1283.266	-430.423	574.750	1193.101	-450.520	526.232	1047.093	-450.684	526.476	769.974
-497.520	514.021	1228.117	-418.357	501.695	1283.212	-430.442	574.600	1192.966	-450.521	526.189	1047.009	-450.741	526.508	770.021
-497.499	514.004	1228.105	-418.296	501.458	1283.161	-430.426	574.568	1193.099	-450.522	526.115	1046.970	-450.751	526.460	769.942
-497.445	513.949	1228.048	-418.306	501.581	1283.158	-430.421	574.686	1193.020	-450.470	526.124	1046.997	-450.638	526.437	770.014
-497.382	513.760	1227.914	-418.263	501.432	1283.153	-430.395	574.607	1193.071	-450.477	526.073	1046.909	-450.624	526.383	769.950
-497.461	513.822	1228.007	-418.183	501.316	1283.131	-430.382	574.571	1193.068	-450.482	526.008	1046.858	-450.606	526.241	769.892
-497.431	513.647	1228.017	-418.280	501.321	1283.022	-430.372	574.372	1192.929	-450.388	525.842	1046.889	-450.542	526.179	769.997
-497.328	513.538	1227.972	-418.142	501.185	1283.068	-430.227	574.044	1192.707	-450.355	525.723	1046.805	-450.576	526.152	769.797
-497.322	513.621	1227.953	-418.149	501.044	1283.089	-430.206	574.092	1192.786	-450.300	525.770	1046.870	-450.516	526.090	769.882
-497.317	513.466	1227.944	-418.178	501.150	1283.199	-430.218	574.047	1192.878	-450.290	525.653	1046.783	-450.508	525.983	769.835
-497.247	513.170	1227.854	-418.162	500.840	1282.993	-430.241	574.219	1192.944	-450.269	525.545	1046.754	-450.398	525.888	769.766
-497.312	513.404	1227.965	-418.128	500.815	1283.074	-430.136	573.732	1192.633	-450.245	525.513	1046.780	-450.438	525.742	769.719
-497.199	513.122	1227.790	-417.979	500.721	1283.036	-430.056	573.765	1192.709	-450.238	525.474	1046.731	-450.391	525.698	769.721
-497.241	513.137	1227.885	-418.027	500.530	1282.925	-430.082	573.602	1192.704	-450.238	525.301	1046.628	-450.456	525.680	769.781
-497.205	513.049	1227.774	-417.978	500.390	1282.915	-429.992	573.280	1192.535	-450.196	525.161	1046.575	-450.395	525.547	769.679
-497.124	512.972	1227.859	-418.066	500.371	1282.843	-429.997	573.365	1192.533	-450.136	525.107	1046.584	-450.364	525.513	769.741
-497.178	512.835	1227.739	-417.998	500.260	1282.913	-429.986	573.370	1192.574	-450.174	525.080	1046.584	-450.323	525.391	769.662
-497.108	512.705	1227.710	-417.966	500.184	1282.967	-429.945	573.329	1192.598	-450.135	525.028	1046.599	-450.375	525.252	769.604
-497.068	512.658	1227.635	-417.915	500.037	1282.817	-429.934	573.245	1192.546	-450.101	524.954	1046.534	-450.251	525.241	769.574
-497.088	512.644	1227.688	-417.921	500.056	1282.900	-429.891	572.958	1192.423	-450.053	524.973	1046.567	-450.179	525.031	769.615
-497.023	512.432	1227.534	-417.978	500.064	1282.870	-429.835	572.962	1192.491	-450.129	524.893	1046.577	-450.241	524.980	769.574
-497.022	512.480	1227.660	-417.946	500.051	1282.920	-429.830	572.785	1192.416	-450.069	524.826	1046.377	-450.220	524.915	769.494
-496.999	512.300	1227.578	-417.889	499.765	1282.742	-429.791	572.726	1192.353	-450.007	524.698	1046.424	-450.199	524.851	769.539
-497.020	512.390	1227.622	-417.944	499.925	1282.920	-429.784	572.693	1192.275	-450.063	524.775	1046.440	-450.139	524.821	769.533
-496.985	512.385	1227.536	-417.751	499.693	1282.716	-429.713	572.643	1192.236	-450.038	524.730	1046.425	-450.151	524.726	769.476
-497.006	512.437	1227.638	-417.832	499.773	1282.861	-429.700	572.623	1192.229	-449.992	524.617	1046.452	-450.099	524.680	769.482
-496.991	512.490	1227.598	-417.832	499.616	1282.763	-429.621	572.610	1192.281	-449.924	524.577	1046.366	-450.027	524.565	769.413
-496.920	512.422	1227.591	-417.765	499.714	1282.719	-429.714	572.743	1192.384	-449.860	524.518	1046.384	-449.974	524.407	769.471
-496.894	512.330	1227.579	-417.730	499.642	1282.743	-429.646	572.585	1192.282	-449.898	524.552	1046.433	-449.885	524.317	769.430
-496.859	512.322	1227.556	-417.652	499.615	1282.715	-429.513	572.402	1192.105	-449.728	524.387	1046.363	-449.847	524.265	769.402
-496.781	512.127	1227.533	-417.722	499.538	1282.726	-429.517	572.472	1192.211	-449.792	524.377	1046.355	-449.711	524.275	769.425
-496.790	512.339	1227.529	-417.664	499.582	1282.755	-429.544	572.387	1192.121	-449.771	524.357	1046.379	-449.718	524.198	769.396
-496.892	512.296	1227.588	-417.643	499.721	1282.782	-429.460	572.352	1192.039	-449.709	524.318	1046.345	-449.624	524.068	769.344
-496.796	512.256	1227.543	-417.682	499.638	1282.727	-429.462	572.592	1192.391	-449.665	524.178	1046.220	-449.575	523.996	769.372
-496.760	512.213	1227.537	-417.572	499.587	1282.829	-429.385	572.306	1192.150	-449.627	524.292	1046.367	-449.518	523.955	769.326
-496.737	512.196	1227.458	-417.514	498.932	1282.403	-429.312	572.343	1192.165	-449.583	524.235	1046.253	-449.425	523.884	769.298
-496.770	512.185	1227.496	-417.476	498.841	1282.267	-429.364	572.354	1192.208	-449.472	524.203	1046.349	-449.416	523.783	769.340
-496.740	512.189	1227.575	-417.425	498.820	1282.284	-429.258	572.111	1192.110	-449.432	524.037	1046.280	-449.315	523.768	769.332
-496.687	512.132	1227.465	-417.393	498.839	1282.353	-429.323	572.376	1192.308	-449.394	524.143	1046.441	-449.237	523.674	769.255
-496.631	512.106	1227.558	-417.336	498.755	1282.407	-429.268	572.265	1192.250	-449.455	524.159	1046.438	-449.192	523.609	769.320
-496.654	512.014	1227.554	-417.375	498.777	1282.385	-429.242	572.353	1192.352	-449.352	524.005	1046.356	-449.051	523.440	769.353
-496.653	512.008	1227.483	-417.302	498.506	1282.311	-429.284	572.249	1192.363	-449.265	524.057	1046.462	-449.049	523.438	769.384
-496.607	511.998	1227.547	-417.360	498.661	1282.383	-429.258	572.357	1192.452	-449.227	523.895	1046.299	-449.012	523.313	769.280
-496.561	511.924	1227.633	-417.303	498.483	1282.323	-429.197	572.162	1192.366	-449.176	523.945	1046.391	-448.966	523.347	769.360
-496.598	512.016	1227.712	-417.174	498.594	1282.494	-429.129	572.064	1192.307	-449.186	523.956	1046.421	-448.966	523.238	769.360
-496.537	511.969	1227.649	-417.392	498.531	1282.500	-429.209	572.209	1192.432	-449.146	523.880	1046.521	-448.867	523.179	769.377
-496.521	511.907	1227.740	-417.395	498.575	1282.519	-429.154	572.140	1192.437	-449.113	523.825	1046.484	-448.799	523.020	769.368
-496.516	511.903	1227.810	-417.407	498.427	1282.478	-429.111	572.114	1192.457	-449.111	523.754	1046.477	-448.782	523.059	769.347
-496.492	511.778	1227.686	-417.530	499.153	1282.934	-429.082	572.045	1192.479	-449.146	523.809	1046.512	-448.790	522.937	769.448
-496.467	511.760	1227.782	-417.504	499.223	1283.093	-429.050	572.027	1192.467	-449.058	523.609	1046.441	-448.768	522.943	769.462
-496.482	511.884	1227.877	-417.502	499.265	1283.206	-429.064	571.876	1192.297	-449.042	523.645	1046.494	-448.774	522.743	769.438
-496.486	511.798	1227.767	-417.401	499.234	1283.125	-429.032	571.997	1192.477	-449.038	523.597	1046.530	-448.729	522.714	769.483
-496.459	511.708	1227.899	-417.467	499.199	1283.070	-429.006	571.997	1192.508	-449.023	523.623	1046.614	-448.704	522.520	769.436
-496.437	511.726	1227.886	-417.469	499.199	1283.218	-428.996	571.953	1192.530	-448.998	523.471	1046.538	-448.701	522.538	769.481
-496.420	511.726	1227.912	-417.417	499.019	1283.177	-428.969	572.002	1192.719	-449.004	523.566	1046.720	-448.731	522.534	769.505
-496.377	511.619	1227.914	-417.451	499.121	1283.203	-429.044	572.009	1192.644	-448.998	523.573	1046.703	-448.734	522.460	769.570
-496.337	511.528	1227.896	-417.357	499.102	1283.229	-428.913	571.831	1192.659	-449.029	523.529	1046.786	-448.718	522.377	769.579
-496.349	511.489	1227.957	-417.485	499.065	1283.244	-428.930	571.836	1192.687	-449.018	523.283	1046.591	-448.655	522.247	769.594
-496.303	511.459	1227.932	-417.377	498.965	1283.223	-428.914	571.750	1192.677	-448.943	523.301	1046.630	-448.750	522.164	769.552
-496.296	511.466	1228.031	-417.452	499.059	1283.404	-428.852	571.720	1192.729	-448.972	523.346	1046.775	-448.735	522.089	769.608
-496.287	511.165	1227.890	-417.420	498.833	1283.213	-428.806	571.575	1192.663	-448.928	523.306	1046.743	-448.717	522.029	769.603
-496.305	511.330	1228.107	-417.315	498.819	1283.132	-428.822	571.677	1192.772	-448.905	523.118	1046.710	-448.697	521.917	769.573
-496.230	511.096	1227.994	-417.364	498.805	1283.267	-428.832	571.563	1192.715	-448.931	523.097	1046.696	-448.729	521.932	769.581
-496.284	511.088	1228.057	-417.370	498.788	1283.294	-428.823	571.535	1192.840	-448.947	523.208	1046.799	-448.743	521.846	769.627
-496.264	511.158	1228.109	-417.438	498.850	1283.387	-428.822	571.540	1192.980	-448.914	523.058	1046.722	-448.736	521.819	769.660
-496.258	511.088	1228.129	-417.325	498.619	1283.298	-428.805	571.531	1192.973	-448.941	523.026	1046.803	-448.727	521.741	769.704
-496.207	510.860	1228.187	-417.361	498.520	1283.291	-428.822	571.620	1193.134	-448.953	522.989	1046.778	-448.720	521.652	769.637
-496.183	510.940	1228.220	-417.315	498.497	1283.335	-428.801	571.297	1193.001	-448.956	523.005	1046.861	-448.733	521.594	769.719
-496.181	510.773	1228.276	-417.277	498.619	1283.428	-428.840	571.580	1193.178	-448.972	522.933	1046.778	-448.669	521.567	769.690
-496.129	510.695	1228.213	-417.351	498.454	1283.411	-428.797	571.295	1193.169	-448.942	522.932	1046.877	-448.675	521.523	769.773
-496.222	510.687	1228.271	-417.328	498.531	1283.499	-428.767	571.337	1193.219	-448.923	522.877	1046.866	-448.691	521.431	769.724
-496.280	510.706	1228.410	-417.245	498.557	1283.587	-428.890	571.221	1193.210	-448.895	522.846	1046.991	-448.668	521.383	769.722
-496.186	510.673	1228.415	-417.240	498.407	1283.516	-428.870	571.243	1193.289	-448.988	522.965	1047.132	-448.711	521.305	769.733
-496.315	510.635	1228.453	-417.270	498.370	1283.456	-428.835	571.221	1193.293	-448.904	522.739	1046.967	-448.690	521.293	769.818
-496.310	510.691	1228.531	-417.164	498.265	1283.529	-428.844	571.161	1193.272	-448.933	522.718	1047.007	-448.739	521.258	769.796
-496.242	510.688	1228.651	-417.237	498.395	1283.581	-428.799	570.944	1193.255	-448.858	522.638	1047.073	-448.666	521.228	769.851
-496.290	510.612	1228.608	-417.180	498.179	1283.606	-428.757	570.934	1193.242	-448.911	522.528	1047.122	-448.673	521.178	769.856
-496.246	510.545	1228.668	-417.221	498.280	1283.606	-428.849	571.024	1193.294	-448.913	522.658	1047.171	-448.666	521.217	769.915
-496.240	510.507	1228.638	-417.122	498.127	1283.606	-428.808	571.043	1193.346	-448.881	522.635	1047.164	-448.650	520.986	769.862
-496.247	510.553	1228.627	-417.165	498.273	1283.748	-428.768	570.850	1193.250	-448.863	522.570	1047.240	-448.651	521.033	769.957
-496.238	510.472	1228.609	-417.148	498.170	1283.691	-428.753	571.091	1193.374	-448.864	522.610	1047.207	-448.639	521.019	769.963
-496.205	510.486	1228.661	-417.227	498.202	1283.719	-428.727	570.909	1193.343	-448.858	522.535	1047.131	-448.614	520.949	769.884
-496.263	510.508	1228.604	-417.164	498.229	1283.718	-428.897	571.110	1193.473	-448.885	522.524	1047.244	-448.618	520.883	770.028
-496.256	510.462	1228.615	-417.159	498.189	1283.707	-428.892	571.067	1193.516	-448.884	522.480	1047.270	-448.636	520.767	769.946
-496.231	510.474	1228.705	-417.193	498.185	1283.757	-428.737	570.992	1193.382	-448.847	522.448	1047.277	-448.641	520.738	769.972
-496.219	510.410	1228.706	-417.151	498.108	1283.790	-428.803	571.017	1193.500	-448.853	522.393	1047.237	-448.718	520.713	769.972
-496.211	510.369	1228.641	-417.138	498.080	1283.786	-428.829	571.086	1193.563	-448.882	522.386	1047.249	-448.695	520.674	769.906
-496.160	510.228	1228.525	-417.111	498.003	1283.693	-428.804	571.029	1193.534	-448.826	522.440	1047.329	-448.677	520.577	769.974
-496.194	510.211	1228.612	-417.150	498.013	1283.736	-428.716	571.015	1193.558	-448.850	522.409	1047.292	-448.687	520.536	769.996
-496.197	510.256	1228.612	-417.089	497.881	1283.742	-428.776	570.924	1193.491	-448.851	522.386	1047.362	-448.724	520.431	769.987
-496.202	510.350	1228.697	-417.077	497.804	1283.641	-428.836	571.039	1193.630	-448.947	522.408	1047.358	-448.758	520.406	770.113
-496.167	510.134	1228.611	-417.070	497.806	1283.648	-428.710	570.925	1193.533	-448.917	522.173	1047.267	-448.717	520.429	770.018
-496.226	510.288	1228.672	-417.191	497.984	1283.804	-428.803	571.015	1193.595	-448.907	522.101	1047.297	-448.738	520.295	770.079
-496.141	510.002	1228.623	-417.120	497.789	1283.742	-428.776	571.089	1193.676	-448.968	522.167	1047.345	-448.667	520.089	770.099
-496.199	510.258	1228.691	-417.081	497.793	1283.759	-428.715	570.770	1193.503	-448.912	522.102	1047.347	-448.696	520.173	770.209
-496.151	510.086	1228.637	-417.122	497.841	1283.811	-428.760	570.804	1193.515	-448.935	522.138	1047.396	-448.681	520.122	770.213
-496.149	510.061	1228.708	-417.061	497.751	1283.734	-428.749	570.857	1193.659	-448.923	522.059	1047.359	-448.728	519.976	770.185
-496.146	510.038	1228.736	-416.999	497.650	1283.726	-428.763	570.868	1193.676	-448.881	521.972	1047.498	-448.686	519.893	770.106
-496.045	509.888	1228.631	-416.987	497.564	1283.750	-428.726	570.664	1193.500	-448.902	521.954	1047.506	-448.698	520.001	770.379
-496.054	509.959	1228.733	-417.036	497.729	1283.855	-428.714	570.606	1193.501	-448.882	521.737	1047.408	-448.702	519.944	770.414
-496.053	509.931	1228.696	-416.962	497.585	1283.804	-428.702	570.604	1193.592	-448.897	521.771	1047.469	-448.671	519.887	770.375
-496.012	509.897	1228.774	-417.015	497.521	1283.810	-428.769	570.716	1193.678	-448.868	521.754	1047.468	-448.690	519.714	770.418
-496.059	509.807	1228.797	-416.919	497.453	1283.724	-428.648	570.472	1193.509	-448.898	521.647	1047.430	-448.680	519.651	770.358
-496.005	509.824	1228.811	-416.968	497.597	1283.859	-428.694	570.383	1193.508	-448.926	521.666	1047.456	-448.714	519.516	770.417
-496.069	509.785	1228.714	-416.915	497.372	1283.739	-428.691	570.351	1193.432	-448.911	521.593	1047.489	-448.652	519.586	770.348
-496.074	509.771	1228.774	-416.932	497.335	1283.763	-428.686	570.303	1193.474	-448.876	521.472	1047.510	-448.673	519.470	770.363
-496.051	509.578	1228.718	-416.914	497.333	1283.773	-428.672	570.257	1193.471	-448.919	521.507	1047.449	-448.705	519.453	770.412
-495.973	509.618	1228.702	-416.926	497.254	1283.763	-428.787	570.466	1193.637	-448.871	521.382	1047.500	-448.613	519.284	770.395
-496.084	509.680	1228.796	-416.918	497.187	1283.761	-428.647	570.149	1193.467	-448.915	521.364	1047.583	-448.578	519.221	770.418
-496.004	509.424	1228.658	-417.021	497.335	1283.856	-428.714	570.269	1193.531	-448.852	521.323	1047.538	-448.641	519.164	770.427
-496.054	509.521	1228.676	-416.901	497.158	1283.747	-428.673	570.136	1193.518	-448.917	521.283	1047.492	-448.599	519.155	770.352
-496.044	509.458	1228.706	-416.930	497.155	1283.787	-428.745	570.219	1193.527	-448.893	521.231	1047.510	-448.612	519.010	770.305
-496.077	509.435	1228.740	-416.962	497.035	1283.781	-428.718	570.181	1193.566	-448.867	521.195	1047.520	-448.648	518.963	770.361
-496.110	509.467	1228.733	-416.946	497.030	1283.716	-428.703	570.077	1193.461	-448.888	521.117	1047.453	-448.642	518.908	770.289
-496.135	509.452	1228.760	-417.002	497.036	1283.756	-428.707	570.173	1193.477	-448.970	521.168	1047.472	-448.611	518.820	770.329
-496.131	509.394	1228.705	-416.998	496.992	1283.758	-428.778	570.247	1193.683	-448.913	521.094	1047.526	-448.658	518.858	770.318
-496.128	509.280	1228.711	-417.007	496.956	1283.775	-428.710	569.970	1193.510	-448.910	521.078	1047.497	-448.577	518.741	770.239
-496.103	509.336	1228.773	-417.033	496.961	1283.789	-428.700	570.057	1193.530	-448.901	521.077	1047.559	-448.603	518.743	770.303
-496.132	509.230	1228.704	-416.992	496.925	1283.784	-428.726	570.099	1193.652	-448.926	521.056	1047.577	-448.570	518.711	770.309
-496.192	509.367	1228.769	-417.034	496.835	1283.771	-428.748	570.195	1193.654	-448.927	520.985	1047.479	-448.587	518.509	770.383
-496.241	509.269	1228.675	-417.127	497.000	1283.860	-428.802	570.055	1193.657	-448.939	520.980	1047.446	-448.639	518.584	770.258
-496.210	509.214	1228.688	-417.145	496.997	1283.870	-428.815	570.074	1193.647	-448.923	520.915	1047.505	-448.550	518.497	770.375
-496.264	509.348	1228.869	-417.108	496.969	1283.903	-428.710	570.096	1193.656	-448.956	520.958	1047.572	-448.539	518.379	770.430
-496.291	509.325	1228.805	-417.154	496.890	1283.871	-428.813	570.075	1193.732	-448.958	520.861	1047.643	-448.566	518.410	770.400
-496.243	509.272	1228.800	-417.113	496.802	1283.849	-428.839	569.975	1193.796	-448.947	520.964	1047.616	-448.548	518.405	770.436
-496.249	509.233	1228.796	-417.106	496.772	1283.899	-428.829	570.158	1193.852	-448.956	521.018	1047.623	-448.415	518.354	770.475
-496.284	509.252	1228.763	-417.303	497.046	1284.002	-428.849	570.122	1193.818	-449.009	520.938	1047.696	-448.550	518.180	770.544
-496.276	509.225	1228.851	-417.195	496.866	1283.966	-428.838	570.123	1193.939	-449.026	520.971	1047.710	-448.512	518.181	770.564
-496.329	509.445	1228.934	-417.271	496.887	1284.030	-428.894	570.201	1193.991	-448.967	520.964	1047.703	-448.482	518.168	770.630
-496.264	509.376	1228.908	-417.263	497.097	1284.137	-428.919	570.269	1194.072	-448.996	520.938	1047.743	-448.555	518.047	770.575
-496.334	509.318	1228.993	-417.222	496.800	1283.994	-428.904	570.262	1194.151	-449.042	521.014	1047.820	-448.572	518.013	770.583
-496.376	509.400	1228.999	-417.255	496.897	1284.050	-428.861	570.260	1194.205	-449.035	520.982	1047.787	-448.643	518.012	770.684
-496.337	509.366	1228.989	-417.307	496.927	1284.100	-428.828	570.235	1194.191	-449.101	520.969	1047.914	-448.583	517.983	770.693
-496.357	509.294	1228.912	-417.291	496.909	1284.135	-428.892	570.562	1194.564	-449.027	521.040	1047.862	-448.565	517.908	770.713
-496.386	509.428	1229.018	-417.352	496.947	1284.205	-428.936	570.329	1194.392	-449.117	521.075	1047.947	-448.648	517.822	770.776
-496.418	509.324	1228.971	-417.335	496.933	1284.166	-428.910	570.395	1194.470	-449.114	520.991	1047.971	-448.666	517.833	770.814
-496.401	509.456	1229.136	-417.337	496.925	1284.235	-428.973	570.787	1194.785	-449.137	521.116	1047.957	-448.644	517.782	770.796
-496.458	509.547	1229.176	-417.301	496.993	1284.225	-428.987	570.812	1194.850	-449.104	521.020	1048.061	-448.681	517.806	770.844
-496.372	509.533	1229.279	-417.275	496.946	1284.292	-428.943	570.706	1194.814	-449.155	521.077	1048.115	-448.732	517.705	770.849
-496.494	509.673	1229.379	-417.329	497.002	1284.317	-428.963	570.790	1194.781	-449.138	521.060	1048.195	-448.738	517.711	770.948
-496.416	509.577	1229.337	-417.321	497.081	1284.346	-428.934	570.578	1194.666	-449.167	521.051	1048.223	-448.734	517.739	770.998
-496.415	509.794	1229.444	-417.323	497.097	1284.445	-428.945	570.704	1194.849	-449.229	521.129	1048.298	-448.849	517.694	771.030
-496.425	509.635	1229.450	-417.306	497.241	1284.503	-428.925	570.633	1194.868	-449.163	521.106	1048.318	-448.839	517.658	771.055
-496.392	509.709	1229.491	-417.330	497.195	1284.465	-428.951	570.782	1194.993	-449.235	521.220	1048.378	-448.791	517.749	771.027
-496.453	509.830	1229.547	-417.314	497.140	1284.475	-428.902	570.780	1194.954	-449.202	521.196	1048.443	-448.954	517.711	771.150
-496.391	509.778	1229.529	-417.254	497.194	1284.513	-428.900	570.667	1194.902	-449.264	521.212	1048.406	-448.960	517.675	771.237
-496.371	509.804	1229.670	-417.303	497.233	1284.630	-428.921	570.799	1194.989	-449.318	521.433	1048.663	-448.968	517.680	771.205
-496.428	509.969	1229.787	-417.272	497.227	1284.619	-428.800	570.568	1195.017	-449.368	521.614	1048.815	-449.003	517.653	771.314
-496.462	509.895	1229.824	-417.229	497.212	1284.660	-428.811	570.649	1195.060	-449.222	521.151	1048.603	-449.035	517.730	771.398
-496.440	509.978	1229.903	-417.202	497.253	1284.750	-428.804	570.493	1195.028	-449.245	521.268	1048.865	-449.092	517.651	771.438
-496.384	509.828	1229.792	-417.249	497.211	1284.766	-428.851	570.507	1195.088	-449.255	521.166	1048.827	-449.121	517.576	771.444
-496.364	509.881	1229.935	-417.199	497.225	1284.814	-428.780	570.328	1195.087	-449.361	521.399	1048.849	-449.179	517.575	771.518
-496.385	509.858	1230.030	-417.285	497.080	1284.858	-428.783	570.309	1195.135	-449.219	521.117	1048.905	-449.183	517.624	771.579
-496.345	509.841	1230.048	-417.269	497.013	1284.900	-428.776	570.193	1195.234	-449.262	521.195	1048.997	-449.204	517.576	771.681
-496.336	509.807	1230.148	-417.260	496.941	1284.903	-428.733	570.088	1195.317	-449.264	521.100	1048.978	-449.254	517.580	771.698
-496.352	509.769	1230.225	-417.217	496.980	1285.002	-428.723	570.111	1195.325	-449.256	521.204	1049.084	-449.266	517.497	771.644
-496.298	509.654	1230.253	-417.175	496.938	1285.008	-428.696	570.011	1195.310	-449.242	521.133	1049.140	-449.342	517.554	771.821
-496.245	509.502	1230.170	-417.131	496.906	1285.016	-428.717	569.890	1195.411	-449.267	521.100	1049.102	-449.335	517.549	771.830
-496.204	509.442	1230.218	-417.133	496.915	1285.118	-428.738	569.836	1195.422	-449.194	521.084	1049.231	-449.365	517.375	771.873
-496.291	509.600	1230.429	-417.076	496.834	1285.154	-428.674	569.780	1195.504	-449.011	521.048	1049.160	-449.383	517.545	771.864
-496.220	509.609	1230.413	-417.036	496.783	1285.096	-428.633	569.677	1195.471	-449.258	520.983	1049.312	-449.438	517.531	771.975
-496.221	509.387	1230.439	-417.043	496.659	1285.146	-428.635	569.726	1195.589	-449.278	520.845	1049.333	-449.492	517.416	771.940
-496.211	509.642	1230.566	-416.985	496.734	1285.251	-428.643	569.603	1195.510	-449.097	520.904	1049.454	-449.556	517.340	772.070
-496.194	509.403	1230.455	-416.989	496.686	1285.267	-428.586	569.575	1195.588	-449.043	520.860	1049.455	-449.567	517.468	772.047
-496.301	509.624	1230.759	-416.918	496.600	1285.314	-428.624	569.518	1195.532	-449.114	520.897	1049.472	-449.599	517.469	772.090
-496.155	509.645	1230.717	-416.885	496.646	1285.403	-428.622	569.532	1195.579	-449.113	520.826	1049.487	-449.670	517.355	772.155
-496.187	509.507	1230.685	-416.884	496.541	1285.368	-428.617	569.483	1195.621	-449.151	520.832	1049.551	-449.767	517.404	772.123
-496.238	509.854	1230.925	-416.895	496.714	1285.475	-428.610	569.461	1195.596	-449.165	520.875	1049.715	-449.758	517.379	772.218
-496.273	509.823	1230.934	-416.873	496.707	1285.472	-428.639	569.464	1195.683	-449.236	520.892	1049.604	-449.863	517.454	772.295
-496.230	509.422	1230.677	-416.889	496.647	1285.442	-428.616	569.437	1195.627	-449.210	520.973	1049.654	-449.832	517.349	772.238
-496.275	509.659	1230.827	-416.843	496.640	1285.467	-428.649	569.477	1195.617	-449.174	520.855	1049.605	-449.870	517.374	772.297
-496.219	509.686	1230.852	-416.902	496.796	1285.553	-428.641	569.491	1195.636	-449.270	520.908	1049.705	-449.924	517.305	772.172
-496.316	509.906	1230.955	-416.899	496.721	1285.481	-428.615	569.497	1195.667	-449.227	520.971	1049.731	-449.972	517.351	772.254
-496.296	509.689	1230.800	-416.911	496.668	1285.516	-428.614	569.524	1195.681	-449.241	521.011	1049.774	-449.967	517.288	772.302
-496.296	509.985	1231.001	-416.936	496.685	1285.517	-428.587	569.528	1195.631	-449.270	520.857	1049.854	-449.966	517.362	772.257
-496.299	510.050	1230.979	-416.962	496.707	1285.492	-428.611	569.495	1195.647	-449.257	520.928	1049.674	-450.050	517.383	772.227
-496.277	509.979	1230.997	-416.958	496.802	1285.506	-428.651	569.572	1195.673	-449.250	520.830	1049.668	-450.007	517.360	772.296
-496.281	510.104	1231.004	-416.986	496.731	1285.492	-428.604	569.556	1195.703	-449.271	520.999	1049.758	-450.067	517.378	772.181
-496.329	509.964	1230.970	-417.000	496.708	1285.516	-428.638	569.565	1195.705	-449.248	520.926	1049.706	-450.155	517.350	772.259
-496.324	509.920	1230.881	-416.975	496.681	1285.457	-428.557	569.601	1195.595	-449.286	521.064	1049.660	-450.114	517.364	772.245
-496.258	509.931	1230.877	-417.007	496.729	1285.460	-428.608	569.637	1195.686	-449.340	521.068	1049.644	-450.144	517.424	772.146
-496.266	509.853	1230.731	-417.071	496.776	1285.451	-428.592	569.539	1195.662	-449.363	521.067	1049.636	-450.156	517.353	772.164
-496.333	509.851	1230.725	-417.042	496.694	1285.453	-428.662	569.628	1195.687	-449.345	521.073	1049.578	-450.231	517.399	772.230
-496.354	509.732	1230.664	-417.150	496.702	1285.458	-428.695	569.595	1195.652	-449.451	521.117	1049.644	-450.214	517.559	772.176
-496.404	509.868	1230.816	-417.171	496.783	1285.404	-428.673	569.598	1195.691	-449.600	521.193	1049.669	-450.167	517.492	772.268
-496.428	510.019	1230.808	-417.213	496.670	1285.404	-428.697	569.606	1195.645	-449.467	521.215	1049.602	-450.234	517.622	772.213
-496.403	509.854	1230.726	-417.205	496.656	1285.347	-428.727	569.594	1195.703	-449.629	521.256	1049.593	-450.238	517.387	772.113
-496.437	509.758	1230.651	-417.236	496.571	1285.318	-428.851	569.627	1195.747	-449.428	521.406	1049.742	-450.173	517.567	772.180
-496.481	509.867	1230.685	-417.239	496.669	1285.330	-428.851	569.595	1195.678	-449.338	521.181	1049.588	-450.179	517.608	772.201
-496.496	509.764	1230.684	-417.326	496.554	1285.331	-428.828	569.582	1195.750	-449.747	521.173	1049.540	-450.277	517.561	772.193
-496.551	509.752	1230.607	-417.284	496.623	1285.286	-428.869	569.543	1195.742	-449.708	521.148	1049.463	-450.262	517.566	772.097
-496.530	509.672	1230.655	-417.290	496.606	1285.293	-428.813	569.574	1195.701	-449.774	521.282	1049.581	-450.278	517.677	772.080
-496.604	510.003	1230.794	-417.377	496.569	1285.276	-428.895	569.483	1195.726	-449.733	521.197	1049.583	-450.247	517.605	772.116
-496.618	509.732	1230.714	-417.371	496.512	1285.291	-428.858	569.532	1195.684	-449.828	521.257	1049.538	-450.318	517.780	772.112
-496.678	510.045	1230.826	-417.411	496.582	1285.280	-428.984	569.470	1195.743	-449.867	521.324	1049.542	-450.292	517.776	772.167
-496.693	509.798	1230.737	-417.449	496.596	1285.283	-428.907	569.526	1195.694	-449.870	521.317	1049.583	-450.311	517.738	772.097
-496.730	509.853	1230.783	-417.488	496.582	1285.340	-429.038	569.532	1195.796	-449.904	521.163	1049.583	-450.277	517.738	771.995
-496.745	509.971	1230.827	-417.507	496.537	1285.262	-429.045	569.559	1195.777	-449.891	521.248	1049.526	-450.361	517.773	772.055
-496.789	509.979	1230.794	-417.434	496.468	1285.324	-429.081	569.513	1195.695	-449.925	521.390	1049.668	-450.387	517.872	772.047
-496.846	510.050	1230.892	-417.544	496.523	1285.344	-429.110	569.524	1195.811	-450.025	521.333	1049.648	-450.375	517.801	772.066
-496.841	510.006	1230.881	-417.478	496.488	1285.295	-429.058	569.527	1195.694	-450.066	521.305	1049.658	-450.500	517.851	772.053
-496.914	510.187	1231.005	-417.568	496.445	1285.268	-429.126	569.462	1195.766	-450.120	521.356	1049.634	-450.517	517.844	772.031
-496.842	509.875	1230.768	-417.571	496.445	1285.300	-429.170	569.491	1195.800	-450.100	521.309	1049.685	-450.534	517.863	772.074
-496.978	510.068	1230.897	-417.607	496.437	1285.320	-429.176	569.466	1195.788	-450.168	521.328	1049.590	-450.625	517.882	772.050
-497.019	510.052	1230.878	-417.641	496.308	1285.237	-429.206	569.627	1195.846	-450.158	521.442	1049.667	-450.668	517.848	772.021
-496.963	510.024	1230.816	-417.587	496.334	1285.253	-429.257	569.561	1195.817	-450.246	521.503	1049.669	-450.678	517.812	772.028
-497.109	510.228	1230.924	-417.645	496.280	1285.187	-429.188	569.582	1195.877	-450.245	521.609	1049.634	-450.791	518.009	772.050
-497.012	509.995	1230.873	-417.618	496.281	1285.097	-429.265	569.656	1195.901	-450.302	521.619	1049.687	-450.793	517.986	771.916
-497.129	510.240	1230.965	-417.683	496.267	1285.124	-429.348	569.636	1196.021	-450.380	521.883	1049.730	-450.926	518.096	772.105
-497.150	510.188	1230.889	-417.641	496.115	1285.019	-429.300	569.658	1196.016	-450.512	521.942	1049.783	-450.987	518.062	772.056
-497.179	510.385	1230.943	-417.643	496.037	1284.969	-429.328	569.768	1196.027	-450.590	522.055	1049.743	-451.013	518.088	771.998
-497.193	510.211	1230.867	-417.647	496.032	1284.917	-429.374	569.802	1196.116	-450.703	522.114	1049.739	-451.046	518.073	772.024
-497.213	510.363	1230.990	-417.618	495.873	1284.865	-429.378	569.867	1196.185	-450.720	522.185	1049.746	-451.179	518.315	772.041
-497.254	510.740	1231.189	-417.611	495.900	1284.862	-429.360	569.830	1196.145	-450.697	522.240	1049.790	-451.211	518.382	772.077
-497.232	510.534	1231.047	-417.541	495.877	1284.769	-429.419	569.890	1196.244	-450.753	522.342	1049.797	-451.266	518.414	772.105
-497.273	510.581	1231.083	-417.600	495.803	1284.826	-429.413	569.953	1196.282	-450.790	522.350	1049.759	-451.347	518.485	772.140
-497.282	510.641	1231.070	-417.502	495.824	1284.740	-429.376	569.930	1196.313	-450.779	522.459	1049.819	-451.485	518.891	772.262
-497.217	510.623	1231.025	-417.577	495.881	1284.749	-429.367	570.019	1196.340	-450.853	522.547	1049.866	-451.389	518.612	772.169
-497.284	510.681	1231.088	-417.448	495.875	1284.690	-429.356	570.032	1196.339	-450.851	522.596	1049.821	-451.469	518.747	772.077
-497.288	510.830	1231.198	-417.466	495.894	1284.675	-429.353	570.046	1196.386	-450.832	522.759	1049.769	-451.504	519.042	772.266
-497.161	510.397	1230.905	-417.471	495.836	1284.726	-429.365	570.103	1196.384	-450.929	522.818	1049.787	-451.551	519.028	772.189
-497.236	510.864	1231.210	-417.482	495.875	1284.753	-429.414	570.172	1196.347	-450.923	522.822	1049.745	-451.721	519.315	772.228
-497.281	510.851	1231.067	-417.513	495.933	1284.709	-429.352	570.158	1196.322	-450.898	522.868	1049.819	-451.708	519.349	772.278
-497.238	510.949	1231.227	-417.526	496.009	1284.810	-429.257	570.131	1196.338	-450.945	522.917	1049.863	-451.733	519.625	772.286
-497.246	511.007	1231.214	-417.548	496.081	1284.791	-429.333	570.148	1196.314	-450.934	522.849	1049.879	-451.716	519.706	772.232
-497.200	510.860	1231.104	-417.519	496.063	1284.850	-429.270	570.161	1196.321	-450.847	522.971	1049.886	-451.735	519.830	772.155
-497.205	510.973	1231.242	-417.549	496.082	1284.839	-429.288	570.162	1196.318	-450.864	522.877	1049.837	-451.697	519.893	772.232
-497.227	510.804	1231.063	-417.561	495.932	1284.788	-429.277	570.183	1196.346	-450.863	522.969	1049.875	-451.642	520.019	772.219
-497.200	510.464	1230.944	-417.490	495.915	1284.805	-429.220	570.167	1196.329	-450.802	522.976	1049.766	-451.743	520.301	772.086
-497.224	510.887	1231.238	-417.447	495.791	1284.773	-429.253	570.088	1196.338	-450.824	523.006	1049.869	-451.767	520.355	772.279
-497.193	510.878	1231.264	-417.490	495.829	1284.762	-429.243	570.041	1196.352	-450.946	523.066	1049.824	-451.949	520.581	772.135
-497.191	510.891	1231.240	-417.447	495.805	1284.765	-429.235	570.013	1196.390	-450.949	523.024	1049.791	-451.932	520.559	772.250
-497.133	510.811	1231.237	-417.396	495.621	1284.701	-429.245	569.972	1196.400	-450.972	523.088	1049.875	-451.959	520.667	772.202
-497.123	510.895	1231.269	-417.378	495.726	1284.769	-429.209	569.940	1196.457	-450.947	523.050	1049.835	-452.002	520.777	772.201
-497.135	510.673	1231.131	-417.363	495.679	1284.747	-429.190	569.981	1196.400	-450.933	523.069	1049.865	-452.038	520.766	772.189
-497.056	510.612	1231.127	-417.343	495.603	1284.790	-429.182	569.945	1196.408	-450.906	523.099	1049.921	-452.102	520.864	772.233
-497.134	510.822	1231.231	-417.357	495.417	1284.615	-429.153	569.930	1196.434	-450.913	523.099	1049.864	-452.167	520.963	772.235
-497.131	510.708	1231.259	-417.284	495.464	1284.677	-429.185	569.957	1196.501	-450.900	523.101	1049.877	-452.148	520.993	772.215
-497.091	510.813	1231.262	-417.277	495.341	1284.613	-429.166	569.939	1196.564	-450.982	523.232	1049.818	-452.210	521.161	772.210
-497.057	510.701	1231.276	-417.262	495.241	1284.589	-429.150	569.843	1196.522	-451.039	523.292	1049.854	-452.333	521.107	772.181
-497.052	510.642	1231.211	-417.273	495.150	1284.506	-429.087	569.898	1196.511	-451.114	523.368	1049.893	-452.497	521.234	772.307
-497.125	510.742	1231.309	-417.146	494.984	1284.452	-429.124	569.778	1196.520	-451.160	523.367	1049.911	-452.609	521.297	772.297
-497.004	510.216	1230.937	-417.106	494.835	1284.358	-429.063	569.802	1196.520	-451.175	523.415	1049.775	-452.623	521.360	772.273
-497.076	510.793	1231.272	-417.071	494.822	1284.271	-429.064	569.871	1196.642	-451.248	523.408	1049.799	-452.672	521.323	772.213
-497.066	510.740	1231.153	-416.998	494.691	1284.321	-429.021	569.820	1196.649	-451.158	523.438	1049.838	-452.753	521.365	772.273
-497.019	510.652	1231.160	-416.956	494.638	1284.250	-429.036	569.828	1196.600	-451.133	523.544	1049.793	-452.704	521.402	772.120
-497.041	510.518	1231.032	-417.032	494.574	1284.140	-428.985	569.749	1196.582	-451.107	523.501	1049.818	-452.794	521.384	772.191
-496.981	510.565	1231.010	-417.026	494.447	1284.161	-429.023	569.873	1196.643	-451.147	523.449	1049.765	-452.778	521.342	772.072
-497.021	510.667	1231.128	-416.980	494.373	1284.134	-429.011	569.807	1196.617	-451.146	523.484	1049.741	-452.931	521.442	772.185
-496.995	510.689	1231.099	-416.997	494.433	1284.021	-428.990	569.819	1196.625	-451.140	523.494	1049.729	-453.047	521.633	772.233
-496.942	510.669	1231.100	-416.991	494.405	1284.015	-428.933	569.849	1196.601	-451.181	523.481	1049.630	-453.029	521.548	772.107
-496.920	510.568	1230.978	-417.005	494.443	1284.000	-428.958	569.938	1196.625	-451.223	523.561	1049.664	-453.063	521.641	772.022
-496.966	510.627	1230.947	-416.995	494.561	1284.040	-428.884	569.870	1196.576	-451.174	523.531	1049.626	-453.091	521.734	772.049
-497.005	510.692	1230.924	-416.965	494.495	1283.961	-428.905	569.870	1196.511	-451.204	523.567	1049.516	-453.062	521.654	771.995
-496.910	510.655	1230.904	-416.988	494.478	1283.933	-428.902	570.038	1196.475	-451.121	523.632	1049.591	-452.976	521.705	771.902
-496.858	510.615	1230.797	-417.002	494.576	1284.016	-428.865	570.045	1196.450	-451.072	523.600	1049.570	-453.023	521.794	771.784
-496.863	510.586	1230.783	-417.005	494.556	1283.923	-428.835	570.020	1196.465	-451.051	523.618	1049.479	-452.930	521.841	771.832
-496.880	510.658	1230.854	-417.048	494.562	1283.941	-428.848	570.054	1196.404	-451.072	523.591	1049.446	-453.034	522.000	771.832
-496.854	510.637	1230.841	-416.966	494.542	1283.874	-428.792	570.066	1196.377	-451.046	523.683	1049.467	-452.917	522.051	771.738
-496.931	510.744	1230.775	-417.034	494.603	1283.831	-428.872	570.109	1196.413	-451.104	523.754	1049.418	-452.915	522.035	771.628
-496.902	510.704	1230.726	-417.012	494.515	1283.800	-428.822	570.053	1196.336	-451.074	523.654	1049.368	-452.930	522.334	771.795
-496.856	510.561	1230.632	-417.036	494.576	1283.815	-428.847	570.168	1196.439	-451.058	523.771	1049.364	-452.903	522.392	771.740
-496.848	510.436	1230.456	-417.015	494.511	1283.827	-428.812	570.086	1196.297	-451.067	523.743	1049.318	-452.904	522.494	771.632
-496.878	510.689	1230.618	-416.993	494.500	1283.800	-428.791	570.097	1196.267	-451.029	523.748	1049.313	-452.771	522.566	771.588
-496.811	510.590	1230.443	-417.024	494.440	1283.736	-428.779	570.068	1196.285	-451.109	523.921	1049.314	-452.762	522.560	771.551
-496.854	510.383	1230.387	-416.989	494.430	1283.646	-428.773	570.153	1196.276	-451.011	523.870	1049.217	-452.668	522.665	771.555
-496.793	510.327	1230.298	-416.968	494.381	1283.554	-428.778	570.118	1196.252	-450.961	523.989	1049.323	-452.634	522.681	771.484
-496.813	510.502	1230.285	-416.983	494.307	1283.505	-428.739	570.165	1196.297	-450.999	523.926	1049.165	-452.616	522.714	771.451
-496.864	510.537	1230.285	-416.945	494.180	1283.475	-428.751	570.223	1196.295	-450.974	524.106	1049.175	-452.649	522.816	771.394
-496.777	510.439	1230.166	-416.905	494.162	1283.409	-428.798	570.209	1196.400	-450.980	524.304	1049.194	-452.618	522.966	771.404
-496.835	510.428	1230.139	-416.934	493.894	1283.190	-428.752	570.191	1196.307	-450.997	524.366	1049.111	-452.654	523.073	771.358
-496.841	510.385	1229.983	-417.007	493.904	1283.164	-428.721	570.337	1196.429	-451.036	524.392	1049.038	-452.690	523.212	771.390
-496.796	510.393	1229.942	-416.898	493.789	1283.006	-428.684	570.373	1196.419	-451.055	524.494	1049.021	-452.705	523.223	771.352
-496.762	510.541	1229.844	-416.852	493.779	1282.874	-428.654	570.504	1196.432	-451.075	524.605	1048.927	-452.579	523.306	771.292
-496.744	510.608	1229.827	-416.836	493.851	1282.844	-428.619	570.526	1196.358	-451.047	524.699	1048.908	-452.572	523.387	771.248
-496.778	510.760	1229.688	-416.868	493.793	1282.730	-428.634	570.731	1196.379	-451.020	524.847	1048.819	-452.555	523.504	771.190
-496.730	510.745	1229.648	-416.919	493.819	1282.666	-428.539	570.787	1196.316	-451.017	524.880	1048.729	-452.548	523.431	771.163
-496.715	510.882	1229.498	-416.854	493.835	1282.619	-428.567	571.018	1196.480	-450.998	525.037	1048.640	-452.514	523.508	771.108
-496.694	510.823	1229.412	-416.940	493.976	1282.573	-428.480	571.023	1196.282	-450.969	525.165	1048.625	-452.542	523.576	771.047
-496.676	510.888	1229.366	-416.941	493.902	1282.478	-428.456	571.067	1196.277	-451.020	525.119	1048.455	-452.574	523.692	770.957
-496.658	510.912	1229.294	-417.135	494.484	1282.658	-428.375	571.134	1196.193	-451.071	525.165	1048.398	-452.583	523.687	770.868
-496.652	510.752	1229.113	-416.943	493.964	1282.343	-428.358	571.134	1196.180	-450.972	525.188	1048.340	-452.682	523.747	770.874
-496.647	510.927	1229.144	-417.102	494.336	1282.504	-428.374	571.211	1196.058	-450.976	525.035	1048.142	-452.648	523.880	770.786
-496.564	510.683	1228.920	-417.090	494.096	1282.276	-428.308	571.242	1196.086	-451.018	525.105	1048.051	-452.690	524.004	770.701
-496.541	510.837	1228.907	-417.125	494.225	1282.338	-428.329	571.277	1196.073	-450.873	525.107	1047.984	-452.587	523.914	770.624
-496.561	510.637	1228.813	-417.079	494.031	1282.167	-428.291	571.310	1195.963	-450.838	524.985	1047.782	-452.620	524.003	770.612
-496.497	510.626	1228.722	-417.039	493.736	1281.910	-428.288	571.356	1195.999	-450.865	524.948	1047.727	-452.586	523.984	770.524
-496.424	510.561	1228.632	-416.999	493.728	1281.874	-428.192	571.198	1195.979	-450.844	524.937	1047.587	-452.704	524.137	770.502
-496.454	510.527	1228.532	-416.978	493.599	1281.831	-428.232	571.275	1195.961	-450.798	525.063	1047.584	-452.721	524.244	770.414
-496.392	510.399	1228.473	-416.893	493.293	1281.554	-428.177	571.264	1195.981	-450.873	525.080	1047.575	-452.775	524.314	770.389
-496.384	510.451	1228.480	-416.861	493.138	1281.382	-428.176	571.415	1196.230	-450.957	525.141	1047.520	-452.764	524.420	770.406
-496.341	510.481	1228.381	-416.772	492.839	1281.157	-428.113	571.231	1196.183	-450.988	525.232	1047.448	-452.839	524.544	770.321
-496.304	510.189	1228.264	-416.733	492.604	1280.972	-428.143	571.440	1196.370	-451.026	525.239	1047.404	-452.852	524.590	770.311
-496.286	510.316	1228.225	-416.668	492.409	1280.786	-428.120	571.426	1196.512	-450.972	525.363	1047.351	-452.903	524.739	770.368
-496.245	510.274	1228.226	-416.616	492.029	1280.549	-428.051	571.476	1196.602	-450.996	525.558	1047.432	-452.939	524.787	770.281
-496.179	510.228	1228.107	-416.610	491.727	1280.283	-428.051	571.516	1196.688	-450.945	525.791	1047.394	-452.988	524.928	770.226
-496.184	510.088	1228.050	-416.486	491.419	1280.151	-428.102	571.375	1196.929	-450.921	525.800	1047.378	-452.994	524.979	770.156
-496.141	510.037	1228.012	-416.399	490.992	1279.821	-428.136	571.381	1196.986	-450.918	525.876	1047.271	-452.990	525.128	770.249
-495.986	509.817	1227.888	-416.347	490.854	1279.728	-428.020	571.223	1197.051	-450.966	525.883	1047.282	-453.026	525.274	770.243
-496.051	509.645	1227.853	-416.304	490.489	1279.590	-428.043	571.180	1197.179	-450.985	525.852	1047.234	-453.059	525.351	770.206
-495.987	509.442	1227.764	-416.203	490.278	1279.492	-427.975	571.080	1197.231	-450.958	525.901	1047.225	-453.070	525.463	770.162
-496.001	509.522	1227.802	-416.167	490.063	1279.328	-427.950	570.927	1197.292	-450.981	525.881	1047.255	-453.074	525.495	770.147
-495.959	509.233	1227.662	-416.093	489.867	1279.302	-427.980	570.929	1197.328	-450.945	525.802	1047.165	-453.055	525.564	770.078
-495.917	509.003	1227.608	-416.100	489.552	1279.177	-427.864	570.678	1197.313	-450.877	525.739	1047.170	-453.091	525.720	770.068
-495.898	508.885	1227.576	-416.093	489.378	1279.082	-427.864	570.588	1197.366	-450.814	525.688	1047.025	-453.077	525.798	770.080
-495.872	508.691	1227.449	-415.988	489.100	1278.991	-427.846	570.351	1197.303	-450.777	525.618	1047.009	-453.021	525.849	769.967
-495.840	508.526	1227.376	-415.954	488.909	1278.927	-427.815	570.347	1197.446	-450.790	525.724	1047.069	-453.009	525.947	769.997
-495.780	508.327	1227.249	-415.938	488.639	1278.730	-427.837	570.294	1197.476	-450.773	525.684	1046.942	-453.089	526.144	769.994
-495.791	508.234	1227.286	-415.931	488.428	1278.675	-427.808	570.138	1197.563	-450.822	525.531	1046.912	-453.031	526.239	769.927
-495.815	508.131	1227.202	-415.874	488.110	1278.560	-427.823	569.947	1197.595	-450.889	525.520	1046.843	-453.093	526.361	769.872
-495.755	508.050	1227.291	-415.755	487.632	1278.413	-427.762	569.947	1198.043	-450.844	525.345	1046.684	-453.123	526.382	769.906
-495.786	507.978	1227.254	-415.759	487.439	1278.273	-427.825	569.956	1198.184	-450.847	524.286	1046.717	-453.207	526.432	769.816
-495.815	507.985	1227.159	-415.881	487.009	1277.974	-427.655	569.785	1198.148	-450.831	523.445	1046.574	-453.220	526.603	769.716
-495.816	507.893	1227.109	-415.682	486.628	1277.678	-427.876	570.385	1198.925	-450.888	523.055	1046.509	-453.171	525.939	769.778
-495.863	508.056	1227.165	-415.748	486.348	1277.496	-427.866	570.421	1199.263	-450.892	522.940	1046.547	-452.959	525.392	769.746
-495.945	507.974	1227.093	-415.663	485.873	1277.217	-427.859	570.297	1199.607	-450.937	523.026	1046.534	-452.724	525.506	769.750
-495.928	507.944	1227.035	-415.589	485.524	1276.895	-428.057	571.168	1200.408	-450.782	523.274	1046.399	-452.938	526.022	769.678
-495.854	507.714	1226.826	-415.568	485.196	1276.589	-428.441	572.826	1201.669	-450.627	523.807	1046.466	-453.283	526.320	769.650
-495.927	507.777	1226.844	-415.527	484.921	1276.446	-428.512	572.867	1201.807	-450.581	524.504	1046.494	-453.514	526.527	769.640
-495.936	507.834	1226.798	-415.513	484.763	1276.295	-428.601	573.181	1202.116	-450.929	524.857	1046.437	-453.600	526.580	769.606
-495.962	507.919	1226.803	-415.567	484.661	1276.050	-428.670	573.578	1202.483	-451.338	524.592	1046.368	-453.572	526.638	769.582
-495.931	508.054	1226.778	-415.655	484.822	1276.128	-428.585	573.508	1202.399	-451.557	524.426	1046.475	-453.613	526.612	769.604
-495.848	508.145	1226.733	-415.557	484.546	1275.936	-428.627	573.745	1202.609	-451.462	524.049	1046.478	-453.903	526.382	769.641
-495.888	508.177	1226.721	-415.553	484.541	1275.824	-428.665	573.775	1202.666	-451.391	523.409	1046.311	-453.768	526.197	769.599
-495.883	508.379	1226.844	-415.578	484.583	1275.896	-428.684	574.057	1202.829	-451.248	523.274	1046.420	-453.536	526.230	769.583
-495.944	508.469	1226.825	-415.610	484.649	1275.889	-428.711	574.217	1202.985	-451.114	523.312	1046.362	-453.429	525.953	769.585
-495.974	508.471	1226.736	-415.700	484.696	1275.950	-428.665	573.956	1202.754	-450.896	523.596	1046.318	-453.310	525.865	769.614
-496.026	508.513	1226.705	-415.674	484.772	1275.931	-428.698	574.099	1202.725	-450.739	523.884	1046.248	-453.442	526.108	769.553
-496.004	508.602	1226.750	-415.697	484.887	1275.933	-428.770	574.101	1202.747	-450.853	524.033	1046.365	-453.690	526.515	769.609
-495.991	508.507	1226.721	-415.612	484.841	1275.877	-428.745	574.162	1202.784	-451.114	524.037	1046.345	-453.586	526.775	769.571
-496.066	508.661	1226.857	-415.729	484.866	1275.921	-428.684	573.818	1202.462	-451.474	524.189	1046.384	-453.766	526.712	769.531
-496.017	508.661	1226.786	-415.775	485.041	1276.021	-428.752	574.176	1202.713	-451.655	524.003	1046.405	-453.759	526.533	769.518
-496.063	508.549	1226.807	-415.776	485.077	1276.021	-428.712	573.960	1202.533	-451.713	523.906	1046.454	-453.730	526.603	769.526
-495.998	508.537	1226.786	-415.756	484.990	1276.013	-428.772	574.092	1202.655	-451.587	523.611	1046.357	-453.583	526.601	769.543
-496.004	508.524	1226.745	-415.784	485.100	1276.015	-428.775	573.916	1202.514	-451.253	523.572	1046.343	-453.478	526.525	769.529
-496.073	508.537	1226.859	-415.697	484.886	1275.926	-428.835	574.048	1202.636	-450.903	523.784	1046.395	-453.236	526.563	769.545
-496.040	508.412	1226.715	-415.715	484.808	1275.834	-428.825	573.812	1202.514	-450.740	523.930	1046.283	-453.143	526.596	769.553
-496.120	508.462	1226.772	-415.646	484.680	1275.813	-428.868	574.033	1202.640	-450.724	524.039	1046.293	-453.051	526.712	769.469
-496.076	508.469	1226.809	-415.688	484.585	1275.695	-428.832	574.043	1202.689	-450.897	524.207	1046.319	-453.029	526.923	769.418
-496.089	508.635	1226.847	-415.645	484.669	1275.772	-428.888	573.975	1202.659	-451.137	524.225	1046.321	-453.052	527.143	769.417
-496.032	508.495	1226.710	-415.712	484.597	1275.653	-428.859	574.013	1202.676	-451.385	524.198	1046.353	-453.126	527.286	769.345
-496.099	508.620	1226.761	-415.646	484.401	1275.531	-428.861	574.225	1202.876	-451.523	524.303	1046.297	-453.102	527.349	769.307
-496.166	508.674	1226.708	-415.687	484.359	1275.426	-428.965	574.225	1202.941	-451.466	524.316	1046.315	-452.977	527.485	769.325
-496.094	508.471	1226.661	-415.625	484.257	1275.412	-428.894	574.223	1202.919	-451.181	524.471	1046.327	-452.825	527.620	769.230
-496.098	508.458	1226.576	-415.610	484.139	1275.253	-428.888	574.205	1202.945	-450.888	524.691	1046.299	-452.680	527.623	769.269
-496.091	508.636	1226.604	-415.578	484.155	1275.210	-428.972	574.469	1203.155	-450.679	524.738	1046.252	-452.459	527.585	769.273
-496.100	508.482	1226.466	-415.622	484.069	1275.116	-429.004	574.639	1203.293	-450.515	524.937	1046.254	-452.349	527.621	769.201
-496.117	508.693	1226.526	-415.618	484.056	1275.076	-428.940	574.687	1203.359	-450.600	524.853	1046.218	-452.253	527.666	769.188
-496.149	508.681	1226.312	-415.590	483.929	1274.979	-429.007	574.873	1203.525	-450.719	524.901	1046.193	-452.234	527.753	769.223
-496.126	508.863	1226.396	-415.601	483.907	1274.949	-428.974	574.685	1203.313	-450.913	524.978	1046.178	-452.410	527.925	769.068
-496.196	509.074	1226.385	-415.655	483.997	1274.906	-428.960	574.787	1203.346	-451.049	525.102	1046.213	-452.523	528.130	769.076
-496.217	509.155	1226.326	-415.649	484.014	1274.884	-428.954	574.936	1203.420	-451.077	525.255	1046.204	-452.605	528.168	769.078
-496.291	509.393	1226.356	-415.677	484.126	1274.841	-428.931	575.006	1203.450	-451.031	525.505	1046.226	-452.458	528.195	769.131
-496.194	509.270	1226.239	-415.708	484.109	1274.860	-429.040	575.209	1203.623	-450.897	525.630	1046.258	-452.379	528.275	769.040
-496.244	509.525	1226.224	-415.699	484.226	1274.806	-428.983	575.298	1203.695	-450.735	525.724	1046.230	-452.269	528.227	769.050
-496.259	509.514	1226.217	-415.721	484.215	1274.832	-429.036	575.393	1203.767	-450.592	525.748	1046.195	-452.219	528.182	769.028
-496.311	509.770	1226.279	-415.701	484.261	1274.757	-429.046	575.448	1203.801	-450.565	525.846	1046.258	-452.023	528.047	769.156
-496.306	509.746	1226.319	-415.758	484.211	1274.743	-428.960	575.549	1203.812	-450.683	525.761	1046.310	-451.943	528.136	769.086
-496.250	509.752	1226.203	-415.707	484.118	1274.671	-428.989	575.727	1204.042	-450.818	525.805	1046.300	-452.187	528.191	769.148
-496.333	509.901	1226.343	-415.645	483.994	1274.545	-429.023	575.721	1204.039	-450.939	526.003	1046.408	-452.215	528.129	769.164
-496.304	509.918	1226.387	-415.638	483.804	1274.390	-429.047	575.880	1204.205	-450.983	526.305	1046.390	-452.367	528.283	769.170
-496.269	509.991	1226.526	-415.526	483.730	1274.345	-429.069	576.237	1204.633	-450.946	525.797	1046.363	-452.405	528.426	769.153
-496.335	509.995	1226.479	-415.589	483.762	1274.280	-429.146	576.474	1204.876	-450.894	525.402	1046.432	-452.475	528.616	769.158
-496.283	510.107	1226.510	-415.461	483.588	1274.177	-429.124	576.760	1205.153	-450.870	525.197	1046.371	-452.284	528.063	769.322
-496.309	510.058	1226.524	-415.400	483.343	1274.019	-429.162	576.816	1205.286	-450.761	525.254	1046.419	-452.061	527.374	769.588
-496.317	510.280	1226.624	-415.418	483.182	1273.846	-429.224	577.173	1205.647	-450.725	525.124	1046.444	-451.771	527.197	769.567
-496.270	510.226	1226.610	-415.326	483.098	1273.785	-429.342	577.467	1206.013	-450.626	525.047	1046.441	-451.731	527.480	769.602
-496.294	510.164	1226.574	-415.313	482.834	1273.581	-429.461	577.954	1206.505	-450.410	525.153	1046.497	-452.102	527.734	769.558
-496.279	510.037	1226.484	-415.242	482.594	1273.418	-429.430	578.049	1206.811	-450.394	525.431	1046.484	-452.268	527.776	769.617
-496.265	510.165	1226.538	-415.227	482.320	1273.319	-429.519	578.372	1207.201	-450.777	525.802	1046.702	-452.251	527.991	769.477
-496.264	510.122	1226.518	-415.151	482.358	1273.408	-429.441	578.057	1207.311	-451.070	525.920	1046.793	-452.194	527.962	769.612
-496.274	510.153	1226.651	-415.134	482.306	1273.351	-429.438	578.079	1207.441	-451.192	525.933	1046.776	-452.247	527.860	769.669
-496.250	510.079	1226.590	-415.134	482.145	1273.210	-429.495	578.242	1207.775	-451.111	525.908	1046.854	-452.416	527.890	769.731
-496.292	510.035	1226.628	-415.093	481.942	1273.178	-429.545	578.201	1208.010	-451.021	525.837	1046.885	-452.418	527.846	769.741
-496.312	509.909	1226.623	-415.096	481.806	1273.182	-429.680	578.984	1208.671	-450.882	525.777	1046.893	-452.317	527.905	769.857
-496.327	509.854	1226.848	-414.989	481.582	1273.114	-429.573	578.097	1208.386	-450.746	525.786	1046.941	-451.993	527.774	769.876
-496.271	509.568	1226.882	-415.009	481.414	1273.110	-429.580	577.796	1208.380	-450.630	525.268	1046.949	-452.101	527.680	769.906
-496.183	509.286	1226.898	-415.024	481.277	1273.066	-429.601	577.806	1208.670	-450.596	524.991	1046.951	-452.172	527.595	770.022
-496.212	509.116	1226.960	-414.902	481.065	1273.084	-429.645	577.516	1208.647	-450.770	524.850	1047.110	-452.154	527.439	770.094
-496.240	508.929	1227.038	-414.935	480.893	1273.015	-429.802	577.479	1208.894	-450.971	524.664	1047.025	-452.003	527.299	770.079
-496.246	508.626	1226.979	-414.879	480.615	1272.975	-429.829	577.314	1209.033	-451.078	524.828	1047.161	-452.034	527.462	770.219
-496.279	508.426	1227.147	-414.869	480.403	1272.928	-429.904	577.224	1209.270	-451.100	525.029	1047.257	-452.104	527.627	770.101
-496.439	508.370	1227.258	-414.797	480.188	1272.838	-429.931	577.072	1209.448	-450.970	525.398	1047.328	-452.257	527.869	770.369
-496.457	508.186	1227.277	-414.778	479.926	1272.772	-430.038	576.981	1209.729	-450.958	525.788	1047.436	-452.296	528.016	770.292
-496.500	508.008	1227.274	-414.754	479.600	1272.572	-430.052	576.809	1210.042	-451.139	525.837	1047.519	-452.169	527.982	770.355
-496.563	507.929	1227.309	-414.715	479.403	1272.585	-430.158	576.758	1210.527	-451.183	525.386	1047.616	-452.027	527.839	770.414
-496.569	507.790	1227.316	-414.722	479.251	1272.442	-430.251	576.734	1210.681	-451.139	524.724	1047.580	-452.005	527.795	770.466
-496.580	507.684	1227.416	-414.645	478.950	1272.333	-430.258	576.508	1210.949	-451.109	524.188	1047.539	-451.986	527.481	770.473
-496.561	507.525	1227.432	-414.629	478.758	1272.273	-430.414	576.525	1211.440	-451.036	523.793	1047.822	-451.837	527.118	770.581
-496.637	507.471	1227.606	-414.622	478.542	1272.210	-430.527	576.835	1211.988	-451.079	523.698	1047.830	-451.680	527.058	770.621
-496.607	507.227	1227.597	-414.502	478.290	1272.151	-430.535	576.777	1212.217	-451.044	523.782	1047.908	-451.609	527.020	770.730
-496.687	507.181	1227.647	-414.533	478.016	1272.084	-430.912	576.961	1212.664	-451.017	524.057	1048.007	-451.683	527.046	770.727
-496.692	507.035	1227.695	-414.472	477.936	1272.105	-431.001	576.914	1212.797	-450.882	524.471	1048.073	-451.830	527.167	770.787
-496.790	507.014	1227.748	-414.493	477.875	1272.080	-431.153	577.008	1213.033	-451.203	524.859	1048.286	-452.060	527.434	770.911
-496.809	507.107	1227.883	-414.573	477.738	1272.053	-431.123	576.883	1213.047	-451.385	524.948	1048.522	-451.970	527.359	770.928
-496.898	507.081	1227.963	-414.558	477.739	1272.092	-431.224	577.036	1213.132	-451.611	524.989	1048.622	-451.973	527.181	770.969
-496.925	507.046	1228.026	-414.618	477.709	1272.141	-431.244	577.001	1213.272	-451.695	524.747	1048.525	-452.045	527.029	770.997
-497.010	507.161	1228.157	-414.702	477.721	1272.307	-431.316	577.021	1213.367	-451.636	524.679	1048.669	-451.988	526.878	771.061
-497.027	507.047	1228.212	-414.733	477.656	1272.272	-431.375	576.963	1213.408	-451.534	524.414	1048.708	-451.900	526.677	771.141
-497.031	507.022	1228.201	-414.750	477.577	1272.316	-431.346	576.861	1213.454	-451.420	524.412	1048.777	-451.779	526.456	771.238
-497.089	506.812	1228.166	-414.793	477.430	1272.424	-431.419	576.854	1213.472	-451.221	524.428	1048.957	-451.753	526.392	771.283
-497.138	506.874	1228.268	-415.012	477.363	1272.521	-431.479	577.034	1213.789	-451.171	524.433	1048.948	-451.728	526.416	771.341
-497.129	506.811	1228.262	-415.028	477.196	1272.455	-431.473	576.678	1213.760	-451.334	524.605	1049.018	-451.860	526.399	771.439
-497.191	506.775	1228.350	-415.026	477.044	1272.404	-431.543	576.913	1214.111	-451.534	524.431	1048.978	-451.858	526.419	771.433
-497.225	506.512	1228.232	-415.126	476.822	1272.422	-431.496	576.526	1214.037	-451.739	524.469	1049.106	-452.022	526.361	771.448
-497.269	506.421	1228.306	-415.145	476.767	1272.446	-431.656	576.696	1214.437	-451.947	524.455	1049.034	-452.016	526.244	771.572
-497.342	506.387	1228.308	-415.193	476.410	1272.244	-431.703	576.637	1214.687	-451.989	524.468	1049.189	-452.033	526.189	771.596
-497.405	506.189	1228.318	-415.169	476.289	1272.286	-431.821	576.596	1214.955	-451.980	524.385	1049.241	-451.981	526.040	771.592
-497.414	506.019	1228.338	-415.207	476.161	1272.278	-431.862	576.509	1215.149	-451.709	524.261	1049.196	-451.907	526.026	771.627
-497.539	506.143	1228.603	-415.197	475.857	1272.191	-431.979	576.509	1215.620	-451.527	523.938	1049.344	-451.821	525.895	771.698
-497.538	506.023	1228.542	-415.221	475.727	1272.203	-432.135	576.445	1215.790	-451.327	523.324	1049.393	-451.724	525.849	771.680
-497.579	505.802	1228.560	-415.260	475.460	1272.180	-432.212	576.383	1216.093	-451.375	522.931	1049.416	-451.618	525.539	771.651
-497.626	505.686	1228.519	-415.227	475.384	1272.150	-432.396	576.457	1216.298	-451.568	522.605	1049.498	-451.470	525.128	771.609
-497.691	505.499	1228.524	-415.285	475.238	1272.111	-432.464	576.323	1216.482	-451.614	522.414	1049.472	-451.208	524.990	771.729
-497.869	505.690	1228.732	-415.268	475.102	1272.074	-432.639	576.517	1216.694	-451.773	522.268	1049.463	-451.301	525.161	771.830
-497.860	505.303	1228.663	-415.312	475.105	1272.138	-432.628	576.336	1216.816	-451.800	522.409	1049.610	-451.554	525.396	771.937
-497.978	505.356	1228.751	-415.335	474.940	1272.064	-432.724	576.344	1217.071	-451.583	522.541	1049.588	-451.622	525.283	771.902
-498.050	505.529	1228.898	-415.388	474.873	1272.160	-432.756	576.153	1217.034	-451.785	522.874	1049.646	-451.749	525.478	772.049
-498.077	505.378	1228.822	-415.337	474.878	1272.165	-432.865	576.391	1217.276	-451.926	523.044	1049.727	-451.561	525.394	772.087
-498.121	505.250	1228.790	-415.443	474.799	1272.090	-432.878	576.446	1217.299	-451.895	522.921	1049.738	-451.478	525.189	772.102
-498.240	505.582	1228.977	-415.385	474.837	1272.113	-432.967	576.408	1217.425	-451.931	522.754	1049.651	-451.518	525.096	772.137
-498.297	505.534	1229.027	-415.516	474.848	1272.164	-433.034	576.360	1217.349	-451.872	522.484	1049.708	-451.568	524.776	772.115
-498.289	505.494	1228.976	-415.583	474.970	1272.245	-433.068	576.381	1217.423	-451.800	522.314	1049.750	-451.338	524.628	772.148
-498.341	505.492	1228.945	-415.650	474.919	1272.297	-433.099	576.334	1217.315	-451.931	522.304	1049.796	-451.110	524.516	772.118
-498.416	505.498	1229.004	-415.704	475.036	1272.379	-433.166	576.529	1217.561	-451.859	522.465	1049.793	-451.202	524.497	772.249
-498.442	505.663	1229.068	-415.721	475.135	1272.386	-433.211	576.560	1217.507	-451.780	522.582	1049.782	-451.174	524.406	772.225
-498.490	505.565	1229.056	-415.726	475.142	1272.466	-433.228	576.471	1217.502	-451.830	522.634	1049.894	-451.293	524.516	772.195
-498.526	505.635	1229.147	-415.838	475.179	1272.451	-433.303	576.666	1217.550	-451.933	522.667	1049.872	-451.435	524.714	772.352
-498.563	505.626	1229.099	-415.899	475.123	1272.555	-433.299	576.428	1217.286	-452.038	522.420	1049.782	-451.245	524.370	772.289
-498.565	505.603	1229.093	-415.948	475.219	1272.585	-433.309	576.276	1217.156	-452.144	522.435	1049.801	-451.242	524.097	772.151
-498.630	505.485	1229.091	-415.913	475.206	1272.618	-433.355	576.343	1217.260	-452.103	522.191	1049.849	-451.128	524.091	772.202
-498.660	505.500	1229.093	-415.915	475.228	1272.696	-433.407	576.195	1217.010	-452.018	521.947	1049.806	-451.037	523.888	772.224
-498.626	505.250	1229.069	-415.960	475.238	1272.817	-433.487	576.246	1217.031	-451.834	521.801	1049.858	-451.062	523.870	772.205
-498.536	505.093	1228.919	-415.938	475.134	1272.764	-433.471	576.133	1216.907	-451.704	521.747	1049.868	-450.968	523.666	772.172
-498.618	505.081	1229.005	-415.962	475.065	1272.885	-433.442	575.802	1216.757	-451.618	521.685	1049.874	-450.919	523.663	772.334
-498.581	504.789	1228.870	-415.999	475.127	1273.040	-433.557	575.803	1216.613	-451.641	521.435	1049.852	-450.850	523.470	772.112
-498.582	504.673	1228.990	-415.940	475.184	1273.240	-433.502	575.475	1216.311	-451.733	521.271	1049.762	-450.888	523.490	772.271
-498.568	504.391	1229.049	-415.945	475.066	1273.317	-433.519	575.341	1216.068	-451.656	521.063	1049.823	-450.943	523.293	772.202
-498.515	504.291	1229.040	-415.923	475.128	1273.489	-433.571	575.180	1215.780	-451.750	520.763	1049.922	-450.965	523.126	772.232
-498.558	504.169	1229.060	-416.058	475.162	1273.729	-433.434	574.944	1215.396	-451.883	520.690	1050.039	-450.915	523.003	772.173
-498.447	503.911	1229.097	-415.946	475.204	1273.871	-433.536	574.850	1215.113	-451.617	519.898	1049.879	-450.884	522.794	772.049
-498.482	503.831	1229.228	-416.251	475.264	1274.175	-433.516	574.665	1214.771	-451.416	519.545	1050.035	-450.854	522.717	772.187
-498.517	503.801	1229.222	-416.244	475.370	1274.404	-433.419	574.045	1214.028	-451.275	519.309	1050.056	-450.779	522.468	772.110
-498.483	503.874	1229.396	-416.332	475.548	1274.674	-433.366	573.866	1213.601	-451.185	518.848	1050.135	-450.730	522.321	772.099
-498.526	503.964	1229.479	-416.362	475.730	1274.851	-433.423	573.876	1213.219	-451.213	518.673	1050.167	-450.756	522.131	772.102
-498.567	503.804	1229.485	-416.420	476.005	1275.104	-433.433	573.626	1212.695	-451.265	518.340	1050.119	-450.813	521.884	772.033
-498.499	503.799	1229.465	-416.461	476.263	1275.429	-433.345	573.435	1212.197	-451.336	518.027	1050.094	-450.896	521.682	771.999
-498.541	503.931	1229.605	-416.540	476.532	1275.604	-433.369	573.456	1211.853	-451.390	517.618	1050.017	-450.933	521.542	771.993
-498.512	503.790	1229.627	-416.607	476.683	1275.784	-433.328	573.156	1211.408	-451.493	517.566	1050.159	-450.948	521.314	771.924
-498.576	503.849	1229.643	-416.657	476.991	1276.050	-433.236	573.109	1210.937	-451.466	517.252	1049.978	-450.997	521.074	771.888
-498.519	503.853	1229.660	-416.715	477.115	1276.191	-433.129	572.849	1210.564	-451.321	516.904	1049.962	-450.897	520.796	771.856
-498.540	504.011	1229.737	-416.783	477.303	1276.375	-433.006	572.704	1210.273	-451.229	516.831	1050.026	-450.951	520.568	771.819
-498.492	503.953	1229.798	-416.847	477.766	1276.729	-432.863	572.598	1209.877	-451.149	516.525	1049.982	-450.866	520.399	771.827
-498.429	503.928	1229.648	-416.978	478.213	1277.039	-432.791	572.490	1209.468	-451.050	516.316	1049.888	-450.885	520.237	771.854
-498.415	504.046	1229.694	-416.939	478.501	1277.285	-432.763	572.448	1209.164	-450.993	515.979	1049.952	-450.793	519.777	771.902
-498.326	503.888	1229.565	-416.995	478.869	1277.570	-432.711	572.472	1208.943	-451.035	515.873	1049.916	-450.804	519.462	771.739
-498.341	504.143	1229.539	-417.059	479.209	1277.791	-432.674	572.375	1208.604	-451.096	515.614	1049.837	-451.055	519.160	771.766
-498.320	504.105	1229.536	-417.157	479.678	1278.104	-432.589	572.397	1208.294	-451.115	515.424	1049.750	-451.034	518.972	771.689
-498.309	504.374	1229.512	-417.215	479.962	1278.189	-432.595	572.686	1207.963	-451.164	515.400	1049.690	-451.011	518.811	771.656
-498.347	504.475	1229.405	-417.193	480.216	1278.407	-432.478	572.538	1207.604	-451.010	515.228	1049.630	-451.123	518.682	771.713
-498.274	504.636	1229.369	-417.317	480.630	1278.561	-432.402	572.432	1207.163	-450.956	515.158	1049.622	-451.068	518.532	771.612
-498.229	504.798	1229.278	-417.365	481.010	1278.770	-432.232	572.162	1206.576	-450.860	515.053	1049.655	-451.031	518.273	771.622
-498.362	505.144	1229.221	-417.413	481.485	1279.069	-432.173	572.132	1206.221	-450.779	515.037	1049.556	-451.004	518.117	771.678
-498.371	505.179	1229.102	-417.531	481.840	1279.203	-432.051	571.910	1205.566	-450.669	514.779	1049.519	-450.931	517.976	771.589
-498.360	505.414	1229.052	-417.558	482.242	1279.482	-431.885	571.875	1205.199	-450.570	514.580	1049.466	-450.935	517.820	771.632
-498.428	505.594	1229.064	-417.611	482.711	1279.684	-431.750	571.775	1204.650	-450.600	514.478	1049.404	-450.856	517.590	771.571
-498.272	505.547	1229.018	-417.696	483.199	1279.993	-431.678	571.843	1204.281	-450.546	514.347	1049.242	-450.860	517.585	771.584
-498.392	505.868	1229.104	-417.836	483.604	1280.144	-431.534	571.543	1203.680	-450.524	514.277	1049.324	-450.816	517.386	771.521
-498.287	506.004	1228.998	-417.749	484.418	1280.524	-431.501	571.578	1203.132	-450.516	514.109	1049.171	-450.825	517.260	771.512
-498.306	505.986	1228.971	-417.836	484.865	1280.750	-431.030	569.989	1201.635	-450.461	514.079	1049.136	-450.738	517.159	771.450
-498.257	506.489	1229.058	-418.008	485.519	1280.955	-430.744	569.009	1200.734	-450.360	514.034	1049.179	-450.645	517.105	771.454
-498.232	506.488	1228.958	-418.039	486.032	1281.309	-430.678	568.940	1200.509	-450.298	514.164	1049.167	-450.584	516.905	771.434
-498.195	506.608	1228.951	-418.212	486.593	1281.381	-430.687	568.947	1200.334	-450.280	514.366	1049.133	-450.482	516.668	771.396
-498.236	506.936	1229.075	-418.264	487.125	1281.589	-430.594	568.731	1199.991	-450.241	514.576	1049.121	-450.398	516.742	771.413
-498.224	507.158	1229.091	-418.407	487.768	1281.798	-430.485	568.337	1199.475	-450.339	514.768	1049.053	-450.377	516.852	771.365
-498.233	507.423	1229.114	-418.541	488.276	1281.942	-430.385	568.199	1199.144	-450.352	514.913	1049.151	-450.488	516.743	771.369
-498.262	507.722	1229.307	-418.604	489.002	1282.273	-430.344	568.256	1198.913	-450.424	515.119	1049.136	-450.497	516.657	771.404
-498.241	507.726	1229.198	-418.665	489.601	1282.453	-430.137	568.351	1198.659	-450.557	515.189	1049.144	-450.379	516.613	771.373
-498.220	508.017	1229.299	-418.769	489.995	1282.636	-430.172	568.493	1198.392	-450.627	515.168	1049.282	-450.222	516.395	771.346
-498.200	508.153	1229.349	-418.800	490.549	1282.787	-430.089	568.529	1198.078	-450.516	515.192	1049.167	-450.170	516.221	771.438
-498.235	508.285	1229.356	-418.924	491.267	1283.026	-430.029	568.392	1197.680	-450.362	515.165	1049.144	-450.118	516.119	771.359
-498.228	508.584	1229.435	-418.797	491.159	1283.004	-430.070	568.528	1197.584	-450.221	515.171	1049.244	-450.097	515.994	771.419
-498.258	508.670	1229.457	-418.816	491.478	1283.140	-430.073	568.673	1197.355	-450.131	515.229	1049.265	-449.959	515.836	771.354
-498.242	508.774	1229.493	-418.895	491.969	1283.309	-430.049	568.774	1197.211	-450.096	515.265	1049.291	-449.903	515.710	771.421
-498.250	509.062	1229.641	-419.041	492.349	1283.392	-430.067	568.933	1197.007	-450.091	515.528	1049.270	-449.892	515.597	771.375
-498.266	509.053	1229.580	-419.111	492.831	1283.550	-430.110	569.059	1196.838	-450.203	515.443	1049.268	-449.857	515.461	771.417
-498.291	509.226	1229.606	-419.233	493.309	1283.752	-430.085	569.199	1196.611	-450.318	515.504	1049.186	-449.967	515.353	771.365
-498.308	509.420	1229.723	-419.369	493.655	1283.920	-430.079	569.187	1196.446	-450.304	515.424	1049.168	-449.944	515.339	771.377
-498.363	509.482	1229.694	-419.393	493.969	1283.992	-430.097	569.285	1196.300	-450.398	515.557	1049.258	-450.013	515.091	771.361
-498.349	509.581	1229.723	-419.492	494.271	1284.068	-430.109	569.358	1195.986	-450.356	515.236	1049.074	-449.926	514.989	771.281
-498.370	509.460	1229.642	-419.561	494.479	1284.151	-430.165	569.437	1195.935	-450.343	515.333	1049.019	-449.907	514.846	771.277
-498.431	509.415	1229.626	-419.628	494.760	1284.298	-430.130	569.389	1195.693	-450.283	515.277	1049.088	-449.858	514.699	771.332
-498.381	509.406	1229.595	-419.740	494.888	1284.404	-430.135	569.374	1195.583	-450.205	515.104	1049.008	-449.972	514.525	771.253
-498.445	509.305	1229.527	-419.741	495.228	1284.466	-430.255	569.343	1195.352	-450.232	515.060	1048.996	-449.934	514.300	771.145
-498.406	509.105	1229.395	-419.917	495.407	1284.512	-430.305	569.668	1195.443	-450.278	514.780	1048.876	-449.999	514.121	771.178
-498.457	509.143	1229.399	-420.005	495.513	1284.591	-430.396	569.681	1195.467	-450.361	514.621	1048.872	-449.988	513.898	771.136
-498.510	509.234	1229.464	-419.999	495.673	1284.718	-430.297	568.961	1194.820	-450.411	514.545	1048.792	-450.050	513.696	771.079
-498.503	508.908	1229.299	-420.102	495.862	1284.850	-430.307	568.568	1194.423	-450.469	514.442	1048.695	-450.214	513.558	771.001
-498.508	508.858	1229.279	-420.202	496.002	1284.827	-430.298	568.299	1194.118	-450.523	514.408	1048.676	-450.320	513.505	771.063
-498.551	508.638	1229.117	-420.274	496.097	1284.893	-430.249	567.909	1193.725	-450.632	514.254	1048.545	-450.427	513.260	770.984
-498.626	508.598	1229.102	-420.378	496.225	1284.953	-430.274	567.413	1193.286	-450.714	514.182	1048.557	-450.484	513.130	770.914
-498.669	508.525	1228.982	-420.406	496.438	1284.985	-430.332	567.332	1193.149	-450.740	514.074	1048.495	-450.601	512.827	770.907
-498.743	508.456	1229.025	-420.496	496.551	1285.088	-430.355	567.015	1192.801	-450.804	513.875	1048.420	-450.566	512.620	770.948
-498.766	508.364	1228.898	-420.583	496.545	1285.069	-430.353	566.848	1192.589	-450.830	513.557	1048.309	-450.744	512.468	770.879
-498.932	508.305	1228.874	-420.645	496.694	1285.045	-430.378	566.494	1192.224	-450.804	513.313	1048.234	-450.827	512.275	770.829
-498.958	508.234	1228.843	-420.808	496.908	1285.150	-430.392	566.153	1191.906	-450.944	513.194	1048.255	-451.076	511.994	770.785
-499.109	508.155	1228.850	-420.889	496.908	1285.186	-430.376	565.687	1191.523	-451.087	513.005	1048.150	-451.190	511.848	770.852
-499.074	508.000	1228.762	-421.022	497.097	1285.195	-430.422	565.502	1191.223	-451.196	512.856	1048.008	-451.225	511.654	770.763
-499.121	507.722	1228.591	-421.117	497.166	1285.243	-430.380	564.792	1190.696	-451.228	512.792	1047.993	-451.271	511.592	770.765
-499.245	507.795	1228.707	-421.229	497.404	1285.345	-430.355	564.103	1190.066	-451.333	512.716	1047.878	-451.442	511.395	770.707
-499.332	507.729	1228.680	-421.327	497.722	1285.413	-430.339	563.799	1189.760	-451.345	512.604	1047.820	-451.519	511.261	770.594
-499.364	507.725	1228.660	-421.479	498.056	1285.610	-430.322	563.269	1189.259	-451.533	512.593	1047.741	-451.535	511.207	770.639
-499.419	507.483	1228.587	-421.558	498.244	1285.588	-430.346	563.070	1189.096	-451.618	512.485	1047.747	-451.687	511.122	770.838
-499.499	507.646	1228.581	-421.670	498.545	1285.673	-430.379	562.993	1188.906	-451.717	512.388	1047.637	-451.676	510.941	770.751
-499.600	507.569	1228.530	-421.820	498.905	1285.778	-430.384	562.746	1188.674	-451.605	512.091	1047.529	-451.592	510.698	770.479
-499.685	507.497	1228.500	-421.956	499.123	1285.810	-430.406	562.509	1188.501	-451.690	512.016	1047.544	-451.665	510.578	770.364
-499.714	507.435	1228.494	-422.119	499.288	1285.878	-430.506	562.394	1188.355	-451.715	511.892	1047.405	-451.783	510.570	770.649
-499.671	507.327	1228.388	-422.241	499.625	1285.989	-430.514	562.175	1188.075	-451.679	511.735	1047.318	-451.741	510.390	770.551
-499.774	507.265	1228.326	-422.353	499.846	1285.992	-430.487	562.039	1187.923	-451.724	511.712	1047.274	-451.753	510.326	770.504
-499.841	507.247	1228.245	-422.490	499.979	1286.007	-430.557	561.818	1187.728	-451.787	511.555	1047.172	-451.809	510.156	770.465
-499.870	507.053	1228.211	-422.595	500.135	1286.092	-430.680	561.702	1187.587	-451.872	511.473	1047.102	-451.797	510.044	770.363
-499.833	506.984	1228.033	-422.723	500.292	1286.108	-430.738	561.754	1187.503	-451.970	511.427	1046.976	-451.799	509.994	770.311
