NO_OF_FRAMES	2500
NO_OF_CAMERAS	7
NO_OF_MARKERS	5
FREQUENCY	250
NO_OF_ANALOG	0
ANALOG_FREQUENCY	0
DESCRIPTION	--
TIME_STAMP	2012-02-07, 12:09:37	12638.78866960
DATA_INCLUDED	3D
MARKER_NAMES	cylinder_tip	cylinder_left	cylinder_right	weight_top	weight_low
-249.696	269.777	1294.295	-173.404	238.004	1347.626	-169.450	306.696	1252.458	-202.121	265.685	1110.537	-200.992	262.983	832.923
-249.639	269.821	1294.343	-173.484	237.989	1347.581	-169.485	306.627	1252.506	-202.214	265.647	1110.580	-200.974	263.049	832.942
-249.717	269.774	1294.095	-173.507	237.933	1347.607	-169.570	306.679	1252.519	-202.235	265.640	1110.452	-201.037	262.982	832.998
-249.623	269.807	1294.261	-173.553	238.012	1347.489	-169.527	306.542	1252.709	-202.306	265.637	1110.443	-201.136	262.902	833.101
-249.678	269.823	1294.262	-173.606	237.872	1347.538	-169.583	306.657	1252.710	-202.304	265.743	1110.506	-201.264	262.748	832.924
-249.689	269.793	1294.384	-173.602	238.116	1347.504	-169.580	306.564	1252.629	-202.404	265.664	1110.480	-201.221	262.834	833.057
-249.331	269.052	1294.016	-173.649	237.986	1347.547	-169.648	306.659	1252.719	-202.447	265.629	1110.455	-201.327	262.692	832.988
-249.642	269.828	1294.418	-173.684	237.751	1347.608	-169.687	306.487	1252.819	-202.488	265.700	1110.511	-201.220	262.703	833.117
-249.644	269.916	1294.520	-173.693	237.996	1347.763	-169.690	306.574	1252.856	-202.445	265.617	1110.464	-201.280	262.610	833.175
-249.713	269.937	1294.372	-173.762	237.957	1347.747	-169.679	306.551	1252.877	-202.527	265.662	1110.491	-201.274	262.645	833.112
-249.400	269.176	1294.140	-173.895	237.694	1347.397	-169.775	306.577	1252.832	-202.562	265.601	1110.398	-201.496	262.615	832.863
-249.746	269.904	1294.450	-173.888	237.771	1347.333	-169.797	306.490	1252.856	-202.528	265.505	1110.359	-201.515	262.601	832.896
-249.713	269.953	1294.686	-173.789	237.925	1347.479	-169.804	306.460	1252.906	-202.546	265.481	1110.428	-201.524	262.633	832.959
-249.464	269.373	1294.516	-173.851	237.985	1347.566	-169.833	306.477	1252.941	-202.679	265.547	1110.542	-201.547	262.612	832.964
-249.574	269.482	1294.554	-173.847	237.875	1347.525	-169.878	306.431	1252.881	-202.727	265.496	1110.513	-201.472	262.572	833.055
-249.403	268.941	1294.254	-173.916	237.825	1347.535	-169.859	306.397	1252.921	-202.727	265.412	1110.495	-201.562	262.517	833.044
-249.614	269.342	1294.602	-173.877	237.910	1347.610	-169.950	306.288	1252.824	-202.719	265.315	1110.488	-201.459	262.510	833.133
-249.710	269.495	1294.724	-173.914	237.953	1347.747	-169.993	306.390	1252.932	-202.719	265.441	1110.644	-201.476	262.583	833.178
-249.662	269.500	1294.724	-173.889	237.961	1347.715	-169.964	306.321	1252.938	-202.748	265.307	1110.553	-201.626	262.558	833.154
-249.711	269.284	1294.706	-173.946	237.834	1347.579	-169.979	306.349	1252.991	-202.786	265.315	1110.633	-201.597	262.488	833.204
-249.756	269.328	1294.759	-173.965	237.842	1347.615	-170.019	306.235	1252.916	-202.705	265.202	1110.636	-201.629	262.449	833.192
-249.810	269.362	1294.873	-173.989	237.775	1347.707	-170.072	306.264	1252.961	-202.840	265.131	1110.668	-201.671	262.489	833.297
-249.804	269.281	1294.977	-174.006	237.775	1347.750	-170.155	306.157	1252.965	-202.900	265.063	1110.633	-201.731	262.424	833.240
-249.833	269.242	1294.874	-173.996	237.661	1347.716	-170.163	306.163	1253.008	-202.956	265.023	1110.694	-201.742	262.379	833.364
-249.904	269.309	1295.041	-174.018	237.695	1347.855	-170.169	306.056	1252.987	-202.991	265.031	1110.737	-201.826	262.267	833.343
-249.890	269.117	1294.959	-174.036	237.569	1347.801	-170.301	306.117	1253.033	-203.019	264.938	1110.657	-201.906	262.217	833.212
-249.908	268.983	1294.963	-174.097	237.536	1347.688	-170.222	306.034	1253.098	-203.047	264.989	1110.699	-201.996	262.198	833.458
-249.991	269.150	1295.079	-174.161	237.366	1347.780	-170.270	306.107	1253.134	-203.040	264.904	1110.662	-202.081	262.168	833.400
-249.992	269.153	1295.250	-174.125	237.395	1347.855	-170.310	305.988	1253.134	-203.165	264.938	1110.764	-202.158	262.079	833.365
-250.030	268.974	1295.017	-174.156	237.399	1347.786	-170.359	306.007	1253.152	-203.288	264.814	1110.753	-202.270	262.019	833.379
-250.085	269.017	1295.160	-174.123	237.244	1347.688	-170.406	305.979	1253.196	-203.371	264.717	1110.852	-202.307	261.942	833.577
-250.114	268.967	1295.066	-174.217	237.293	1347.818	-170.399	305.882	1253.163	-203.432	264.686	1110.689	-202.455	261.960	833.465
-250.108	268.926	1295.138	-174.247	237.349	1347.912	-170.425	305.954	1253.214	-203.506	264.653	1110.826	-202.527	261.884	833.540
-250.182	269.056	1295.308	-174.266	237.388	1347.939	-170.490	305.879	1253.197	-203.568	264.572	1110.787	-202.717	261.778	833.526
-250.140	268.848	1295.237	-174.349	237.217	1347.840	-170.487	305.767	1253.230	-203.582	264.504	1110.891	-202.732	261.682	833.389
-250.231	269.004	1295.371	-174.362	237.213	1347.936	-170.571	305.780	1253.221	-203.667	264.600	1110.948	-202.853	261.714	833.548
-250.308	268.975	1295.447	-174.477	237.190	1348.042	-170.621	305.829	1253.278	-203.774	264.479	1110.936	-202.947	261.643	833.695
-250.310	268.887	1295.409	-174.502	237.074	1347.987	-170.604	305.798	1253.332	-203.858	264.326	1110.973	-202.983	261.560	833.664
-250.376	268.880	1295.468	-174.484	237.041	1347.916	-170.627	305.688	1253.262	-203.850	264.405	1110.978	-203.093	261.534	833.665
-250.370	268.815	1295.536	-174.548	236.996	1348.024	-170.717	305.736	1253.344	-203.966	264.344	1111.054	-203.182	261.464	833.755
-250.440	268.860	1295.542	-174.544	237.032	1348.035	-170.749	305.717	1253.338	-204.089	264.416	1111.111	-203.215	261.482	833.777
-250.353	268.864	1295.687	-174.583	236.910	1348.002	-170.718	305.624	1253.319	-204.089	264.267	1111.060	-203.237	261.411	833.813
-250.484	268.761	1295.731	-174.620	236.896	1348.080	-170.827	305.629	1253.292	-204.145	264.204	1111.121	-203.339	261.460	833.868
-250.515	268.723	1295.714	-174.627	236.925	1348.039	-170.926	305.546	1253.396	-204.211	264.232	1111.156	-203.396	261.415	833.949
-250.514	268.771	1295.770	-174.697	236.955	1348.147	-170.875	305.579	1253.403	-204.276	264.265	1111.217	-203.494	261.401	833.946
-250.555	268.557	1295.621	-174.682	236.936	1348.095	-170.942	305.472	1253.351	-204.269	264.070	1111.125	-203.475	261.377	833.955
-250.584	268.620	1295.804	-174.667	236.761	1348.152	-171.027	305.387	1253.355	-204.268	264.060	1111.149	-203.567	261.330	833.913
-250.586	268.687	1295.875	-174.682	236.894	1348.201	-171.038	305.426	1253.444	-204.300	264.093	1111.187	-203.613	261.435	833.926
-250.581	268.557	1295.962	-174.667	236.741	1348.160	-171.105	305.326	1253.406	-204.370	264.097	1111.289	-203.588	261.346	834.014
-250.635	268.505	1295.994	-174.843	236.675	1348.179	-171.094	305.359	1253.420	-204.365	263.993	1111.183	-203.706	261.399	834.092
-250.706	268.500	1295.951	-174.760	236.732	1348.206	-171.126	305.289	1253.418	-204.434	264.063	1111.321	-203.648	261.449	834.023
-250.728	268.490	1296.048	-174.848	236.666	1348.242	-171.146	305.214	1253.420	-204.433	264.064	1111.326	-203.746	261.413	834.056
-250.751	268.207	1295.915	-174.805	236.491	1348.170	-171.214	305.194	1253.477	-204.421	263.968	1111.316	-203.729	261.439	834.022
-250.808	268.332	1296.037	-174.926	236.449	1348.187	-171.210	305.128	1253.487	-204.429	263.934	1111.335	-203.729	261.363	834.114
-250.828	268.281	1296.107	-174.932	236.325	1348.152	-171.291	305.141	1253.567	-204.519	264.066	1111.443	-203.820	261.517	834.176
-250.847	268.206	1296.238	-174.970	236.350	1348.236	-171.285	305.137	1253.585	-204.503	264.080	1111.412	-203.838	261.631	834.231
-250.820	268.117	1296.065	-174.964	236.331	1348.229	-171.287	305.013	1253.532	-204.517	264.054	1111.432	-203.883	261.607	834.209
-250.867	268.138	1296.135	-175.019	236.222	1348.250	-171.308	305.015	1253.601	-204.618	264.108	1111.564	-203.948	261.617	834.261
-250.978	268.211	1296.255	-175.030	236.268	1348.292	-171.364	304.974	1253.563	-204.600	264.078	1111.573	-203.949	261.620	834.224
-250.925	268.082	1296.334	-175.111	236.137	1348.233	-171.388	304.928	1253.629	-204.580	264.013	1111.545	-204.028	261.685	834.298
-250.959	267.898	1296.203	-175.112	236.116	1348.284	-171.459	304.847	1253.673	-204.671	263.987	1111.572	-204.148	261.804	834.338
-250.969	268.055	1296.365	-175.100	236.077	1348.464	-171.439	304.843	1253.696	-204.690	264.035	1111.609	-204.133	261.768	834.343
-251.026	267.960	1296.490	-175.059	236.146	1348.472	-171.563	304.775	1253.765	-204.746	263.943	1111.725	-204.215	261.668	834.446
-251.011	267.757	1296.393	-175.148	235.956	1348.394	-171.516	304.718	1253.775	-204.741	263.871	1111.696	-204.277	261.778	834.471
-251.010	267.790	1296.479	-175.224	235.907	1348.451	-171.589	304.570	1253.759	-204.749	263.774	1111.694	-204.371	261.717	834.558
-251.022	267.778	1296.545	-175.125	235.947	1348.528	-171.539	304.671	1253.862	-204.918	263.870	1111.818	-204.482	261.788	834.532
-251.042	267.754	1296.766	-175.099	235.945	1348.587	-171.636	304.595	1253.893	-204.919	263.867	1111.859	-204.548	261.785	834.593
-250.981	267.555	1296.938	-175.155	235.847	1348.606	-171.685	304.441	1253.971	-204.935	263.867	1111.943	-204.688	261.847	834.724
-251.105	267.557	1297.022	-175.125	235.771	1348.587	-171.704	304.485	1254.033	-204.993	263.836	1112.086	-204.808	261.858	834.800
-251.138	267.746	1297.126	-175.175	235.820	1348.776	-171.759	304.401	1254.121	-205.063	263.782	1112.066	-204.854	261.873	834.843
-251.105	267.457	1297.216	-175.167	235.751	1348.791	-171.757	304.355	1254.160	-205.131	263.823	1112.233	-205.092	261.857	834.889
-251.160	267.260	1297.367	-175.196	235.696	1348.803	-171.749	304.201	1254.252	-205.156	263.734	1112.413	-205.171	261.760	834.909
-251.186	267.315	1297.421	-175.141	235.700	1348.815	-171.780	304.341	1254.319	-205.210	263.764	1112.377	-205.338	261.777	834.944
-251.147	267.288	1297.481	-175.132	235.897	1348.982	-171.770	304.242	1254.295	-205.271	263.723	1112.431	-205.402	261.722	835.015
-251.287	267.135	1297.545	-175.218	235.624	1348.960	-171.807	304.109	1254.388	-205.318	263.805	1112.561	-205.594	261.770	835.074
-251.260	267.263	1297.723	-175.174	235.620	1349.019	-171.786	304.111	1254.548	-205.373	263.720	1112.656	-205.736	261.747	835.194
-251.349	267.119	1297.665	-175.187	235.631	1349.169	-171.826	304.042	1254.532	-205.409	263.684	1112.591	-205.779	261.810	835.327
-251.318	267.020	1297.705	-175.242	235.566	1349.111	-171.825	304.055	1254.631	-205.448	263.756	1112.683	-206.010	261.826	835.348
-251.405	267.072	1297.834	-175.265	235.529	1349.089	-171.827	304.055	1254.693	-205.569	263.708	1112.697	-205.982	261.740	835.416
-251.373	266.920	1297.921	-175.219	235.493	1349.213	-171.842	304.003	1254.717	-205.586	263.692	1112.707	-206.132	261.780	835.520
-251.340	267.089	1297.978	-175.225	235.449	1349.322	-171.883	304.006	1254.905	-205.627	263.799	1112.830	-206.276	261.791	835.527
-251.417	267.045	1297.973	-175.322	235.484	1349.453	-171.877	303.962	1255.049	-205.661	263.821	1112.983	-206.388	261.769	835.562
-251.422	266.944	1298.034	-175.257	235.385	1349.525	-171.828	303.968	1255.108	-205.644	263.733	1113.004	-206.497	261.975	835.796
-251.474	266.914	1298.121	-175.352	235.329	1349.403	-171.931	303.951	1255.164	-205.666	263.655	1113.014	-206.409	261.866	835.743
-251.438	266.881	1298.172	-175.287	235.319	1349.595	-171.842	303.870	1255.266	-205.691	263.785	1113.119	-206.545	261.989	835.855
-251.485	266.841	1298.243	-175.234	235.373	1349.659	-171.874	303.803	1255.275	-205.727	263.737	1113.103	-206.629	262.011	835.891
-251.478	266.794	1298.331	-175.258	235.226	1349.657	-171.912	303.723	1255.340	-205.787	263.765	1113.200	-206.694	262.045	836.007
-251.484	266.627	1298.298	-175.326	235.334	1349.769	-171.888	303.755	1255.434	-205.842	263.749	1113.336	-206.709	262.262	836.070
-251.519	266.651	1298.562	-175.322	235.198	1349.816	-171.923	303.814	1255.640	-205.823	263.794	1113.263	-206.705	262.263	836.095
-251.559	266.614	1298.528	-175.256	235.221	1349.946	-171.940	303.822	1255.790	-205.888	263.664	1113.460	-206.712	262.221	836.246
-251.560	266.625	1298.587	-175.326	235.181	1350.078	-171.940	303.748	1255.765	-205.843	263.709	1113.531	-206.818	262.403	836.353
-251.591	266.570	1298.709	-175.344	235.138	1350.057	-171.949	303.668	1255.844	-205.849	263.693	1113.584	-206.852	262.536	836.467
-251.572	266.452	1298.826	-175.398	235.038	1350.133	-171.959	303.632	1256.005	-205.912	263.636	1113.653	-206.927	262.618	836.532
-251.596	266.465	1298.918	-175.303	235.106	1350.261	-172.029	303.662	1256.124	-205.907	263.747	1113.786	-206.920	262.614	836.610
-251.591	266.437	1298.955	-175.274	235.140	1350.359	-172.004	303.569	1256.195	-205.885	263.702	1113.856	-206.923	262.815	836.755
-251.621	266.458	1299.094	-175.267	235.038	1350.371	-171.950	303.523	1256.342	-205.959	263.687	1113.976	-207.009	262.850	836.810
-251.635	266.410	1299.222	-175.220	235.116	1350.528	-172.025	303.558	1256.323	-205.949	263.542	1113.985	-207.040	262.858	836.887
-251.616	266.577	1299.290	-175.243	235.066	1350.615	-171.992	303.636	1256.498	-206.009	263.744	1114.174	-207.045	262.919	836.987
-251.601	266.532	1299.417	-175.223	235.114	1350.699	-172.032	303.593	1256.605	-206.040	263.734	1114.325	-207.124	263.042	837.102
-251.670	266.524	1299.562	-175.243	235.018	1350.788	-172.049	303.484	1256.693	-206.034	263.690	1114.338	-207.169	263.111	837.204
-251.687	266.560	1299.649	-175.196	235.128	1350.857	-172.053	303.662	1256.750	-206.100	263.730	1114.359	-207.201	263.182	837.387
-251.654	266.579	1299.737	-175.201	235.164	1350.963	-171.983	303.698	1256.967	-206.103	263.779	1114.426	-207.266	263.290	837.464
-251.648	266.584	1299.905	-175.185	235.121	1351.123	-171.995	303.735	1257.048	-206.076	263.724	1114.618	-207.288	263.343	837.580
-251.646	266.607	1299.974	-175.213	235.176	1351.149	-172.052	303.593	1257.174	-206.105	263.750	1114.598	-207.295	263.319	837.596
-251.707	266.816	1300.063	-175.220	235.169	1351.392	-172.012	303.748	1257.329	-206.164	263.848	1114.841	-207.445	263.412	837.855
-251.751	267.033	1300.297	-175.191	235.238	1351.470	-172.058	303.762	1257.345	-206.133	263.870	1114.753	-207.587	263.287	837.869
-251.808	267.067	1300.291	-175.257	235.131	1351.435	-172.164	303.683	1257.500	-206.195	263.823	1114.931	-207.599	263.667	838.027
-251.740	267.245	1300.552	-175.247	235.115	1351.470	-172.152	303.792	1257.535	-206.254	263.834	1115.000	-207.630	263.775	838.099
-251.725	267.194	1300.530	-175.161	235.291	1351.644	-172.184	303.883	1257.630	-206.320	263.976	1115.178	-207.731	263.829	838.232
-251.619	266.832	1300.388	-175.227	235.284	1351.666	-172.002	303.539	1257.515	-206.301	264.018	1115.139	-207.800	263.840	838.271
-251.733	267.191	1300.572	-175.249	235.225	1351.774	-172.184	303.890	1257.755	-206.338	263.966	1115.241	-207.884	263.881	838.342
-251.725	267.191	1300.666	-175.260	235.272	1351.900	-172.021	303.728	1257.729	-206.410	264.054	1115.270	-207.940	263.921	838.371
-251.699	267.031	1300.592	-175.254	235.186	1351.825	-172.094	303.950	1257.931	-206.478	264.080	1115.408	-208.006	263.946	838.494
-251.644	267.006	1300.639	-175.264	235.151	1352.015	-171.998	303.794	1257.906	-206.386	264.077	1115.483	-208.088	263.924	838.443
-251.605	267.063	1300.724	-175.263	235.273	1352.096	-171.973	303.866	1257.970	-206.488	264.186	1115.612	-208.207	264.068	838.621
-251.662	267.082	1300.774	-175.262	235.250	1352.180	-172.078	304.105	1258.260	-206.548	264.187	1115.615	-208.230	264.060	838.614
-251.709	267.229	1300.929	-175.280	235.169	1352.200	-172.161	304.273	1258.354	-206.585	264.222	1115.654	-208.343	264.211	838.708
-251.669	267.197	1300.869	-175.327	235.144	1352.285	-172.177	304.179	1258.241	-206.658	264.227	1115.673	-208.420	264.235	838.797
-251.699	267.202	1300.928	-175.284	235.321	1352.329	-172.113	304.176	1258.405	-206.747	264.557	1115.923	-208.485	264.359	838.793
-251.771	267.298	1301.063	-175.314	235.273	1352.359	-172.141	304.267	1258.604	-206.780	264.623	1115.928	-208.531	264.290	838.815
-251.799	267.289	1301.133	-175.323	235.434	1352.511	-172.185	304.341	1258.712	-206.707	264.459	1115.844	-208.624	264.436	838.977
-251.732	267.353	1301.171	-175.307	235.287	1352.512	-172.096	304.113	1258.592	-206.831	264.693	1116.018	-208.631	264.519	838.983
-251.737	267.385	1301.106	-175.350	235.316	1352.567	-172.196	304.535	1258.904	-206.855	264.773	1116.126	-208.658	264.528	838.979
-251.875	267.389	1301.292	-175.271	235.339	1352.691	-172.188	304.449	1258.807	-206.909	264.764	1116.155	-208.736	264.561	839.046
-251.860	267.474	1301.285	-175.402	235.398	1352.827	-172.276	304.563	1258.966	-206.986	264.736	1116.218	-208.772	264.812	839.195
-251.891	267.490	1301.391	-175.367	235.407	1352.839	-172.307	304.566	1259.007	-207.144	264.783	1116.283	-208.771	264.772	839.228
-251.906	267.607	1301.571	-175.366	235.389	1352.833	-172.342	304.575	1259.128	-207.127	264.880	1116.406	-208.707	264.892	839.261
-251.960	267.643	1301.593	-175.349	235.475	1352.956	-172.369	304.706	1259.245	-207.181	264.866	1116.385	-208.900	265.033	839.267
-251.907	267.541	1301.596	-175.344	235.543	1353.091	-172.457	304.672	1259.225	-207.152	264.977	1116.490	-208.893	265.194	839.442
-251.953	267.612	1301.661	-175.366	235.645	1353.150	-172.388	304.759	1259.391	-207.252	265.013	1116.466	-208.877	265.221	839.417
-251.967	267.736	1301.730	-175.311	235.681	1353.157	-172.450	304.663	1259.348	-207.204	264.994	1116.495	-208.944	265.371	839.462
-252.013	267.752	1301.816	-175.398	235.633	1353.270	-172.492	304.653	1259.362	-207.209	265.068	1116.575	-208.929	265.361	839.508
-251.997	267.883	1301.907	-175.338	235.663	1353.342	-172.509	304.723	1259.410	-207.310	265.043	1116.584	-208.934	265.405	839.528
-251.996	267.837	1301.940	-175.334	235.724	1353.302	-172.548	304.569	1259.440	-207.286	265.054	1116.592	-209.018	265.532	839.571
-252.079	267.738	1301.903	-175.365	235.767	1353.465	-172.602	304.708	1259.567	-207.360	265.194	1116.712	-208.971	265.599	839.649
-252.011	267.837	1302.038	-175.379	235.808	1353.488	-172.613	304.600	1259.537	-207.363	265.134	1116.672	-208.960	265.718	839.651
-252.039	267.782	1302.043	-175.420	235.720	1353.512	-172.633	304.677	1259.536	-207.371	265.140	1116.731	-209.008	265.839	839.689
-252.038	267.805	1302.110	-175.471	235.775	1353.585	-172.650	304.617	1259.634	-207.410	265.251	1116.772	-209.032	265.835	839.721
-252.110	267.774	1302.048	-175.456	235.696	1353.568	-172.696	304.657	1259.651	-207.419	265.247	1116.800	-209.061	265.928	839.728
-252.098	267.815	1302.090	-175.462	235.853	1353.641	-172.642	304.721	1259.639	-207.423	265.262	1116.755	-209.140	266.048	839.735
-252.173	267.819	1302.139	-175.578	235.631	1353.519	-172.675	304.648	1259.692	-207.405	265.276	1116.751	-209.201	266.104	839.726
-252.159	267.751	1302.061	-175.624	235.562	1353.631	-172.735	304.683	1259.755	-207.489	265.321	1116.776	-209.270	266.196	839.750
-252.191	267.753	1302.089	-175.592	235.555	1353.582	-172.773	304.722	1259.898	-207.518	265.439	1116.847	-209.352	266.261	839.686
-252.177	267.655	1302.060	-175.631	235.472	1353.572	-172.797	304.747	1259.897	-207.607	265.538	1116.876	-209.445	266.335	839.725
-252.221	267.659	1302.043	-175.701	235.499	1353.557	-172.805	304.779	1259.974	-207.604	265.507	1116.829	-209.501	266.376	839.708
-252.252	267.663	1302.018	-175.772	235.373	1353.528	-172.830	304.659	1259.936	-207.685	265.499	1116.830	-209.603	266.425	839.667
-252.226	267.770	1302.095	-175.823	235.341	1353.498	-172.837	304.783	1259.970	-207.715	265.603	1116.867	-209.688	266.545	839.714
-252.287	267.759	1302.044	-175.854	235.294	1353.525	-172.841	304.706	1259.891	-207.818	265.625	1116.900	-209.750	266.555	839.725
-252.291	267.672	1301.943	-175.924	235.333	1353.509	-172.896	304.749	1259.862	-207.793	265.616	1116.872	-209.816	266.656	839.597
-252.379	267.652	1301.993	-175.950	235.168	1353.397	-172.926	304.697	1259.944	-207.799	265.720	1116.916	-209.896	266.621	839.578
-252.478	267.763	1302.056	-175.946	235.194	1353.371	-172.981	304.794	1259.978	-207.910	265.738	1116.937	-209.942	266.690	839.518
-252.390	267.596	1301.910	-176.022	235.108	1353.296	-172.939	304.781	1259.938	-207.931	265.732	1116.847	-210.068	266.729	839.505
-252.409	267.640	1301.947	-176.025	235.108	1353.266	-173.021	304.716	1259.927	-207.909	265.769	1116.866	-210.192	266.754	839.458
-252.414	267.639	1301.981	-176.049	235.023	1353.197	-173.045	304.832	1259.822	-208.036	265.766	1116.846	-210.260	266.853	839.423
-252.508	267.633	1301.862	-176.163	235.059	1353.116	-173.130	304.826	1259.831	-208.025	265.863	1116.745	-210.357	266.918	839.354
-252.554	267.617	1301.818	-176.136	234.979	1352.986	-173.182	304.828	1259.839	-208.147	265.857	1116.771	-210.430	266.925	839.307
-252.533	267.590	1301.746	-176.189	235.037	1352.935	-173.127	304.761	1259.681	-208.130	265.934	1116.723	-210.508	267.051	839.219
-252.578	267.622	1301.671	-176.220	235.013	1352.837	-173.190	304.836	1259.678	-208.211	265.952	1116.614	-210.587	267.057	839.113
-252.608	267.588	1301.587	-176.296	235.062	1352.772	-173.233	304.654	1259.425	-208.233	265.886	1116.488	-210.642	267.079	838.991
-252.627	267.625	1301.561	-176.284	234.923	1352.478	-173.236	304.551	1259.350	-208.303	265.957	1116.439	-210.653	267.174	838.937
-252.623	267.655	1301.537	-176.317	234.927	1352.370	-173.309	304.560	1259.204	-208.425	266.039	1116.378	-210.762	267.198	838.776
-252.682	267.616	1301.434	-176.361	234.764	1352.214	-173.378	304.539	1259.068	-208.429	266.013	1116.164	-210.789	267.338	838.650
-252.637	267.521	1301.280	-176.432	234.907	1352.011	-173.465	304.435	1258.667	-208.490	266.058	1116.096	-210.835	267.391	838.469
-252.738	267.531	1301.144	-176.455	234.837	1351.843	-173.388	304.054	1258.257	-208.511	265.917	1115.840	-210.869	267.521	838.308
-252.787	267.521	1300.939	-176.475	234.817	1351.569	-173.495	304.063	1258.098	-208.561	265.875	1115.553	-210.885	267.567	838.110
-252.807	267.370	1300.791	-176.512	234.859	1351.450	-173.424	304.252	1257.861	-208.654	265.848	1115.286	-210.894	267.701	837.940
-252.827	267.369	1300.493	-176.456	234.974	1351.125	-173.576	304.204	1257.431	-208.682	265.891	1115.080	-210.987	267.822	837.784
-252.908	267.346	1300.387	-176.516	234.899	1350.841	-173.604	304.107	1257.002	-208.685	265.987	1114.861	-210.920	267.766	837.447
-252.957	267.163	1300.001	-176.506	234.892	1350.478	-173.733	304.158	1256.792	-208.779	266.056	1114.572	-211.049	267.900	837.179
-253.041	267.220	1299.788	-176.625	234.914	1350.144	-173.760	304.125	1256.260	-208.719	266.001	1114.233	-211.068	268.065	836.885
-252.957	267.012	1299.346	-176.688	234.880	1349.868	-173.839	304.076	1255.835	-208.814	265.886	1113.805	-211.018	268.255	836.735
-253.085	267.026	1299.090	-176.674	234.934	1349.413	-173.851	304.098	1255.327	-208.828	265.793	1113.380	-211.226	268.275	836.384
-253.137	267.085	1298.617	-176.718	234.909	1349.133	-173.874	304.065	1254.843	-208.855	265.651	1112.983	-211.167	268.230	836.184
-253.287	266.907	1298.136	-176.721	234.858	1348.609	-173.982	303.965	1254.223	-208.862	265.685	1112.574	-211.087	268.288	835.708
-253.225	266.925	1297.639	-176.858	234.916	1348.141	-174.151	303.904	1253.732	-208.908	265.573	1111.985	-211.021	268.229	835.239
-253.287	267.328	1297.167	-176.932	234.721	1347.842	-174.170	303.851	1253.357	-208.977	265.709	1111.510	-211.058	268.363	834.707
-253.385	267.087	1296.227	-176.946	234.709	1347.496	-174.218	303.890	1253.062	-209.001	265.696	1110.914	-211.080	268.490	834.230
-253.458	266.939	1295.550	-176.890	234.646	1346.755	-174.173	303.892	1252.701	-209.108	265.672	1110.196	-211.116	268.652	833.625
-253.449	266.734	1294.746	-177.021	234.680	1345.989	-174.136	303.878	1252.239	-209.049	265.887	1109.617	-211.225	268.679	833.092
-253.457	266.704	1294.137	-177.169	234.656	1345.345	-174.119	303.977	1251.930	-208.996	265.916	1109.065	-211.295	268.630	832.435
-253.361	266.755	1293.536	-177.243	234.532	1344.772	-174.133	304.129	1251.650	-209.056	266.066	1108.495	-211.303	268.657	831.835
-253.618	267.497	1293.200	-177.343	234.594	1344.194	-174.214	304.218	1251.238	-209.172	266.102	1107.863	-211.392	268.766	831.267
-253.684	267.523	1292.690	-177.397	234.479	1343.581	-174.248	304.256	1250.667	-209.207	266.235	1107.200	-211.313	268.877	830.571
-253.730	267.640	1292.236	-177.438	234.464	1342.877	-174.267	304.297	1250.220	-209.298	266.366	1106.624	-211.315	268.906	829.744
-253.854	267.725	1291.702	-177.470	234.214	1342.111	-174.105	304.483	1249.500	-209.338	266.550	1105.963	-211.376	269.065	828.887
-253.861	267.630	1291.093	-177.533	234.280	1341.384	-174.150	304.711	1248.763	-209.285	266.833	1105.363	-211.519	268.880	828.133
-253.931	267.591	1290.558	-177.554	234.352	1340.564	-174.268	304.950	1247.825	-209.313	266.808	1104.661	-211.398	268.782	827.430
-253.910	267.788	1289.776	-177.560	234.493	1339.700	-174.384	305.052	1247.065	-209.315	266.880	1103.967	-211.360	268.655	826.350
-254.104	267.917	1288.876	-177.715	234.284	1338.934	-174.505	304.703	1245.874	-209.346	266.929	1103.170	-211.377	269.016	825.523
-253.920	267.685	1287.831	-177.638	234.418	1338.289	-174.487	304.588	1245.025	-209.363	266.876	1102.222	-211.445	269.076	824.694
-253.916	267.605	1287.028	-177.650	234.473	1337.394	-174.390	304.238	1243.984	-209.374	266.774	1101.189	-211.519	269.310	824.087
-253.977	267.589	1286.102	-177.777	234.584	1336.498	-174.543	304.057	1243.161	-209.449	266.274	1100.333	-211.626	269.581	823.495
-254.012	267.317	1285.054	-177.913	234.393	1335.371	-174.660	303.641	1242.212	-209.598	266.018	1099.081	-211.692	269.686	822.895
-254.110	266.911	1283.907	-177.933	234.413	1334.451	-174.610	303.546	1241.467	-209.724	265.670	1098.128	-211.619	269.693	821.995
-254.232	266.519	1282.792	-178.103	234.477	1333.695	-174.744	303.453	1240.254	-209.763	265.371	1097.099	-211.659	269.629	821.005
-254.189	265.983	1281.434	-178.252	234.268	1332.750	-174.942	303.195	1238.969	-209.693	265.072	1096.093	-211.611	269.480	819.845
-254.437	266.584	1280.674	-178.364	234.041	1331.771	-175.080	302.882	1237.689	-209.675	264.919	1095.126	-211.705	269.347	818.797
-254.579	266.328	1279.632	-178.210	233.910	1331.219	-175.061	302.705	1236.909	-209.767	264.767	1094.109	-211.542	269.341	817.729
-254.744	266.082	1278.890	-178.298	233.489	1329.880	-175.034	302.206	1235.785	-209.826	264.810	1093.308	-211.634	269.219	816.470
-254.789	265.821	1277.998	-178.335	233.345	1328.857	-175.151	302.026	1234.593	-209.638	264.685	1092.350	-211.598	269.130	815.193
-254.773	265.706	1276.994	-178.435	233.244	1327.838	-175.220	301.721	1233.380	-209.869	264.546	1091.379	-211.687	268.905	813.844
-254.878	265.656	1275.918	-178.515	233.177	1326.655	-175.269	301.250	1232.374	-209.973	264.791	1090.267	-211.760	269.017	812.483
-254.897	265.284	1274.627	-178.585	233.137	1325.625	-175.228	301.307	1231.358	-210.047	264.613	1089.196	-211.785	269.228	811.635
-254.822	264.863	1273.116	-178.817	233.253	1324.550	-175.298	301.207	1229.992	-210.171	264.310	1087.872	-211.951	269.498	810.740
-254.638	264.657	1271.296	-178.930	232.930	1323.213	-175.303	301.112	1228.583	-210.179	264.151	1086.448	-212.181	269.364	809.949
-254.861	264.538	1269.742	-178.968	232.734	1322.212	-175.298	301.072	1227.472	-210.225	263.939	1085.138	-212.016	269.223	808.662
-255.155	265.001	1269.036	-179.172	232.599	1320.780	-175.301	301.119	1226.575	-210.170	263.831	1083.914	-212.041	269.054	807.377
-255.308	265.095	1268.187	-179.395	232.330	1319.368	-175.223	300.987	1225.460	-209.996	264.141	1082.516	-212.095	268.980	806.130
-255.412	265.090	1267.199	-179.410	232.338	1318.128	-175.300	301.272	1224.675	-209.894	264.248	1081.387	-212.229	268.956	804.766
-255.411	264.990	1266.052	-179.521	232.356	1316.992	-175.067	300.453	1222.886	-209.943	264.200	1080.248	-212.216	268.778	803.405
-255.206	264.726	1264.466	-179.619	232.447	1315.759	-175.245	300.682	1221.400	-209.922	264.232	1079.078	-212.117	268.663	801.790
-255.318	264.631	1262.854	-179.855	232.062	1314.781	-175.332	300.487	1219.859	-210.130	264.133	1077.828	-212.105	268.527	800.122
-255.443	264.179	1261.240	-180.010	232.330	1313.713	-175.181	300.263	1218.751	-210.159	264.096	1076.412	-212.269	268.734	799.164
-255.326	264.159	1259.810	-180.116	232.261	1312.223	-175.145	300.028	1217.739	-210.421	263.801	1075.035	-212.148	268.797	798.426
-255.410	264.228	1258.555	-180.270	232.092	1311.031	-175.137	299.902	1216.728	-210.554	263.453	1073.580	-212.299	268.995	797.340
-255.573	264.588	1257.746	-180.313	232.202	1310.002	-175.037	299.736	1215.779	-210.296	263.163	1072.219	-212.440	269.018	796.351
-255.323	264.487	1256.506	-180.570	232.292	1308.751	-174.940	299.788	1214.633	-210.234	263.124	1070.933	-212.423	268.821	795.018
-255.594	264.657	1254.962	-180.672	232.278	1307.842	-174.931	299.667	1213.007	-210.182	262.982	1069.888	-212.416	268.860	793.557
-255.670	264.493	1253.616	-180.823	232.359	1306.950	-174.953	299.572	1210.946	-210.253	263.096	1069.125	-212.423	268.799	792.025
-255.711	264.521	1252.366	-180.913	232.304	1305.470	-174.966	299.515	1209.844	-210.253	263.180	1068.010	-212.512	268.653	790.588
-255.814	264.137	1250.657	-181.006	232.388	1304.204	-174.934	299.262	1208.538	-210.319	263.214	1066.928	-212.244	268.369	789.195
-255.744	264.105	1249.259	-181.070	232.454	1303.145	-174.950	299.286	1207.665	-210.455	263.427	1065.686	-212.145	268.206	787.912
-255.539	263.948	1247.706	-181.239	232.579	1302.032	-174.865	299.096	1206.721	-210.598	263.418	1064.590	-212.077	268.456	786.774
-255.837	264.403	1246.526	-181.370	232.678	1300.961	-174.845	299.151	1205.365	-210.629	262.890	1063.162	-212.013	268.576	785.914
-255.968	264.322	1245.644	-181.400	232.395	1299.529	-174.878	299.173	1204.186	-210.471	262.756	1061.819	-212.013	268.730	785.176
-256.095	264.359	1244.774	-181.439	232.335	1298.566	-174.933	299.266	1203.083	-210.352	262.612	1060.594	-212.013	268.974	784.365
-256.025	264.263	1243.886	-181.619	232.357	1297.693	-174.775	299.029	1202.173	-210.275	262.443	1059.304	-211.899	268.667	782.999
-256.007	264.275	1243.061	-181.839	232.484	1296.715	-174.658	299.293	1201.425	-210.184	262.366	1058.089	-211.873	268.554	781.768
-255.916	264.219	1241.937	-181.908	232.598	1295.744	-174.661	298.898	1200.382	-210.086	262.440	1056.966	-211.974	268.418	780.678
-255.734	264.496	1240.815	-182.039	232.815	1294.867	-174.521	298.847	1199.449	-210.155	262.529	1056.173	-211.720	268.333	779.570
-255.846	264.298	1239.048	-182.130	232.642	1293.928	-174.557	298.569	1198.322	-210.168	262.746	1055.457	-211.602	268.280	778.305
-255.915	264.243	1237.621	-182.124	232.654	1292.894	-174.403	298.505	1197.234	-210.267	262.894	1054.582	-211.556	268.211	776.943
-255.908	264.380	1236.591	-182.031	232.705	1291.581	-174.258	298.737	1196.050	-210.375	262.986	1053.655	-211.492	268.246	776.009
-255.753	264.045	1235.464	-182.023	232.796	1290.760	-174.214	298.747	1194.975	-210.454	263.038	1052.729	-211.486	268.206	774.891
-255.925	264.893	1235.094	-182.216	233.307	1289.920	-174.180	298.870	1194.141	-210.410	263.054	1051.866	-211.360	268.457	774.114
-255.913	265.049	1234.283	-182.375	233.719	1289.401	-174.073	299.003	1193.511	-210.429	262.855	1050.822	-211.413	268.476	773.476
-255.958	265.309	1233.653	-182.390	233.676	1288.411	-173.960	299.078	1192.794	-210.353	262.809	1050.009	-211.477	268.587	773.004
-255.797	265.702	1232.941	-182.389	233.936	1287.838	-173.826	299.078	1192.152	-210.280	262.852	1049.214	-211.439	268.692	772.466
-255.795	265.874	1232.132	-182.521	234.188	1287.335	-173.748	299.038	1191.401	-210.215	262.779	1048.321	-211.641	268.686	771.919
-255.749	266.044	1231.475	-182.578	234.462	1286.803	-173.731	299.193	1190.921	-210.184	262.921	1047.641	-211.600	268.659	771.479
-255.628	266.260	1230.826	-182.634	234.807	1286.411	-173.632	299.313	1190.044	-210.139	262.980	1047.124	-211.550	268.603	770.818
-255.519	266.418	1230.173	-182.570	235.114	1285.782	-173.359	299.274	1189.067	-210.088	263.111	1046.576	-211.506	268.576	770.167
-255.470	266.612	1229.607	-182.707	235.167	1285.288	-173.408	299.705	1188.536	-210.068	263.170	1046.050	-211.498	268.573	769.630
-255.406	266.717	1228.967	-182.614	235.399	1284.953	-173.348	299.758	1187.669	-210.022	263.202	1045.574	-211.465	268.504	768.919
-255.339	266.797	1228.396	-182.694	235.686	1284.545	-173.406	299.904	1187.112	-209.912	263.237	1044.974	-211.454	268.373	768.398
-255.279	266.976	1227.978	-182.700	235.846	1284.123	-173.324	299.920	1186.733	-209.903	263.327	1044.583	-211.451	268.355	768.159
-255.194	266.927	1227.455	-182.669	236.047	1283.880	-173.289	300.064	1186.393	-209.837	263.573	1044.376	-211.471	268.267	767.662
-255.216	267.133	1227.145	-182.708	236.305	1283.557	-173.228	300.270	1186.217	-209.852	263.724	1044.075	-211.424	268.240	767.428
-255.139	267.291	1226.798	-182.690	236.592	1283.430	-173.201	300.554	1186.006	-209.855	263.863	1043.899	-211.487	268.317	767.181
-255.066	267.358	1226.522	-182.694	236.779	1283.245	-172.988	300.851	1185.964	-209.920	264.209	1043.850	-211.407	268.287	767.038
-255.241	268.342	1226.757	-182.710	237.030	1283.131	-172.925	301.131	1185.871	-209.859	264.546	1043.707	-211.401	268.277	766.887
-255.116	268.577	1226.616	-182.668	237.359	1283.052	-172.925	301.506	1185.947	-209.760	264.785	1043.660	-211.420	268.336	766.765
-255.053	269.180	1226.677	-182.705	237.750	1282.981	-172.816	301.656	1185.801	-209.737	265.108	1043.632	-211.395	268.410	766.750
-254.999	269.461	1226.757	-182.690	237.965	1283.054	-172.691	301.933	1185.995	-209.719	265.410	1043.641	-211.376	268.434	766.799
-254.978	270.077	1226.863	-182.654	238.462	1283.108	-172.569	302.390	1186.140	-209.628	265.686	1043.704	-211.364	268.535	766.895
-254.803	270.418	1226.964	-182.625	238.893	1283.219	-172.467	303.029	1186.407	-209.571	266.044	1043.803	-211.303	268.582	767.079
-254.722	270.992	1227.123	-182.590	239.100	1283.338	-172.369	303.451	1186.713	-209.515	266.294	1043.902	-211.277	268.677	767.284
-254.685	271.442	1227.507	-182.494	239.521	1283.550	-172.298	303.898	1186.875	-209.460	266.516	1044.200	-211.213	268.740	767.514
-254.621	271.826	1227.654	-182.406	239.985	1283.825	-172.200	304.343	1187.323	-209.476	266.795	1044.413	-211.168	268.827	767.898
-254.614	272.066	1227.876	-182.273	240.289	1284.209	-172.137	304.716	1187.555	-209.427	267.070	1044.763	-211.123	268.929	768.258
-254.590	272.605	1228.451	-182.181	240.669	1284.638	-172.085	305.184	1188.051	-209.352	267.246	1045.143	-211.049	269.086	768.764
-254.340	272.613	1228.693	-182.036	241.010	1285.035	-172.026	305.479	1188.351	-209.301	267.477	1045.604	-210.928	269.190	769.250
-254.312	272.981	1229.332	-181.940	241.496	1285.614	-172.033	306.038	1188.948	-209.224	267.860	1046.192	-210.868	269.328	769.815
-254.347	273.446	1229.991	-181.882	241.843	1286.162	-172.054	306.417	1189.469	-209.186	268.235	1046.771	-210.813	269.439	770.400
-254.223	273.815	1230.699	-181.783	242.103	1286.764	-171.963	306.732	1190.009	-209.022	268.471	1047.495	-210.666	269.573	771.214
-254.209	274.279	1231.577	-181.761	242.411	1287.445	-171.928	307.125	1190.570	-209.023	268.642	1048.117	-210.562	269.654	771.762
-254.215	274.776	1232.366	-181.724	242.689	1288.193	-171.938	307.497	1191.253	-209.167	269.136	1048.869	-210.598	269.602	772.179
-254.239	275.234	1233.168	-181.740	243.019	1288.920	-171.732	307.677	1192.024	-209.065	269.427	1049.603	-210.503	269.759	772.633
-254.132	275.605	1233.972	-181.792	243.485	1289.548	-171.727	307.964	1192.958	-209.043	269.752	1050.530	-210.484	269.575	773.212
-254.208	275.966	1234.778	-181.558	243.661	1290.315	-171.630	308.050	1194.142	-209.143	270.115	1051.496	-210.437	269.629	773.805
-254.171	276.179	1235.551	-181.548	243.961	1291.193	-171.800	308.460	1195.212	-209.133	270.517	1052.210	-210.340	269.536	774.506
-254.201	276.586	1236.497	-181.582	244.317	1292.198	-171.753	308.767	1196.055	-208.899	270.689	1053.109	-210.388	269.456	775.357
-254.262	276.838	1237.206	-181.594	244.713	1293.139	-171.774	309.097	1196.971	-208.766	270.925	1054.104	-210.250	269.542	776.366
-254.160	276.983	1238.189	-181.509	244.666	1293.859	-171.836	309.450	1197.879	-208.594	270.950	1055.126	-210.283	269.765	777.628
-254.201	277.170	1239.498	-181.416	244.672	1294.861	-171.829	310.112	1198.921	-208.601	271.130	1056.017	-210.182	269.774	779.016
-254.032	277.226	1240.523	-181.323	244.761	1296.098	-171.886	310.380	1200.071	-208.575	271.246	1056.892	-210.131	269.950	780.540
-253.872	277.212	1241.584	-181.354	244.736	1297.209	-171.886	311.092	1201.937	-208.634	271.513	1057.970	-210.249	270.178	781.643
-253.922	277.453	1242.923	-181.275	244.875	1298.215	-171.852	311.206	1203.348	-208.793	271.810	1059.123	-210.241	270.309	782.936
-253.977	277.789	1244.236	-181.138	244.845	1299.374	-171.802	311.249	1204.748	-208.849	272.290	1060.561	-210.370	270.499	784.274
-254.087	277.901	1245.451	-181.093	244.864	1300.592	-172.015	311.752	1205.949	-208.747	272.551	1062.104	-210.309	270.304	785.409
-254.041	278.115	1247.348	-180.939	244.890	1301.706	-172.090	311.881	1206.852	-208.994	273.122	1063.697	-210.239	270.123	786.207
-254.241	278.464	1248.888	-181.025	245.157	1302.997	-172.174	312.196	1207.922	-208.944	273.163	1064.900	-210.312	269.837	787.067
-254.106	278.638	1250.000	-180.971	245.376	1304.258	-172.230	312.412	1209.083	-208.880	273.216	1066.405	-210.300	270.077	788.665
-254.048	278.668	1250.860	-180.756	245.659	1305.856	-172.273	312.870	1210.316	-208.805	273.182	1067.688	-210.270	270.199	790.222
-254.067	279.098	1252.392	-180.816	245.823	1306.936	-172.229	313.055	1212.004	-208.788	273.168	1068.718	-210.417	270.544	791.976
-254.004	279.245	1253.934	-180.667	245.848	1308.438	-172.252	313.212	1213.863	-208.823	273.342	1070.325	-210.396	270.596	793.815
-253.992	279.423	1255.965	-180.498	246.109	1309.959	-172.340	313.420	1215.328	-209.017	273.643	1071.929	-210.383	270.681	795.499
-254.001	279.550	1257.793	-180.325	246.327	1311.437	-172.479	313.696	1216.519	-209.147	273.957	1073.638	-210.383	270.655	796.904
-253.954	279.753	1259.270	-180.385	246.968	1313.551	-172.606	314.090	1217.995	-209.176	274.201	1075.206	-210.355	270.511	798.047
-253.953	279.997	1260.722	-180.090	246.887	1314.511	-172.730	314.321	1219.465	-209.147	274.336	1076.818	-210.300	270.304	799.205
-254.052	280.416	1262.167	-179.833	246.969	1315.659	-172.728	314.439	1221.192	-209.031	274.535	1078.316	-210.198	270.134	800.365
-253.857	280.560	1264.200	-179.705	247.572	1317.401	-172.867	314.491	1222.932	-209.059	274.334	1079.811	-210.292	270.146	802.529
-253.788	280.390	1266.104	-179.727	247.975	1319.013	-172.963	314.937	1224.507	-208.984	274.526	1081.054	-210.281	270.423	804.631
-253.804	280.723	1267.706	-179.474	248.291	1320.769	-172.927	315.225	1225.774	-208.903	274.388	1082.401	-210.318	270.529	806.397
-253.847	281.061	1269.313	-179.352	248.600	1322.492	-172.966	315.444	1227.056	-208.863	274.437	1083.933	-210.296	270.649	807.821
-254.063	281.216	1270.909	-179.329	249.013	1324.044	-173.154	315.712	1228.470	-208.961	275.077	1085.983	-210.204	270.737	809.422
-254.085	281.817	1272.533	-179.200	249.076	1325.666	-173.134	315.968	1230.184	-208.987	275.586	1088.029	-210.336	270.801	810.844
-254.019	281.687	1274.308	-178.987	249.094	1326.871	-173.137	316.081	1232.079	-209.128	275.966	1089.574	-210.246	270.508	812.143
-254.010	281.998	1275.724	-179.077	249.094	1328.252	-173.370	316.216	1233.574	-208.909	275.974	1091.328	-210.072	270.532	813.686
-253.919	282.010	1277.587	-178.938	248.978	1330.119	-173.415	316.674	1234.884	-208.939	276.007	1092.777	-210.086	270.806	815.885
-254.036	282.215	1279.281	-179.120	249.040	1331.628	-173.509	317.181	1236.899	-208.942	275.940	1094.332	-210.004	270.929	817.656
-254.002	282.280	1281.424	-178.937	249.048	1333.217	-173.446	317.691	1239.185	-209.131	276.312	1095.856	-209.916	271.135	819.481
-254.075	282.234	1283.079	-178.893	249.350	1335.005	-173.540	317.391	1241.006	-209.120	276.451	1097.313	-209.890	271.355	821.140
-254.032	282.306	1284.422	-178.884	249.498	1336.585	-173.732	317.895	1242.792	-209.145	276.598	1098.832	-209.857	271.187	822.712
-254.160	282.616	1285.927	-178.730	249.193	1337.895	-173.888	318.351	1244.105	-208.998	276.878	1100.738	-209.588	271.224	823.992
-254.017	282.504	1287.486	-178.787	248.914	1338.918	-173.980	318.704	1245.540	-208.796	277.111	1102.789	-209.547	271.069	825.208
-254.030	282.558	1289.535	-178.619	248.715	1340.329	-173.863	318.974	1247.562	-208.841	276.951	1104.215	-209.373	270.998	827.144
-254.070	282.500	1291.276	-178.458	248.854	1342.060	-173.902	318.997	1249.882	-208.832	276.893	1105.789	-209.333	271.165	829.180
-254.102	282.558	1293.050	-178.403	248.847	1343.833	-174.136	319.246	1251.686	-208.942	277.281	1107.382	-209.299	271.402	830.879
-254.257	282.884	1294.775	-178.329	248.875	1345.814	-174.205	319.484	1252.654	-208.814	277.171	1109.100	-209.327	271.467	832.684
-254.241	283.105	1296.248	-178.400	249.138	1347.435	-174.269	319.563	1254.325	-208.857	277.482	1110.913	-209.183	271.480	834.131
-254.257	282.778	1298.012	-178.240	248.927	1348.869	-174.234	319.471	1256.100	-208.833	277.833	1112.793	-209.180	271.414	835.628
-253.940	282.398	1299.527	-178.082	248.957	1350.094	-174.291	319.244	1257.880	-208.813	278.030	1114.451	-208.889	271.615	837.231
-254.014	282.597	1301.269	-177.928	248.675	1351.460	-174.436	319.829	1259.546	-208.792	277.905	1116.023	-208.800	271.640	838.717
-254.154	282.678	1302.875	-177.906	248.772	1353.169	-174.575	320.178	1261.027	-208.736	277.796	1117.314	-208.755	271.511	840.620
-254.221	282.997	1304.636	-177.986	248.934	1354.743	-174.671	320.348	1262.430	-208.679	277.621	1118.952	-208.744	271.800	842.679
-254.306	283.021	1306.613	-177.894	249.009	1356.585	-174.604	320.443	1264.432	-208.746	277.930	1120.615	-208.760	271.931	844.242
-254.245	282.954	1307.875	-177.780	249.270	1358.181	-174.703	320.406	1266.198	-208.696	277.892	1121.932	-208.661	271.920	845.731
-254.052	282.632	1309.222	-177.657	249.317	1359.638	-174.880	320.576	1267.800	-208.720	277.921	1123.832	-208.490	271.939	847.046
-254.104	282.759	1311.112	-177.460	249.105	1361.119	-174.989	320.757	1268.962	-208.670	278.128	1125.706	-208.585	271.949	848.381
-253.922	282.579	1313.253	-177.437	249.090	1362.306	-175.099	320.977	1270.464	-208.615	278.183	1127.345	-208.561	271.908	850.057
-254.241	282.765	1315.190	-177.356	249.066	1363.969	-175.026	321.067	1272.509	-208.537	278.211	1128.638	-208.502	271.853	851.730
-254.225	283.020	1316.538	-177.267	248.941	1365.455	-175.095	320.814	1274.532	-208.681	278.249	1129.985	-208.421	271.901	853.491
-254.239	282.850	1317.692	-177.234	249.062	1366.946	-175.162	320.974	1275.725	-208.772	278.540	1131.411	-208.355	271.847	855.120
-254.281	282.825	1318.941	-177.136	249.134	1368.572	-175.247	321.377	1277.150	-208.641	278.661	1133.241	-208.306	272.065	856.765
-254.389	283.535	1321.015	-177.011	249.070	1370.124	-175.403	321.585	1278.311	-208.743	278.555	1134.813	-208.331	272.196	858.151
-254.340	283.026	1322.731	-176.894	249.168	1371.300	-175.462	321.648	1279.520	-208.693	278.594	1136.528	-208.432	272.006	859.599
-254.485	282.667	1324.128	-176.877	248.963	1372.661	-175.485	321.603	1281.407	-208.573	278.462	1138.220	-208.542	271.901	860.963
-254.496	282.439	1325.418	-176.816	248.634	1373.826	-175.620	321.938	1283.275	-208.637	278.470	1139.548	-208.583	271.994	862.405
-254.465	282.376	1326.743	-176.668	248.551	1375.298	-175.722	322.161	1284.723	-208.745	278.495	1140.986	-208.380	271.975	863.931
-254.297	282.944	1329.056	-176.628	248.255	1376.678	-175.761	322.321	1286.289	-208.617	278.202	1142.265	-208.176	272.044	865.300
-254.682	283.245	1330.600	-176.496	248.301	1377.689	-175.908	322.495	1287.559	-208.664	278.247	1143.450	-208.284	272.181	866.719
-254.517	283.452	1331.996	-176.468	248.579	1379.257	-176.092	322.478	1289.118	-208.628	278.436	1144.559	-208.389	272.383	868.118
-254.415	282.629	1332.969	-176.316	248.361	1380.494	-176.052	322.296	1290.562	-208.693	278.513	1145.933	-208.413	272.387	869.591
-254.325	282.248	1334.110	-176.227	248.320	1381.594	-176.261	322.240	1291.846	-208.845	278.623	1147.199	-208.391	272.434	870.760
-254.293	282.418	1335.336	-176.120	248.271	1382.736	-176.350	322.429	1292.917	-208.908	278.739	1148.692	-208.449	272.560	871.857
-254.231	282.250	1337.342	-175.832	247.967	1383.896	-176.379	322.322	1293.915	-208.943	278.947	1150.163	-208.393	272.372	872.979
-254.444	282.156	1338.445	-175.945	247.893	1384.683	-176.590	322.645	1295.145	-208.972	278.858	1151.160	-208.312	272.381	874.245
-254.452	282.123	1339.325	-175.843	247.904	1385.564	-176.751	322.860	1296.329	-208.818	278.547	1152.270	-208.292	272.345	875.525
-254.488	281.966	1340.121	-175.783	247.679	1386.793	-176.812	322.380	1297.338	-208.846	278.330	1153.213	-208.103	272.522	876.776
-254.409	281.588	1340.961	-175.637	247.450	1387.885	-176.790	322.127	1298.477	-208.823	278.155	1154.302	-208.131	272.547	877.980
-254.118	281.133	1342.015	-175.676	247.147	1388.755	-176.930	321.672	1299.457	-208.785	277.776	1155.087	-208.092	272.458	878.835
-253.953	280.420	1343.500	-175.528	247.202	1390.005	-177.136	321.562	1300.326	-208.888	278.018	1156.223	-208.082	272.485	879.706
-254.212	280.246	1344.626	-175.429	246.954	1391.111	-177.245	321.349	1300.877	-209.003	277.837	1157.220	-208.071	272.725	880.521
-254.204	280.087	1345.550	-175.478	246.746	1391.642	-177.406	321.193	1301.426	-209.035	277.691	1157.905	-208.190	272.868	881.418
-254.312	280.549	1346.746	-175.391	246.783	1392.292	-177.514	321.010	1301.966	-209.017	277.665	1158.984	-208.004	272.813	882.204
-254.350	280.258	1347.452	-175.356	246.583	1392.992	-177.547	320.650	1302.835	-209.102	277.512	1160.028	-207.966	272.900	882.834
-254.500	279.991	1348.054	-175.353	246.266	1393.747	-177.613	320.415	1303.570	-209.191	277.391	1160.668	-207.856	272.855	883.412
-254.644	279.745	1348.470	-175.361	246.064	1394.483	-177.656	320.092	1304.403	-209.306	277.030	1161.355	-207.853	272.869	883.921
-254.775	279.582	1348.974	-175.314	245.669	1394.903	-177.814	319.879	1305.256	-209.281	276.987	1161.938	-207.909	272.963	884.446
-254.822	279.376	1349.386	-175.398	245.207	1395.260	-178.027	319.582	1305.978	-209.286	276.957	1162.466	-207.761	273.001	884.939
-254.807	279.033	1349.983	-175.415	244.897	1395.603	-178.049	319.678	1306.569	-209.185	276.992	1162.877	-207.988	273.028	885.342
-254.833	278.827	1350.521	-175.446	244.405	1395.934	-178.155	319.724	1306.942	-209.152	276.992	1163.251	-207.806	273.370	885.679
-255.057	278.433	1350.743	-175.471	244.145	1396.157	-178.169	319.663	1307.416	-209.124	277.037	1163.501	-207.811	273.457	885.999
-255.085	278.274	1351.017	-175.546	243.923	1396.430	-178.283	319.688	1307.852	-209.232	277.125	1163.769	-207.878	273.558	886.271
-255.205	278.198	1351.170	-175.571	243.656	1396.536	-178.318	319.622	1308.183	-209.343	277.131	1164.053	-207.865	273.618	886.638
-255.295	277.845	1351.209	-175.583	243.377	1396.628	-178.472	319.723	1308.526	-209.453	277.094	1164.153	-207.865	273.801	886.845
-255.329	277.783	1351.330	-175.601	243.224	1396.692	-178.520	319.647	1308.523	-209.532	277.113	1164.238	-207.916	273.898	886.804
-255.378	277.582	1351.438	-175.717	243.015	1396.688	-178.658	319.649	1308.851	-209.680	277.008	1164.311	-207.931	273.984	887.009
-255.470	277.382	1351.383	-175.733	242.858	1396.645	-178.721	319.540	1308.879	-209.654	276.723	1164.225	-207.847	274.029	886.972
-255.588	277.203	1351.337	-175.812	242.639	1396.638	-178.828	319.316	1308.677	-209.604	276.516	1164.254	-207.848	274.155	886.836
-255.668	277.160	1351.203	-175.949	242.562	1396.445	-178.908	319.168	1308.537	-209.527	276.229	1164.142	-207.807	274.211	886.706
-255.791	277.053	1351.134	-176.037	242.500	1396.339	-179.078	318.912	1308.261	-209.570	275.926	1163.887	-207.698	274.021	886.393
-255.865	276.788	1350.879	-176.118	242.197	1396.040	-179.232	318.553	1307.852	-209.538	275.954	1163.668	-207.564	273.874	886.118
-256.014	276.619	1350.590	-176.177	242.157	1395.729	-179.320	318.259	1307.517	-209.623	275.716	1163.332	-207.612	273.799	885.763
-256.031	276.370	1350.214	-176.246	242.156	1395.480	-179.415	317.886	1307.018	-209.644	275.644	1162.979	-207.565	273.842	885.386
-256.076	276.056	1349.853	-176.425	242.312	1395.072	-179.496	317.456	1306.469	-209.775	275.365	1162.478	-207.527	273.995	885.027
-256.032	275.858	1349.395	-176.553	242.079	1394.649	-179.506	316.868	1305.591	-209.856	275.244	1162.026	-207.583	274.135	884.527
-256.160	275.751	1348.518	-176.647	241.891	1394.018	-179.649	316.785	1305.082	-209.984	275.009	1161.338	-207.615	274.158	884.036
-256.325	275.721	1347.891	-176.776	241.724	1393.218	-179.830	316.536	1304.054	-210.063	274.882	1160.621	-207.656	274.200	883.391
-256.340	275.231	1347.177	-176.719	241.658	1392.402	-179.830	316.202	1303.083	-210.234	274.583	1159.893	-207.584	274.221	882.766
-256.504	274.854	1346.378	-176.885	241.448	1391.610	-180.002	315.957	1302.170	-210.364	274.201	1158.806	-207.570	274.269	881.959
-256.524	274.505	1345.501	-177.106	241.245	1390.678	-180.181	315.870	1301.145	-210.447	273.976	1157.949	-207.575	274.254	881.208
-256.578	274.440	1344.780	-177.341	241.106	1389.777	-180.331	315.880	1300.160	-210.348	273.587	1156.926	-207.580	274.149	880.247
-256.723	274.166	1343.720	-177.605	240.712	1389.056	-180.369	315.399	1299.236	-210.220	273.132	1155.779	-207.614	274.162	879.212
-256.834	273.756	1342.478	-177.746	240.496	1388.573	-180.397	315.122	1298.315	-210.094	273.020	1154.762	-207.576	274.141	878.212
-257.053	273.226	1341.070	-177.760	240.480	1387.243	-180.488	314.871	1297.395	-210.161	272.881	1153.659	-207.539	274.130	876.919
-257.017	273.117	1339.748	-177.932	240.389	1385.966	-180.548	314.486	1296.406	-210.302	272.833	1152.530	-207.546	273.958	875.646
-257.380	273.575	1338.237	-178.027	240.177	1384.672	-180.597	314.204	1294.763	-210.355	272.802	1151.367	-207.645	274.052	874.160
-257.444	273.259	1337.144	-178.339	240.127	1383.448	-180.846	314.062	1293.159	-210.431	272.532	1149.954	-207.806	274.149	872.825
-257.622	273.247	1336.142	-178.398	239.781	1381.786	-180.998	313.734	1291.702	-210.509	272.155	1148.387	-207.926	274.303	871.552
-257.807	272.874	1334.953	-178.707	239.352	1380.518	-180.787	313.197	1290.314	-210.889	271.856	1146.522	-207.956	274.446	870.218
-257.875	272.275	1333.323	-178.761	239.330	1379.130	-180.741	312.620	1288.918	-210.932	271.483	1145.034	-207.968	274.561	868.800
-257.971	272.212	1331.163	-179.023	239.146	1377.864	-180.823	312.266	1287.658	-210.977	271.354	1143.537	-207.944	274.295	867.363
-257.999	271.347	1328.995	-179.099	239.219	1376.571	-180.855	312.080	1286.256	-210.919	271.098	1142.136	-207.949	274.096	865.533
-258.070	271.005	1327.367	-179.381	238.677	1375.053	-180.901	311.546	1283.904	-210.994	271.057	1140.827	-208.009	274.015	863.682
-258.467	271.375	1326.231	-179.590	238.503	1373.392	-181.021	311.115	1281.611	-210.902	270.676	1139.280	-208.130	273.927	861.967
-258.463	270.915	1324.683	-179.638	238.609	1372.151	-181.159	310.369	1279.785	-211.163	270.223	1137.358	-208.018	274.006	860.170
-258.377	270.423	1322.367	-180.031	238.052	1369.894	-181.080	310.077	1278.344	-210.915	269.579	1135.173	-207.969	273.880	858.477
-258.683	269.758	1319.924	-180.214	237.758	1367.810	-181.084	309.608	1276.206	-210.887	269.347	1133.250	-207.871	273.673	856.729
-258.782	269.313	1317.839	-180.358	237.292	1365.851	-181.143	309.239	1274.014	-210.907	268.743	1131.282	-207.845	273.487	854.666
-258.586	268.468	1315.332	-180.606	236.996	1364.615	-181.108	308.767	1272.362	-210.883	268.562	1129.301	-207.936	273.600	852.463
-258.836	269.058	1313.663	-180.823	236.670	1362.519	-181.009	307.619	1270.072	-211.096	268.327	1127.473	-208.065	273.795	850.086
-259.080	268.674	1311.853	-181.004	236.537	1360.652	-181.130	307.239	1268.536	-211.146	267.820	1125.204	-208.103	273.563	848.344
-259.038	267.883	1310.031	-181.152	236.151	1358.373	-180.994	306.942	1266.089	-211.155	267.277	1122.746	-207.970	273.637	846.403
-258.993	267.053	1307.291	-181.209	235.829	1356.048	-181.102	306.909	1263.797	-211.210	266.836	1120.624	-207.976	273.782	844.642
-258.832	266.905	1304.254	-181.482	235.453	1354.504	-181.063	306.342	1262.035	-211.184	266.819	1118.491	-207.910	273.555	842.265
-259.277	267.154	1302.440	-181.843	235.506	1352.710	-180.830	305.772	1259.854	-211.129	266.696	1116.712	-207.968	273.254	839.466
-259.245	266.626	1300.501	-181.939	235.264	1350.421	-180.863	305.266	1256.818	-211.142	266.533	1114.647	-207.995	273.296	837.281
-259.236	266.303	1297.959	-182.281	235.019	1348.513	-180.822	305.050	1254.656	-211.136	266.113	1112.158	-207.919	273.321	835.353
-259.333	265.745	1294.709	-182.255	234.682	1345.821	-180.681	304.365	1252.735	-211.304	265.652	1109.434	-207.808	273.317	833.181
-259.165	265.037	1292.197	-182.532	234.446	1343.679	-180.649	303.906	1250.983	-211.140	265.427	1107.410	-207.916	273.088	830.724
-259.431	265.158	1290.675	-182.713	234.139	1341.761	-180.523	303.889	1248.400	-211.059	265.204	1105.238	-207.709	272.656	828.048
-259.413	265.497	1288.289	-183.006	233.728	1339.620	-180.692	303.577	1245.513	-211.102	264.963	1102.847	-207.631	272.834	825.535
-259.493	264.740	1285.742	-183.113	233.603	1337.038	-180.437	302.416	1243.379	-211.086	264.567	1100.137	-207.839	273.128	823.692
-259.424	264.134	1282.916	-183.197	233.530	1334.615	-180.294	302.387	1241.076	-211.144	264.052	1097.702	-207.850	273.104	821.452
-259.436	263.997	1280.147	-183.488	233.187	1332.141	-180.314	302.263	1238.395	-211.275	263.501	1095.272	-207.828	273.054	819.346
-259.644	264.351	1278.107	-183.719	233.112	1330.627	-180.209	301.321	1235.736	-211.190	263.655	1093.031	-207.656	272.795	816.602
-259.456	263.874	1276.108	-183.767	233.020	1328.278	-179.969	300.245	1233.139	-211.034	263.414	1091.105	-207.592	272.586	813.709
-259.520	263.149	1273.163	-183.772	233.086	1326.071	-179.803	300.145	1230.775	-210.963	263.146	1088.505	-207.903	272.521	811.381
-259.472	263.087	1269.888	-184.083	232.828	1323.504	-179.970	300.037	1228.042	-211.078	262.570	1085.694	-207.627	272.440	809.324
-259.511	263.138	1267.863	-184.033	232.691	1321.045	-179.647	299.280	1225.849	-210.776	262.160	1083.128	-207.472	272.228	807.067
-259.509	262.896	1265.942	-184.250	232.718	1319.073	-179.437	298.778	1222.990	-210.777	261.963	1081.073	-207.295	271.883	804.267
-259.512	262.888	1262.992	-184.289	232.710	1316.467	-179.518	298.536	1220.078	-210.732	261.814	1078.664	-207.414	271.658	801.070
-259.401	262.027	1259.997	-184.416	232.818	1314.353	-179.258	298.017	1217.825	-210.996	261.680	1076.078	-207.497	271.938	799.144
-259.188	261.519	1257.478	-184.495	232.556	1311.785	-178.976	297.324	1215.934	-210.821	261.097	1073.162	-207.464	271.894	797.126
-259.199	262.246	1255.701	-184.678	232.414	1309.635	-178.723	297.033	1213.422	-210.668	260.680	1070.861	-207.394	272.082	795.006
-259.338	262.119	1252.814	-184.905	232.455	1307.832	-178.522	296.466	1209.711	-210.616	260.680	1068.760	-207.574	271.603	792.090
-259.168	261.419	1249.768	-184.870	232.427	1305.507	-178.508	296.237	1207.654	-210.602	260.636	1066.727	-207.449	271.232	789.089
-258.683	261.196	1246.997	-184.888	232.255	1302.924	-178.189	296.365	1205.915	-210.719	260.479	1064.213	-207.445	271.288	787.012
-259.086	261.959	1244.930	-184.914	232.377	1300.294	-177.813	296.284	1203.196	-210.506	260.297	1061.433	-207.478	271.258	784.974
-258.854	261.831	1242.968	-185.107	232.510	1298.322	-177.629	296.250	1201.113	-210.275	259.999	1058.981	-207.481	271.332	782.937
-258.629	261.806	1240.658	-185.219	232.353	1296.256	-177.281	295.824	1198.962	-210.094	260.129	1056.627	-207.398	271.213	780.401
-258.497	261.734	1237.409	-185.273	232.413	1294.198	-177.054	295.209	1196.728	-210.114	260.162	1054.604	-207.376	270.911	777.335
-258.250	261.351	1234.599	-185.321	232.378	1291.798	-176.567	295.384	1194.100	-210.151	260.302	1052.339	-207.428	270.806	774.924
-258.250	262.124	1233.065	-185.242	232.356	1289.356	-176.386	295.442	1192.138	-210.181	259.904	1050.027	-207.622	271.052	773.284
-258.113	262.275	1230.723	-185.391	232.648	1287.411	-175.892	295.255	1190.277	-209.935	259.674	1047.605	-207.552	271.127	771.494
-257.818	261.993	1228.235	-185.592	232.728	1285.647	-175.576	294.747	1187.716	-209.957	259.640	1045.345	-207.606	271.143	769.357
-257.523	261.592	1225.583	-185.583	232.739	1283.715	-175.397	295.003	1184.882	-209.613	259.755	1043.704	-207.450	270.699	766.809
-257.657	262.072	1223.932	-185.593	233.008	1282.008	-175.212	294.509	1183.006	-209.706	259.756	1041.816	-207.522	270.376	764.364
-257.590	262.710	1221.898	-185.547	232.964	1280.033	-174.887	294.270	1181.496	-209.788	259.769	1039.591	-207.515	270.057	762.052
-257.432	262.584	1220.125	-185.461	232.765	1277.789	-174.500	294.231	1180.034	-209.642	259.405	1037.230	-207.455	270.533	760.754
-257.155	262.353	1217.867	-185.660	233.104	1276.098	-174.100	294.376	1178.049	-209.327	259.081	1035.182	-207.443	270.462	759.116
-256.911	262.078	1215.361	-185.675	233.296	1274.379	-173.969	294.546	1175.753	-209.087	258.929	1033.219	-207.448	270.388	757.214
-256.772	262.356	1213.081	-185.798	233.476	1272.618	-173.612	294.117	1173.793	-209.045	259.338	1031.749	-207.279	270.363	755.059
-256.872	262.862	1211.599	-185.752	233.734	1271.020	-173.318	294.203	1172.173	-209.012	259.657	1030.290	-207.503	270.149	752.750
-256.554	263.299	1210.511	-185.742	234.266	1269.490	-173.087	294.419	1171.027	-209.100	259.958	1028.469	-207.397	270.123	751.096
-256.220	263.310	1208.741	-185.646	234.477	1268.090	-172.667	294.753	1169.121	-209.070	259.914	1026.974	-207.473	270.081	749.502
-255.918	263.795	1207.037	-185.700	234.589	1266.470	-172.410	295.099	1167.750	-208.899	260.147	1025.251	-207.444	270.186	748.396
-255.780	264.183	1205.108	-185.723	234.828	1265.221	-171.907	295.315	1166.484	-208.795	260.169	1023.689	-207.454	270.479	747.385
-255.506	264.477	1203.371	-185.380	235.190	1264.129	-171.665	295.482	1165.234	-208.552	260.576	1022.467	-207.479	270.553	746.392
-255.385	265.384	1202.314	-185.514	235.742	1262.920	-171.341	295.774	1164.134	-208.550	260.905	1021.031	-207.458	270.675	745.201
-255.176	265.795	1201.499	-185.457	236.168	1261.863	-171.002	296.028	1163.070	-208.289	261.031	1020.033	-207.400	270.654	743.667
-254.988	266.581	1200.276	-185.324	236.899	1260.843	-170.617	296.696	1161.869	-208.047	261.476	1019.203	-207.400	270.458	742.538
-254.841	267.199	1199.458	-185.124	237.386	1259.833	-170.327	297.094	1160.466	-207.857	262.068	1018.461	-207.441	270.531	741.340
-254.562	267.536	1198.564	-185.010	238.133	1259.189	-170.110	297.487	1159.598	-207.677	262.573	1017.775	-207.560	270.524	740.163
-254.280	268.270	1197.741	-184.910	238.861	1258.385	-169.655	298.052	1158.917	-207.720	263.099	1016.908	-207.535	270.523	739.329
-253.904	268.967	1197.046	-184.881	239.574	1257.924	-169.353	298.396	1158.344	-207.601	263.411	1016.144	-207.563	270.445	738.427
-253.613	269.634	1196.422	-184.723	240.445	1257.427	-169.068	298.751	1157.825	-207.547	263.950	1015.647	-207.561	270.488	737.818
-253.201	269.815	1195.708	-184.555	241.291	1257.109	-168.878	299.380	1157.370	-207.411	264.159	1015.070	-207.426	270.597	737.344
-252.939	270.484	1195.242	-184.405	242.025	1256.903	-168.582	299.983	1157.008	-207.289	264.585	1014.532	-207.479	270.696	736.991
-252.555	271.302	1194.571	-184.202	242.636	1256.523	-168.121	300.580	1156.588	-207.146	264.920	1013.931	-207.434	270.700	736.635
-252.496	272.251	1193.948	-184.118	243.382	1256.370	-167.871	301.161	1156.071	-207.065	265.170	1013.682	-207.449	270.739	736.387
-252.497	273.075	1193.844	-183.911	244.206	1256.168	-167.598	301.879	1155.673	-206.916	265.492	1013.465	-207.465	270.679	736.125
-252.326	273.747	1193.886	-183.622	245.012	1256.086	-167.320	302.362	1155.429	-206.689	265.842	1013.528	-207.460	270.674	736.092
-252.093	274.435	1193.906	-183.322	245.694	1256.182	-167.233	302.862	1155.270	-206.525	266.188	1013.452	-207.458	271.042	736.199
-251.880	275.163	1194.090	-183.183	246.234	1256.314	-166.962	303.220	1155.331	-206.511	266.676	1013.599	-207.446	271.037	736.376
-251.669	275.805	1194.368	-183.111	246.964	1256.600	-166.868	303.666	1155.452	-206.408	267.047	1013.911	-207.506	270.999	736.475
-251.462	276.364	1194.603	-182.913	247.575	1256.845	-166.689	303.997	1155.619	-206.263	267.310	1014.203	-207.615	271.190	736.975
-251.217	277.055	1195.082	-182.772	248.099	1257.198	-166.445	304.539	1156.110	-206.298	267.848	1014.793	-207.609	271.213	737.228
-251.190	277.698	1195.732	-182.667	248.523	1257.639	-166.262	305.070	1156.456	-206.258	268.375	1015.423	-207.678	271.355	737.738
-250.883	277.833	1196.160	-182.561	248.853	1258.065	-166.095	305.671	1157.301	-206.191	268.921	1016.037	-207.837	271.392	738.375
-250.715	278.438	1197.142	-182.341	249.113	1258.719	-166.069	306.113	1158.226	-206.219	269.339	1016.611	-207.848	271.491	739.124
-250.614	278.715	1198.314	-182.265	249.595	1259.492	-166.077	306.699	1159.320	-205.922	269.643	1017.507	-207.801	271.558	740.059
-250.620	278.967	1199.293	-182.049	250.115	1260.397	-165.988	306.930	1160.210	-205.844	269.860	1018.454	-207.790	271.661	741.095
-250.568	279.279	1200.265	-181.931	250.512	1261.225	-165.877	307.378	1161.150	-205.839	270.096	1019.363	-207.837	271.680	742.353
-250.586	279.513	1201.250	-181.675	250.776	1262.340	-165.740	308.209	1162.329	-205.871	270.214	1020.200	-207.834	271.779	743.738
-250.548	279.952	1202.343	-181.602	251.091	1263.561	-165.779	308.786	1163.558	-205.890	270.695	1021.374	-207.927	272.014	745.112
-250.656	280.637	1203.731	-181.448	251.534	1264.807	-165.774	309.379	1164.775	-206.006	271.107	1022.669	-208.069	272.123	746.566
-250.662	281.435	1205.363	-181.254	251.656	1266.077	-165.832	309.944	1166.250	-206.125	271.706	1024.221	-208.137	271.950	747.544
-250.584	282.243	1206.930	-181.227	252.276	1267.949	-165.891	310.355	1167.677	-206.272	272.064	1026.013	-208.202	271.769	748.702
-250.294	282.607	1208.713	-180.977	252.496	1269.529	-165.838	310.454	1169.468	-206.412	272.729	1027.571	-208.299	271.689	749.852
-250.442	282.620	1210.287	-181.176	252.880	1271.198	-165.939	310.653	1170.864	-206.284	272.802	1028.892	-208.341	271.574	751.197
-250.496	282.705	1211.930	-180.888	253.219	1272.552	-165.974	311.232	1172.501	-206.175	272.781	1030.714	-208.395	271.628	753.243
-250.612	283.225	1213.811	-180.565	253.640	1274.020	-166.303	312.020	1174.169	-206.124	272.778	1032.333	-208.373	271.834	755.533
-250.479	283.742	1215.830	-180.528	254.053	1275.809	-166.420	312.592	1175.941	-206.234	272.860	1034.002	-208.479	271.967	757.842
-250.467	284.264	1218.548	-180.385	254.246	1277.630	-166.356	312.927	1177.899	-206.460	273.391	1035.978	-208.566	271.782	759.778
-250.563	284.721	1220.632	-180.502	254.841	1279.925	-166.213	312.965	1180.296	-206.473	273.892	1038.336	-208.690	271.563	761.180
-250.446	284.574	1222.201	-180.435	254.984	1281.793	-166.742	314.220	1182.647	-206.523	274.402	1040.745	-209.069	271.463	762.886
-250.552	284.787	1224.073	-180.265	255.231	1283.709	-166.849	314.667	1184.214	-206.443	274.410	1042.617	-208.959	271.569	765.214
-250.498	285.291	1226.418	-180.190	255.693	1285.707	-167.037	315.155	1186.155	-206.426	274.547	1044.529	-208.945	271.698	767.956
-250.768	286.006	1229.032	-180.037	255.879	1287.983	-166.985	315.416	1188.898	-206.529	275.042	1046.517	-208.906	271.799	770.469
-250.748	286.769	1231.553	-179.932	255.894	1290.005	-167.079	316.148	1191.414	-206.794	275.715	1049.222	-209.160	271.656	772.493
-250.743	287.187	1233.533	-180.045	256.510	1292.589	-167.118	316.654	1193.325	-206.930	276.463	1051.948	-209.272	271.514	774.028
-250.919	288.029	1236.936	-179.999	256.998	1294.867	-167.374	317.345	1195.387	-206.784	276.614	1054.019	-209.310	271.230	776.206
-250.901	287.614	1238.797	-179.794	257.311	1296.923	-167.690	318.480	1198.607	-206.815	276.804	1056.216	-209.186	271.355	779.385
-251.064	288.678	1241.800	-179.625	257.438	1299.281	-167.909	318.995	1201.292	-206.908	277.297	1058.563	-209.430	271.601	782.437
-251.016	289.962	1244.563	-179.438	257.343	1301.550	-167.833	319.616	1203.756	-206.966	277.917	1061.440	-209.365	271.787	784.954
-251.169	289.634	1247.184	-179.474	257.965	1304.332	-167.929	319.822	1206.143	-207.236	278.665	1064.473	-209.473	271.321	786.872
-251.348	290.337	1249.978	-179.117	258.330	1306.904	-168.146	320.224	1209.185	-207.174	278.859	1066.871	-209.486	271.313	789.436
-251.266	291.268	1253.166	-178.991	258.632	1309.091	-168.333	321.157	1211.471	-207.131	278.948	1069.321	-209.637	271.782	792.539
-251.356	291.683	1256.177	-178.867	259.129	1311.857	-168.625	322.239	1214.084	-207.265	279.445	1072.224	-209.602	271.795	795.696
-251.339	291.584	1258.404	-178.715	259.193	1314.120	-168.605	322.779	1216.910	-207.299	280.133	1075.099	-209.456	271.653	798.059
-251.352	292.284	1261.137	-178.828	260.124	1317.348	-168.760	322.786	1219.745	-207.346	280.476	1077.815	-209.459	271.385	800.248
-251.377	291.834	1264.156	-178.608	260.369	1319.770	-169.211	324.040	1222.221	-207.176	280.521	1080.432	-209.462	271.628	803.562
-251.609	293.457	1267.580	-178.345	260.706	1322.552	-169.192	324.260	1225.397	-207.374	280.772	1083.055	-209.643	271.813	806.849
-251.143	293.095	1270.285	-178.033	260.788	1325.038	-169.389	324.414	1228.558	-207.351	281.380	1086.096	-209.477	271.841	809.572
-251.593	293.534	1273.637	-178.010	261.328	1327.897	-169.595	325.040	1230.800	-207.400	281.812	1089.475	-209.569	271.846	811.825
-251.789	294.382	1276.732	-177.930	261.631	1330.749	-169.861	325.584	1232.930	-207.344	281.856	1092.146	-209.493	271.499	814.769
-251.578	294.544	1279.575	-177.733	261.833	1333.413	-169.922	325.683	1236.610	-207.391	281.779	1094.635	-209.301	271.998	818.470
-251.658	294.295	1282.386	-177.522	262.087	1336.508	-170.064	326.372	1239.469	-207.383	282.045	1097.609	-209.338	272.126	821.211
-251.752	294.637	1285.330	-177.482	261.994	1339.334	-170.310	326.634	1242.148	-207.525	282.504	1100.269	-209.443	271.980	823.939
-251.765	294.876	1289.266	-177.397	262.278	1341.990	-170.618	326.472	1245.445	-207.393	282.725	1103.523	-209.216	271.558	826.297
-251.798	294.733	1291.472	-177.118	262.418	1344.570	-170.858	327.389	1248.194	-207.539	282.545	1106.398	-209.294	271.910	829.933
-251.826	294.669	1294.241	-177.013	262.156	1347.384	-171.179	328.110	1251.253	-207.580	282.812	1109.369	-209.398	272.085	833.071
-251.955	294.707	1298.033	-176.870	261.958	1349.972	-171.261	327.702	1254.432	-207.684	283.323	1112.518	-209.476	271.953	835.630
-252.105	295.510	1300.865	-176.650	261.741	1352.630	-171.465	328.426	1257.017	-207.689	283.284	1115.594	-209.363	271.919	838.221
-251.879	294.626	1303.870	-176.648	261.898	1355.614	-171.614	328.731	1260.288	-207.900	283.216	1118.087	-209.400	272.108	841.909
-251.948	295.162	1307.048	-176.477	262.092	1358.415	-171.749	329.080	1263.537	-207.939	283.680	1121.053	-209.417	272.370	844.942
-252.140	295.317	1309.830	-176.333	261.778	1360.977	-172.032	329.492	1265.964	-207.987	283.955	1123.968	-209.430	272.304	847.398
-252.061	295.339	1313.394	-176.196	261.828	1363.728	-172.276	329.864	1269.153	-207.900	284.153	1127.224	-209.450	272.185	849.986
-252.065	295.185	1316.069	-175.826	261.531	1366.278	-172.478	330.290	1272.513	-208.023	284.207	1129.893	-209.363	272.112	853.294
-252.177	294.800	1319.598	-175.700	261.651	1369.189	-172.625	330.471	1275.071	-208.043	284.331	1132.673	-209.499	272.241	856.401
-252.159	295.574	1322.585	-175.570	261.233	1371.823	-172.824	330.613	1278.342	-208.150	284.619	1135.615	-209.561	272.164	859.136
-252.263	295.450	1324.914	-175.434	261.244	1374.622	-173.004	330.455	1280.923	-208.161	284.770	1138.733	-209.460	272.319	861.932
-252.045	294.810	1328.208	-175.138	261.111	1376.663	-173.166	330.846	1283.263	-208.309	284.579	1141.278	-209.630	272.240	864.545
-252.169	295.092	1331.110	-175.068	261.136	1379.746	-173.233	331.193	1286.635	-208.366	284.621	1144.223	-209.677	272.558	867.700
-252.171	295.186	1334.377	-174.935	260.927	1382.932	-173.556	331.131	1289.501	-208.381	284.856	1146.812	-209.708	272.533	870.434
-251.853	294.280	1336.870	-174.563	260.904	1385.016	-173.780	331.351	1291.737	-208.514	284.912	1149.764	-209.842	272.314	872.886
-252.193	294.342	1339.479	-174.275	260.754	1387.093	-173.805	331.255	1294.976	-208.429	284.728	1152.390	-210.087	272.202	875.866
-252.175	294.282	1342.464	-174.091	260.661	1390.093	-173.971	331.120	1297.552	-208.623	284.491	1154.577	-209.773	272.130	878.595
-252.159	294.360	1345.136	-173.953	260.847	1392.607	-174.267	331.404	1299.562	-208.661	284.477	1157.389	-209.893	272.301	881.173
-251.975	293.612	1347.333	-173.706	260.760	1395.323	-174.283	330.916	1302.138	-208.603	284.676	1160.345	-210.088	272.343	883.605
-252.048	293.364	1350.501	-173.462	260.199	1397.265	-174.462	330.898	1304.541	-208.612	284.580	1163.087	-210.232	272.280	885.816
-252.027	293.382	1353.092	-173.239	259.974	1399.596	-174.550	330.957	1306.634	-208.629	284.065	1165.229	-210.185	272.358	888.553
-252.046	293.255	1355.231	-173.166	260.090	1402.231	-174.661	330.677	1309.658	-208.651	283.737	1167.342	-210.102	272.164	890.931
-251.924	292.212	1357.554	-172.924	259.869	1404.643	-174.815	330.678	1312.225	-208.694	283.728	1169.380	-210.276	272.304	893.538
-251.974	292.166	1360.099	-172.850	259.590	1406.504	-174.982	330.746	1314.152	-208.639	283.961	1172.265	-210.259	272.267	895.626
-251.981	292.192	1362.427	-172.612	259.312	1408.315	-175.125	330.757	1316.223	-208.610	284.127	1174.656	-210.331	272.133	897.660
-251.856	291.579	1364.789	-172.414	258.644	1410.388	-175.106	331.037	1319.508	-208.522	284.032	1176.505	-210.502	272.340	900.276
-251.977	291.706	1366.764	-172.571	258.314	1412.238	-175.399	331.161	1321.570	-208.626	283.830	1178.643	-210.496	272.427	902.295
-251.916	291.229	1368.563	-172.304	257.876	1414.349	-175.341	331.134	1323.445	-208.643	284.016	1180.766	-210.650	272.467	904.013
-251.716	291.283	1370.900	-172.242	257.761	1416.469	-175.259	331.068	1325.818	-208.702	284.496	1182.990	-210.662	272.602	906.175
-251.860	290.735	1373.278	-171.909	257.133	1418.053	-175.416	331.062	1328.021	-208.573	284.648	1185.136	-210.811	272.643	908.086
-251.800	290.661	1374.855	-172.072	256.414	1419.113	-175.442	331.321	1329.852	-208.514	284.365	1186.925	-210.821	272.633	909.963
-251.766	290.717	1376.701	-171.778	256.073	1420.814	-175.538	331.799	1332.030	-208.489	283.934	1188.821	-210.857	272.911	912.038
-251.456	289.918	1378.930	-171.702	255.475	1422.534	-175.436	331.545	1334.295	-208.507	283.815	1190.336	-210.755	272.880	913.819
-251.589	289.675	1380.658	-171.454	254.995	1424.211	-175.631	331.377	1336.256	-208.488	283.580	1191.604	-210.635	272.699	915.570
-251.604	289.778	1382.434	-171.652	255.076	1425.756	-175.734	331.575	1337.575	-208.321	283.310	1193.457	-210.505	272.486	916.994
-251.691	289.712	1383.886	-171.410	254.776	1427.153	-175.664	331.268	1339.238	-208.265	283.032	1195.479	-210.567	272.675	918.664
-251.485	289.361	1385.201	-171.144	254.471	1428.415	-175.692	331.440	1341.425	-208.134	282.998	1197.013	-210.521	272.636	920.085
-251.492	289.052	1386.855	-170.939	254.028	1429.697	-175.811	331.441	1343.402	-208.236	283.055	1198.481	-210.499	272.652	921.373
-251.425	288.930	1388.244	-170.813	253.669	1430.914	-175.870	331.165	1344.229	-208.246	282.900	1199.562	-210.641	272.802	922.924
-251.339	288.238	1389.364	-170.719	253.137	1432.177	-175.932	331.062	1345.160	-208.258	282.732	1200.734	-210.691	272.925	924.396
-251.332	287.997	1390.674	-170.587	253.000	1433.148	-176.036	330.834	1346.126	-208.446	282.696	1201.833	-210.767	273.008	925.719
-251.184	287.630	1392.412	-170.435	252.672	1434.157	-175.991	330.543	1347.209	-208.334	282.497	1203.029	-210.750	273.155	926.861
-251.233	287.030	1393.563	-170.292	252.363	1435.271	-175.952	330.002	1348.272	-208.405	282.405	1204.071	-210.566	273.143	927.622
-251.229	286.857	1394.531	-170.202	252.476	1436.422	-176.058	329.477	1349.294	-208.386	282.253	1205.118	-210.520	273.023	928.544
-251.088	286.724	1395.225	-170.017	252.109	1437.465	-176.147	329.249	1350.019	-208.425	282.097	1206.242	-210.436	272.926	929.237
-251.077	286.399	1395.731	-169.786	252.155	1438.457	-176.175	329.075	1350.513	-208.483	281.728	1207.061	-210.316	273.029	930.039
-251.081	286.153	1396.276	-169.889	251.845	1438.840	-176.227	328.877	1351.212	-208.367	281.294	1207.703	-210.356	272.970	930.770
-251.114	285.890	1396.733	-169.958	251.847	1439.375	-176.284	328.903	1351.963	-208.399	281.087	1208.512	-210.293	273.046	931.437
-251.086	285.696	1397.242	-169.820	251.488	1439.945	-176.315	328.631	1352.357	-208.320	280.754	1209.035	-210.217	272.919	931.966
-251.121	285.461	1397.681	-169.787	251.156	1440.408	-176.073	328.034	1352.811	-208.176	280.688	1209.686	-210.130	272.786	932.308
-250.818	284.596	1398.009	-169.743	250.773	1440.760	-176.261	328.340	1353.648	-208.003	280.484	1210.089	-210.163	272.815	932.724
-250.860	284.194	1398.441	-169.742	250.302	1440.951	-176.222	328.172	1354.237	-207.949	280.533	1210.337	-210.107	272.805	932.883
-250.845	284.004	1398.674	-169.762	250.065	1440.998	-176.245	327.985	1354.650	-207.846	280.576	1210.545	-210.146	272.808	933.115
-250.954	283.579	1398.822	-169.768	249.723	1441.056	-176.289	327.841	1354.925	-207.878	280.679	1210.571	-210.103	272.942	933.136
-250.964	283.560	1398.805	-169.811	249.381	1440.923	-176.211	327.720	1355.240	-207.886	280.818	1210.713	-210.164	273.193	933.140
-250.968	283.381	1398.663	-169.917	249.114	1440.816	-176.194	327.650	1355.275	-207.909	281.035	1210.565	-210.207	273.312	933.054
-250.916	283.095	1398.353	-170.014	248.792	1440.650	-176.202	327.661	1355.484	-208.015	281.243	1210.321	-210.199	273.530	932.859
-250.963	283.219	1398.162	-170.089	248.647	1440.354	-176.184	327.538	1355.222	-208.202	281.247	1210.110	-210.240	273.644	932.700
-251.063	283.134	1397.564	-170.169	248.085	1439.797	-176.098	327.449	1355.002	-208.306	281.355	1209.738	-210.221	273.634	932.409
-251.252	283.263	1397.115	-170.266	247.808	1439.266	-176.124	327.497	1354.647	-208.600	281.263	1209.045	-210.280	273.840	932.032
-251.418	283.165	1396.535	-170.425	247.441	1438.726	-176.198	327.313	1354.203	-208.514	281.243	1208.668	-210.237	273.819	931.554
-251.495	283.110	1396.118	-170.443	247.135	1438.074	-176.149	327.278	1353.627	-208.414	280.923	1207.964	-210.190	273.727	930.959
-251.542	282.719	1395.559	-170.566	246.668	1437.278	-176.178	327.017	1352.845	-208.187	280.373	1207.209	-210.100	273.774	930.270
-251.674	282.522	1394.956	-170.747	246.280	1436.548	-176.306	326.879	1351.913	-208.155	279.865	1206.472	-210.034	273.715	929.557
-251.761	282.077	1394.235	-170.849	245.768	1435.818	-176.414	326.456	1351.041	-208.079	279.380	1205.619	-210.015	273.681	928.668
-251.729	281.357	1393.276	-170.836	245.526	1435.264	-176.448	325.944	1350.039	-207.929	278.939	1204.649	-209.990	273.648	928.017
-251.782	280.796	1392.199	-170.979	245.467	1434.213	-176.612	325.532	1349.037	-207.861	278.427	1203.512	-209.927	273.461	927.056
-251.795	280.245	1391.183	-171.055	245.093	1433.171	-176.660	325.166	1348.202	-207.910	277.956	1202.290	-209.814	273.358	926.081
-251.786	279.906	1390.083	-171.148	245.149	1432.190	-176.625	324.654	1346.959	-207.876	277.649	1201.108	-209.747	273.198	924.698
-251.669	279.594	1388.664	-171.346	244.990	1431.129	-176.723	324.156	1345.458	-208.006	277.452	1199.924	-209.786	273.322	923.222
-252.047	279.543	1386.830	-171.468	244.965	1429.837	-176.904	323.775	1343.900	-208.175	276.945	1198.579	-209.961	273.343	921.517
-252.379	279.163	1384.974	-171.584	244.726	1428.481	-176.884	323.234	1342.403	-208.129	276.697	1197.250	-209.896	273.492	920.217
-252.283	278.357	1383.528	-171.621	243.758	1426.893	-177.092	322.971	1341.133	-208.187	276.283	1195.774	-209.860	273.624	918.826
-252.459	277.866	1382.199	-171.865	243.686	1425.319	-177.173	322.332	1339.833	-208.347	275.642	1193.875	-209.830	273.341	917.190
-252.553	277.831	1380.775	-172.023	243.305	1423.755	-176.945	321.538	1337.987	-208.488	275.205	1192.030	-209.780	273.270	915.700
-252.761	277.350	1378.734	-172.296	243.051	1422.404	-177.126	321.311	1336.006	-208.421	274.913	1190.348	-209.935	273.292	914.036
-252.739	276.835	1376.819	-172.627	242.735	1420.955	-177.346	321.169	1334.115	-208.561	274.755	1188.628	-210.034	272.955	911.947
-252.672	275.899	1374.368	-172.893	242.168	1419.498	-177.326	320.706	1332.363	-208.450	274.603	1187.279	-209.802	272.878	909.715
-253.110	275.765	1372.629	-173.266	242.286	1417.351	-177.476	320.115	1330.808	-208.492	274.071	1185.235	-209.853	272.948	907.906
-253.326	275.651	1370.433	-173.464	242.014	1415.270	-177.389	319.659	1328.531	-208.445	273.661	1183.141	-209.756	272.777	905.869
-253.491	275.159	1368.448	-173.691	241.719	1412.803	-177.596	319.184	1325.822	-208.499	273.636	1180.616	-209.928	272.615	903.699
-253.606	274.324	1366.118	-173.863	240.681	1411.276	-177.674	318.797	1324.024	-208.580	273.097	1178.450	-209.811	272.618	901.771
-253.664	273.844	1363.353	-174.147	240.323	1408.968	-177.725	318.238	1322.235	-208.716	272.912	1176.313	-209.833	272.483	899.525
-254.080	273.737	1360.758	-174.320	239.959	1406.630	-177.692	317.838	1320.592	-208.837	272.750	1174.302	-209.833	272.562	896.938
-254.376	273.155	1358.892	-174.695	239.177	1403.947	-177.944	317.408	1317.697	-208.978	272.631	1171.864	-210.123	272.814	894.888
-254.493	272.430	1356.803	-174.865	238.508	1401.694	-178.097	316.885	1315.292	-209.242	271.917	1168.827	-210.083	272.681	892.480
-254.466	272.026	1354.067	-175.238	238.208	1399.404	-178.150	316.276	1313.046	-209.435	271.427	1166.421	-210.329	272.535	889.828
-254.867	271.160	1350.723	-175.484	237.956	1397.253	-178.357	315.975	1310.574	-209.626	271.522	1164.304	-210.321	272.649	887.353
-255.154	270.817	1348.457	-175.943	237.377	1395.125	-178.680	315.347	1307.771	-209.704	271.152	1162.099	-210.422	272.308	884.695
-255.275	270.489	1345.870	-176.147	236.815	1392.176	-178.697	314.203	1305.137	-209.715	270.130	1159.088	-210.138	272.156	882.160
-255.518	269.730	1343.198	-176.401	235.915	1389.266	-178.691	313.176	1302.427	-209.710	269.335	1156.183	-210.158	271.797	879.466
-255.614	268.413	1339.913	-176.698	235.776	1387.010	-178.871	312.542	1299.240	-209.585	268.646	1153.579	-210.305	271.642	876.691
-256.065	268.122	1337.436	-176.982	235.331	1384.703	-179.034	312.163	1296.782	-209.618	268.035	1150.682	-210.264	271.410	873.737
-256.174	267.877	1334.557	-177.297	234.766	1381.557	-179.117	311.080	1293.853	-209.697	267.354	1147.841	-210.204	271.414	871.067
-256.264	266.758	1331.720	-177.853	234.119	1378.365	-179.339	310.560	1290.405	-209.792	266.309	1144.267	-210.141	271.275	868.222
-256.370	266.134	1327.762	-178.117	233.937	1376.472	-179.448	310.049	1288.068	-210.052	266.021	1141.747	-210.302	271.026	865.028
-256.773	265.823	1324.959	-178.437	233.580	1373.762	-179.559	309.119	1285.510	-210.176	266.001	1139.384	-210.249	270.923	862.031
-256.893	265.108	1322.291	-178.888	233.347	1370.860	-179.533	308.688	1281.832	-210.368	265.271	1136.149	-210.337	270.696	859.123
-257.006	264.690	1318.499	-179.270	232.474	1367.529	-179.630	308.248	1278.687	-210.662	265.002	1132.873	-210.626	270.649	856.256
-257.146	264.103	1314.885	-179.648	232.444	1364.667	-179.455	307.797	1276.086	-210.949	264.844	1129.825	-210.488	270.586	852.900
-257.272	264.508	1312.189	-179.981	232.073	1361.934	-179.570	308.155	1272.943	-210.937	265.355	1126.679	-210.605	270.946	849.757
-257.769	264.480	1309.460	-180.321	231.680	1358.509	-179.482	307.944	1270.328	-211.017	264.889	1123.501	-210.708	270.935	846.925
-257.558	263.983	1305.649	-180.656	231.559	1355.305	-179.435	307.452	1267.540	-211.105	264.762	1120.324	-210.554	271.086	844.131
-257.894	264.728	1302.141	-181.045	231.421	1353.022	-179.486	307.943	1264.257	-210.949	265.313	1117.405	-210.739	270.788	840.585
-258.200	264.842	1299.609	-181.281	231.597	1349.857	-179.351	307.667	1261.706	-211.056	265.534	1114.747	-210.901	270.831	837.304
-257.992	264.369	1295.366	-181.873	231.276	1346.696	-179.267	307.354	1258.039	-211.213	265.294	1111.194	-210.734	270.975	834.494
-258.203	264.253	1291.987	-182.081	231.161	1343.403	-179.115	307.110	1254.853	-211.250	265.017	1107.987	-210.744	271.068	831.429
-258.424	264.693	1289.869	-182.317	231.146	1340.833	-179.017	306.534	1252.344	-211.390	264.948	1105.015	-210.862	270.704	827.970
-258.500	264.619	1286.533	-182.750	231.129	1338.181	-178.994	306.760	1248.880	-211.389	264.700	1101.805	-210.701	270.724	824.577
-258.549	263.676	1282.652	-183.083	230.947	1334.664	-179.014	306.018	1245.543	-211.535	263.890	1098.312	-210.790	271.034	822.169
-258.631	264.171	1279.409	-183.242	231.020	1331.696	-178.975	305.389	1242.460	-211.568	263.338	1095.318	-210.727	270.892	819.125
-258.829	263.652	1276.880	-183.568	230.904	1329.598	-179.035	305.104	1239.047	-211.521	263.414	1092.629	-210.636	270.541	815.641
-258.731	262.996	1273.647	-183.706	231.027	1326.949	-178.806	303.970	1236.083	-211.434	262.867	1089.850	-210.568	270.363	812.215
-258.685	262.756	1269.719	-183.797	230.911	1323.747	-178.727	303.261	1232.727	-211.485	262.300	1086.341	-210.460	270.609	809.995
-258.868	262.682	1267.252	-184.069	230.716	1320.885	-178.672	302.811	1229.185	-211.225	261.727	1083.145	-210.389	270.446	806.969
-258.912	262.412	1264.867	-184.379	230.678	1318.421	-178.595	302.632	1226.866	-211.100	261.633	1080.656	-210.324	270.277	803.811
-258.904	261.710	1260.877	-184.377	230.867	1315.672	-178.640	302.223	1223.850	-211.282	261.781	1077.811	-210.249	270.149	800.129
-258.722	261.068	1257.953	-184.573	230.201	1312.512	-178.536	301.658	1220.475	-211.482	261.393	1074.747	-210.351	270.534	798.043
-258.801	261.393	1255.895	-184.837	230.268	1310.090	-178.286	301.221	1218.379	-211.406	260.939	1071.945	-210.349	270.745	795.864
-258.926	261.410	1252.856	-185.198	230.145	1308.012	-178.113	300.957	1216.243	-211.297	260.855	1069.210	-210.393	270.545	792.782
-258.875	260.708	1249.607	-185.192	230.292	1305.990	-178.012	300.859	1212.917	-211.377	260.880	1067.413	-210.324	270.333	789.647
-258.627	260.528	1246.913	-185.277	230.090	1303.208	-177.834	300.635	1210.059	-211.330	261.065	1064.850	-210.216	270.014	786.995
-258.827	260.983	1244.526	-185.475	230.054	1300.424	-177.740	299.897	1207.940	-211.321	260.544	1062.033	-210.240	270.416	785.516
-258.787	261.008	1242.705	-185.656	230.122	1298.448	-177.471	300.224	1205.468	-211.204	260.287	1059.505	-210.092	270.509	783.193
-258.669	261.151	1240.603	-185.764	230.243	1296.438	-177.451	300.308	1203.345	-210.883	260.402	1057.194	-210.002	270.412	781.039
-258.547	261.137	1237.512	-185.954	230.527	1294.501	-177.112	300.122	1201.545	-211.151	260.740	1055.303	-210.198	270.196	778.099
-258.522	260.995	1234.992	-186.038	230.630	1292.630	-177.000	299.978	1199.716	-211.132	260.980	1053.509	-210.244	270.248	775.713
-258.503	261.783	1233.574	-186.179	230.702	1290.557	-176.714	300.072	1197.474	-211.367	261.024	1051.390	-210.290	270.583	774.050
-258.546	262.206	1232.098	-186.111	231.080	1288.618	-176.793	300.500	1195.399	-211.226	260.908	1049.516	-210.468	270.790	772.712
-258.393	262.563	1230.178	-186.199	231.668	1287.173	-176.482	300.497	1194.005	-211.109	260.992	1047.676	-210.334	270.897	771.473
-258.164	262.383	1228.002	-186.460	232.009	1285.853	-176.182	300.382	1192.628	-211.080	260.992	1046.168	-210.428	270.911	769.841
-257.981	262.555	1226.387	-186.648	232.225	1284.623	-175.824	300.715	1191.259	-210.800	261.255	1044.911	-210.415	270.822	768.106
-257.882	262.636	1224.936	-186.498	232.693	1283.726	-175.776	300.816	1189.213	-210.659	261.538	1043.680	-210.435	270.660	766.618
-258.062	263.586	1224.173	-186.512	233.304	1282.689	-175.743	300.958	1187.746	-210.826	261.977	1042.592	-210.456	270.699	765.005
-257.866	264.419	1223.021	-186.588	233.866	1281.688	-175.537	301.142	1186.650	-210.784	262.137	1041.565	-210.465	270.783	763.897
-257.984	264.794	1222.265	-186.655	234.432	1280.982	-175.347	301.172	1185.879	-210.838	262.449	1040.413	-210.484	270.946	763.013
-257.891	265.191	1221.699	-186.658	234.823	1280.323	-175.156	301.450	1185.293	-211.049	262.622	1039.632	-210.573	270.767	762.424
-257.885	265.742	1221.303	-186.643	235.165	1279.646	-175.083	301.685	1184.703	-211.106	262.823	1039.200	-210.383	270.820	761.947
-257.821	266.185	1220.908	-186.593	235.723	1279.149	-175.031	301.964	1184.301	-210.885	262.981	1038.645	-210.430	270.769	761.329
-257.771	266.461	1220.451	-186.686	236.192	1278.820	-174.925	302.409	1184.184	-210.856	263.328	1038.184	-210.476	271.052	761.149
-257.792	266.911	1220.259	-186.631	236.668	1278.708	-174.828	302.844	1183.979	-210.918	263.661	1038.022	-210.456	271.091	760.986
-257.740	267.358	1220.124	-186.682	237.009	1278.558	-174.617	303.276	1183.950	-210.878	263.912	1037.940	-210.495	271.154	760.886
-257.688	267.740	1220.206	-186.721	237.508	1278.733	-174.550	303.718	1183.969	-210.876	264.288	1038.121	-210.578	271.331	760.922
-257.696	268.262	1220.378	-186.722	238.061	1279.092	-174.543	304.289	1184.299	-210.967	264.692	1038.435	-210.553	271.296	761.125
-257.633	268.797	1220.735	-186.724	238.579	1279.464	-174.625	304.596	1184.539	-211.028	265.089	1038.872	-210.583	271.181	761.400
-257.631	269.386	1221.270	-186.716	239.170	1279.924	-174.653	305.027	1185.174	-210.951	265.546	1039.337	-210.557	271.477	762.135
-257.701	270.178	1222.154	-186.781	239.609	1280.679	-174.666	305.463	1185.706	-210.871	265.895	1040.085	-210.511	271.497	762.660
-257.828	270.982	1223.149	-186.784	240.197	1281.423	-174.621	306.048	1186.432	-210.767	266.260	1040.808	-210.712	271.588	763.174
-257.798	271.362	1223.887	-186.719	240.446	1282.313	-174.651	306.509	1187.201	-210.928	266.676	1041.828	-210.646	271.768	764.048
-257.857	271.715	1224.579	-186.815	240.628	1283.284	-174.789	307.131	1188.227	-210.876	267.116	1042.858	-210.670	271.862	765.291
-257.849	272.037	1225.767	-186.765	240.993	1284.364	-174.889	307.906	1189.451	-210.836	267.263	1043.753	-210.749	271.966	766.748
-257.869	272.511	1226.962	-186.847	241.537	1285.600	-175.099	308.489	1190.906	-210.968	267.469	1045.229	-210.774	272.263	768.484
-257.839	272.580	1228.708	-186.692	241.832	1287.104	-175.238	309.188	1192.277	-211.126	267.918	1046.784	-210.784	272.574	770.255
-258.012	273.174	1230.607	-186.641	242.373	1288.741	-175.338	309.858	1194.273	-211.286	268.361	1048.403	-210.755	272.638	771.913
-258.072	274.086	1232.880	-186.505	243.221	1290.331	-175.411	310.165	1196.147	-211.388	268.970	1050.356	-210.637	272.499	773.205
-258.267	274.642	1234.851	-186.558	243.798	1292.272	-175.717	310.531	1197.822	-211.445	269.498	1052.075	-210.706	272.391	774.308
-258.485	275.650	1236.877	-186.474	244.120	1294.050	-175.954	311.135	1199.398	-211.553	269.832	1054.177	-210.781	272.155	776.264
-258.468	275.737	1238.802	-186.307	244.645	1296.102	-176.174	311.815	1201.414	-211.471	269.916	1056.278	-210.781	272.442	778.932
-258.562	275.683	1240.895	-186.304	245.154	1298.478	-176.250	312.542	1204.183	-211.627	270.372	1058.405	-210.888	272.751	781.906
-258.641	276.742	1244.036	-186.156	245.729	1300.943	-176.489	312.801	1206.535	-211.823	270.893	1061.098	-210.913	273.181	784.380
-258.744	277.767	1247.016	-186.127	246.651	1303.533	-176.791	313.401	1208.559	-212.067	271.655	1063.775	-211.008	272.669	786.274
-258.984	277.942	1249.605	-186.033	247.054	1305.729	-177.103	314.339	1210.691	-212.012	271.854	1066.391	-211.180	272.707	788.643
-259.044	278.292	1251.766	-185.980	247.308	1308.092	-177.195	314.963	1213.269	-212.049	272.075	1068.927	-211.161	273.029	791.713
-258.985	278.989	1254.925	-185.765	247.639	1310.843	-177.510	315.498	1216.828	-212.326	272.592	1071.829	-211.297	273.357	795.047
-259.263	279.702	1258.604	-185.688	248.321	1313.857	-177.798	316.532	1219.539	-212.587	273.469	1074.883	-211.373	273.337	797.745
-259.389	280.167	1261.246	-185.715	249.044	1316.560	-177.965	317.215	1222.417	-212.613	273.797	1077.529	-211.408	272.929	799.939
-259.098	280.572	1264.165	-185.583	249.300	1319.392	-178.187	317.621	1225.893	-212.457	274.146	1080.518	-211.533	272.866	803.363
-259.404	281.417	1268.440	-185.448	249.938	1322.398	-178.365	318.655	1228.908	-212.657	274.390	1083.240	-211.680	273.471	807.216
-259.782	282.555	1271.699	-185.445	251.142	1325.956	-178.588	319.678	1231.622	-212.839	275.261	1086.904	-211.939	273.629	810.303
-259.613	283.009	1274.574	-185.349	251.276	1328.920	-178.924	319.692	1235.076	-212.994	275.900	1090.180	-211.970	273.359	812.708
-259.649	283.413	1278.329	-185.160	251.640	1332.022	-179.062	321.131	1238.304	-213.077	276.200	1093.912	-212.189	273.749	816.927
-259.692	284.403	1281.985	-185.028	252.626	1335.773	-179.161	321.774	1242.214	-213.279	276.778	1096.938	-212.152	273.896	820.867
-259.890	284.736	1285.719	-184.888	253.004	1338.644	-179.474	322.508	1245.797	-213.301	277.435	1100.463	-212.235	273.763	823.742
-259.857	285.353	1289.073	-184.727	253.598	1342.047	-179.765	323.596	1248.648	-213.280	277.880	1104.444	-212.325	273.442	826.821
-260.061	286.201	1293.550	-184.412	254.366	1345.533	-179.899	324.354	1253.006	-213.515	278.286	1107.728	-212.414	273.960	831.218
-260.108	286.903	1296.750	-184.247	254.977	1349.619	-180.049	324.896	1256.087	-213.620	279.043	1111.780	-212.599	274.131	834.979
-259.653	287.235	1300.827	-184.134	255.317	1352.755	-180.152	325.398	1259.445	-213.653	279.863	1115.772	-212.521	273.782	837.759
-259.965	287.804	1304.915	-183.816	255.746	1356.217	-180.331	326.017	1263.617	-213.712	279.896	1118.906	-212.602	274.265	842.165
-259.968	288.683	1308.347	-183.798	256.566	1360.132	-180.779	326.863	1266.884	-213.695	280.272	1122.619	-212.681	274.613	846.236
-259.957	288.850	1312.763	-183.358	256.342	1363.027	-180.841	327.401	1271.156	-213.972	280.603	1126.492	-212.608	274.455	849.342
-259.859	289.251	1316.975	-183.141	256.745	1366.716	-180.981	328.131	1274.751	-213.773	281.114	1130.464	-212.749	274.368	853.391
-260.245	289.391	1320.516	-182.911	257.163	1370.927	-181.150	328.243	1279.000	-213.911	281.491	1134.209	-212.725	274.723	857.660
-259.962	289.583	1324.454	-182.717	256.797	1374.170	-181.368	328.706	1282.159	-213.834	282.185	1138.229	-212.748	274.884	861.332
-260.139	289.782	1328.930	-182.557	256.941	1377.723	-181.758	329.336	1286.026	-213.977	282.129	1142.200	-212.904	274.686	864.882
-259.917	289.646	1332.354	-182.510	257.150	1381.910	-181.920	329.740	1290.344	-213.991	282.072	1145.566	-212.800	275.162	869.220
-259.930	289.519	1336.919	-182.040	257.019	1385.122	-182.073	329.878	1294.076	-214.042	282.675	1149.745	-212.918	275.061	872.922
-259.896	289.718	1340.510	-181.792	256.846	1388.597	-182.250	330.181	1298.102	-214.198	282.692	1153.402	-212.766	274.679	876.338
-259.806	289.688	1344.134	-181.529	257.117	1392.260	-182.477	330.521	1301.523	-214.149	282.714	1157.220	-212.840	275.096	880.923
-259.687	289.257	1348.919	-181.110	256.843	1396.130	-182.656	330.185	1305.412	-214.228	282.939	1161.315	-212.994	275.268	884.346
-259.735	289.588	1352.631	-180.788	256.617	1399.305	-182.854	330.493	1309.051	-214.220	283.106	1165.354	-213.084	275.072	887.835
-259.487	288.978	1356.291	-180.670	256.642	1403.292	-183.030	330.574	1313.632	-214.191	282.728	1168.250	-212.869	275.279	892.005
-259.537	288.744	1360.423	-180.338	256.753	1406.345	-183.353	330.972	1316.568	-214.216	283.139	1172.261	-212.812	275.605	895.793
-259.629	288.657	1364.336	-179.876	256.141	1409.899	-183.306	330.845	1320.897	-214.091	283.168	1176.313	-213.029	275.281	899.314
-259.337	288.239	1367.608	-179.640	255.481	1413.148	-183.571	330.810	1323.802	-214.088	282.677	1179.701	-212.880	275.163	902.676
-259.438	288.141	1371.963	-179.266	255.813	1416.856	-183.571	330.259	1327.793	-214.188	282.929	1183.460	-212.837	275.411	906.555
-259.314	288.088	1375.022	-179.108	255.232	1419.849	-183.684	330.184	1330.565	-214.077	283.077	1187.094	-212.914	275.264	910.035
-259.150	286.984	1379.058	-178.634	254.703	1423.247	-183.875	330.364	1334.766	-214.231	282.469	1190.239	-213.042	275.193	913.282
-259.007	287.128	1382.459	-178.632	254.794	1426.423	-183.968	330.215	1337.739	-214.167	282.188	1193.484	-212.943	275.138	917.162
-258.962	286.644	1385.405	-178.051	254.350	1429.536	-184.200	329.955	1341.247	-214.136	282.139	1197.220	-212.911	275.333	920.268
-258.789	285.927	1388.494	-177.713	253.669	1432.694	-184.156	329.731	1344.606	-214.156	282.194	1200.453	-213.252	274.910	923.339
-258.723	285.801	1392.569	-177.645	253.779	1435.734	-184.260	329.497	1347.021	-214.198	281.681	1203.197	-213.153	274.916	926.493
-258.642	285.391	1395.332	-177.306	253.309	1438.654	-184.219	329.209	1350.502	-214.084	281.684	1206.310	-213.109	274.825	929.515
-258.496	284.885	1397.723	-177.132	252.903	1441.473	-184.409	329.254	1353.374	-214.078	281.760	1209.799	-213.518	274.831	932.672
-258.421	284.264	1401.319	-176.873	252.475	1444.391	-184.406	329.238	1356.938	-214.167	281.312	1212.627	-213.503	274.737	935.449
-258.482	284.336	1404.210	-176.773	252.010	1446.983	-184.555	329.086	1359.755	-214.058	280.909	1214.735	-213.534	274.589	938.197
-258.223	283.756	1406.758	-176.603	251.421	1448.849	-184.675	329.202	1362.188	-213.985	280.861	1217.461	-213.528	274.571	940.843
-258.158	283.219	1408.986	-176.460	250.782	1451.459	-184.353	328.932	1365.405	-214.027	280.932	1220.571	-213.689	274.548	943.593
-258.178	283.319	1412.012	-176.305	250.406	1454.186	-184.505	329.240	1368.257	-214.031	281.110	1223.038	-213.772	274.258	946.166
-258.147	283.066	1414.775	-176.059	249.856	1456.423	-184.323	329.005	1370.845	-213.966	281.047	1225.390	-214.039	274.232	948.933
-257.989	282.687	1416.770	-175.982	249.138	1458.121	-184.317	328.900	1373.904	-214.016	281.019	1227.895	-214.076	274.208	951.164
-257.893	282.122	1418.568	-175.647	247.861	1459.938	-184.316	329.230	1376.192	-214.057	281.105	1230.145	-214.184	273.944	953.220
-257.736	281.907	1421.671	-175.829	247.834	1461.623	-184.324	329.634	1378.996	-214.051	281.681	1232.541	-214.472	273.967	955.411
-257.863	282.075	1424.015	-175.557	247.445	1463.551	-184.164	329.618	1381.757	-213.892	281.676	1234.532	-214.588	274.337	957.439
-257.871	281.979	1425.671	-175.461	246.989	1465.873	-184.318	329.857	1383.891	-213.801	281.115	1236.492	-214.775	274.213	959.562
-257.732	281.977	1427.255	-175.359	246.384	1467.312	-184.227	329.590	1385.500	-213.783	280.803	1238.198	-214.934	274.172	961.588
-257.725	281.519	1429.051	-175.151	245.795	1468.434	-184.005	329.723	1388.228	-213.714	280.551	1239.744	-214.911	274.068	963.205
-257.614	281.209	1430.859	-174.956	245.095	1469.682	-184.109	329.959	1390.329	-213.655	280.010	1241.622	-214.829	273.695	964.754
-257.562	281.233	1432.865	-174.718	244.415	1470.866	-184.114	330.297	1391.976	-213.654	279.708	1243.545	-214.737	273.449	966.274
-257.409	281.378	1434.642	-174.474	243.644	1472.120	-184.182	330.078	1393.145	-213.500	279.497	1244.887	-214.725	273.097	968.044
-257.294	280.772	1436.286	-174.437	243.407	1473.247	-184.064	329.633	1394.646	-213.654	279.424	1246.320	-214.797	272.964	969.924
-257.268	280.428	1437.319	-174.399	243.671	1474.288	-183.928	329.199	1395.957	-213.694	279.272	1247.473	-214.835	272.794	971.057
-257.197	280.248	1438.231	-174.267	243.671	1475.523	-184.135	329.247	1397.234	-213.654	278.946	1248.692	-214.801	272.658	972.113
-257.182	280.123	1439.061	-174.179	243.905	1476.793	-184.244	329.291	1398.271	-213.580	278.667	1249.593	-214.961	272.583	973.078
-257.022	279.470	1439.788	-174.049	243.682	1477.854	-184.343	329.421	1399.212	-213.456	278.339	1250.639	-215.162	272.598	973.999
-256.817	279.393	1440.622	-173.732	243.037	1478.537	-184.286	329.442	1399.972	-213.435	278.150	1251.326	-215.187	272.531	974.802
-256.747	279.293	1441.505	-173.537	242.650	1479.280	-184.325	329.143	1400.889	-213.419	278.117	1251.997	-215.235	272.440	975.319
-256.614	278.875	1442.567	-173.375	242.295	1479.808	-184.349	328.794	1401.340	-213.528	277.954	1252.637	-215.313	272.307	975.864
-256.778	278.852	1443.365	-173.279	242.172	1480.072	-184.317	328.630	1401.846	-213.551	277.720	1253.147	-215.554	272.203	976.250
-256.748	278.722	1443.723	-173.236	242.158	1480.221	-184.327	328.378	1402.160	-213.742	277.710	1253.495	-215.611	272.103	976.619
-256.698	278.371	1443.861	-173.136	242.158	1480.448	-184.346	328.319	1402.411	-213.726	277.532	1253.671	-215.687	272.038	976.796
-256.773	278.397	1444.114	-173.035	242.010	1480.477	-184.319	328.219	1402.462	-213.921	277.515	1253.830	-215.792	271.992	976.880
-256.667	278.108	1444.047	-173.054	241.963	1480.483	-184.298	328.040	1402.402	-213.879	277.193	1253.705	-215.856	271.747	976.808
-256.624	277.920	1443.753	-172.994	241.864	1480.358	-184.299	328.037	1402.299	-213.984	277.145	1253.661	-216.058	271.626	976.727
-256.543	277.735	1443.426	-173.041	241.750	1480.133	-184.232	327.901	1402.023	-213.925	276.924	1253.400	-216.061	271.556	976.352
-256.468	278.041	1443.178	-173.062	241.649	1479.948	-184.201	327.788	1401.617	-213.930	276.810	1253.024	-216.139	271.450	976.055
-256.423	277.543	1442.401	-173.023	241.421	1479.598	-184.175	327.781	1401.185	-213.820	276.491	1252.367	-216.032	271.377	975.619
-256.333	277.430	1441.557	-173.067	241.433	1479.219	-184.096	327.654	1400.496	-213.762	276.617	1251.798	-216.108	271.182	975.045
-256.311	277.602	1440.365	-173.030	241.712	1478.417	-184.086	327.646	1399.539	-213.627	276.610	1251.028	-216.117	271.165	974.517
-256.429	277.520	1439.418	-173.377	242.115	1477.617	-183.964	327.598	1398.553	-213.482	276.685	1250.279	-216.200	270.950	973.683
-256.409	277.310	1438.349	-173.280	241.591	1476.371	-183.907	326.990	1397.414	-213.384	276.867	1249.380	-216.164	270.921	972.794
-256.647	277.818	1437.785	-173.266	241.381	1475.011	-183.870	326.929	1396.564	-213.426	276.928	1248.333	-216.240	270.872	971.680
-256.592	277.823	1436.807	-173.338	241.429	1473.836	-183.654	327.038	1395.644	-213.356	276.931	1247.134	-216.244	270.864	970.676
-256.590	277.684	1435.821	-173.430	241.008	1472.515	-183.576	327.218	1394.436	-213.339	276.873	1245.793	-216.212	270.733	969.391
-256.536	277.566	1434.624	-173.350	240.633	1471.736	-183.641	327.250	1393.129	-213.209	276.784	1244.482	-216.073	270.543	967.814
-256.583	277.836	1432.495	-173.555	240.967	1470.358	-183.627	327.420	1391.550	-213.305	276.661	1243.277	-216.013	270.518	966.090
-256.586	277.421	1430.609	-173.779	241.361	1468.998	-183.474	327.099	1390.193	-213.341	276.137	1241.554	-216.062	270.542	964.647
-256.457	276.904	1428.471	-173.951	241.632	1467.833	-183.350	326.609	1388.691	-213.360	275.866	1239.687	-216.149	270.633	963.054
-256.741	277.473	1427.150	-174.002	241.569	1465.976	-183.193	326.444	1387.008	-213.446	275.751	1237.982	-216.227	270.467	961.389
-256.654	277.809	1425.266	-174.136	241.497	1464.895	-183.274	326.291	1384.624	-213.265	275.507	1236.307	-216.196	270.409	959.525
-256.889	277.303	1423.586	-174.218	241.394	1462.657	-183.355	326.786	1383.056	-213.154	275.422	1234.552	-216.073	270.315	957.451
-256.775	276.997	1421.685	-174.351	241.361	1460.650	-183.235	326.384	1381.250	-213.102	275.072	1232.579	-215.776	269.977	955.365
-256.641	276.220	1418.998	-174.808	241.343	1458.546	-183.144	326.236	1379.499	-213.059	274.511	1230.412	-215.562	269.620	953.180
-256.891	276.901	1416.457	-174.668	240.411	1457.073	-183.193	325.950	1376.759	-212.901	274.342	1227.902	-215.471	269.747	951.457
-257.016	276.375	1414.352	-174.955	240.818	1454.866	-183.161	325.630	1374.466	-212.657	274.153	1226.043	-215.593	269.980	949.508
-257.095	275.809	1412.175	-175.188	240.809	1452.784	-183.169	325.028	1372.402	-212.627	274.131	1224.027	-215.447	269.952	946.950
-257.020	275.838	1409.350	-175.524	240.461	1450.235	-183.052	324.778	1370.298	-212.687	274.009	1221.159	-215.243	269.843	944.582
-257.267	275.258	1406.490	-175.672	239.606	1447.856	-183.105	324.860	1367.741	-212.716	273.855	1218.800	-215.155	269.786	941.702
-257.391	275.214	1404.301	-175.911	239.681	1445.117	-183.088	324.715	1365.602	-212.739	273.333	1215.828	-215.309	269.793	939.068
-257.394	275.335	1401.876	-176.189	239.961	1443.056	-182.962	323.950	1362.666	-212.930	273.405	1213.437	-215.418	270.002	936.802
-257.638	274.874	1399.204	-176.566	239.500	1441.208	-183.157	323.948	1360.055	-213.042	273.568	1211.078	-215.272	269.821	934.255
-257.664	274.132	1395.879	-176.667	238.654	1437.855	-183.169	323.634	1357.814	-213.193	273.242	1208.673	-215.192	269.410	931.331
-257.803	274.238	1392.672	-176.859	238.607	1435.049	-183.032	323.213	1355.546	-213.211	272.576	1205.575	-215.078	269.464	928.394
-258.001	273.857	1390.553	-177.136	238.357	1433.142	-183.123	322.517	1351.807	-213.266	272.360	1202.616	-215.167	269.495	925.864
