NO_OF_FRAMES	2500
NO_OF_CAMERAS	7
NO_OF_MARKERS	5
FREQUENCY	250
NO_OF_ANALOG	0
ANALOG_FREQUENCY	0
DESCRIPTION	--
TIME_STAMP	2012-02-07, 12:00:27	12089.55002389
DATA_INCLUDED	3D
MARKER_NAMES	cylinder_tip	cylinder_left	cylinder_right	weight_top	weight_low
-118.891	393.245	1251.949	-43.672	358.728	1304.577	-37.563	425.550	1208.922	-75.003	387.056	1069.602	-78.399	392.094	790.137
-118.987	393.447	1252.028	-43.685	358.692	1304.469	-37.614	425.665	1208.917	-75.016	387.042	1069.462	-78.381	392.064	790.015
-119.007	393.276	1251.902	-43.719	358.734	1304.420	-37.759	425.561	1208.729	-75.046	386.924	1069.237	-78.329	391.974	789.910
-118.965	393.332	1251.945	-43.849	358.748	1304.506	-37.733	425.512	1208.652	-75.204	386.987	1069.108	-78.320	391.976	789.956
-118.985	393.354	1251.928	-43.857	358.768	1304.336	-37.859	425.524	1208.540	-75.233	386.933	1069.051	-78.305	391.975	789.943
-119.046	393.276	1251.842	-43.878	358.756	1304.336	-37.908	425.499	1208.533	-75.242	386.780	1068.928	-78.313	391.915	789.884
-119.129	393.288	1251.805	-43.941	358.726	1304.399	-37.922	425.498	1208.508	-75.273	386.817	1068.801	-78.334	391.910	789.829
-119.008	393.190	1251.623	-44.016	358.779	1304.343	-38.000	425.469	1208.576	-75.370	386.704	1068.705	-78.142	391.830	789.643
-118.934	392.940	1251.556	-44.068	358.720	1304.303	-38.067	425.469	1208.484	-75.432	386.808	1068.888	-78.139	391.715	789.573
-118.919	392.943	1251.427	-44.123	358.786	1304.248	-38.105	425.544	1208.489	-75.482	386.755	1068.567	-78.181	391.784	789.472
-119.080	392.981	1251.439	-44.220	358.824	1304.187	-38.082	425.480	1208.408	-75.493	386.792	1068.465	-78.129	391.680	789.364
-119.009	392.897	1251.292	-44.321	358.886	1304.080	-38.155	425.569	1208.377	-75.526	386.662	1068.433	-78.137	391.694	789.334
-119.088	392.870	1251.277	-44.294	358.911	1304.098	-38.207	425.492	1208.239	-75.533	386.612	1068.270	-78.119	391.619	789.277
-119.081	392.918	1251.246	-44.386	358.920	1303.992	-38.269	425.564	1208.297	-75.517	386.717	1068.234	-78.071	391.504	789.153
-119.157	393.030	1251.203	-44.486	358.985	1303.909	-38.291	425.461	1208.186	-75.509	386.724	1068.179	-78.103	391.431	789.048
-119.162	392.986	1251.110	-44.495	359.005	1303.837	-38.312	425.698	1208.299	-75.595	386.543	1067.949	-78.070	391.454	789.056
-119.199	392.980	1251.088	-44.589	359.043	1303.790	-38.388	425.638	1208.167	-75.530	386.561	1067.939	-77.930	391.347	788.819
-119.239	393.011	1251.053	-44.604	359.098	1303.755	-38.392	425.566	1208.020	-75.554	386.561	1067.920	-78.016	391.384	788.871
-119.228	393.059	1250.976	-44.707	359.134	1303.684	-38.403	425.610	1208.047	-75.628	386.666	1067.858	-77.924	391.290	788.701
-119.235	392.986	1250.879	-44.527	359.273	1303.678	-38.471	425.651	1207.975	-75.589	386.694	1067.879	-77.810	391.156	788.630
-119.307	393.113	1250.900	-44.693	359.324	1303.557	-38.514	425.795	1207.906	-75.634	386.658	1067.799	-77.862	391.165	788.607
-119.362	393.266	1250.895	-44.748	359.386	1303.535	-38.562	425.727	1207.876	-75.673	386.650	1067.770	-77.811	391.138	788.528
-119.363	393.119	1250.722	-44.755	359.514	1303.438	-38.588	425.804	1207.869	-75.654	386.658	1067.646	-77.786	391.022	788.508
-119.395	393.394	1250.885	-44.785	359.529	1303.395	-38.543	425.792	1207.767	-75.647	386.557	1067.571	-77.748	391.056	788.439
-119.453	393.523	1250.869	-44.811	359.577	1303.274	-38.607	425.864	1207.803	-75.702	386.577	1067.495	-77.693	390.936	788.368
-119.409	393.463	1250.692	-44.866	359.652	1303.288	-38.610	425.903	1207.738	-75.650	386.524	1067.383	-77.723	390.900	788.249
-119.485	393.444	1250.745	-44.823	359.574	1303.189	-38.686	426.041	1207.781	-75.611	386.565	1067.298	-77.699	390.817	788.171
-119.503	393.487	1250.675	-44.864	359.526	1303.108	-38.666	426.027	1207.735	-75.662	386.592	1067.330	-77.657	390.780	788.060
-119.519	393.491	1250.649	-44.993	359.765	1303.093	-38.718	426.065	1207.683	-75.636	386.635	1067.273	-77.575	390.736	788.098
-119.572	393.669	1250.525	-44.907	359.704	1302.985	-38.674	425.949	1207.542	-75.646	386.622	1067.149	-77.529	390.712	788.009
-119.584	393.535	1250.515	-44.957	359.741	1303.022	-38.734	425.998	1207.539	-75.660	386.620	1067.099	-77.491	390.667	787.844
-119.644	393.753	1250.609	-45.014	359.823	1302.881	-38.743	426.134	1207.590	-75.636	386.676	1066.997	-77.497	390.649	787.850
-119.691	393.742	1250.501	-45.041	359.837	1302.874	-38.791	426.137	1207.510	-75.670	386.656	1067.029	-77.479	390.603	787.789
-119.707	393.787	1250.389	-45.109	360.019	1302.937	-38.830	426.200	1207.522	-75.674	386.789	1066.969	-77.415	390.550	787.761
-119.771	393.792	1250.424	-45.198	360.112	1302.853	-38.822	426.295	1207.570	-75.631	386.781	1066.888	-77.419	390.520	787.711
-119.736	393.838	1250.353	-45.131	359.970	1302.763	-38.740	426.305	1207.450	-75.635	386.826	1066.943	-77.371	390.455	787.682
-119.781	393.898	1250.339	-45.225	360.119	1302.721	-38.741	426.355	1207.472	-75.631	386.842	1066.854	-77.391	390.452	787.562
-119.795	393.905	1250.331	-45.288	360.166	1302.718	-38.789	426.404	1207.403	-75.630	386.865	1066.778	-77.329	390.481	787.679
-119.783	393.796	1250.229	-45.280	360.176	1302.695	-38.875	426.469	1207.309	-75.601	386.829	1066.734	-77.267	390.454	787.511
-119.807	393.882	1250.246	-45.327	360.278	1302.637	-38.901	426.449	1207.293	-75.612	386.723	1066.604	-77.279	390.428	787.613
-119.861	394.068	1250.277	-45.285	360.271	1302.643	-38.952	426.569	1207.380	-75.585	386.736	1066.543	-77.196	390.391	787.524
-119.876	393.986	1250.224	-45.361	360.362	1302.585	-39.012	426.780	1207.301	-75.666	386.682	1066.638	-77.178	390.276	787.528
-119.907	394.070	1250.231	-45.351	360.385	1302.603	-38.972	426.730	1207.304	-75.652	386.700	1066.584	-77.172	390.187	787.565
-119.905	394.049	1250.185	-45.389	360.494	1302.704	-39.107	426.739	1207.297	-75.594	386.669	1066.509	-77.134	390.203	787.545
-119.958	394.232	1250.321	-45.358	360.426	1302.570	-39.147	426.592	1207.173	-75.601	386.652	1066.527	-77.152	390.118	787.464
-119.919	394.226	1250.259	-45.375	360.555	1302.575	-39.176	427.024	1207.412	-75.637	386.783	1066.590	-77.104	390.103	787.526
-120.009	394.279	1250.218	-45.342	360.622	1302.614	-39.173	426.743	1207.170	-75.655	386.715	1066.581	-77.081	390.059	787.503
-119.968	394.249	1250.257	-45.420	360.658	1302.595	-39.184	426.785	1207.094	-75.649	386.832	1066.556	-77.027	390.000	787.503
-119.993	394.276	1250.248	-45.370	360.785	1302.641	-39.221	426.843	1207.100	-75.574	386.672	1066.532	-76.984	389.954	787.507
-120.001	394.261	1250.266	-45.408	360.772	1302.616	-39.181	426.831	1207.082	-75.674	386.819	1066.653	-76.992	389.933	787.421
-120.018	394.304	1250.270	-45.416	360.787	1302.712	-39.277	426.905	1207.089	-75.653	386.698	1066.539	-76.941	389.875	787.491
-120.043	394.294	1250.166	-45.398	360.942	1302.674	-39.262	426.953	1207.111	-75.630	386.804	1066.632	-76.895	389.789	787.457
-119.992	394.339	1250.278	-45.421	360.880	1302.723	-39.259	426.943	1207.065	-75.572	386.657	1066.492	-76.846	389.762	787.500
-120.115	394.421	1250.347	-45.535	361.043	1302.741	-39.312	426.929	1206.969	-75.664	386.733	1066.653	-76.846	389.679	787.513
-120.044	394.442	1250.290	-45.449	361.050	1302.763	-39.288	427.107	1207.087	-75.666	386.847	1066.659	-76.796	389.559	787.493
-120.092	394.456	1250.272	-45.450	361.147	1302.770	-39.343	427.095	1207.066	-75.646	386.696	1066.598	-76.721	389.480	787.485
-120.054	394.413	1250.256	-45.500	361.036	1302.707	-39.347	427.115	1207.052	-75.695	386.860	1066.651	-76.749	389.421	787.451
-120.081	394.461	1250.312	-45.457	361.144	1302.673	-39.369	427.112	1207.028	-75.632	386.690	1066.696	-76.665	389.371	787.460
-120.118	394.437	1250.240	-45.467	361.120	1302.685	-39.375	427.164	1207.056	-75.610	386.708	1066.644	-76.666	389.234	787.420
-120.152	394.523	1250.306	-45.502	361.211	1302.773	-39.388	427.211	1207.042	-75.615	386.891	1066.791	-76.586	389.154	787.506
-120.130	394.576	1250.295	-45.488	361.199	1302.699	-39.444	427.259	1207.031	-75.510	386.782	1066.637	-76.571	389.116	787.517
-120.086	394.549	1250.351	-45.485	361.304	1302.824	-39.454	427.343	1207.091	-75.604	386.801	1066.656	-76.462	389.034	787.543
-120.136	394.548	1250.289	-45.568	361.363	1302.744	-39.491	427.338	1207.059	-75.539	386.770	1066.634	-76.538	389.010	787.482
-120.173	394.743	1250.349	-45.560	361.408	1302.758	-39.536	427.433	1207.072	-75.554	386.865	1066.738	-76.413	388.913	787.541
-120.198	394.648	1250.303	-45.558	361.440	1302.802	-39.493	427.421	1207.149	-75.584	386.841	1066.677	-76.371	388.800	787.530
-120.220	394.695	1250.320	-45.530	361.376	1302.706	-39.556	427.473	1207.056	-75.602	386.830	1066.745	-76.256	388.736	787.554
-120.176	394.827	1250.374	-45.510	361.549	1302.893	-39.559	427.500	1207.046	-75.543	386.813	1066.771	-76.235	388.606	787.519
-120.223	394.906	1250.355	-45.596	361.769	1302.935	-39.581	427.538	1207.127	-75.594	386.920	1066.816	-76.236	388.538	787.674
-120.206	394.936	1250.368	-45.578	361.547	1302.815	-39.618	427.620	1207.117	-75.595	386.921	1066.891	-76.153	388.467	787.597
-120.239	394.934	1250.425	-45.591	361.759	1302.842	-39.617	427.693	1207.169	-75.537	386.932	1066.870	-76.131	388.342	787.713
-120.282	395.098	1250.483	-45.680	362.059	1303.059	-39.601	427.750	1207.099	-75.558	386.897	1066.855	-76.024	388.259	787.693
-120.312	395.071	1250.469	-45.611	361.853	1302.904	-39.640	427.923	1207.270	-75.519	387.053	1066.939	-76.011	388.243	787.721
-120.297	395.203	1250.490	-45.625	361.884	1302.912	-39.695	427.869	1207.094	-75.486	386.981	1066.926	-75.913	388.124	787.778
-120.356	395.224	1250.441	-45.589	361.994	1302.958	-39.701	427.947	1207.112	-75.492	386.970	1066.920	-75.832	387.964	787.742
-120.333	395.326	1250.565	-45.722	362.381	1303.150	-39.743	428.050	1207.182	-75.534	387.006	1066.973	-75.779	387.965	787.846
-120.375	395.358	1250.493	-45.747	362.379	1303.061	-39.734	428.017	1207.102	-75.489	387.002	1066.957	-75.755	387.839	787.794
-120.386	395.497	1250.583	-45.871	362.504	1303.100	-39.770	428.039	1207.053	-75.503	387.011	1066.946	-75.721	387.807	787.817
-120.452	395.636	1250.684	-45.834	362.554	1303.131	-39.842	428.116	1207.083	-75.492	387.040	1066.980	-75.644	387.683	787.915
-120.465	395.542	1250.669	-45.706	362.353	1302.970	-39.863	428.118	1206.987	-75.507	387.030	1066.920	-75.609	387.551	787.869
-120.455	395.716	1250.672	-45.783	362.652	1303.170	-39.962	428.202	1206.970	-75.503	387.033	1066.958	-75.555	387.499	787.938
-120.466	395.665	1250.621	-45.796	362.784	1303.165	-39.918	428.207	1206.993	-75.517	386.902	1066.916	-75.523	387.330	787.922
-120.486	395.664	1250.601	-45.832	362.761	1303.157	-39.984	428.318	1206.938	-75.502	386.996	1066.983	-75.493	387.280	787.897
-120.533	395.706	1250.627	-45.840	362.862	1303.258	-39.999	428.377	1206.934	-75.493	386.893	1066.998	-75.454	387.086	787.885
-120.536	395.707	1250.629	-45.853	362.868	1303.144	-40.039	428.301	1206.883	-75.553	386.841	1066.936	-75.396	387.051	787.902
-120.569	395.662	1250.604	-45.834	362.911	1303.130	-40.044	428.248	1206.744	-75.495	386.872	1066.929	-75.402	386.992	787.882
-120.561	395.752	1250.620	-45.938	362.952	1303.199	-40.038	428.241	1206.772	-75.491	386.812	1066.960	-75.340	386.911	787.923
-120.687	395.819	1250.580	-45.922	362.930	1303.133	-40.129	428.299	1206.654	-75.519	386.846	1067.016	-75.268	386.808	787.852
-120.696	395.811	1250.630	-45.925	362.898	1303.032	-40.188	428.405	1206.735	-75.523	386.820	1066.914	-75.269	386.710	787.907
-120.573	395.935	1250.557	-45.962	362.970	1303.194	-40.224	428.414	1206.698	-75.579	386.751	1066.859	-75.261	386.551	787.715
-120.708	395.885	1250.547	-45.958	363.039	1303.030	-40.207	428.532	1206.760	-75.511	386.851	1066.858	-75.224	386.562	787.869
-120.760	396.034	1250.599	-45.975	363.008	1303.119	-40.242	428.424	1206.659	-75.519	386.837	1066.859	-75.204	386.392	787.761
-120.607	395.982	1250.508	-45.988	363.007	1303.041	-40.173	428.516	1206.637	-75.556	386.904	1066.890	-75.186	386.438	787.905
-120.646	396.037	1250.514	-46.080	363.060	1303.043	-40.325	428.530	1206.594	-75.487	386.718	1066.667	-75.120	386.281	787.745
-120.675	396.237	1250.491	-46.085	363.095	1303.018	-40.282	428.567	1206.691	-75.636	386.943	1066.793	-75.100	386.311	787.766
-120.807	396.216	1250.379	-46.086	363.054	1302.868	-40.338	428.641	1206.536	-75.530	386.850	1066.652	-74.977	386.173	787.747
-120.798	396.214	1250.423	-46.134	363.057	1302.891	-40.360	428.669	1206.564	-75.561	386.944	1066.754	-75.060	386.077	787.716
-120.830	396.325	1250.368	-46.176	363.290	1303.010	-40.362	428.746	1206.569	-75.584	386.914	1066.773	-75.138	385.937	787.663
-120.885	396.379	1250.389	-46.156	363.136	1302.883	-40.446	428.758	1206.501	-75.494	386.971	1066.709	-74.968	385.966	787.690
-120.929	396.431	1250.338	-46.206	363.195	1302.793	-40.450	428.802	1206.444	-75.537	386.891	1066.693	-74.938	385.858	787.607
-120.929	396.485	1250.301	-46.281	363.233	1302.885	-40.442	428.898	1206.544	-75.546	386.827	1066.620	-74.894	385.868	787.712
-120.984	396.567	1250.291	-46.222	363.358	1302.831	-40.515	428.852	1206.475	-75.539	386.872	1066.611	-74.797	385.737	787.614
-121.020	396.600	1250.318	-46.275	363.386	1302.846	-40.554	428.848	1206.399	-75.496	386.744	1066.506	-74.940	385.708	787.591
-121.016	396.580	1250.283	-46.258	363.313	1302.725	-40.561	428.911	1206.352	-75.520	386.810	1066.508	-74.780	385.653	787.582
-120.999	396.603	1250.240	-46.274	363.275	1302.564	-40.560	428.821	1206.338	-75.494	386.661	1066.445	-74.877	385.533	787.548
-121.083	396.646	1250.273	-46.284	363.437	1302.843	-40.631	428.874	1206.318	-75.509	386.684	1066.450	-74.776	385.504	787.549
-121.144	396.724	1250.190	-46.287	363.507	1302.645	-40.646	428.997	1206.358	-75.501	386.691	1066.385	-74.763	385.513	787.435
-121.088	396.664	1250.141	-46.317	363.496	1302.654	-40.696	428.879	1206.136	-75.513	386.653	1066.491	-74.782	385.402	787.480
-121.114	396.734	1250.142	-46.354	363.560	1302.695	-40.779	428.959	1206.219	-75.579	386.685	1066.487	-74.741	385.398	787.412
-121.138	396.726	1250.118	-46.357	363.682	1302.664	-40.755	428.860	1206.122	-75.522	386.629	1066.448	-74.659	385.300	787.459
-121.199	396.866	1250.100	-46.371	363.624	1302.542	-40.754	428.938	1206.052	-75.463	386.631	1066.439	-74.688	385.296	787.447
-121.244	396.778	1250.094	-46.306	363.445	1302.505	-40.826	428.912	1205.961	-75.464	386.556	1066.338	-74.606	385.135	787.317
-121.263	396.849	1250.125	-46.505	363.725	1302.549	-40.860	428.914	1205.963	-75.485	386.468	1066.303	-74.610	385.080	787.358
-121.281	396.776	1249.969	-46.414	363.824	1302.597	-40.865	428.937	1205.930	-75.508	386.546	1066.376	-74.583	384.992	787.283
-121.330	396.931	1250.004	-46.435	363.501	1302.410	-40.871	428.919	1205.888	-75.544	386.588	1066.362	-74.563	385.004	787.316
-121.382	396.969	1249.957	-46.494	363.681	1302.428	-40.938	429.038	1205.870	-75.523	386.561	1066.280	-74.562	384.966	787.238
-121.381	396.957	1249.917	-46.502	363.625	1302.268	-40.952	428.940	1205.828	-75.562	386.553	1066.235	-74.510	384.869	787.160
-121.492	397.080	1249.851	-46.548	363.705	1302.223	-41.003	429.029	1205.711	-75.570	386.622	1066.234	-74.472	384.889	787.192
-121.412	397.084	1249.763	-46.599	363.818	1302.381	-41.001	429.096	1205.741	-75.556	386.608	1066.210	-74.476	384.718	787.191
-121.539	397.241	1249.828	-46.666	363.701	1302.218	-41.058	429.137	1205.601	-75.544	386.584	1066.077	-74.505	384.736	787.157
-121.565	397.325	1249.772	-46.676	363.788	1302.224	-41.047	429.169	1205.550	-75.527	386.692	1066.112	-74.444	384.686	787.086
-121.571	397.344	1249.664	-46.721	363.874	1302.207	-41.086	429.270	1205.615	-75.545	386.690	1066.111	-74.455	384.662	787.067
-121.604	397.476	1249.665	-46.699	363.854	1302.113	-41.106	429.198	1205.395	-75.558	386.717	1066.092	-74.391	384.682	787.130
-121.616	397.479	1249.613	-46.774	363.893	1302.091	-41.131	429.232	1205.483	-75.563	386.720	1066.021	-74.428	384.504	786.972
-121.615	397.526	1249.586	-46.790	363.898	1302.026	-41.108	429.378	1205.406	-75.556	386.761	1066.048	-74.406	384.529	787.021
-121.642	397.583	1249.527	-46.827	364.030	1302.057	-41.139	429.302	1205.316	-75.574	386.793	1065.951	-74.325	384.440	787.036
-121.726	397.655	1249.458	-46.828	364.047	1301.952	-41.165	429.450	1205.289	-75.549	386.838	1065.934	-74.315	384.466	786.972
-121.720	397.575	1249.383	-46.816	364.073	1301.967	-41.187	429.441	1205.335	-75.547	386.767	1066.029	-74.289	384.423	787.015
-121.630	397.765	1249.286	-46.854	364.207	1301.977	-41.232	429.539	1205.303	-75.606	386.793	1065.928	-74.350	384.245	787.015
-121.833	397.752	1249.277	-46.928	364.084	1301.919	-41.224	429.491	1205.273	-75.581	386.770	1065.887	-74.275	384.264	786.863
-121.847	397.728	1249.293	-46.980	364.100	1301.888	-41.236	429.695	1205.307	-75.634	386.765	1065.840	-74.211	384.262	786.833
-121.853	397.740	1249.215	-46.952	364.211	1301.851	-41.222	429.439	1205.124	-75.610	386.653	1065.802	-74.292	384.088	786.964
-121.877	397.796	1249.284	-46.965	364.204	1301.854	-41.378	429.618	1205.094	-75.602	386.684	1065.848	-74.198	383.793	786.809
-121.889	397.849	1249.176	-46.934	364.333	1301.828	-41.392	429.555	1205.031	-75.609	386.704	1065.836	-74.283	384.018	786.903
-121.878	397.880	1249.226	-46.952	364.330	1301.804	-41.402	429.655	1205.075	-75.557	386.727	1065.803	-74.218	383.956	786.965
-121.930	397.890	1249.241	-47.046	364.468	1301.904	-41.375	429.638	1205.120	-75.594	386.825	1065.877	-74.088	383.687	786.868
-121.945	397.984	1249.237	-46.996	364.395	1301.829	-41.365	429.642	1205.003	-75.606	386.752	1065.710	-74.007	383.615	786.920
-121.989	397.961	1249.153	-47.049	364.495	1301.878	-41.422	429.719	1204.943	-75.574	386.823	1065.804	-74.016	383.669	786.819
-121.941	397.999	1249.188	-47.097	364.538	1301.829	-41.488	429.708	1204.973	-75.560	386.779	1065.761	-74.038	383.651	786.780
-121.974	398.017	1249.212	-47.042	364.542	1301.816	-41.473	429.743	1204.898	-75.581	386.794	1065.792	-73.989	383.601	786.804
-122.024	398.165	1249.209	-47.045	364.517	1301.741	-41.475	429.766	1204.860	-75.592	386.874	1065.773	-73.976	383.542	786.846
-121.991	398.065	1249.143	-47.036	364.638	1301.759	-41.488	429.802	1204.925	-75.674	386.772	1065.732	-74.021	383.721	787.022
-122.063	398.136	1249.171	-47.039	364.594	1301.726	-41.543	429.862	1204.961	-75.594	386.816	1065.752	-73.869	383.485	786.787
-122.061	398.219	1249.177	-47.055	364.680	1301.758	-41.464	429.847	1204.907	-75.600	386.770	1065.799	-73.898	383.423	786.870
-122.031	398.195	1249.189	-47.081	364.683	1301.750	-41.519	429.796	1204.865	-75.625	386.746	1065.826	-73.900	383.365	786.848
-121.986	398.127	1249.072	-47.045	364.798	1301.784	-41.475	429.940	1204.818	-75.632	386.807	1065.761	-73.872	383.364	786.827
-122.046	398.405	1249.302	-47.065	364.777	1301.733	-41.573	429.916	1204.846	-75.594	386.756	1065.741	-73.801	383.322	786.813
-122.067	398.389	1249.215	-47.073	364.929	1301.812	-41.589	430.031	1205.007	-75.604	386.856	1065.756	-73.817	383.331	786.827
-122.042	398.433	1249.257	-47.129	364.956	1301.819	-41.548	430.098	1205.046	-75.606	386.877	1065.759	-73.890	383.360	786.879
-122.070	398.469	1249.224	-47.084	364.899	1301.724	-41.546	430.116	1204.946	-75.587	386.978	1065.678	-73.846	383.298	786.854
-122.083	398.542	1249.214	-47.116	365.004	1301.795	-41.501	430.171	1204.928	-75.553	387.038	1065.760	-73.829	383.283	786.850
-122.067	398.550	1249.241	-47.128	364.984	1301.758	-41.563	430.241	1204.934	-75.601	387.117	1065.748	-73.841	383.329	786.899
-122.029	398.666	1249.219	-47.096	365.003	1301.749	-41.557	430.367	1205.002	-75.614	387.175	1065.729	-73.877	383.306	786.801
-122.116	398.879	1249.276	-47.112	365.183	1301.803	-41.553	430.444	1204.952	-75.579	387.262	1065.687	-73.910	383.318	786.862
-122.101	398.891	1249.306	-47.121	365.343	1301.805	-41.506	430.569	1205.012	-75.635	387.374	1065.761	-73.865	383.368	786.896
-122.069	398.977	1249.289	-47.119	365.347	1301.836	-41.514	430.629	1205.107	-75.659	387.357	1065.809	-73.853	383.386	786.797
-122.075	398.932	1249.219	-47.137	365.380	1301.804	-41.516	430.745	1205.100	-75.631	387.485	1065.722	-73.900	383.368	786.860
-122.045	399.063	1249.318	-47.111	365.300	1301.802	-41.537	430.894	1205.148	-75.626	387.595	1065.821	-73.894	383.395	786.899
-122.074	399.137	1249.353	-47.107	365.535	1301.933	-41.524	430.834	1205.077	-75.563	387.634	1065.776	-74.063	383.743	787.065
-122.065	399.265	1249.471	-47.089	365.629	1301.941	-41.489	430.878	1205.092	-75.663	387.587	1065.839	-73.934	383.498	786.983
-122.109	399.258	1249.364	-47.124	365.623	1301.874	-41.560	431.015	1205.210	-75.677	387.737	1065.878	-73.927	383.463	787.003
-122.078	399.374	1249.430	-47.091	365.711	1301.936	-41.495	431.102	1205.249	-75.670	387.726	1065.836	-74.079	383.665	787.070
-122.020	399.472	1249.457	-47.107	365.789	1301.968	-41.556	431.091	1205.130	-75.645	387.760	1065.926	-73.981	383.623	787.132
-122.025	399.510	1249.451	-47.111	365.876	1302.042	-41.580	431.400	1205.380	-75.654	387.798	1065.931	-73.981	383.649	787.158
-122.021	399.566	1249.518	-47.066	365.814	1302.020	-41.546	431.350	1205.328	-75.616	387.927	1065.944	-74.050	383.732	787.176
-122.026	399.714	1249.549	-47.087	366.025	1302.000	-41.515	431.277	1205.275	-75.699	387.922	1066.021	-74.034	383.745	787.192
-122.042	399.716	1249.548	-47.018	366.196	1302.160	-41.520	431.427	1205.290	-75.721	387.997	1066.026	-73.954	383.695	787.215
-121.987	399.833	1249.595	-47.093	366.313	1302.277	-41.480	431.539	1205.431	-75.661	388.063	1066.040	-74.080	383.819	787.098
-121.989	399.864	1249.620	-47.045	366.361	1302.213	-41.479	431.504	1205.359	-75.641	388.127	1065.994	-73.990	383.930	787.218
-121.991	400.011	1249.642	-47.006	366.431	1302.230	-41.481	431.728	1205.487	-75.716	388.250	1066.002	-74.045	383.939	787.254
-121.969	400.057	1249.666	-47.027	366.468	1302.231	-41.462	431.780	1205.507	-75.656	388.263	1066.015	-74.054	383.940	787.183
-121.931	400.141	1249.697	-47.023	366.559	1302.259	-41.473	431.949	1205.604	-75.687	388.369	1066.076	-74.101	384.055	787.227
-121.943	400.309	1249.715	-47.005	366.743	1302.395	-41.439	431.996	1205.583	-75.673	388.519	1066.100	-74.084	384.110	787.280
-121.956	400.388	1249.778	-47.082	366.987	1302.459	-41.489	432.158	1205.629	-75.689	388.645	1066.149	-74.099	384.167	787.350
-121.946	400.498	1249.722	-47.020	366.922	1302.384	-41.445	432.273	1205.748	-75.695	388.678	1066.167	-74.133	384.157	787.274
-121.924	400.525	1249.724	-47.023	367.090	1302.471	-41.395	432.236	1205.761	-75.811	389.066	1066.290	-74.093	384.267	787.249
-121.871	400.593	1249.724	-47.007	366.922	1302.328	-41.372	432.358	1205.759	-75.771	388.865	1066.169	-74.155	384.448	787.393
-121.928	400.705	1249.778	-47.065	366.953	1302.371	-41.379	432.555	1205.924	-75.796	389.302	1066.348	-74.201	384.630	787.394
-121.890	400.723	1249.804	-47.030	366.972	1302.361	-41.392	432.660	1205.910	-75.768	389.380	1066.309	-74.173	384.542	787.380
-121.946	400.765	1249.779	-47.074	366.994	1302.403	-41.377	432.787	1205.979	-75.821	389.517	1066.389	-74.230	384.565	787.450
-121.883	400.888	1249.774	-47.076	367.221	1302.450	-41.330	432.940	1206.108	-75.838	389.731	1066.433	-74.288	384.663	787.421
-121.894	400.993	1249.929	-47.076	367.107	1302.469	-41.282	433.051	1206.202	-75.836	389.759	1066.355	-74.210	384.791	787.402
-121.904	401.036	1249.900	-47.112	367.082	1302.399	-41.242	433.405	1206.449	-75.789	389.922	1066.444	-74.301	384.856	787.478
-121.894	401.143	1250.021	-47.131	367.110	1302.391	-41.227	433.486	1206.520	-75.814	390.166	1066.510	-74.390	384.965	787.498
-121.909	401.313	1250.075	-47.160	366.897	1302.327	-41.234	433.715	1206.619	-75.779	390.318	1066.563	-74.364	385.078	787.567
-121.886	401.329	1250.041	-47.093	366.935	1302.345	-41.208	433.846	1206.727	-75.854	390.508	1066.599	-74.321	385.247	787.637
-121.854	401.410	1250.069	-47.128	366.972	1302.429	-41.130	433.979	1206.863	-75.748	390.614	1066.643	-74.463	385.341	787.666
-121.875	401.587	1250.193	-47.180	367.029	1302.462	-41.148	434.282	1207.019	-75.773	390.898	1066.646	-74.357	385.444	787.681
-121.878	401.772	1250.249	-47.081	367.079	1302.422	-41.120	434.418	1207.170	-75.832	390.908	1066.715	-74.488	385.637	787.798
-121.774	401.755	1250.340	-47.095	367.202	1302.504	-41.124	434.482	1207.224	-75.856	391.221	1066.903	-74.461	385.654	787.844
-121.846	401.982	1250.443	-47.053	367.155	1302.554	-41.093	434.702	1207.330	-75.845	391.285	1067.021	-74.562	385.943	788.019
-121.822	402.042	1250.459	-47.088	367.251	1302.688	-41.060	434.819	1207.386	-75.814	391.550	1067.077	-74.576	385.896	787.975
-121.779	402.144	1250.539	-47.060	367.254	1302.693	-41.055	434.857	1207.442	-75.678	391.731	1067.177	-74.468	386.132	788.182
-121.802	402.268	1250.705	-47.067	367.307	1302.782	-41.064	434.975	1207.531	-76.004	391.638	1067.189	-74.400	386.198	788.214
-121.865	402.509	1250.792	-47.036	367.234	1302.716	-41.079	435.153	1207.712	-75.827	391.761	1067.304	-74.465	386.305	788.248
-121.809	402.415	1250.842	-47.061	367.473	1302.860	-41.133	435.117	1207.711	-75.838	391.766	1067.318	-74.587	386.356	788.335
-121.817	402.517	1250.892	-47.007	367.487	1302.939	-41.052	435.191	1207.789	-75.824	391.986	1067.580	-74.660	386.440	788.331
-121.762	402.651	1251.040	-46.953	367.426	1302.954	-41.053	435.205	1207.790	-75.880	391.982	1067.624	-74.660	386.555	788.534
-121.746	402.662	1251.137	-46.948	367.357	1302.999	-41.088	435.318	1207.916	-75.862	392.086	1067.665	-74.678	386.638	788.527
-121.742	402.660	1251.163	-46.903	367.269	1302.963	-41.147	435.425	1208.074	-75.822	392.141	1067.771	-74.729	386.758	788.612
-121.772	402.806	1251.339	-46.947	367.421	1303.107	-41.192	435.471	1208.109	-75.929	392.282	1067.911	-74.701	386.840	788.660
-121.810	402.848	1251.342	-46.941	367.356	1303.136	-41.168	435.612	1208.236	-75.934	392.269	1067.939	-74.747	386.926	788.706
-121.806	402.907	1251.431	-46.945	367.281	1303.172	-41.182	435.746	1208.315	-75.925	392.426	1068.021	-74.769	387.050	788.771
-121.746	402.862	1251.469	-46.958	367.280	1303.213	-41.117	435.851	1208.385	-75.879	392.648	1068.189	-74.850	387.184	788.884
-121.753	403.065	1251.554	-46.938	367.346	1303.193	-41.191	436.049	1208.673	-75.913	392.784	1068.161	-74.852	387.295	788.911
-121.745	403.159	1251.653	-46.907	367.232	1303.259	-41.144	436.186	1208.777	-75.944	392.878	1068.137	-74.947	387.431	789.053
-121.739	403.340	1251.770	-46.933	367.214	1303.217	-40.973	436.491	1209.059	-75.873	393.103	1068.286	-74.990	387.495	788.980
-121.784	403.459	1251.826	-46.952	367.268	1303.263	-41.025	436.587	1209.129	-75.813	393.391	1068.316	-74.910	387.692	789.148
-121.757	403.660	1251.913	-46.922	367.282	1303.353	-40.826	436.639	1209.212	-75.782	393.535	1068.466	-74.928	387.910	789.226
-121.710	403.863	1251.914	-46.998	367.341	1303.258	-40.783	436.882	1209.430	-76.024	393.685	1068.505	-74.992	387.915	789.282
-121.744	404.019	1252.065	-46.950	367.344	1303.301	-40.802	437.002	1209.570	-75.591	394.025	1068.595	-75.084	388.074	789.394
-121.749	404.048	1252.137	-46.933	367.392	1303.372	-40.734	437.161	1209.669	-75.950	394.041	1068.461	-75.093	388.221	789.395
-121.713	404.309	1252.192	-46.954	367.424	1303.354	-40.724	437.353	1209.757	-75.984	394.240	1068.528	-75.168	388.396	789.492
-121.697	404.496	1252.275	-46.977	367.473	1303.380	-40.669	437.526	1209.901	-75.926	394.514	1068.726	-75.147	388.619	789.547
-121.706	404.557	1252.305	-46.978	367.535	1303.399	-40.672	437.648	1209.903	-75.942	394.670	1068.615	-75.242	388.693	789.616
-121.691	404.787	1252.390	-46.944	367.659	1303.414	-40.657	437.722	1210.012	-75.877	394.905	1068.711	-75.335	388.945	789.762
-121.626	404.882	1252.382	-46.969	367.730	1303.322	-40.642	437.947	1210.155	-75.927	395.096	1068.792	-75.352	389.183	789.731
-121.638	404.919	1252.419	-47.004	367.859	1303.395	-40.564	438.041	1210.154	-75.856	395.190	1068.852	-75.386	389.414	789.886
-121.601	405.055	1252.454	-46.947	367.789	1303.421	-40.548	438.108	1210.198	-75.861	395.347	1068.857	-75.363	389.592	789.884
-121.597	405.257	1252.522	-46.931	367.984	1303.470	-40.554	438.191	1210.195	-75.900	395.435	1068.933	-75.491	389.728	789.885
-121.578	405.326	1252.481	-46.990	368.088	1303.519	-40.533	438.269	1210.190	-75.905	395.577	1068.940	-75.519	390.002	789.860
-121.588	405.386	1252.588	-46.979	368.179	1303.594	-40.597	438.441	1210.277	-75.937	395.647	1068.981	-75.496	390.151	789.950
-121.603	405.452	1252.608	-46.980	368.260	1303.648	-40.594	438.459	1210.285	-75.962	395.696	1068.981	-75.575	390.144	789.864
-121.549	405.532	1252.625	-47.005	368.344	1303.676	-40.542	438.497	1210.223	-75.955	395.828	1069.019	-75.606	390.498	789.937
-121.596	405.619	1252.631	-46.949	368.417	1303.646	-40.531	438.573	1210.260	-75.886	395.915	1069.019	-75.669	390.562	789.920
-121.615	405.710	1252.625	-46.989	368.453	1303.662	-40.525	438.779	1210.427	-75.929	396.003	1069.088	-75.722	390.811	790.005
-121.562	405.780	1252.737	-47.006	368.506	1303.593	-40.543	438.726	1210.294	-75.952	396.082	1069.092	-75.764	391.035	790.056
-121.551	405.859	1252.672	-47.075	368.594	1303.667	-40.467	438.726	1210.429	-76.009	396.281	1069.073	-75.870	391.358	790.127
-121.563	405.928	1252.690	-47.058	368.570	1303.650	-40.515	438.975	1210.569	-76.011	396.511	1069.097	-76.039	391.568	790.094
-121.606	406.043	1252.697	-47.067	368.653	1303.731	-40.580	439.090	1210.571	-76.040	396.633	1069.112	-75.978	391.800	790.151
-121.588	406.101	1252.737	-47.065	368.668	1303.690	-40.561	439.219	1210.654	-76.081	396.816	1069.090	-76.111	391.939	790.096
-121.610	406.223	1252.803	-47.081	368.728	1303.707	-40.482	439.262	1210.651	-76.108	397.074	1069.152	-76.168	392.135	790.166
-121.581	406.227	1252.802	-47.105	368.763	1303.710	-40.534	439.357	1210.750	-76.211	397.328	1069.353	-76.248	392.350	790.215
-121.647	406.316	1252.830	-47.103	368.789	1303.724	-40.552	439.503	1210.863	-76.187	397.388	1069.273	-76.289	392.707	790.251
-121.603	406.423	1252.892	-47.155	368.785	1303.746	-40.521	439.640	1210.913	-76.208	397.571	1069.296	-76.357	392.790	790.303
-121.599	406.502	1252.958	-47.167	368.642	1303.657	-40.516	439.741	1211.005	-76.282	397.789	1069.364	-76.436	392.951	790.277
-121.591	406.577	1252.960	-47.164	368.708	1303.660	-40.540	440.014	1211.192	-76.357	397.965	1069.450	-76.522	393.194	790.424
-121.612	406.691	1252.999	-47.187	368.668	1303.671	-40.525	440.171	1211.334	-76.402	398.101	1069.518	-76.561	393.375	790.493
-121.646	406.897	1253.102	-47.187	368.667	1303.590	-40.452	440.285	1211.392	-76.410	398.413	1069.642	-76.679	393.618	790.533
-121.579	406.957	1253.124	-47.174	368.731	1303.594	-40.455	440.424	1211.612	-76.431	398.638	1069.694	-76.748	393.756	790.540
-121.584	407.140	1253.248	-47.182	368.775	1303.629	-40.423	440.551	1211.645	-76.431	398.815	1069.778	-76.890	394.004	790.649
-121.606	407.159	1253.274	-47.224	368.747	1303.641	-40.394	440.705	1211.792	-76.538	399.095	1069.795	-76.962	394.358	790.763
-121.547	407.257	1253.359	-47.177	368.674	1303.649	-40.395	440.898	1211.901	-76.530	399.375	1069.931	-77.111	394.658	790.866
-121.537	407.338	1253.343	-47.212	368.731	1303.605	-40.391	440.967	1212.047	-76.551	399.646	1069.954	-77.150	394.784	790.870
-121.545	407.433	1253.394	-47.180	368.751	1303.634	-40.333	441.074	1212.103	-76.589	399.835	1070.005	-77.200	395.136	790.979
-121.486	407.532	1253.384	-47.224	368.772	1303.633	-40.363	441.253	1212.229	-76.683	400.003	1069.989	-77.231	395.335	790.986
-121.538	407.627	1253.489	-47.211	368.842	1303.659	-40.347	441.347	1212.236	-76.687	400.195	1070.118	-77.375	395.626	791.116
-121.535	407.608	1253.494	-47.262	368.879	1303.661	-40.345	441.461	1212.314	-76.703	400.358	1070.167	-77.422	395.830	791.192
-121.436	407.663	1253.571	-47.186	368.796	1303.686	-40.274	441.471	1212.400	-76.757	400.387	1070.150	-77.430	396.022	791.265
-121.512	407.771	1253.542	-47.227	368.827	1303.705	-40.325	441.600	1212.440	-76.737	400.481	1070.182	-77.416	396.279	791.253
-121.536	407.931	1253.654	-47.267	368.788	1303.688	-40.320	441.702	1212.495	-76.734	400.635	1070.282	-77.513	396.589	791.383
-121.528	407.972	1253.571	-47.260	368.772	1303.632	-40.314	441.825	1212.587	-76.806	400.663	1070.202	-77.530	396.708	791.374
-121.570	407.962	1253.578	-47.294	368.798	1303.672	-40.344	441.884	1212.647	-76.762	400.792	1070.300	-77.613	397.001	791.365
-121.534	408.048	1253.742	-47.316	368.680	1303.644	-40.318	442.033	1212.841	-76.708	400.915	1070.322	-77.656	397.179	791.410
-121.567	408.169	1253.634	-47.358	368.716	1303.712	-40.349	442.129	1212.887	-76.794	401.058	1070.372	-77.647	397.418	791.421
-121.559	408.096	1253.651	-47.399	368.661	1303.639	-40.315	442.113	1212.917	-76.785	401.208	1070.312	-77.708	397.695	791.475
-121.650	408.099	1253.716	-47.387	368.669	1303.641	-40.326	442.309	1213.122	-76.777	401.394	1070.358	-77.765	397.980	791.417
-121.606	408.098	1253.688	-47.452	368.503	1303.551	-40.278	442.397	1213.208	-76.839	401.694	1070.396	-77.786	398.269	791.378
-121.652	408.172	1253.791	-47.452	368.477	1303.468	-40.284	442.523	1213.282	-76.932	401.846	1070.497	-77.776	398.567	791.538
-121.652	408.247	1253.784	-47.442	368.338	1303.460	-40.243	442.677	1213.471	-76.984	402.127	1070.589	-77.886	398.736	791.550
-121.675	408.403	1253.820	-47.486	368.392	1303.533	-40.237	442.898	1213.681	-77.029	402.395	1070.534	-77.859	399.038	791.491
-121.731	408.394	1253.805	-47.679	368.545	1303.484	-40.280	443.069	1213.902	-77.011	402.677	1070.625	-77.897	399.322	791.601
-121.781	408.486	1253.863	-47.699	368.499	1303.492	-40.162	443.351	1214.206	-77.098	402.909	1070.683	-77.989	399.585	791.645
-121.734	408.528	1253.877	-47.616	368.017	1303.219	-40.218	443.450	1214.393	-77.053	403.109	1070.770	-78.030	399.941	791.665
-121.735	408.599	1253.955	-47.655	367.851	1303.216	-40.153	443.664	1214.579	-77.042	403.311	1070.816	-78.040	400.136	791.693
-121.783	408.814	1254.074	-47.778	368.243	1303.283	-40.120	443.990	1214.882	-77.131	403.667	1070.919	-78.083	400.407	791.696
-121.746	408.697	1253.985	-47.735	367.755	1303.071	-40.057	444.092	1215.065	-77.124	403.923	1071.021	-78.080	400.680	791.819
-121.742	408.727	1254.068	-47.748	367.771	1303.038	-40.071	444.192	1215.275	-77.082	404.086	1071.034	-78.142	400.972	791.832
-121.777	408.861	1254.146	-47.752	367.545	1302.883	-40.067	444.263	1215.373	-77.199	404.401	1071.208	-78.162	401.241	791.920
-121.776	408.921	1254.167	-47.815	367.323	1302.882	-39.978	444.355	1215.576	-77.145	404.705	1071.293	-78.224	401.557	792.012
-121.754	408.946	1254.203	-47.809	367.465	1302.863	-39.947	444.478	1215.793	-77.226	404.878	1071.367	-78.323	401.841	792.013
-121.778	408.995	1254.289	-47.847	367.078	1302.713	-39.988	444.609	1215.965	-77.158	404.935	1071.267	-78.349	402.134	791.982
-121.812	409.131	1254.320	-47.891	367.177	1302.679	-39.998	444.830	1216.175	-77.199	405.194	1071.435	-78.417	402.363	791.971
-121.775	409.129	1254.357	-47.881	366.968	1302.627	-39.957	444.816	1216.248	-77.188	405.395	1071.341	-78.493	402.681	792.080
-121.789	409.151	1254.349	-47.918	366.923	1302.702	-39.951	445.014	1216.460	-77.223	405.567	1071.512	-78.573	403.005	792.059
-121.811	409.249	1254.457	-47.884	366.764	1302.553	-39.989	445.082	1216.575	-77.220	405.704	1071.558	-78.624	403.261	792.171
-121.819	409.299	1254.503	-47.950	367.011	1302.714	-40.087	445.224	1216.751	-77.245	405.875	1071.528	-78.703	403.533	792.221
-121.819	409.399	1254.541	-47.925	366.854	1302.650	-39.966	445.354	1216.733	-77.250	406.005	1071.555	-78.758	403.838	792.232
-121.851	409.368	1254.620	-47.903	367.132	1302.821	-39.961	445.338	1216.961	-77.266	406.126	1071.698	-78.879	403.963	792.180
-121.751	409.489	1254.734	-47.968	366.846	1302.678	-40.042	445.448	1217.175	-77.258	406.291	1071.705	-78.998	404.204	792.310
-121.825	409.516	1254.727	-47.962	367.045	1302.861	-40.042	445.541	1217.269	-77.193	406.353	1071.742	-79.036	404.463	792.337
-121.828	409.595	1254.775	-47.917	366.969	1302.858	-40.014	445.565	1217.374	-77.262	406.513	1071.828	-79.065	404.617	792.459
-121.817	409.604	1254.853	-47.953	366.947	1302.920	-40.063	445.672	1217.526	-77.257	406.653	1071.865	-79.092	404.903	792.561
-121.883	409.738	1255.020	-47.985	366.944	1303.001	-40.010	445.747	1217.723	-77.346	406.799	1072.007	-79.113	405.254	792.539
-121.930	409.724	1255.012	-48.048	366.767	1302.912	-39.989	445.812	1217.943	-77.337	406.919	1072.106	-79.183	405.534	792.716
-121.848	409.860	1255.132	-48.001	366.908	1303.119	-40.005	445.940	1218.036	-77.357	407.075	1072.130	-79.193	405.778	792.792
-121.841	409.911	1255.204	-48.033	366.968	1303.154	-39.990	446.003	1218.326	-77.348	407.248	1072.262	-79.348	406.156	792.952
-121.839	410.025	1255.422	-48.047	366.511	1303.008	-40.003	446.202	1218.537	-77.392	407.415	1072.381	-79.322	406.411	792.998
-121.880	410.066	1255.485	-48.064	366.795	1303.147	-39.893	446.396	1218.809	-77.331	407.801	1072.471	-79.371	406.709	793.035
-121.922	410.224	1255.614	-48.090	366.543	1303.036	-39.882	446.553	1219.034	-77.354	408.001	1072.526	-79.475	407.091	793.179
-121.843	410.311	1255.618	-48.110	366.511	1303.088	-40.024	446.691	1219.316	-77.275	408.275	1072.726	-79.497	407.418	793.269
-121.894	410.366	1255.729	-48.114	366.484	1303.006	-40.028	446.924	1219.663	-77.318	408.564	1072.755	-79.607	407.793	793.368
-121.867	410.378	1255.812	-48.121	366.263	1303.111	-39.945	447.172	1220.042	-77.380	408.983	1072.983	-79.622	407.973	793.422
-121.849	410.443	1255.991	-48.226	366.123	1303.114	-39.992	447.266	1220.156	-77.342	409.248	1073.130	-79.622	408.283	793.510
-121.749	410.542	1256.027	-48.197	365.875	1302.943	-40.017	447.589	1220.616	-77.323	409.361	1073.270	-79.674	408.769	793.745
-121.830	410.522	1256.355	-48.230	365.663	1303.032	-40.032	447.897	1221.009	-77.351	409.474	1073.338	-79.707	409.188	793.933
-121.789	410.558	1256.584	-48.277	365.400	1303.034	-39.961	448.136	1221.333	-77.473	409.214	1073.545	-79.788	409.526	794.079
-121.816	410.510	1256.703	-48.284	365.302	1302.951	-39.947	448.343	1221.582	-77.559	408.802	1073.560	-79.867	410.013	794.307
-121.797	410.604	1256.818	-48.368	365.247	1303.099	-39.997	448.501	1221.895	-77.669	408.480	1073.797	-79.871	410.499	794.470
-121.782	410.567	1256.991	-48.353	365.051	1303.099	-39.996	448.728	1222.146	-77.799	408.454	1073.920	-79.981	410.427	794.682
-121.803	410.493	1257.180	-48.357	364.824	1302.964	-39.951	448.867	1222.389	-77.832	408.344	1074.062	-80.035	410.177	794.778
-121.729	410.368	1257.239	-48.505	364.837	1303.179	-39.939	448.959	1222.598	-77.884	408.321	1074.121	-80.016	410.234	794.896
-121.784	410.435	1257.339	-48.469	364.618	1303.139	-39.888	449.142	1222.883	-77.811	408.179	1074.088	-79.962	410.462	794.878
-121.761	410.455	1257.360	-48.488	364.490	1303.084	-39.930	449.221	1223.069	-77.800	408.238	1074.183	-79.972	410.807	794.916
-121.806	410.481	1257.604	-48.587	364.385	1303.109	-39.944	449.470	1223.418	-77.648	408.394	1074.247	-80.020	411.095	794.871
-121.737	410.398	1257.737	-48.645	364.270	1303.092	-39.869	449.501	1223.571	-77.440	408.690	1074.317	-80.047	411.524	795.035
-121.850	410.585	1257.754	-48.620	364.231	1303.095	-39.922	449.754	1223.963	-77.482	409.228	1074.495	-80.108	411.913	795.116
-121.775	410.609	1257.911	-48.674	364.164	1303.054	-39.840	449.911	1224.181	-77.479	409.716	1074.558	-80.225	412.163	795.104
-121.803	410.676	1258.012	-48.707	364.088	1303.047	-39.808	450.075	1224.418	-77.554	410.056	1074.573	-80.248	412.497	795.216
-121.774	410.792	1258.073	-48.767	363.887	1302.955	-39.800	450.279	1224.656	-77.681	410.429	1074.706	-80.284	412.740	795.338
-121.953	411.387	1258.331	-48.818	363.885	1302.900	-39.709	450.492	1224.939	-77.749	410.617	1074.757	-80.390	412.919	795.416
-121.690	410.859	1258.095	-48.772	363.815	1302.810	-39.659	450.692	1225.256	-77.776	410.879	1074.846	-80.360	413.285	795.537
-121.974	411.600	1258.466	-48.866	363.627	1302.878	-39.552	450.906	1225.629	-77.847	410.857	1074.965	-80.467	413.425	795.533
-121.710	411.209	1258.317	-48.820	363.381	1302.585	-39.474	451.203	1226.090	-77.823	410.818	1075.044	-80.461	413.709	795.568
-121.935	411.830	1258.818	-48.889	363.265	1302.502	-39.429	451.324	1226.388	-77.773	410.787	1075.111	-80.485	414.021	795.761
-121.920	411.952	1258.888	-48.903	363.012	1302.503	-39.365	451.530	1226.877	-77.730	410.908	1075.210	-80.399	414.230	795.837
-121.904	411.902	1259.014	-48.925	362.759	1302.124	-39.250	451.812	1227.544	-77.605	410.970	1075.319	-80.420	414.319	795.951
-121.852	411.902	1259.169	-48.908	362.554	1302.002	-39.205	452.102	1228.054	-77.574	411.042	1075.440	-80.488	414.478	796.014
-121.869	412.059	1259.285	-48.893	362.287	1301.867	-39.214	452.314	1228.497	-77.495	411.146	1075.483	-80.388	414.708	796.122
-121.863	412.215	1259.375	-48.961	361.841	1301.641	-39.194	452.469	1229.040	-77.468	411.255	1075.575	-80.388	414.949	796.148
-121.974	411.981	1259.438	-48.920	361.762	1301.566	-39.096	452.683	1229.427	-77.561	411.409	1075.690	-80.428	415.268	796.241
-121.982	412.120	1259.585	-48.928	361.567	1301.497	-39.014	452.826	1229.837	-77.600	411.588	1075.867	-80.411	415.496	796.320
-121.938	412.142	1259.766	-48.921	361.290	1301.309	-39.166	452.886	1229.987	-77.635	411.862	1075.958	-80.452	415.705	796.378
-121.909	412.150	1259.782	-49.018	361.160	1301.287	-39.226	453.487	1230.514	-77.672	411.997	1076.112	-80.457	415.900	796.375
-121.862	412.111	1259.752	-48.942	361.162	1301.292	-39.214	453.705	1230.759	-77.722	412.217	1076.124	-80.581	416.181	796.555
-121.865	412.246	1259.934	-48.917	361.072	1301.273	-39.244	453.705	1230.902	-77.762	412.267	1076.259	-80.550	416.372	796.591
-121.854	412.245	1259.976	-48.929	360.993	1301.319	-39.199	453.797	1231.045	-77.766	412.570	1076.262	-80.581	416.654	796.770
-121.828	412.364	1260.098	-48.856	360.706	1301.230	-39.116	454.006	1231.357	-77.713	412.640	1076.443	-80.638	416.778	796.767
-121.815	412.394	1260.227	-48.910	360.872	1301.348	-39.203	454.351	1231.544	-77.711	412.678	1076.511	-80.588	417.265	797.046
-121.723	412.602	1260.356	-48.877	360.951	1301.411	-39.050	454.232	1231.638	-77.621	412.661	1076.535	-80.510	417.497	797.104
-121.775	412.683	1260.397	-48.889	360.898	1301.357	-39.090	454.527	1231.867	-77.545	412.711	1076.542	-80.580	417.730	797.386
-121.707	412.699	1260.507	-48.861	360.975	1301.410	-39.033	454.778	1232.182	-77.515	413.055	1076.826	-80.570	417.759	797.385
-121.651	412.779	1260.543	-48.878	360.709	1301.374	-38.938	454.836	1232.469	-77.478	413.208	1076.857	-80.623	417.928	797.489
-121.604	412.879	1260.664	-48.866	360.690	1301.319	-38.969	455.081	1232.770	-77.500	413.263	1076.930	-80.621	418.389	797.711
-121.411	412.557	1260.562	-48.880	360.588	1301.200	-38.876	455.397	1233.075	-77.519	413.345	1076.987	-80.630	418.767	797.806
-121.563	413.065	1260.838	-48.850	360.481	1301.120	-38.837	455.696	1233.536	-77.547	413.406	1077.125	-80.660	419.248	797.980
-121.451	412.790	1260.781	-48.928	360.199	1300.918	-38.778	456.104	1234.065	-77.600	413.590	1077.262	-80.656	419.315	798.099
-121.424	412.861	1260.987	-48.923	359.990	1300.941	-38.744	456.427	1234.601	-77.592	413.650	1077.238	-80.737	419.532	798.180
-121.401	413.020	1261.105	-48.959	359.763	1300.568	-38.704	456.698	1235.081	-77.599	413.969	1077.360	-80.746	419.729	798.361
-121.348	412.972	1261.115	-48.929	359.267	1300.359	-38.684	457.024	1235.671	-77.609	414.026	1077.495	-80.647	419.996	798.462
-121.382	413.024	1261.277	-49.037	358.976	1300.110	-38.614	457.210	1236.087	-77.591	414.074	1077.484	-80.564	420.170	798.635
-121.322	412.892	1261.247	-49.002	358.666	1299.914	-38.590	457.316	1236.649	-77.574	414.133	1077.581	-80.533	420.450	798.750
-121.308	412.955	1261.407	-49.040	358.330	1299.718	-38.596	457.632	1237.239	-77.539	414.046	1077.770	-80.529	420.887	798.951
-121.293	412.860	1261.366	-49.056	357.938	1299.513	-38.605	457.704	1237.735	-77.527	414.118	1077.760	-80.575	421.072	798.979
-121.296	412.905	1261.581	-49.116	357.707	1299.375	-38.641	457.706	1238.206	-77.456	414.149	1077.883	-80.470	421.203	799.056
-121.270	412.756	1261.703	-49.082	357.110	1299.086	-38.586	457.629	1238.546	-77.406	414.122	1077.911	-80.489	421.345	799.290
-121.283	412.720	1261.740	-49.091	356.928	1299.073	-38.501	457.572	1238.909	-77.511	414.220	1078.058	-80.414	421.396	799.331
-121.255	412.594	1261.771	-49.150	356.724	1298.993	-38.341	457.553	1239.335	-77.466	414.180	1078.042	-80.439	421.668	799.407
-121.317	412.619	1261.936	-49.107	356.517	1298.840	-38.241	457.576	1239.637	-77.535	414.385	1078.380	-80.468	421.878	799.494
-121.355	412.574	1261.965	-49.233	356.697	1299.055	-38.153	457.574	1239.947	-77.494	414.113	1078.317	-80.467	422.093	799.568
-121.275	412.238	1261.896	-49.187	356.473	1298.929	-38.076	457.539	1240.185	-77.575	414.285	1078.440	-80.464	422.313	799.684
-121.322	412.453	1262.153	-49.132	355.862	1298.679	-38.052	457.626	1240.453	-77.543	414.301	1078.470	-80.458	422.573	799.767
-121.312	412.361	1262.074	-49.192	356.087	1298.762	-38.117	457.579	1240.727	-77.540	414.392	1078.561	-80.472	422.673	799.874
-121.242	412.412	1262.183	-49.159	355.845	1298.630	-38.186	457.762	1241.038	-77.492	414.639	1078.631	-80.489	422.753	799.913
-121.184	412.233	1262.148	-49.167	355.696	1298.537	-38.050	457.769	1241.230	-77.431	414.826	1078.740	-80.455	422.975	799.982
-121.168	412.163	1262.218	-49.174	355.551	1298.385	-38.034	457.945	1241.607	-77.409	414.927	1078.859	-80.491	423.149	800.047
-121.201	412.389	1262.295	-49.215	355.418	1298.222	-38.016	458.055	1241.749	-77.338	414.940	1078.936	-80.505	423.479	800.030
-121.091	412.403	1262.333	-49.203	355.151	1298.086	-38.016	458.252	1242.108	-77.330	415.061	1079.057	-80.399	423.765	800.166
-121.086	412.513	1262.425	-49.186	354.916	1297.852	-37.928	458.319	1242.334	-77.292	415.032	1079.083	-80.438	423.911	800.194
-121.048	412.424	1262.396	-49.230	354.848	1297.763	-37.852	458.462	1242.588	-77.214	415.172	1079.209	-80.427	424.054	800.377
-120.980	412.431	1262.504	-49.139	354.748	1297.564	-37.768	458.551	1242.883	-77.183	415.296	1079.240	-80.364	424.133	800.542
-120.935	412.467	1262.530	-49.161	354.583	1297.421	-37.858	458.697	1243.326	-77.171	415.300	1079.368	-80.302	424.219	800.583
-120.923	412.474	1262.543	-49.136	354.449	1297.327	-37.812	458.858	1243.554	-77.185	415.342	1079.453	-80.255	424.377	800.755
-120.793	412.602	1262.686	-49.164	354.424	1297.222	-37.738	459.130	1244.133	-77.076	415.473	1079.589	-80.314	424.631	800.950
-120.739	412.668	1262.706	-49.018	354.247	1297.094	-37.708	459.393	1244.762	-77.037	415.389	1079.698	-80.279	424.849	800.943
-120.737	412.776	1262.807	-48.972	354.251	1296.886	-37.664	459.461	1245.114	-76.962	415.511	1079.727	-80.205	425.020	801.167
-120.673	412.760	1262.835	-48.946	354.055	1296.778	-37.612	459.550	1245.678	-76.874	415.635	1079.861	-80.151	425.088	801.227
-120.541	412.863	1262.861	-48.925	354.019	1296.791	-37.530	459.801	1246.007	-76.849	415.879	1080.016	-80.078	425.223	801.412
-120.542	413.032	1262.976	-48.952	353.947	1296.577	-37.495	459.956	1246.497	-76.728	416.208	1080.093	-79.985	425.284	801.510
-120.431	413.023	1262.945	-48.831	353.936	1296.535	-37.398	460.115	1246.806	-76.679	416.554	1080.281	-79.979	425.485	801.652
-120.372	413.214	1263.157	-48.775	353.879	1296.478	-37.244	460.282	1247.169	-76.538	416.840	1080.372	-79.984	425.713	801.734
-120.296	413.321	1263.176	-48.759	353.960	1296.461	-37.291	460.539	1247.517	-76.419	417.107	1080.414	-79.889	425.948	801.893
-120.225	413.404	1263.227	-48.622	353.919	1296.321	-37.103	460.574	1247.865	-76.364	417.222	1080.538	-79.859	426.139	802.021
-120.224	413.519	1263.341	-48.614	353.869	1296.278	-37.032	460.865	1248.202	-76.350	417.165	1080.652	-79.870	426.381	802.177
-120.140	413.648	1263.342	-48.579	353.821	1296.216	-36.944	460.970	1248.492	-76.285	417.253	1080.696	-79.772	426.570	802.295
-120.052	413.729	1263.488	-48.432	353.684	1296.200	-36.846	461.126	1248.848	-76.241	417.348	1080.816	-79.665	426.529	802.489
-120.069	413.979	1263.670	-48.408	353.686	1296.032	-36.726	461.090	1249.197	-76.225	417.367	1080.999	-79.657	426.385	802.551
-119.943	413.861	1263.646	-48.332	353.676	1295.956	-36.583	461.148	1249.490	-76.169	417.372	1081.098	-79.545	426.404	802.765
-119.876	413.813	1263.708	-48.323	353.551	1295.854	-36.430	461.122	1249.872	-76.102	417.365	1081.194	-79.512	426.522	802.858
-119.804	413.934	1263.757	-48.268	353.413	1295.710	-36.239	461.117	1250.323	-75.989	417.240	1081.264	-79.435	426.700	803.015
-119.819	413.861	1263.936	-48.291	353.206	1295.593	-36.296	461.138	1250.610	-75.891	417.063	1081.339	-79.363	426.772	803.137
-119.807	413.865	1263.930	-48.227	353.174	1295.508	-36.187	461.248	1250.891	-75.838	417.233	1081.561	-79.313	427.045	803.305
-119.786	413.933	1263.999	-48.104	352.918	1295.322	-36.135	461.361	1251.209	-75.738	417.464	1081.658	-79.284	427.182	803.430
-119.673	413.926	1264.101	-48.141	352.859	1295.283	-36.069	461.389	1251.369	-75.657	417.776	1081.762	-79.196	427.180	803.565
-119.610	413.928	1264.168	-48.046	352.771	1295.144	-36.028	461.493	1251.679	-75.525	418.025	1081.962	-79.091	427.275	803.773
-119.549	413.964	1264.319	-48.109	352.645	1295.026	-35.952	461.618	1252.027	-75.538	418.104	1082.084	-79.019	427.310	803.886
-119.528	413.937	1264.348	-48.029	352.509	1294.881	-35.888	461.665	1252.214	-75.505	418.193	1082.204	-79.028	427.516	803.972
-119.464	413.984	1264.485	-47.992	352.347	1294.777	-35.830	461.780	1252.490	-75.426	418.076	1082.241	-78.925	427.834	804.066
-119.379	413.935	1264.600	-47.930	352.214	1294.682	-35.754	461.886	1252.822	-75.422	418.092	1082.440	-78.776	427.815	804.171
-119.203	413.921	1264.784	-47.977	352.145	1294.639	-35.713	461.832	1253.035	-75.503	418.352	1082.865	-78.859	427.742	804.374
-119.167	413.843	1264.854	-47.888	351.917	1294.493	-35.549	461.797	1253.363	-75.414	418.195	1082.943	-78.818	427.670	804.500
-119.156	413.785	1265.079	-47.834	351.773	1294.424	-35.545	461.953	1253.759	-75.285	418.278	1083.118	-78.717	427.711	804.627
-119.083	413.583	1265.248	-47.748	351.599	1294.375	-35.524	461.789	1254.249	-75.181	418.088	1083.237	-78.710	427.551	804.749
-119.026	413.534	1265.377	-47.746	351.459	1294.272	-35.446	461.673	1254.703	-75.026	417.923	1083.465	-78.644	427.557	804.837
-118.987	413.412	1265.491	-47.649	351.263	1294.214	-35.401	461.725	1255.181	-75.073	417.612	1083.658	-78.593	427.806	804.977
-118.917	413.268	1265.684	-47.597	351.144	1294.165	-35.405	461.661	1255.679	-74.952	417.473	1083.767	-78.494	427.972	805.152
-118.855	413.255	1265.963	-47.508	350.978	1294.069	-35.316	461.720	1256.289	-74.927	417.519	1083.891	-78.418	428.006	805.307
-118.841	413.164	1265.980	-47.552	350.789	1293.946	-35.265	461.733	1256.864	-74.938	417.529	1084.046	-78.446	427.897	805.484
-118.736	413.022	1266.108	-47.413	350.627	1293.808	-35.345	461.941	1257.511	-74.943	417.668	1084.113	-78.313	427.794	805.457
-118.682	412.873	1266.222	-47.467	350.537	1293.705	-35.268	461.930	1258.044	-74.912	417.849	1084.313	-78.275	427.791	805.626
-118.642	412.870	1266.293	-47.367	350.391	1293.573	-35.311	461.892	1258.498	-74.923	417.924	1084.384	-78.152	427.896	805.851
-118.599	412.798	1266.435	-47.385	350.222	1293.580	-35.365	461.904	1258.900	-74.852	417.960	1084.438	-78.081	428.042	805.979
-118.527	412.700	1266.583	-47.336	350.029	1293.417	-35.389	462.002	1259.340	-74.883	417.933	1084.613	-78.141	428.206	806.163
-118.474	412.645	1266.823	-47.241	349.976	1293.373	-35.379	461.948	1259.556	-74.816	417.842	1084.725	-77.982	428.290	806.284
-118.435	412.591	1266.884	-47.297	349.703	1293.234	-35.359	461.967	1259.834	-74.789	417.743	1084.837	-77.963	428.536	806.482
-118.503	412.410	1266.919	-47.244	349.536	1293.122	-35.356	462.002	1260.161	-74.774	417.816	1084.932	-77.876	428.466	806.597
-118.529	412.430	1267.081	-47.299	349.511	1293.002	-35.387	462.040	1260.497	-74.629	417.835	1085.044	-77.802	428.163	806.626
-118.577	412.380	1267.151	-47.224	349.270	1292.878	-35.432	462.087	1260.865	-74.658	417.656	1085.161	-77.668	427.972	806.629
-118.500	412.181	1267.259	-47.166	349.226	1292.876	-35.308	462.094	1261.333	-74.569	417.419	1085.288	-77.602	428.055	806.767
-118.502	412.092	1267.212	-47.178	348.976	1292.637	-35.383	462.031	1261.880	-74.514	417.305	1085.384	-77.496	428.115	806.849
-118.502	411.990	1267.484	-47.257	348.796	1292.554	-35.353	461.918	1262.356	-74.501	417.036	1085.612	-77.416	428.016	806.814
-118.442	411.874	1267.556	-47.184	348.443	1292.453	-35.300	461.665	1262.754	-74.462	416.883	1085.634	-77.359	427.845	807.026
-118.352	411.652	1267.639	-47.112	348.433	1292.361	-35.333	461.852	1263.170	-74.433	416.974	1085.845	-77.179	427.803	807.091
-118.445	411.742	1267.706	-47.147	348.120	1292.273	-35.326	461.658	1263.498	-74.398	417.015	1085.908	-77.096	427.790	807.145
-118.411	411.506	1267.723	-47.055	348.037	1292.239	-35.231	461.563	1263.834	-74.381	417.002	1086.050	-76.966	427.607	807.196
-118.332	411.534	1267.940	-46.951	347.874	1292.173	-35.244	461.483	1264.071	-74.310	417.080	1086.257	-76.903	427.436	807.226
-118.275	411.491	1267.979	-47.049	347.826	1292.172	-35.210	461.331	1264.392	-74.260	417.121	1086.271	-76.772	427.446	807.327
-118.319	411.507	1268.018	-47.121	347.921	1292.204	-35.144	461.346	1264.648	-74.185	417.143	1086.402	-76.657	427.522	807.440
-118.318	411.628	1268.080	-47.023	347.938	1292.169	-35.043	461.298	1264.929	-74.092	417.115	1086.463	-76.604	427.565	807.548
-118.262	411.611	1268.235	-47.053	347.889	1292.066	-35.050	461.246	1265.253	-74.016	417.229	1086.662	-76.515	427.394	807.656
-118.242	411.612	1268.261	-47.017	347.770	1292.057	-35.032	461.268	1265.491	-73.933	417.161	1086.709	-76.395	427.117	807.807
-118.244	411.683	1268.290	-46.984	347.748	1291.911	-34.980	461.252	1265.711	-73.825	417.291	1086.908	-76.134	426.998	807.881
-118.151	411.684	1268.391	-47.015	347.633	1291.853	-34.969	461.268	1265.916	-73.707	417.278	1086.924	-76.111	426.889	807.884
-118.182	411.602	1268.382	-46.907	347.643	1291.783	-35.074	461.304	1266.291	-73.669	417.279	1087.088	-76.087	426.788	808.089
-118.076	411.576	1268.429	-46.852	347.479	1291.647	-35.066	461.345	1266.796	-73.636	417.075	1087.134	-75.945	426.707	808.192
-118.041	411.531	1268.531	-46.795	347.368	1291.527	-35.019	461.469	1267.298	-73.596	416.907	1087.142	-75.874	426.530	808.247
-118.029	411.604	1268.637	-46.783	347.283	1291.311	-35.103	461.514	1267.599	-73.550	416.873	1087.276	-75.802	426.529	808.317
-117.979	411.404	1268.619	-46.805	347.092	1291.200	-35.063	461.556	1268.019	-73.563	416.767	1087.353	-75.756	426.399	808.349
-118.032	411.348	1268.685	-46.721	346.951	1291.034	-35.110	461.723	1268.431	-73.449	416.817	1087.503	-75.683	426.130	808.473
-117.989	411.273	1268.766	-46.666	346.794	1290.888	-35.162	461.886	1269.043	-73.465	416.728	1087.565	-75.562	425.918	808.606
-117.911	411.181	1268.832	-46.891	346.602	1290.704	-35.123	461.957	1269.256	-73.423	416.699	1087.735	-75.483	425.848	808.649
-117.933	411.090	1268.880	-46.712	346.382	1290.546	-35.138	461.913	1269.684	-73.415	416.513	1087.769	-75.379	425.770	808.748
-117.912	411.025	1268.922	-46.595	346.223	1290.497	-35.179	461.857	1270.225	-73.338	416.407	1087.867	-75.312	425.658	808.861
-117.878	410.937	1269.054	-46.587	346.192	1290.363	-35.142	461.681	1270.680	-73.227	416.307	1087.998	-75.209	425.532	808.982
-117.973	411.149	1269.210	-46.693	345.891	1290.228	-35.228	461.551	1271.191	-73.215	416.162	1088.063	-75.234	425.424	809.182
-117.984	411.021	1269.239	-46.546	345.853	1290.141	-35.213	461.472	1271.457	-73.121	416.076	1088.165	-75.038	425.361	809.350
-117.999	410.887	1269.368	-46.655	345.487	1290.003	-35.318	461.488	1271.972	-73.058	415.986	1088.210	-74.883	425.253	809.417
-117.960	410.736	1269.406	-46.562	345.393	1289.950	-35.354	461.293	1272.385	-73.043	415.823	1088.267	-74.864	424.919	809.567
-117.943	410.579	1269.513	-46.701	345.170	1289.838	-35.400	461.172	1272.763	-73.069	415.689	1088.368	-74.744	424.747	809.792
-117.933	410.404	1269.545	-46.428	345.012	1289.743	-35.374	461.053	1273.248	-72.954	415.524	1088.468	-74.605	424.704	809.889
-118.039	410.237	1269.632	-46.406	344.914	1289.646	-35.390	460.768	1273.538	-72.936	415.234	1088.545	-74.536	424.594	809.961
-117.996	410.162	1269.781	-46.350	344.630	1289.483	-35.503	460.745	1273.872	-72.909	415.131	1088.666	-74.419	424.495	810.028
-117.979	410.044	1269.896	-46.509	344.513	1289.472	-35.532	460.590	1274.125	-72.930	414.973	1088.766	-74.398	424.247	810.231
-117.957	409.917	1269.987	-46.303	344.235	1289.330	-35.539	460.446	1274.273	-72.908	414.851	1088.830	-74.259	424.121	810.264
-117.969	409.759	1270.019	-46.489	343.795	1289.196	-35.578	460.432	1274.566	-72.894	414.816	1088.906	-74.151	423.877	810.331
-118.003	409.726	1270.134	-46.202	343.756	1289.193	-35.683	460.457	1274.823	-72.815	414.711	1088.982	-74.072	423.687	810.536
-117.986	409.574	1270.083	-46.278	343.690	1289.062	-35.696	460.447	1275.091	-72.656	414.878	1089.207	-73.959	423.451	810.736
-117.580	408.546	1269.833	-46.188	343.543	1289.097	-36.086	461.052	1275.714	-72.746	414.588	1089.317	-73.845	423.391	810.830
-117.685	408.719	1270.053	-46.211	343.379	1289.021	-35.953	460.790	1275.870	-72.630	414.334	1089.472	-73.745	423.293	810.883
-117.622	408.655	1270.113	-46.225	343.250	1288.978	-35.966	460.642	1276.171	-72.657	414.218	1089.566	-73.578	423.264	811.063
-117.575	408.514	1270.326	-46.160	343.081	1288.826	-35.906	460.461	1276.424	-72.587	414.150	1089.808	-73.414	422.906	811.159
-117.572	408.459	1270.410	-46.159	342.995	1288.815	-36.016	460.261	1276.816	-72.566	414.063	1089.839	-73.282	422.535	811.264
-117.520	408.255	1270.506	-46.230	342.913	1288.795	-36.066	460.099	1277.134	-72.602	414.064	1090.016	-73.175	422.375	811.414
-117.570	408.080	1270.661	-46.146	342.629	1288.681	-35.997	459.867	1277.481	-72.552	413.928	1090.140	-73.076	422.124	811.552
-117.496	407.661	1270.650	-46.143	342.595	1288.659	-36.023	459.725	1277.887	-72.520	413.830	1090.302	-72.969	421.906	811.691
-117.513	407.777	1270.994	-46.131	342.405	1288.548	-35.943	459.406	1278.169	-72.503	413.508	1090.360	-72.892	421.799	811.767
-117.563	407.650	1271.073	-46.058	342.236	1288.467	-36.031	459.450	1278.714	-72.503	413.194	1090.486	-72.791	421.629	811.891
-117.567	407.358	1271.335	-46.061	342.101	1288.371	-36.131	459.290	1279.123	-72.474	413.064	1090.572	-72.710	421.539	812.018
-117.526	406.990	1271.341	-45.798	341.987	1288.400	-36.163	459.315	1279.535	-72.392	413.038	1090.804	-72.634	421.231	812.157
-117.555	406.749	1271.529	-45.763	341.795	1288.290	-36.183	459.103	1280.098	-72.411	413.000	1090.953	-72.614	420.813	812.351
-117.543	406.672	1271.614	-45.658	341.713	1288.211	-36.430	459.278	1280.622	-72.305	412.693	1091.065	-72.575	420.578	812.381
-117.504	406.603	1271.922	-45.672	341.479	1288.094	-36.439	459.260	1280.833	-72.324	412.464	1091.202	-72.385	420.532	812.481
-117.662	406.352	1271.976	-45.728	341.446	1288.275	-36.489	459.268	1281.122	-72.285	412.312	1091.381	-72.236	420.444	812.653
-117.686	406.273	1272.091	-45.607	341.113	1288.096	-36.508	459.135	1281.351	-72.181	412.164	1091.529	-72.204	420.173	812.822
-117.690	406.182	1272.169	-45.583	340.997	1288.134	-36.622	459.150	1281.675	-72.182	412.031	1091.670	-72.150	419.876	812.968
-117.697	406.069	1272.277	-45.573	340.880	1288.157	-36.669	459.139	1281.818	-72.181	411.915	1091.811	-72.044	419.564	813.110
-117.732	406.030	1272.286	-45.596	340.780	1288.033	-36.747	459.220	1282.041	-72.202	411.862	1092.010	-71.929	419.430	813.246
-117.656	405.895	1272.282	-45.632	340.635	1288.046	-36.773	459.152	1282.201	-72.177	411.723	1092.095	-71.853	419.228	813.580
-117.706	405.928	1272.477	-45.559	340.571	1288.143	-36.879	459.095	1282.388	-72.163	411.671	1092.275	-71.721	418.934	813.727
-117.763	405.874	1272.548	-45.542	340.445	1288.077	-36.909	459.187	1282.768	-72.015	411.585	1092.316	-71.699	418.604	813.779
-117.768	405.969	1272.713	-45.552	340.406	1288.079	-36.894	459.090	1282.871	-72.004	411.403	1092.545	-71.626	418.488	813.910
-117.717	405.835	1272.641	-45.495	340.369	1288.020	-37.016	459.100	1283.118	-71.978	411.224	1092.671	-71.547	418.394	813.912
-117.637	405.778	1272.766	-45.463	340.266	1288.034	-37.016	459.060	1283.259	-71.982	411.180	1092.754	-71.422	418.164	814.067
-117.682	405.779	1272.785	-45.441	340.254	1288.019	-36.993	459.061	1283.387	-71.850	411.103	1092.884	-71.354	417.896	814.140
-117.689	405.823	1272.859	-45.454	340.100	1287.845	-36.899	459.000	1283.747	-71.864	411.242	1093.095	-71.226	417.476	814.196
-117.633	405.780	1272.920	-45.434	340.123	1287.926	-36.950	459.002	1284.035	-71.704	410.981	1093.026	-71.169	417.209	814.292
-117.601	405.686	1272.851	-45.448	339.972	1287.816	-37.084	458.922	1284.301	-71.804	411.079	1093.269	-71.015	417.103	814.383
-117.516	405.547	1272.853	-45.306	339.992	1287.726	-37.025	458.859	1284.404	-71.740	410.908	1093.255	-70.921	416.800	814.442
-117.531	405.658	1272.991	-45.341	339.892	1287.671	-37.056	458.820	1284.790	-71.650	410.826	1093.342	-70.850	416.536	814.475
-117.579	405.592	1272.966	-45.313	339.874	1287.561	-37.103	458.837	1285.053	-71.676	410.659	1093.460	-70.687	416.291	814.545
-117.469	405.593	1272.977	-45.328	339.916	1287.619	-37.021	458.770	1285.149	-71.645	410.543	1093.638	-70.561	416.176	814.542
-117.525	405.699	1273.128	-45.203	339.879	1287.496	-37.082	458.784	1285.416	-71.553	410.401	1093.647	-70.418	415.685	814.497
-117.519	405.638	1273.060	-45.189	339.802	1287.401	-37.020	458.713	1285.514	-71.506	410.399	1093.608	-70.416	415.272	814.548
-117.436	405.648	1273.123	-45.152	339.821	1287.413	-37.053	458.698	1285.765	-71.383	410.377	1093.724	-70.246	414.882	814.578
-117.350	405.572	1273.121	-45.118	339.763	1287.242	-37.070	458.604	1285.924	-71.404	410.326	1093.759	-70.166	414.549	814.632
-117.381	405.522	1273.062	-45.095	339.670	1287.305	-37.151	458.786	1286.160	-71.351	410.202	1093.797	-70.081	414.327	814.578
-117.302	405.415	1273.109	-45.037	339.636	1287.242	-37.119	458.814	1286.398	-71.292	410.084	1093.826	-69.998	414.331	814.678
-117.274	405.443	1273.175	-45.012	339.513	1287.230	-37.101	458.768	1286.594	-71.283	409.969	1093.871	-69.893	414.098	814.626
-117.287	405.348	1273.141	-44.919	339.506	1287.161	-37.132	458.757	1286.759	-71.165	409.965	1094.026	-69.816	413.780	814.731
-117.228	405.171	1273.129	-44.901	339.430	1287.198	-37.054	458.552	1286.989	-71.110	409.968	1094.023	-69.749	413.383	814.747
-117.185	405.144	1273.187	-44.696	339.200	1287.036	-37.014	458.422	1287.046	-70.940	409.898	1094.200	-69.630	413.227	814.831
-117.189	405.050	1273.215	-44.808	339.276	1287.025	-36.994	458.275	1287.239	-70.929	409.740	1094.201	-69.727	412.891	814.776
-117.105	404.872	1273.159	-44.619	339.105	1287.036	-37.001	458.178	1287.457	-70.936	409.409	1094.301	-69.507	412.568	814.837
-117.081	404.793	1273.211	-44.660	339.105	1286.992	-36.974	457.983	1287.508	-70.900	409.179	1094.458	-69.321	412.227	814.858
-117.038	404.747	1273.321	-44.527	338.862	1286.849	-37.073	457.966	1287.817	-70.809	409.244	1094.477	-69.253	411.904	814.973
-117.001	404.478	1273.343	-44.561	338.770	1286.819	-37.087	457.784	1287.776	-70.765	408.714	1094.631	-69.107	411.535	814.914
-116.920	404.395	1273.353	-44.448	338.770	1286.938	-37.037	457.633	1287.903	-70.651	408.405	1094.639	-68.973	411.333	815.058
-116.898	404.466	1273.506	-44.365	338.627	1286.899	-37.035	457.607	1287.973	-70.545	408.391	1094.742	-68.781	411.121	815.126
-116.885	404.274	1273.512	-44.244	338.542	1286.933	-37.017	457.563	1288.037	-70.545	408.181	1094.843	-68.725	410.734	815.169
-116.802	404.238	1273.566	-44.232	338.592	1287.063	-36.875	457.485	1288.109	-70.467	408.121	1095.043	-68.554	410.270	815.231
-116.748	404.135	1273.491	-44.179	338.492	1287.094	-36.830	457.372	1288.149	-70.327	408.203	1095.085	-68.442	410.038	815.240
-116.732	404.093	1273.601	-44.094	338.474	1287.129	-36.761	457.345	1288.241	-70.327	408.065	1095.183	-68.330	409.774	815.300
-116.773	404.066	1273.694	-44.107	338.516	1287.281	-36.676	457.246	1288.292	-70.213	408.103	1095.268	-68.282	409.657	815.374
-116.707	404.100	1273.745	-44.063	338.370	1287.330	-36.620	457.319	1288.282	-70.147	407.990	1095.365	-68.236	409.538	815.501
-116.605	404.070	1273.774	-44.026	338.435	1287.402	-36.559	457.230	1288.346	-70.059	407.969	1095.399	-68.228	409.362	815.546
-116.563	404.039	1273.910	-43.935	338.437	1287.461	-36.576	457.295	1288.497	-69.968	407.830	1095.505	-68.073	409.082	815.551
-116.512	403.972	1273.895	-43.858	338.437	1287.456	-36.413	457.136	1288.410	-69.928	407.495	1095.509	-68.071	408.757	815.568
-116.459	403.952	1273.882	-43.877	338.389	1287.492	-36.324	457.087	1288.527	-69.868	407.326	1095.543	-68.011	408.460	815.633
-116.369	403.908	1273.947	-43.754	338.366	1287.590	-36.259	457.108	1288.547	-69.727	407.021	1095.499	-67.787	407.959	815.582
-116.314	403.860	1273.939	-43.785	338.246	1287.513	-36.255	457.156	1288.755	-69.750	406.837	1095.622	-67.762	407.495	815.698
-116.251	403.776	1274.030	-43.666	338.242	1287.561	-36.148	456.894	1288.614	-69.619	406.480	1095.523	-67.650	407.034	815.710
-116.210	403.764	1274.002	-43.540	338.194	1287.419	-36.149	456.941	1288.893	-69.523	406.422	1095.556	-67.573	406.737	815.697
-116.064	403.544	1273.987	-43.540	338.158	1287.387	-36.044	456.887	1289.014	-69.291	406.110	1095.541	-67.505	406.576	815.772
-116.071	403.598	1274.008	-43.507	338.030	1287.379	-36.002	456.783	1289.156	-69.311	405.912	1095.583	-67.384	406.442	815.713
-115.944	403.412	1273.894	-43.450	337.928	1287.346	-35.920	456.674	1289.423	-69.179	405.875	1095.557	-67.309	406.159	815.821
-115.918	403.324	1273.879	-43.374	337.861	1287.293	-35.878	456.540	1289.456	-69.080	405.807	1095.542	-67.299	405.859	815.798
-115.878	403.325	1273.969	-43.206	337.637	1287.031	-35.800	456.435	1289.664	-69.055	405.844	1095.548	-67.220	405.519	815.875
-115.875	403.198	1273.919	-43.235	337.716	1287.208	-35.822	456.369	1289.764	-69.005	405.723	1095.606	-67.137	405.251	815.803
-115.696	402.971	1273.865	-43.111	337.608	1287.100	-35.701	456.133	1289.676	-69.087	405.628	1095.613	-67.152	405.016	815.868
-115.720	403.026	1273.826	-42.874	337.285	1286.990	-35.806	456.251	1289.879	-68.958	405.319	1095.539	-67.050	404.856	815.901
-115.673	402.991	1273.847	-42.964	337.422	1287.142	-35.708	456.173	1289.756	-69.006	405.048	1095.548	-67.031	404.486	815.836
-115.664	402.898	1273.838	-42.968	337.400	1287.197	-35.670	455.918	1289.783	-68.908	404.920	1095.570	-66.967	404.229	815.852
-115.591	402.770	1273.733	-42.844	337.351	1287.252	-35.597	455.960	1289.825	-68.769	404.789	1095.495	-66.891	403.784	815.919
-115.582	402.738	1273.732	-42.750	337.240	1287.244	-35.619	455.881	1289.741	-68.721	404.630	1095.525	-66.820	403.416	815.872
-115.526	402.653	1273.692	-42.691	337.128	1287.214	-35.616	455.848	1289.663	-68.585	404.431	1095.397	-66.681	403.102	815.924
-115.494	402.588	1273.625	-42.769	337.220	1287.211	-35.617	455.880	1289.700	-68.505	404.476	1095.491	-66.593	402.922	815.823
-115.392	402.447	1273.587	-42.650	336.991	1287.224	-35.515	455.781	1289.631	-68.391	404.214	1095.332	-66.458	402.659	815.824
-115.448	402.431	1273.491	-42.525	336.917	1287.154	-35.531	455.717	1289.535	-68.291	403.977	1095.286	-66.464	402.475	815.861
-115.420	402.445	1273.476	-42.516	336.794	1287.189	-35.446	455.663	1289.408	-68.300	403.964	1095.217	-66.427	402.197	815.726
-115.370	402.425	1273.396	-42.599	336.768	1287.200	-35.438	455.513	1289.257	-68.258	403.808	1095.155	-66.384	401.765	815.773
-115.310	402.201	1273.198	-42.515	336.678	1287.133	-35.496	455.566	1289.337	-68.229	403.739	1095.106	-66.257	401.526	815.569
-115.265	402.158	1273.126	-42.579	336.658	1287.146	-35.314	455.338	1289.024	-68.270	403.500	1094.988	-66.288	401.201	815.528
-115.287	402.041	1272.982	-42.594	336.665	1287.144	-35.435	455.358	1289.021	-68.231	403.266	1094.924	-66.286	400.965	815.378
-115.282	402.008	1272.892	-42.513	336.407	1286.988	-35.448	455.382	1288.988	-68.218	402.969	1094.814	-66.214	400.655	815.238
-115.280	401.975	1272.851	-42.474	336.296	1286.944	-35.380	455.272	1288.797	-68.155	402.803	1094.719	-66.128	400.469	815.171
-115.180	401.759	1272.522	-42.454	336.160	1286.886	-35.494	455.379	1288.578	-68.099	402.646	1094.521	-65.985	400.155	815.074
-115.117	401.817	1272.456	-42.500	336.013	1286.903	-35.347	455.279	1288.373	-68.054	402.391	1094.435	-65.955	399.889	815.032
-115.188	401.765	1272.255	-42.540	336.082	1286.896	-35.499	455.370	1288.170	-67.997	402.299	1094.297	-65.877	399.469	814.818
-115.001	401.475	1271.967	-42.559	335.998	1287.002	-35.515	455.248	1287.881	-67.891	402.000	1094.188	-65.813	399.283	814.806
-114.918	401.388	1271.775	-42.572	335.962	1287.078	-35.484	455.276	1287.676	-67.879	401.799	1094.053	-65.838	399.053	814.606
-115.016	401.447	1271.680	-42.626	335.980	1287.149	-35.510	455.327	1287.444	-67.883	401.458	1093.836	-65.852	398.779	814.439
-115.069	401.530	1271.626	-42.674	336.004	1287.175	-35.521	455.261	1287.281	-67.791	401.116	1093.566	-65.889	398.555	814.302
-115.077	401.529	1271.610	-42.756	335.771	1287.268	-35.412	454.904	1286.969	-67.931	400.858	1093.429	-65.822	398.144	814.025
-115.000	401.369	1271.395	-42.819	335.923	1287.394	-35.413	454.773	1286.627	-67.992	400.562	1093.252	-65.778	397.815	813.912
-115.060	401.255	1271.286	-42.788	335.653	1287.403	-35.390	454.627	1286.360	-68.027	400.187	1092.949	-65.782	397.466	813.748
-115.138	401.099	1271.031	-42.852	335.647	1287.525	-35.372	454.468	1285.982	-68.057	399.833	1092.741	-65.808	397.151	813.554
-115.174	400.934	1270.872	-42.849	335.447	1287.662	-35.439	454.297	1285.563	-68.128	399.307	1092.553	-65.796	396.798	813.350
-115.163	400.624	1270.643	-42.904	335.360	1287.768	-35.293	454.089	1285.130	-68.114	398.820	1092.222	-65.799	396.227	813.072
-115.101	400.461	1270.438	-42.971	335.200	1287.868	-35.340	454.046	1284.722	-68.138	398.426	1092.066	-65.801	395.901	812.820
-115.166	400.153	1270.252	-43.012	335.023	1287.991	-35.410	454.022	1284.230	-68.197	398.093	1091.775	-65.775	395.511	812.659
-115.110	399.922	1270.100	-42.878	335.204	1288.248	-35.443	453.951	1283.662	-68.174	397.709	1091.657	-65.699	395.083	812.309
-115.110	399.838	1269.945	-42.937	335.096	1288.489	-35.445	453.895	1283.068	-68.176	397.357	1091.380	-65.638	394.667	812.117
-115.132	399.742	1269.837	-42.950	335.167	1288.782	-35.420	453.764	1282.430	-68.241	396.865	1091.209	-65.684	394.253	811.892
-115.129	399.591	1269.596	-43.062	335.140	1289.031	-35.484	453.809	1281.864	-68.188	396.359	1090.890	-65.654	393.855	811.637
-115.165	399.500	1269.495	-43.097	335.114	1289.215	-35.383	453.781	1281.235	-68.185	396.050	1090.721	-65.654	393.484	811.315
-115.201	399.564	1269.374	-43.178	335.266	1289.568	-35.227	453.702	1280.523	-68.253	395.598	1090.451	-65.597	393.115	811.058
-115.210	399.351	1269.150	-43.280	335.225	1289.927	-35.301	453.634	1279.885	-68.308	395.242	1090.212	-65.618	392.672	810.853
-115.292	399.521	1269.049	-43.358	335.414	1290.221	-35.223	453.638	1279.367	-68.279	394.847	1089.928	-65.607	392.333	810.724
-115.343	399.469	1268.853	-43.454	335.544	1290.590	-35.094	453.417	1278.650	-68.310	394.501	1089.657	-65.614	392.058	810.488
-115.266	399.268	1268.631	-43.274	335.645	1290.834	-34.986	453.389	1278.107	-68.304	394.086	1089.484	-65.636	391.726	810.245
-115.334	399.356	1268.360	-43.405	335.798	1291.042	-35.110	453.492	1277.680	-68.321	393.721	1089.300	-65.673	391.399	810.077
-115.333	399.280	1268.193	-43.437	336.126	1291.376	-35.061	453.582	1277.161	-68.266	393.278	1089.025	-65.603	391.024	809.776
-115.319	399.343	1267.961	-43.563	336.227	1291.628	-35.005	453.569	1276.470	-68.244	392.828	1088.805	-65.641	390.578	809.535
-115.399	399.371	1267.818	-43.601	336.408	1291.832	-35.034	453.723	1275.816	-68.154	392.483	1088.545	-65.586	390.312	809.356
-115.283	399.270	1267.417	-43.678	336.554	1292.029	-35.161	453.969	1275.196	-68.147	392.142	1088.413	-65.538	389.942	809.123
-115.182	399.236	1267.107	-43.711	336.529	1292.192	-35.190	454.130	1274.580	-68.132	391.704	1088.151	-65.574	389.480	808.781
-115.730	400.724	1267.372	-43.804	336.794	1292.328	-34.439	453.032	1272.914	-68.142	391.397	1087.960	-65.503	389.162	808.558
-115.700	400.753	1267.049	-43.841	336.847	1292.534	-34.369	453.182	1272.299	-68.217	391.047	1087.826	-65.490	388.782	808.371
-115.764	400.912	1266.810	-43.781	337.052	1292.771	-34.405	453.189	1271.447	-68.261	390.798	1087.683	-65.440	388.458	808.127
-115.777	400.828	1266.557	-43.786	337.126	1292.922	-34.336	453.109	1270.949	-68.259	390.425	1087.511	-65.459	388.119	807.897
-115.819	400.991	1266.328	-43.818	337.215	1293.060	-34.304	452.983	1270.398	-68.326	390.137	1087.250	-65.452	387.740	807.641
-115.863	400.837	1265.920	-43.847	337.164	1293.231	-34.178	452.694	1269.621	-68.354	389.806	1086.995	-65.506	387.425	807.448
-115.889	400.846	1265.764	-43.886	337.291	1293.410	-34.112	452.246	1268.948	-68.464	389.482	1086.777	-65.530	387.152	807.182
-115.738	400.202	1265.263	-43.897	337.220	1293.553	-34.021	452.261	1268.143	-68.469	389.135	1086.569	-65.445	386.808	807.068
-115.780	400.009	1265.075	-43.927	337.305	1293.892	-34.232	452.198	1267.365	-68.486	388.896	1086.323	-65.464	386.564	806.807
-115.912	399.913	1264.797	-44.005	337.194	1294.090	-34.339	452.051	1266.558	-68.458	388.627	1086.127	-65.502	386.261	806.537
-115.855	399.552	1264.491	-44.016	337.227	1294.358	-34.411	451.808	1265.738	-68.536	388.538	1085.859	-65.517	385.855	806.326
-115.984	399.569	1264.456	-43.992	337.360	1294.494	-34.373	451.474	1264.627	-68.578	388.295	1085.733	-65.592	385.596	806.197
-115.929	399.270	1264.218	-43.968	337.380	1294.855	-34.281	451.222	1263.578	-68.585	388.063	1085.456	-65.564	385.415	805.929
-115.980	399.209	1263.885	-43.974	337.561	1295.226	-34.310	450.976	1262.753	-68.661	387.937	1085.268	-65.532	385.188	805.656
-115.943	399.070	1263.658	-44.168	338.036	1295.699	-34.198	450.745	1261.846	-68.600	387.764	1085.046	-65.592	385.008	805.517
-115.981	398.928	1263.470	-44.202	338.206	1295.777	-34.100	450.529	1261.101	-68.713	387.663	1084.860	-65.606	384.843	805.307
-115.963	398.900	1263.212	-44.251	338.445	1296.080	-33.915	450.157	1260.263	-68.721	387.551	1084.659	-65.618	384.497	805.107
-115.916	398.847	1262.963	-44.310	338.727	1296.329	-33.836	449.835	1259.450	-68.739	387.522	1084.502	-65.588	384.292	804.854
-115.832	398.901	1262.805	-44.358	338.954	1296.547	-33.763	449.927	1258.982	-68.786	387.271	1084.092	-65.717	383.965	804.750
-115.882	398.905	1262.540	-44.366	339.271	1296.864	-33.691	449.891	1258.138	-68.766	387.146	1083.828	-65.642	383.727	804.433
-115.943	399.022	1262.578	-44.406	339.515	1297.025	-33.756	449.783	1257.292	-68.795	387.147	1083.638	-65.681	383.537	804.223
-115.805	398.920	1262.244	-44.394	339.780	1297.217	-33.652	449.672	1256.529	-68.757	387.156	1083.369	-65.748	383.401	804.110
-115.799	398.834	1261.974	-44.447	340.027	1297.340	-33.679	449.639	1255.783	-68.735	387.048	1082.938	-65.801	383.317	803.826
-115.806	398.863	1261.845	-44.495	340.157	1297.422	-33.692	449.595	1255.112	-68.702	386.959	1082.746	-65.868	383.113	803.585
-115.776	398.662	1261.615	-44.546	340.227	1297.544	-33.633	449.491	1254.374	-68.712	386.934	1082.472	-65.930	382.951	803.372
-115.839	398.510	1261.435	-44.556	340.323	1297.618	-33.790	449.158	1253.546	-68.740	386.880	1082.091	-65.920	382.841	803.261
-115.868	398.309	1261.240	-44.598	340.437	1297.649	-33.838	448.833	1252.982	-68.782	386.843	1081.920	-65.955	382.586	802.984
-115.902	398.230	1261.068	-44.616	340.557	1297.630	-33.813	448.492	1252.370	-68.762	386.573	1081.626	-65.993	382.378	802.844
-115.891	398.069	1260.850	-44.620	340.678	1297.780	-33.797	447.921	1251.715	-68.866	386.302	1081.437	-65.879	382.339	802.562
-115.993	397.892	1260.683	-44.627	340.689	1297.773	-33.812	447.876	1251.233	-68.865	385.976	1081.193	-66.022	382.060	802.394
-116.066	397.793	1260.512	-44.699	340.497	1297.745	-33.900	447.631	1250.875	-68.892	385.606	1081.002	-65.954	381.893	802.194
-116.108	397.531	1260.436	-44.760	340.755	1297.865	-33.933	447.492	1250.433	-68.957	385.443	1080.707	-66.095	381.665	801.971
-116.168	397.475	1260.208	-44.760	340.615	1297.874	-33.925	447.338	1250.123	-68.981	385.248	1080.595	-66.255	381.252	801.725
-116.257	397.251	1260.111	-44.718	340.693	1297.887	-33.994	447.114	1249.598	-69.003	385.089	1080.443	-66.293	381.027	801.514
-116.296	397.043	1259.949	-44.866	340.663	1298.104	-33.993	446.995	1249.124	-69.002	384.838	1080.123	-66.426	380.896	801.378
-116.319	396.881	1259.824	-44.715	340.914	1298.369	-34.046	446.761	1248.357	-69.034	384.640	1079.969	-66.421	380.790	801.237
-116.373	396.724	1259.724	-44.708	341.000	1298.525	-34.070	446.430	1247.671	-69.037	384.562	1079.796	-66.638	380.619	801.053
-116.402	396.592	1259.612	-44.722	341.355	1298.838	-34.103	446.243	1246.959	-69.063	384.544	1079.586	-66.453	380.644	800.929
-116.439	396.528	1259.593	-44.801	341.706	1299.146	-34.190	446.128	1246.242	-69.203	384.390	1079.319	-66.742	380.429	800.643
-116.442	396.308	1259.448	-44.750	341.867	1299.432	-34.217	445.834	1245.430	-69.239	384.341	1079.184	-66.802	380.371	800.571
-116.414	396.194	1259.330	-44.718	342.261	1299.823	-34.317	445.771	1244.656	-69.438	384.265	1078.997	-66.836	380.186	800.463
-116.448	396.127	1259.164	-44.700	342.644	1300.233	-34.252	445.395	1244.013	-69.524	384.117	1078.723	-66.985	379.988	800.204
-116.501	396.161	1259.249	-44.630	343.125	1300.510	-34.212	445.029	1243.275	-69.647	383.975	1078.652	-67.056	379.800	800.050
-116.445	396.065	1259.061	-44.636	343.517	1300.965	-34.141	444.782	1242.748	-69.739	383.829	1078.336	-67.233	379.568	799.909
-116.460	396.125	1258.995	-44.610	343.940	1301.235	-34.111	444.323	1242.006	-69.743	383.480	1078.158	-67.260	379.508	799.824
-116.433	396.081	1258.917	-44.567	344.384	1301.591	-34.093	443.874	1241.301	-69.777	383.359	1078.078	-67.334	379.249	799.672
-116.421	396.124	1258.809	-44.582	344.666	1301.830	-34.054	443.515	1240.725	-69.830	383.232	1077.963	-67.394	379.043	799.479
-116.493	396.054	1258.650	-44.585	344.906	1302.004	-34.067	443.302	1240.130	-69.828	383.123	1077.722	-67.499	378.766	799.216
-116.486	396.001	1258.583	-44.611	345.221	1302.198	-34.105	442.913	1239.663	-69.788	383.165	1077.748	-67.553	378.693	799.108
-116.556	395.949	1258.616	-44.645	345.356	1302.351	-34.046	442.809	1239.128	-69.984	383.003	1077.447	-67.574	378.566	798.993
-116.582	395.871	1258.454	-44.612	345.409	1302.336	-34.046	442.581	1238.663	-70.047	382.899	1077.311	-67.734	378.546	798.918
-116.562	395.753	1258.379	-44.595	345.563	1302.453	-34.114	442.342	1238.230	-70.028	382.953	1077.216	-67.834	378.379	798.742
-116.640	395.758	1258.312	-44.645	345.556	1302.422	-34.195	442.204	1237.871	-70.095	382.882	1077.157	-67.914	378.293	798.688
-116.691	395.414	1258.165	-44.731	345.599	1302.545	-34.279	442.097	1237.655	-70.178	382.945	1077.017	-67.976	378.169	798.542
-116.714	395.170	1257.989	-44.770	345.684	1302.530	-34.335	441.828	1237.239	-70.256	382.801	1076.924	-68.096	378.014	798.425
-116.786	395.210	1258.033	-44.794	345.681	1302.659	-34.447	441.822	1237.091	-70.306	382.559	1076.880	-68.130	377.798	798.247
-116.852	395.115	1257.864	-44.790	345.621	1302.732	-34.521	441.755	1236.784	-70.387	382.450	1076.862	-68.221	377.672	798.199
-116.868	394.972	1257.834	-44.835	345.639	1302.650	-34.646	441.614	1236.509	-70.494	382.251	1076.630	-68.242	377.527	798.221
-116.945	394.785	1257.681	-44.843	345.583	1302.744	-34.651	441.372	1236.239	-70.532	381.896	1076.626	-68.293	377.244	798.081
-116.918	394.564	1257.649	-44.871	345.663	1302.859	-34.692	441.189	1235.948	-70.532	381.655	1076.573	-68.428	377.040	798.047
-117.025	394.486	1257.608	-44.904	345.783	1302.971	-34.764	441.085	1235.660	-70.586	381.502	1076.592	-68.331	376.892	797.946
-117.019	394.342	1257.490	-44.960	345.864	1303.127	-34.770	440.855	1235.338	-70.517	381.336	1076.482	-68.386	376.690	797.824
-117.094	394.188	1257.498	-44.994	346.024	1303.283	-34.855	440.596	1234.893	-70.507	381.274	1076.431	-68.482	376.473	797.702
-117.150	394.208	1257.511	-44.985	346.280	1303.524	-34.987	440.182	1234.300	-70.611	381.163	1076.355	-68.547	376.299	797.762
-117.193	394.063	1257.461	-44.944	346.494	1303.764	-35.019	440.026	1233.864	-70.635	381.055	1076.260	-68.623	376.297	797.767
-117.203	394.003	1257.342	-44.995	346.933	1303.987	-35.032	439.840	1233.342	-70.704	381.039	1076.275	-68.703	376.048	797.624
-117.253	393.907	1257.373	-45.042	347.235	1304.241	-35.112	439.730	1232.843	-70.785	381.058	1076.188	-68.896	375.951	797.502
-117.285	393.888	1257.318	-45.038	347.351	1304.383	-35.232	439.524	1232.465	-70.885	380.921	1076.122	-68.941	375.844	797.519
-117.326	393.852	1257.299	-45.055	347.695	1304.643	-35.189	439.301	1232.180	-70.969	381.004	1076.180	-69.048	375.758	797.434
-117.407	393.889	1257.285	-45.076	347.945	1304.730	-35.282	439.024	1231.788	-71.059	380.901	1076.051	-69.224	375.598	797.339
-117.425	393.983	1257.345	-45.048	348.282	1304.980	-35.264	438.902	1231.582	-71.101	380.772	1076.021	-69.282	375.452	797.315
-117.387	393.850	1257.270	-45.114	348.452	1305.072	-35.365	438.778	1231.267	-71.276	380.666	1076.000	-69.362	375.291	797.313
-117.475	393.831	1257.148	-45.162	348.771	1305.195	-35.369	438.682	1230.986	-71.226	380.552	1075.901	-69.428	375.150	797.204
-117.554	393.844	1257.170	-45.174	349.084	1305.301	-35.457	438.461	1230.689	-71.246	380.393	1075.934	-69.590	374.934	797.285
-117.542	393.789	1257.056	-45.212	349.273	1305.391	-35.453	438.329	1230.400	-71.370	380.355	1075.906	-69.691	374.774	797.148
-117.605	393.793	1257.045	-45.243	349.258	1305.419	-35.517	438.099	1230.140	-71.320	380.327	1075.936	-69.687	374.771	797.108
-117.673	393.810	1257.004	-45.238	349.406	1305.451	-35.610	437.986	1229.943	-71.420	380.168	1075.811	-69.889	374.555	797.105
-117.701	393.820	1256.995	-45.260	349.618	1305.430	-35.600	437.950	1229.877	-71.556	380.202	1075.820	-69.962	374.476	797.149
-117.748	393.879	1257.032	-45.329	349.605	1305.491	-35.595	437.931	1229.841	-71.622	380.088	1075.814	-70.028	374.309	796.987
-117.779	393.802	1256.883	-45.368	349.708	1305.542	-35.651	437.772	1229.640	-71.758	380.078	1075.767	-70.201	374.304	797.074
-117.842	393.923	1256.994	-45.437	349.800	1305.530	-35.657	437.784	1229.579	-71.888	380.070	1075.694	-70.372	374.165	797.025
-117.825	393.921	1256.900	-45.385	349.903	1305.648	-35.725	437.700	1229.439	-72.020	380.068	1075.689	-70.412	374.112	796.937
-117.875	393.880	1256.937	-45.452	349.996	1305.685	-35.733	437.629	1229.317	-72.097	380.115	1075.692	-70.572	374.062	796.950
-117.951	393.968	1256.951	-45.508	350.232	1305.765	-35.755	437.599	1229.041	-72.218	380.088	1075.618	-70.754	374.016	796.931
-117.998	393.994	1256.991	-45.493	350.428	1305.885	-35.753	437.508	1228.911	-72.291	380.163	1075.675	-70.798	373.965	796.916
-117.996	394.090	1257.001	-45.466	350.570	1305.900	-35.872	437.431	1228.578	-72.297	380.198	1075.644	-70.972	373.894	796.844
-118.048	394.007	1256.917	-45.543	350.742	1306.038	-35.840	437.276	1228.298	-72.365	380.176	1075.678	-71.053	373.877	796.972
-118.093	394.053	1256.942	-45.545	350.940	1306.070	-36.012	437.202	1228.112	-72.371	380.146	1075.608	-71.145	373.750	796.894
-118.138	393.995	1256.860	-45.539	351.150	1306.147	-36.008	437.115	1227.762	-72.391	380.071	1075.613	-71.208	373.808	796.942
-118.153	393.920	1256.935	-45.532	351.366	1306.324	-36.034	436.598	1227.254	-72.443	380.156	1075.643	-71.339	373.761	796.830
-118.149	394.074	1257.017	-45.580	351.669	1306.470	-36.135	436.523	1226.964	-72.465	379.982	1075.551	-71.451	373.736	796.834
-118.219	393.971	1256.870	-45.593	351.801	1306.590	-36.163	436.341	1226.664	-72.498	380.014	1075.604	-71.672	373.655	796.758
-118.317	393.954	1256.906	-45.604	351.934	1306.768	-36.232	436.195	1226.353	-72.640	379.981	1075.594	-71.867	373.611	796.837
-118.345	393.871	1256.930	-45.604	352.245	1306.825	-36.259	436.006	1226.068	-72.705	379.840	1075.600	-71.835	373.701	796.821
-118.353	393.735	1256.853	-45.625	352.329	1306.966	-36.359	435.741	1225.849	-72.795	379.768	1075.617	-71.935	373.665	796.740
-118.403	393.687	1256.856	-45.615	352.392	1307.024	-36.266	435.319	1225.500	-72.833	379.754	1075.536	-72.113	373.707	796.727
-118.434	393.766	1256.981	-45.690	352.536	1307.168	-36.394	435.341	1225.382	-72.892	379.705	1075.532	-72.313	373.664	796.702
-118.449	393.573	1256.834	-45.632	352.635	1307.270	-36.442	435.233	1225.258	-73.021	379.744	1075.472	-72.388	373.760	796.729
-118.537	393.701	1256.953	-45.677	352.755	1307.334	-36.519	435.050	1225.039	-73.088	379.739	1075.481	-72.466	373.717	796.705
-118.530	393.578	1256.902	-45.753	352.939	1307.403	-36.504	435.074	1224.922	-73.165	379.818	1075.449	-72.558	373.689	796.654
-118.631	393.700	1256.977	-45.801	352.873	1307.348	-36.561	434.915	1224.781	-73.189	379.819	1075.405	-72.661	373.748	796.647
-118.691	393.746	1256.917	-45.784	352.932	1307.386	-36.638	435.049	1224.745	-73.257	379.812	1075.530	-72.887	373.884	796.671
-118.727	393.777	1256.985	-45.805	353.115	1307.501	-36.656	434.859	1224.571	-73.285	379.803	1075.504	-72.941	373.903	796.727
-118.703	393.774	1256.959	-45.865	353.206	1307.451	-36.662	434.699	1224.374	-73.397	379.817	1075.467	-73.096	373.920	796.706
-118.775	393.737	1256.949	-45.880	353.329	1307.515	-36.837	434.858	1224.324	-73.481	379.878	1075.400	-73.206	373.907	796.618
-118.774	393.710	1256.877	-45.938	353.392	1307.600	-36.870	434.843	1224.174	-73.598	379.943	1075.441	-73.297	373.879	796.617
-118.782	393.642	1256.886	-46.039	353.606	1307.553	-36.814	434.428	1223.830	-73.692	379.974	1075.388	-73.431	373.958	796.620
-118.846	393.723	1256.970	-45.968	353.768	1307.714	-37.035	434.691	1223.875	-73.757	380.064	1075.425	-73.586	374.090	796.624
-118.860	393.853	1256.974	-46.103	353.977	1307.777	-36.974	434.695	1223.719	-73.838	380.150	1075.363	-73.719	374.201	796.573
-118.896	393.741	1256.910	-46.111	354.179	1307.810	-37.052	434.469	1223.354	-73.956	380.082	1075.406	-73.914	374.221	796.649
-118.948	393.701	1256.800	-46.103	354.337	1308.073	-37.147	434.369	1223.260	-74.076	380.076	1075.284	-74.056	374.360	796.618
-118.932	393.747	1256.893	-46.153	354.493	1308.082	-37.182	434.272	1222.885	-74.096	380.152	1075.273	-74.243	374.435	796.644
-119.021	393.672	1256.817	-46.198	354.676	1308.245	-37.241	434.170	1222.790	-74.231	380.309	1075.309	-74.358	374.451	796.581
-119.025	393.665	1256.921	-46.199	354.930	1308.387	-37.304	433.921	1222.508	-74.290	380.257	1075.261	-74.530	374.451	796.564
-119.101	393.593	1256.868	-46.210	355.138	1308.487	-37.328	433.747	1222.314	-74.347	380.268	1075.261	-74.681	374.520	796.533
-119.096	393.513	1256.799	-46.231	355.280	1308.539	-37.388	433.583	1222.113	-74.395	380.183	1075.165	-74.875	374.656	796.492
-119.173	393.335	1256.711	-46.242	355.456	1308.682	-37.464	433.227	1221.909	-74.424	380.045	1075.101	-74.985	374.773	796.542
-119.192	393.225	1256.658	-46.229	355.630	1308.795	-37.481	433.068	1221.772	-74.510	380.062	1075.188	-75.159	374.834	796.557
-119.244	393.162	1256.594	-46.265	355.733	1308.903	-37.548	432.851	1221.596	-74.621	380.003	1075.183	-75.346	374.811	796.419
-119.329	393.096	1256.680	-46.216	355.804	1308.988	-37.622	432.595	1221.462	-74.717	379.995	1075.067	-75.386	374.814	796.391
-119.342	392.980	1256.680	-46.227	355.844	1309.012	-37.761	432.430	1221.353	-74.771	379.977	1075.019	-75.540	374.870	796.401
-119.427	392.887	1256.624	-46.287	355.954	1309.153	-37.820	432.255	1221.222	-74.848	379.787	1075.064	-75.643	374.834	796.375
-119.516	392.877	1256.613	-46.324	356.024	1309.143	-37.874	432.081	1221.117	-74.911	379.798	1075.105	-75.847	374.964	796.421
-119.500	392.578	1256.510	-46.314	356.057	1309.211	-37.944	431.831	1220.914	-74.984	379.586	1075.025	-75.947	375.054	796.498
-119.573	392.671	1256.606	-46.378	356.102	1309.239	-38.034	431.714	1220.856	-75.047	379.593	1075.113	-76.081	375.091	796.340
-119.629	392.649	1256.684	-46.384	356.228	1309.347	-38.093	431.552	1220.758	-75.137	379.580	1075.073	-76.135	375.008	796.392
-119.584	392.541	1256.592	-46.383	356.254	1309.361	-38.101	431.292	1220.506	-75.263	379.609	1074.991	-76.222	375.002	796.403
-119.636	392.458	1256.677	-46.406	356.309	1309.396	-38.198	431.134	1220.433	-75.264	379.650	1075.047	-76.349	375.051	796.392
-119.701	392.374	1256.677	-46.393	356.401	1309.507	-38.278	431.005	1220.287	-75.362	379.761	1075.098	-76.511	375.123	796.478
-119.773	392.606	1256.789	-46.419	356.502	1309.520	-38.285	430.909	1220.164	-75.394	379.628	1075.047	-76.636	375.193	796.496
-119.746	392.247	1256.606	-46.472	356.554	1309.581	-38.323	430.585	1220.035	-75.480	379.665	1075.110	-76.714	375.272	796.491
-119.774	392.231	1256.598	-46.464	356.701	1309.758	-38.340	430.424	1219.812	-75.513	379.715	1075.079	-76.816	375.276	796.439
-119.881	392.400	1256.683	-46.432	356.899	1309.807	-38.395	430.337	1219.707	-75.613	379.562	1075.063	-76.963	375.361	796.541
-119.894	392.443	1256.716	-46.486	356.961	1309.855	-38.460	430.100	1219.458	-75.716	379.587	1075.100	-77.009	375.352	796.513
-119.912	392.369	1256.803	-46.483	357.141	1309.917	-38.453	429.912	1219.357	-75.876	379.383	1075.074	-77.135	375.289	796.605
-119.946	392.386	1256.795	-46.447	357.302	1310.016	-38.492	429.809	1219.240	-75.880	379.376	1075.131	-77.314	375.292	796.568
-119.901	392.331	1256.709	-46.455	357.448	1310.128	-38.500	429.614	1219.022	-75.849	379.244	1075.056	-77.313	375.252	796.534
-119.879	391.977	1256.567	-46.463	357.584	1310.190	-38.555	429.391	1218.808	-76.000	379.099	1075.070	-77.448	375.287	796.469
-120.021	392.111	1256.706	-46.479	358.003	1310.348	-38.600	429.124	1218.549	-75.992	379.083	1075.105	-77.578	375.368	796.550
-119.999	392.051	1256.693	-46.560	358.151	1310.544	-38.634	428.741	1218.280	-76.050	379.036	1075.004	-77.707	375.341	796.517
-120.057	391.917	1256.621	-46.581	358.338	1310.589	-38.614	428.435	1217.958	-76.045	379.077	1075.020	-77.795	375.285	796.453
-120.015	391.721	1256.547	-46.503	358.435	1310.648	-38.684	428.218	1217.801	-76.148	379.054	1074.995	-77.830	375.389	796.421
-120.067	391.653	1256.528	-46.550	358.657	1310.722	-38.753	427.835	1217.493	-76.213	379.044	1074.934	-78.091	375.381	796.377
-120.155	391.598	1256.500	-46.553	358.863	1310.869	-38.761	427.610	1217.275	-76.247	379.012	1074.919	-78.250	375.431	796.288
-120.248	391.457	1256.468	-46.614	358.875	1310.903	-38.869	427.312	1217.056	-76.352	379.000	1074.951	-78.348	375.484	796.265
-120.179	391.251	1256.395	-46.602	359.188	1311.003	-38.898	427.155	1216.845	-76.451	378.929	1074.783	-78.528	375.496	796.150
-120.190	391.199	1256.261	-46.604	359.300	1311.108	-38.952	426.766	1216.591	-76.542	378.833	1074.803	-78.720	375.549	796.080
-120.337	391.291	1256.346	-46.681	359.427	1311.132	-38.958	426.408	1216.255	-76.645	378.880	1074.764	-78.812	375.678	796.065
-120.369	390.920	1256.006	-46.711	359.536	1311.125	-39.026	426.268	1216.156	-76.706	378.855	1074.678	-78.915	375.664	796.108
-120.369	390.937	1255.952	-46.797	359.665	1311.202	-39.144	426.057	1215.929	-76.802	378.808	1074.612	-79.051	375.690	796.015
-120.442	390.765	1255.870	-46.734	359.865	1311.181	-39.119	425.857	1215.720	-76.883	378.666	1074.481	-79.083	375.784	795.960
-120.452	390.743	1255.755	-46.805	359.917	1311.147	-39.133	425.619	1215.490	-76.907	378.732	1074.507	-79.230	375.934	795.890
-120.399	390.427	1255.568	-46.916	360.016	1311.204	-39.166	425.433	1215.282	-76.909	378.642	1074.438	-79.293	375.904	795.851
-120.463	390.620	1255.654	-46.938	360.168	1311.234	-39.220	425.219	1215.083	-76.981	378.631	1074.360	-79.325	376.062	795.825
-120.386	390.317	1255.380	-46.937	360.210	1311.241	-39.177	424.990	1214.990	-77.023	378.628	1074.313	-79.414	376.194	795.797
-120.433	390.320	1255.259	-47.027	360.366	1311.226	-39.314	424.964	1214.909	-77.058	378.748	1074.278	-79.499	376.305	795.772
-120.423	390.142	1255.208	-47.103	360.454	1311.207	-39.316	424.661	1214.707	-77.203	378.688	1074.180	-79.652	376.267	795.597
-120.492	390.072	1255.130	-47.134	360.699	1311.302	-39.331	424.522	1214.556	-77.313	378.825	1074.116	-79.889	376.515	795.610
-120.545	390.275	1255.133	-47.157	360.704	1311.220	-39.434	424.453	1214.535	-77.388	379.007	1074.091	-79.932	376.656	795.565
-120.631	390.150	1255.140	-47.158	361.066	1311.346	-39.441	424.210	1214.294	-77.444	378.949	1074.128	-80.053	376.887	795.559
-120.620	390.121	1255.012	-47.245	361.106	1311.310	-39.498	424.087	1214.196	-77.575	379.009	1074.000	-80.252	377.089	795.557
-120.614	389.969	1254.819	-47.217	361.296	1311.367	-39.533	423.846	1214.015	-77.608	379.141	1073.898	-80.356	377.206	795.477
-120.618	389.921	1254.806	-47.192	361.573	1311.509	-39.559	423.638	1213.819	-77.689	379.155	1073.855	-80.485	377.366	795.474
-120.615	389.899	1254.802	-47.217	361.892	1311.536	-39.631	423.432	1213.618	-77.729	379.166	1073.859	-80.600	377.489	795.426
-120.711	389.992	1254.843	-47.271	362.013	1311.518	-39.702	423.314	1213.458	-77.802	379.190	1073.853	-80.638	377.609	795.340
-120.642	389.899	1254.795	-47.240	362.307	1311.661	-39.809	422.987	1213.197	-77.794	379.196	1073.797	-80.797	377.739	795.334
-120.651	389.825	1254.684	-47.208	362.682	1311.748	-39.804	422.636	1212.896	-77.837	379.087	1073.782	-80.877	377.858	795.388
-120.677	389.762	1254.687	-47.159	363.004	1311.839	-39.804	422.430	1212.622	-77.872	379.089	1073.827	-81.039	377.975	795.333
-120.819	389.897	1254.772	-47.115	363.442	1311.966	-39.766	422.288	1212.363	-77.884	379.098	1073.766	-81.071	378.115	795.334
-120.729	389.739	1254.652	-47.138	363.554	1311.995	-39.848	422.003	1212.184	-78.000	379.170	1073.754	-81.164	378.254	795.379
-120.860	389.927	1254.789	-47.117	363.837	1312.078	-39.857	421.830	1211.928	-78.037	379.324	1073.830	-81.305	378.423	795.332
-120.811	389.851	1254.753	-47.055	364.123	1312.162	-39.970	421.699	1211.895	-78.142	379.401	1073.798	-81.414	378.601	795.353
-120.749	389.867	1254.743	-47.034	364.471	1312.219	-39.999	421.439	1211.600	-78.161	379.431	1073.780	-81.521	378.737	795.330
-120.885	390.066	1254.813	-46.996	364.679	1312.221	-40.045	421.334	1211.463	-78.191	379.660	1073.810	-81.628	378.941	795.366
-120.914	390.006	1254.842	-46.970	364.967	1312.260	-40.012	421.030	1211.224	-78.305	379.746	1073.827	-81.769	379.236	795.415
-120.856	390.179	1254.949	-46.961	365.288	1312.427	-40.106	421.032	1211.027	-78.343	379.917	1073.935	-81.898	379.434	795.390
-120.872	390.215	1254.884	-46.940	365.479	1312.475	-40.147	420.919	1210.877	-78.353	380.037	1073.926	-82.038	379.658	795.362
-120.878	390.066	1254.901	-46.915	365.670	1312.410	-40.205	420.689	1210.584	-78.442	380.235	1073.952	-82.176	379.756	795.354
-120.842	390.009	1254.929	-46.921	365.932	1312.554	-40.332	420.874	1210.535	-78.505	380.343	1073.990	-82.251	379.971	795.391
-120.839	390.097	1254.918	-46.901	366.108	1312.597	-40.419	420.583	1210.243	-78.539	380.456	1073.985	-82.392	380.202	795.361
-120.865	390.070	1254.890	-46.894	366.389	1312.707	-40.411	420.352	1209.957	-78.617	380.435	1073.953	-82.459	380.339	795.360
-120.915	390.102	1254.958	-46.874	366.563	1312.755	-40.385	419.927	1209.648	-78.624	380.412	1074.015	-82.588	380.468	795.326
-120.948	390.039	1255.051	-46.906	366.822	1312.781	-40.415	419.776	1209.424	-78.676	380.475	1073.955	-82.618	380.642	795.382
-120.908	390.071	1254.998	-46.869	366.970	1312.907	-40.477	419.589	1209.265	-78.715	380.471	1074.030	-82.766	380.723	795.412
-120.943	390.006	1255.008	-46.899	367.130	1312.969	-40.493	419.288	1209.087	-78.737	380.434	1073.972	-82.957	380.810	795.361
-120.921	389.955	1254.937	-46.884	367.356	1312.951	-40.530	419.072	1208.795	-78.747	380.417	1073.961	-82.981	380.897	795.360
-120.965	389.884	1255.000	-46.823	367.534	1313.023	-40.599	418.797	1208.577	-78.833	380.450	1073.966	-83.024	381.046	795.333
-120.976	389.839	1255.028	-46.756	367.858	1313.070	-40.600	418.581	1208.366	-78.809	380.496	1073.890	-82.834	381.325	795.476
-120.979	389.810	1254.994	-46.762	368.008	1313.199	-40.629	418.321	1208.128	-78.873	380.510	1073.923	-83.179	381.216	795.364
-120.940	389.736	1254.965	-46.736	368.276	1313.262	-40.729	418.147	1207.929	-78.874	380.523	1073.857	-83.157	381.447	795.379
-120.932	389.732	1254.882	-46.802	368.579	1313.325	-40.727	417.901	1207.755	-78.910	380.524	1073.837	-83.184	381.596	795.372
-120.968	389.623	1254.846	-46.710	368.733	1313.436	-40.720	417.591	1207.485	-79.051	380.766	1073.900	-83.300	381.767	795.361
-120.938	389.700	1254.842	-46.740	369.013	1313.430	-40.688	417.486	1207.261	-79.066	380.698	1073.799	-83.296	381.920	795.391
-120.921	389.645	1254.833	-46.754	369.323	1313.512	-40.788	417.363	1207.153	-79.100	380.679	1073.776	-83.463	381.950	795.236
-120.898	389.694	1254.761	-46.692	369.555	1313.451	-40.758	417.192	1206.903	-79.019	380.671	1073.793	-83.510	382.208	795.352
-120.864	389.683	1254.763	-46.743	369.866	1313.548	-40.779	417.122	1206.791	-79.058	380.732	1073.759	-83.571	382.268	795.276
-120.868	389.819	1254.812	-46.610	370.157	1313.570	-40.751	417.050	1206.700	-79.078	380.734	1073.759	-83.590	382.331	795.291
-120.831	389.861	1254.732	-46.644	370.400	1313.618	-40.724	416.975	1206.506	-79.110	380.949	1073.782	-83.604	382.436	795.172
-120.851	389.967	1254.757	-46.584	370.696	1313.643	-40.759	416.885	1206.424	-79.085	380.977	1073.743	-83.685	382.554	795.169
-120.701	390.141	1254.602	-46.545	370.964	1313.680	-40.720	416.801	1206.158	-79.082	380.990	1073.705	-83.689	382.678	795.165
-120.726	390.252	1254.852	-46.503	371.216	1313.696	-40.710	416.794	1206.230	-79.034	381.032	1073.708	-83.780	382.783	795.204
-120.666	390.385	1254.659	-46.417	371.493	1313.726	-40.751	416.731	1205.966	-79.079	381.253	1073.763	-83.775	383.038	795.179
-120.579	390.465	1254.726	-46.453	371.726	1313.785	-40.752	416.754	1205.923	-79.149	381.339	1073.718	-83.641	382.922	795.045
-120.595	390.769	1254.846	-46.387	372.020	1313.838	-40.761	416.686	1205.799	-79.137	381.492	1073.720	-83.859	383.302	795.245
-120.566	390.796	1254.699	-46.273	372.228	1313.832	-40.762	416.695	1205.757	-79.109	381.629	1073.696	-83.872	383.449	795.209
-120.570	390.929	1254.791	-46.204	372.517	1313.883	-40.729	416.600	1205.705	-79.131	381.668	1073.741	-83.845	383.524	795.260
-120.571	391.162	1254.847	-46.117	372.732	1313.967	-40.650	416.414	1205.517	-79.106	381.846	1073.733	-83.957	383.788	795.239
-120.548	391.245	1254.824	-46.119	372.986	1313.974	-40.690	416.759	1205.602	-79.116	381.892	1073.740	-83.896	383.816	795.153
-120.566	391.394	1254.759	-46.084	373.418	1314.109	-40.662	416.362	1205.369	-79.157	382.031	1073.807	-84.011	384.023	795.368
-120.507	391.558	1254.841	-45.967	373.722	1314.191	-40.646	416.354	1205.296	-79.144	382.080	1073.837	-83.862	383.960	795.265
-120.481	391.717	1254.897	-45.890	373.871	1314.193	-40.681	416.335	1205.187	-79.179	382.190	1073.876	-83.945	384.282	795.404
-120.455	391.670	1254.987	-45.876	374.274	1314.305	-40.637	416.229	1205.026	-79.124	382.260	1073.923	-83.715	384.090	795.263
-120.450	391.742	1254.934	-45.829	374.514	1314.338	-40.596	415.835	1204.762	-79.153	382.365	1073.884	-83.965	384.430	795.430
-120.460	391.872	1254.960	-45.741	374.815	1314.398	-40.629	415.646	1204.561	-79.109	382.388	1073.935	-83.857	384.548	795.403
-120.391	391.818	1255.058	-45.652	375.065	1314.443	-40.667	415.441	1204.464	-79.084	382.416	1073.958	-83.863	384.690	795.423
-120.430	392.016	1255.171	-45.657	375.362	1314.512	-40.645	415.264	1204.321	-79.119	382.524	1074.014	-83.881	384.894	795.404
-120.311	391.945	1255.063	-45.574	375.599	1314.494	-40.701	415.021	1204.143	-79.075	382.492	1073.966	-83.886	385.058	795.647
-120.375	392.004	1255.106	-45.530	375.816	1314.519	-40.645	414.783	1204.005	-79.123	382.540	1073.919	-83.958	385.159	795.617
-120.301	392.000	1255.162	-45.455	376.118	1314.524	-40.667	414.622	1203.903	-79.102	382.603	1074.076	-83.893	385.249	795.624
-120.338	391.961	1255.253	-45.370	376.310	1314.551	-40.671	414.464	1203.765	-79.138	382.593	1074.033	-83.968	385.435	795.609
-120.358	392.071	1255.290	-45.351	376.570	1314.626	-40.665	414.287	1203.685	-79.092	382.577	1074.057	-83.943	385.572	795.670
-120.309	392.249	1255.419	-45.340	376.644	1314.576	-40.671	414.136	1203.530	-79.155	382.671	1074.112	-84.053	385.718	795.685
-120.318	392.141	1255.411	-45.247	376.959	1314.625	-40.697	414.084	1203.505	-79.078	382.744	1074.141	-84.044	385.834	795.722
-120.322	392.101	1255.462	-45.194	377.237	1314.808	-40.689	413.858	1203.420	-79.106	382.776	1074.117	-84.011	385.968	795.802
-120.209	392.393	1255.525	-45.164	377.537	1314.770	-40.685	413.734	1203.364	-79.137	382.846	1074.177	-84.024	386.185	795.804
-120.252	392.335	1255.471	-45.181	377.436	1314.703	-40.664	413.626	1203.243	-79.090	382.838	1074.145	-84.132	386.215	795.688
