NO_OF_FRAMES	2500
NO_OF_CAMERAS	7
NO_OF_MARKERS	3
FREQUENCY	250
NO_OF_ANALOG	0
ANALOG_FREQUENCY	0
DESCRIPTION	--
TIME_STAMP	2012-02-07, 12:19:34	13236.02328977
DATA_INCLUDED	3D
MARKER_NAMES	cylinder_tip	cylinder_left	cylinder_right
-477.617	236.291	1159.358	-402.321	216.372	1215.400	-396.689	262.593	1108.351
-477.859	235.969	1159.186	-402.328	216.184	1215.435	-396.758	262.428	1108.351
-477.846	235.878	1159.213	-402.420	215.946	1215.412	-396.870	262.068	1108.169
-477.408	235.834	1158.843	-402.404	215.724	1215.515	-396.900	261.801	1108.379
-477.516	235.572	1158.855	-402.489	215.519	1215.478	-396.961	261.564	1108.256
-477.620	235.229	1158.613	-402.476	215.247	1215.436	-397.061	261.298	1108.220
-477.659	234.964	1158.565	-402.515	215.090	1215.327	-397.144	261.079	1108.124
-477.726	234.569	1158.469	-402.565	214.899	1215.231	-397.172	260.716	1107.961
-477.798	234.339	1158.348	-402.608	214.642	1215.259	-397.216	260.632	1107.966
-477.785	233.962	1158.303	-402.665	214.395	1215.206	-397.322	260.387	1107.955
-477.634	233.773	1158.121	-402.637	214.286	1215.291	-397.308	260.231	1107.934
-477.700	233.516	1158.077	-402.726	214.007	1215.244	-397.376	260.094	1107.932
-477.739	233.356	1157.915	-402.744	213.890	1215.290	-397.486	259.978	1107.935
-477.767	233.137	1157.881	-402.773	213.797	1215.310	-397.574	259.767	1107.886
-477.767	233.116	1158.049	-402.770	213.655	1215.335	-397.664	259.777	1108.019
-477.876	232.935	1158.099	-402.894	213.557	1215.342	-397.755	259.580	1107.988
-477.917	232.960	1158.124	-402.881	213.546	1215.383	-397.886	259.491	1108.070
-477.995	232.871	1158.186	-402.858	213.524	1215.478	-397.968	259.427	1108.070
-478.033	232.783	1158.308	-402.983	213.445	1215.528	-398.111	259.443	1108.138
-478.184	232.692	1158.379	-403.053	213.466	1215.618	-398.232	259.406	1108.163
-478.235	232.794	1158.588	-403.060	213.387	1215.709	-398.372	259.375	1108.373
-478.320	232.783	1158.690	-403.151	213.385	1215.777	-398.565	259.422	1108.512
-478.380	232.780	1158.833	-403.207	213.405	1215.822	-398.653	259.266	1108.454
-478.453	232.801	1159.018	-403.255	213.413	1215.894	-398.697	259.275	1108.492
-478.512	232.617	1158.948	-403.352	213.241	1215.960	-398.928	259.382	1108.696
-478.558	232.671	1159.063	-403.431	213.263	1215.995	-399.067	259.300	1108.704
-478.644	232.569	1159.133	-403.530	213.106	1216.031	-399.034	259.072	1108.661
-478.710	232.439	1159.149	-403.600	213.102	1216.102	-399.092	259.003	1108.616
-478.801	232.348	1159.201	-403.675	212.974	1216.093	-399.149	258.987	1108.680
-478.865	232.349	1159.254	-403.749	212.894	1216.163	-399.185	258.888	1108.654
-478.963	232.146	1159.141	-403.822	212.820	1216.189	-399.253	258.825	1108.678
-478.952	231.993	1159.186	-403.860	212.738	1216.091	-399.330	258.742	1108.639
-479.072	231.851	1159.228	-403.931	212.715	1216.174	-399.423	258.678	1108.624
-479.181	231.798	1159.181	-403.976	212.573	1216.230	-399.483	258.550	1108.634
-479.262	231.568	1159.170	-404.079	212.500	1216.154	-399.574	258.545	1108.646
-479.324	231.519	1159.205	-404.093	212.348	1216.137	-399.621	258.435	1108.628
-479.352	231.405	1159.180	-404.132	212.382	1216.193	-399.696	258.352	1108.579
-479.412	231.342	1159.097	-404.166	212.267	1216.201	-399.761	258.367	1108.644
-479.498	231.152	1159.013	-404.245	212.145	1216.120	-399.773	258.214	1108.592
-479.568	231.052	1158.992	-404.255	212.189	1216.120	-399.836	258.192	1108.550
-479.572	230.967	1158.928	-404.300	212.058	1216.069	-399.861	258.146	1108.586
-479.585	231.107	1158.945	-404.335	212.118	1216.084	-399.924	258.117	1108.587
-479.674	230.999	1158.959	-404.369	212.061	1216.114	-399.933	258.160	1108.548
-479.652	231.209	1158.922	-404.353	212.115	1216.088	-399.951	258.167	1108.542
-479.751	231.159	1158.945	-404.411	212.110	1216.057	-399.986	258.168	1108.575
-479.723	231.153	1158.953	-404.480	212.233	1216.140	-400.044	258.230	1108.542
-479.763	231.375	1159.112	-404.477	212.279	1216.124	-400.001	258.237	1108.564
-479.748	231.471	1159.063	-404.532	212.368	1216.186	-400.014	258.328	1108.571
-479.771	231.627	1159.101	-404.578	212.545	1216.151	-400.034	258.477	1108.650
-479.826	231.737	1159.276	-404.587	212.609	1216.233	-400.031	258.553	1108.588
-479.850	231.962	1159.323	-404.595	212.833	1216.267	-399.980	258.734	1108.675
-479.840	232.261	1159.450	-404.575	212.956	1216.330	-399.981	258.831	1108.685
-479.833	232.500	1159.527	-404.645	213.236	1216.418	-399.942	258.982	1108.767
-479.817	232.831	1159.781	-404.588	213.273	1216.360	-399.949	259.053	1108.756
-479.762	233.159	1159.883	-404.617	213.428	1216.544	-399.963	259.373	1108.820
-479.804	233.410	1160.035	-404.680	213.695	1216.532	-399.911	259.511	1108.896
-479.700	233.795	1160.116	-404.654	213.833	1216.619	-399.897	259.683	1108.954
-479.771	234.039	1160.194	-404.679	214.145	1216.697	-399.874	259.946	1108.992
-479.702	234.569	1160.361	-404.566	214.436	1216.800	-399.865	260.229	1109.151
-479.700	234.987	1160.579	-404.607	214.668	1216.855	-399.819	260.535	1109.298
-479.685	235.442	1160.752	-404.624	214.876	1216.843	-399.794	260.737	1109.332
-479.663	235.948	1160.940	-404.622	215.226	1216.872	-399.757	260.962	1109.425
-479.580	236.580	1160.996	-404.595	215.440	1216.930	-399.719	261.266	1109.509
-479.659	237.000	1161.136	-404.581	215.781	1217.006	-399.708	261.682	1109.707
-479.456	237.491	1161.229	-404.646	216.061	1217.065	-399.759	262.054	1109.759
-479.584	238.066	1161.315	-404.677	216.423	1217.119	-399.695	262.282	1109.841
-479.581	238.642	1161.358	-404.635	216.820	1217.120	-399.653	262.646	1109.838
-479.634	239.167	1161.386	-404.729	217.170	1217.139	-399.626	262.984	1109.851
-479.606	239.750	1161.416	-404.819	217.574	1217.152	-399.557	263.453	1109.915
-479.628	240.395	1161.429	-404.820	217.916	1217.163	-399.454	263.872	1109.896
-479.662	241.087	1161.367	-404.883	218.306	1217.094	-399.325	264.332	1109.923
-479.668	241.777	1161.388	-404.957	218.760	1217.117	-399.210	264.804	1109.920
-479.628	242.482	1161.418	-405.106	219.243	1217.040	-399.104	265.272	1109.950
-479.621	243.112	1161.351	-405.246	219.634	1217.040	-398.880	265.863	1109.929
-479.499	243.826	1161.299	-405.420	220.049	1216.952	-398.715	266.440	1109.897
-479.528	244.471	1161.098	-405.548	220.325	1216.771	-398.601	267.036	1109.910
-479.548	245.009	1160.987	-405.588	220.561	1216.775	-398.491	267.433	1109.789
-479.546	245.460	1160.863	-405.760	220.682	1216.684	-398.478	267.851	1109.821
-479.611	245.779	1160.648	-405.799	220.645	1216.631	-398.496	268.238	1109.950
-479.575	246.254	1160.734	-405.750	220.845	1216.571	-398.303	268.594	1110.001
-479.642	246.464	1160.595	-405.814	220.697	1216.495	-398.260	268.833	1110.125
-479.616	246.600	1160.598	-405.935	220.571	1216.428	-398.255	269.120	1110.233
-479.633	246.691	1160.534	-405.966	220.349	1216.375	-398.220	269.244	1110.293
-479.681	246.656	1160.371	-406.045	219.981	1216.249	-398.059	269.493	1110.535
-479.767	246.575	1160.304	-406.060	219.724	1216.071	-398.021	269.659	1110.644
-479.792	246.641	1160.143	-406.186	219.368	1215.981	-398.076	269.766	1110.636
-479.809	246.507	1159.838	-406.279	219.085	1215.816	-398.044	269.868	1110.723
-479.857	246.438	1159.708	-406.381	218.732	1215.704	-397.911	269.883	1110.706
-479.928	246.305	1159.310	-406.409	218.401	1215.525	-397.867	269.952	1110.631
-479.941	246.081	1158.974	-406.556	217.869	1215.313	-397.884	269.973	1110.552
-479.987	245.906	1158.653	-406.635	217.540	1215.101	-397.865	269.906	1110.490
-480.035	245.811	1158.316	-406.803	217.111	1214.849	-397.800	269.955	1110.344
-480.033	245.578	1158.007	-406.918	216.791	1214.628	-397.762	269.921	1110.239
-480.040	245.270	1157.636	-407.079	216.393	1214.430	-397.733	269.820	1110.112
-480.104	245.207	1157.320	-407.242	216.005	1214.220	-397.647	269.785	1110.024
-480.176	244.993	1156.969	-407.404	215.841	1213.899	-397.612	269.710	1109.891
-480.137	244.820	1156.730	-407.637	215.478	1213.646	-397.597	269.564	1109.763
-480.191	244.596	1156.404	-407.658	215.127	1213.269	-397.617	269.575	1109.681
-480.168	244.484	1156.210	-407.821	214.769	1213.189	-397.612	269.537	1109.601
-480.204	244.143	1155.665	-407.885	214.561	1212.861	-397.564	269.386	1109.493
-480.329	244.226	1155.600	-408.024	214.339	1212.633	-397.537	269.434	1109.504
-480.295	243.995	1155.237	-408.115	214.112	1212.417	-397.473	269.459	1109.411
-480.456	244.213	1155.075	-408.188	213.901	1212.207	-397.471	269.382	1109.354
-480.493	244.019	1154.917	-408.198	213.782	1212.057	-397.497	269.298	1109.163
-480.486	244.001	1154.782	-408.308	213.582	1211.821	-397.474	269.253	1109.017
-480.525	243.970	1154.743	-408.390	213.437	1211.609	-397.476	269.184	1109.042
-480.532	243.806	1154.577	-408.413	213.305	1211.589	-397.474	269.139	1108.942
-480.561	243.734	1154.501	-408.522	213.154	1211.400	-397.556	269.072	1108.876
-480.515	243.560	1154.301	-408.512	212.989	1211.303	-397.481	268.861	1108.686
-480.559	243.426	1154.170	-408.501	212.852	1211.248	-397.571	268.742	1108.590
-480.540	243.292	1154.157	-408.553	212.688	1211.095	-397.601	268.633	1108.559
-480.593	243.069	1154.076	-408.529	212.572	1211.007	-397.651	268.366	1108.414
-480.651	243.010	1153.999	-408.530	212.454	1210.951	-397.613	268.219	1108.320
-480.595	242.750	1153.877	-408.644	212.296	1210.924	-397.639	268.017	1108.205
-480.687	242.671	1153.913	-408.641	212.145	1210.821	-397.652	267.759	1108.094
-480.712	242.415	1153.779	-408.645	211.996	1210.807	-397.767	267.607	1108.095
-480.707	242.265	1153.807	-408.670	211.819	1210.753	-397.817	267.338	1107.983
-480.715	242.064	1153.731	-408.646	211.542	1210.696	-397.824	267.031	1107.927
-480.787	241.813	1153.737	-408.661	211.391	1210.622	-397.846	266.641	1107.877
-480.788	241.573	1153.732	-408.608	211.253	1210.619	-397.963	266.499	1107.823
-480.794	241.235	1153.580	-408.666	210.936	1210.490	-397.993	266.208	1107.786
-480.826	240.940	1153.614	-408.618	210.659	1210.453	-398.074	265.891	1107.727
-480.832	240.472	1153.527	-408.658	210.292	1210.402	-398.094	265.544	1107.728
-480.897	240.068	1153.470	-408.700	209.950	1210.244	-398.227	265.191	1107.602
-480.872	239.672	1153.386	-408.617	209.593	1210.167	-398.259	264.847	1107.481
-480.907	239.372	1153.250	-408.652	209.316	1210.122	-398.310	264.580	1107.459
-480.915	238.962	1153.186	-408.693	209.017	1209.998	-398.308	264.347	1107.379
-480.897	238.654	1153.068	-408.691	208.818	1209.840	-398.308	263.892	1107.165
-480.956	238.358	1152.972	-408.705	208.513	1209.784	-398.321	263.530	1107.098
-480.913	238.146	1152.882	-408.757	208.309	1209.780	-398.242	263.299	1107.047
-480.926	237.988	1152.853	-408.693	208.109	1209.683	-398.219	263.051	1106.982
-480.941	237.723	1152.809	-408.695	208.064	1209.652	-398.242	262.802	1106.779
-480.928	237.532	1152.730	-408.763	207.788	1209.652	-398.241	262.613	1106.778
-480.937	237.364	1152.771	-408.705	207.646	1209.650	-398.284	262.329	1106.709
-480.905	237.043	1152.733	-408.743	207.593	1209.636	-398.266	262.147	1106.573
-481.044	237.011	1152.743	-408.676	207.396	1209.628	-398.202	261.961	1106.586
-480.921	236.774	1152.737	-408.608	207.300	1209.663	-398.325	261.751	1106.536
-480.959	236.635	1152.673	-408.583	207.055	1209.683	-398.382	261.656	1106.569
-481.040	236.580	1152.738	-408.769	207.079	1209.692	-398.397	261.485	1106.561
-481.050	236.510	1152.846	-408.516	206.967	1209.678	-398.402	261.364	1106.512
-481.042	236.353	1152.787	-408.534	206.915	1209.711	-398.438	261.235	1106.507
-481.097	236.270	1152.837	-408.654	206.881	1209.700	-398.496	261.046	1106.589
-481.112	236.105	1152.840	-408.660	206.805	1209.699	-398.533	260.886	1106.490
-481.109	235.975	1152.715	-408.698	206.736	1209.705	-398.559	260.826	1106.485
-481.144	235.899	1152.826	-408.692	206.589	1209.644	-398.583	260.716	1106.497
-481.122	235.846	1152.782	-408.533	206.739	1209.607	-398.584	260.565	1106.379
-481.135	235.708	1152.704	-408.635	206.442	1209.548	-398.542	260.559	1106.451
-481.084	235.698	1152.542	-408.622	206.368	1209.392	-398.518	260.529	1106.354
-480.990	235.695	1152.495	-408.627	206.295	1209.287	-398.464	260.593	1106.237
-480.959	235.665	1152.219	-408.420	206.258	1209.169	-398.445	260.615	1106.206
-480.816	235.610	1152.123	-408.477	206.397	1208.989	-398.299	260.712	1106.056
-480.934	235.812	1152.070	-408.536	206.420	1208.785	-398.259	260.948	1105.924
-480.776	235.864	1151.917	-408.534	206.477	1208.588	-398.032	261.026	1105.784
-480.668	236.024	1151.697	-408.492	206.506	1208.426	-398.012	261.180	1105.639
-480.617	236.270	1151.541	-408.448	206.496	1208.297	-397.970	261.255	1105.627
-480.577	236.437	1151.476	-408.405	206.528	1208.170	-397.840	261.352	1105.473
-480.519	236.456	1151.286	-408.356	206.644	1208.068	-397.734	261.460	1105.364
-480.452	236.496	1151.094	-408.393	206.808	1207.929	-397.642	261.531	1105.303
-480.387	236.532	1151.058	-408.345	206.824	1207.832	-397.594	261.602	1105.176
-480.348	236.616	1150.913	-408.321	206.939	1207.764	-397.536	261.686	1105.119
-480.345	236.684	1150.935	-408.246	206.995	1207.675	-397.467	261.744	1105.057
-480.313	236.776	1150.927	-408.176	207.128	1207.778	-397.530	261.825	1105.074
-480.292	236.852	1150.953	-408.206	207.222	1207.706	-397.546	261.833	1104.990
-480.250	236.921	1150.981	-408.134	207.324	1207.729	-397.459	261.972	1105.021
-480.231	237.057	1151.074	-408.055	207.458	1207.810	-397.500	261.980	1105.034
-480.208	237.099	1151.080	-408.029	207.629	1207.777	-397.502	262.003	1105.015
-480.227	237.253	1151.184	-407.971	207.691	1207.858	-397.530	262.012	1105.042
-480.169	237.296	1151.275	-407.960	207.888	1207.952	-397.548	262.134	1105.063
-480.166	237.384	1151.364	-407.921	208.090	1207.991	-397.581	262.136	1105.036
-480.067	237.275	1151.430	-407.890	208.363	1208.120	-397.574	262.271	1105.021
-480.073	237.380	1151.445	-407.919	208.300	1208.063	-397.600	262.253	1105.082
-480.043	237.522	1151.519	-407.885	208.580	1208.189	-397.616	262.273	1105.004
-480.210	238.084	1151.716	-407.908	208.636	1208.133	-397.595	262.354	1105.038
-480.095	237.746	1151.555	-407.817	208.700	1208.120	-397.654	262.407	1105.034
-480.172	237.869	1151.493	-407.848	208.920	1208.149	-397.663	262.493	1104.960
-480.140	237.895	1151.479	-407.777	208.986	1208.119	-397.683	262.538	1104.929
-480.189	237.890	1151.316	-407.823	208.921	1207.906	-397.665	262.611	1104.840
-480.241	238.006	1151.176	-407.877	209.043	1207.899	-397.618	262.739	1104.799
-480.178	238.161	1151.145	-407.866	209.211	1207.711	-397.667	262.858	1104.697
-480.202	238.211	1150.988	-407.895	209.386	1207.599	-397.623	263.026	1104.621
-480.285	238.359	1150.904	-407.911	209.580	1207.636	-397.657	263.049	1104.497
-480.223	238.453	1150.873	-407.860	209.780	1207.590	-397.648	263.321	1104.478
-480.209	238.643	1150.894	-407.894	209.998	1207.678	-397.686	263.251	1104.260
-480.220	238.793	1150.985	-407.855	210.212	1207.631	-397.658	263.490	1104.271
-480.163	238.906	1151.065	-408.054	210.597	1207.783	-397.634	263.567	1104.254
-480.168	239.143	1151.156	-407.830	210.972	1207.985	-397.701	263.511	1104.227
-480.157	239.409	1151.401	-407.700	211.204	1208.144	-397.794	263.609	1104.238
-480.260	239.563	1151.560	-407.583	211.621	1208.320	-397.796	263.617	1104.269
-480.163	239.575	1151.618	-407.547	211.843	1208.554	-397.867	263.602	1104.243
-480.176	239.658	1151.780	-407.449	212.242	1208.761	-397.902	263.629	1104.349
-480.233	239.891	1152.099	-407.393	212.540	1208.995	-397.974	263.764	1104.454
-480.312	239.942	1152.264	-407.337	212.853	1209.184	-398.086	263.788	1104.540
-480.340	240.140	1152.484	-407.311	213.092	1209.430	-398.128	263.715	1104.663
-480.388	240.325	1152.667	-407.223	213.379	1209.607	-398.302	263.739	1104.793
-480.386	240.346	1152.918	-407.173	213.622	1209.864	-398.431	263.676	1104.847
-480.412	240.431	1153.050	-407.148	213.760	1210.090	-398.515	263.309	1104.851
-480.476	240.521	1153.293	-407.044	214.006	1210.359	-398.559	263.583	1105.022
-480.487	240.533	1153.472	-406.968	214.140	1210.565	-398.700	263.353	1105.077
-480.575	240.540	1153.646	-406.956	214.474	1210.880	-398.786	263.245	1105.192
-480.511	240.385	1153.819	-406.954	214.586	1211.048	-398.917	263.280	1105.327
-480.641	240.556	1154.016	-406.897	214.753	1211.291	-399.061	263.294	1105.422
-480.649	240.366	1154.222	-406.923	214.772	1211.512	-399.122	263.365	1105.519
-480.734	240.354	1154.537	-406.869	214.840	1211.647	-399.232	263.426	1105.651
-480.696	240.222	1154.747	-406.758	214.873	1211.788	-399.497	263.428	1105.777
-480.762	240.157	1155.018	-406.728	214.865	1212.002	-399.557	263.622	1105.983
-480.777	240.077	1155.375	-406.708	214.802	1212.174	-399.557	263.555	1106.154
-480.775	239.991	1155.588	-406.717	214.775	1212.326	-399.655	263.644	1106.342
-480.938	239.974	1155.812	-406.668	214.711	1212.464	-399.796	263.719	1106.507
-480.937	239.899	1156.085	-406.680	214.589	1212.521	-399.862	263.689	1106.620
-481.014	239.619	1156.183	-406.609	214.580	1212.653	-400.016	263.870	1106.770
-481.066	239.453	1156.370	-406.590	214.464	1212.835	-400.076	263.785	1106.956
-481.118	239.400	1156.516	-406.638	214.462	1212.944	-400.141	263.903	1107.029
-481.151	239.207	1156.624	-406.619	214.342	1213.048	-400.267	263.712	1107.103
-481.207	239.128	1156.667	-406.595	214.241	1213.096	-400.300	263.860	1107.168
-481.263	239.122	1156.845	-406.630	214.194	1213.102	-400.336	263.787	1107.208
-481.326	238.940	1156.729	-406.700	214.131	1213.133	-400.384	263.778	1107.236
-481.311	238.798	1156.675	-406.699	214.039	1213.042	-400.477	263.826	1107.191
-481.304	238.723	1156.692	-406.753	214.049	1213.028	-400.506	263.796	1107.235
-481.400	238.587	1156.606	-406.764	214.085	1213.017	-400.534	263.842	1107.179
-481.396	238.552	1156.428	-406.847	213.988	1213.002	-400.608	263.900	1107.084
-481.461	238.498	1156.267	-406.840	213.982	1212.817	-400.636	263.921	1107.038
-481.466	238.475	1156.131	-406.878	214.125	1212.684	-400.631	263.897	1106.991
-481.433	238.469	1156.077	-406.896	214.024	1212.563	-400.626	263.957	1106.909
-481.441	238.443	1155.780	-406.945	214.068	1212.395	-400.656	263.836	1106.802
-481.450	238.453	1155.672	-406.927	214.052	1212.315	-400.635	263.929	1106.707
-481.506	238.428	1155.489	-407.027	214.074	1212.149	-400.596	263.842	1106.604
-481.577	238.336	1155.229	-407.073	213.947	1212.033	-400.599	263.854	1106.519
-481.535	238.161	1155.058	-407.120	213.892	1211.876	-400.608	263.908	1106.368
-481.615	238.008	1154.823	-407.105	213.784	1211.771	-400.615	263.845	1106.302
-481.560	237.761	1154.667	-407.231	213.645	1211.612	-400.605	263.734	1106.186
-481.622	237.682	1154.481	-407.192	213.411	1211.431	-400.623	263.539	1106.038
-481.652	237.739	1154.350	-407.210	213.274	1211.262	-400.647	263.487	1105.960
-481.647	237.363	1154.167	-407.264	213.051	1211.067	-400.670	263.503	1105.943
-481.658	237.268	1154.107	-407.378	212.920	1210.924	-400.723	263.372	1105.809
-481.724	237.101	1153.944	-407.356	212.756	1210.808	-400.704	263.396	1105.774
-481.749	236.853	1153.837	-407.401	212.623	1210.731	-400.609	263.355	1105.743
-481.757	236.905	1153.870	-407.369	212.565	1210.653	-400.701	263.361	1105.727
-481.731	236.891	1153.786	-407.364	212.457	1210.633	-400.693	263.324	1105.741
-481.785	236.902	1153.743	-407.390	212.402	1210.632	-400.725	263.304	1105.707
-481.878	236.784	1153.897	-407.386	212.316	1210.637	-400.732	263.358	1105.737
-481.818	236.641	1153.848	-407.470	212.314	1210.635	-400.815	263.292	1105.836
-481.870	236.726	1153.879	-407.430	212.205	1210.573	-400.796	263.367	1105.832
-481.814	236.765	1153.953	-407.437	212.222	1210.662	-400.912	263.342	1105.874
-481.857	236.756	1153.873	-407.378	212.127	1210.672	-400.825	263.341	1105.882
-481.966	236.639	1153.984	-407.422	212.044	1210.627	-400.942	263.333	1105.860
-481.888	236.743	1154.159	-407.389	212.001	1210.683	-400.960	263.353	1105.927
-481.843	236.750	1154.125	-407.384	211.928	1210.680	-401.014	263.290	1105.958
-481.901	236.635	1154.087	-407.413	211.884	1210.617	-400.953	263.316	1105.957
-481.918	236.521	1154.149	-407.418	211.779	1210.647	-400.982	263.209	1105.914
-481.891	236.411	1154.140	-407.398	211.688	1210.598	-400.979	263.105	1105.916
-481.952	236.326	1153.943	-407.396	211.548	1210.533	-400.988	263.071	1105.884
-482.017	236.073	1153.922	-407.426	211.501	1210.399	-401.033	263.015	1105.801
-481.968	236.115	1153.887	-407.467	211.306	1210.396	-400.997	262.815	1105.802
-482.055	236.047	1153.746	-407.469	211.173	1210.171	-401.045	262.723	1105.690
-482.017	235.938	1153.640	-407.577	211.171	1210.163	-401.054	262.645	1105.611
-482.006	235.789	1153.570	-407.546	211.021	1209.978	-401.196	262.831	1105.603
-482.014	235.703	1153.440	-407.576	210.878	1209.867	-401.173	262.693	1105.539
-482.095	235.700	1153.384	-407.619	210.841	1209.758	-401.187	262.549	1105.403
-482.035	235.550	1153.238	-407.689	210.714	1209.650	-401.199	262.595	1105.340
-482.100	235.537	1153.230	-407.681	210.614	1209.597	-401.234	262.376	1105.284
-482.079	235.407	1153.100	-407.694	210.627	1209.413	-401.166	262.408	1105.215
-482.075	235.553	1153.090	-407.817	210.633	1209.398	-401.200	262.504	1105.092
-482.170	235.485	1152.985	-407.822	210.647	1209.323	-401.247	262.513	1105.078
-482.180	235.582	1152.894	-407.821	210.681	1209.255	-401.245	262.577	1104.980
-482.154	235.691	1152.885	-407.845	210.767	1209.208	-401.245	262.594	1104.935
-482.154	235.691	1152.813	-407.875	210.822	1209.182	-401.260	262.706	1104.854
-482.112	235.924	1152.722	-407.920	210.854	1209.103	-401.290	262.721	1104.751
-482.151	236.047	1152.598	-407.992	211.065	1209.007	-401.237	262.902	1104.515
-482.188	236.081	1152.546	-408.019	211.109	1208.885	-401.171	263.001	1104.559
-482.173	236.406	1152.496	-408.074	211.260	1208.805	-401.177	263.015	1104.434
-482.176	236.466	1152.334	-408.084	211.319	1208.721	-401.167	263.165	1104.328
-482.187	236.601	1152.291	-408.142	211.413	1208.571	-401.162	263.243	1104.228
-482.212	236.669	1152.257	-408.163	211.442	1208.497	-401.168	263.298	1104.123
-482.380	237.140	1152.200	-408.208	211.357	1208.370	-401.142	263.329	1104.031
-482.294	236.914	1152.007	-408.275	211.425	1208.238	-401.162	263.414	1103.955
-482.355	236.946	1151.928	-408.275	211.409	1208.155	-401.112	263.416	1103.860
-482.313	236.951	1151.784	-408.418	211.493	1208.030	-401.200	263.462	1103.777
-482.348	236.843	1151.540	-408.401	211.516	1207.949	-401.216	263.388	1103.642
-482.338	236.836	1151.437	-408.357	211.381	1207.782	-401.188	263.445	1103.549
-482.346	236.789	1151.294	-408.303	211.418	1207.677	-401.198	263.439	1103.356
-482.369	236.909	1151.232	-408.336	211.409	1207.569	-401.215	263.436	1103.292
-482.330	236.879	1151.008	-408.398	211.411	1207.408	-401.111	263.432	1103.104
-482.336	236.863	1150.823	-408.448	211.446	1207.346	-401.174	263.465	1103.057
-482.372	236.852	1150.741	-408.435	211.527	1207.261	-401.164	263.428	1102.837
-482.372	236.809	1150.602	-408.492	211.450	1207.142	-401.169	263.411	1102.827
-482.361	236.772	1150.496	-408.466	211.516	1206.997	-401.211	263.405	1102.656
-482.341	236.813	1150.469	-408.500	211.560	1206.999	-401.179	263.333	1102.557
-482.353	236.830	1150.340	-408.515	211.629	1206.939	-401.166	263.369	1102.524
-482.367	236.797	1150.310	-408.554	211.566	1206.877	-401.173	263.360	1102.460
-482.404	236.949	1150.248	-408.549	211.567	1206.848	-401.233	263.384	1102.352
-482.435	237.001	1150.250	-408.638	211.742	1206.813	-401.254	263.460	1102.298
-482.436	237.037	1150.214	-408.606	211.819	1206.801	-401.238	263.472	1102.411
-482.456	237.060	1150.116	-408.704	211.901	1206.780	-401.237	263.581	1102.293
-482.487	237.252	1150.176	-408.729	211.890	1206.788	-401.221	263.605	1102.326
-482.474	237.317	1150.146	-408.770	212.076	1206.792	-401.272	263.707	1102.322
-482.511	237.468	1150.140	-408.821	212.055	1206.756	-401.304	263.754	1102.405
-482.571	237.608	1150.212	-408.788	212.137	1206.786	-401.311	263.881	1102.381
-482.550	237.647	1150.250	-408.801	212.252	1206.794	-401.315	263.937	1102.383
-482.633	237.713	1150.182	-408.848	212.269	1206.777	-401.417	263.993	1102.352
-482.618	237.809	1150.208	-408.879	212.367	1206.754	-401.366	263.967	1102.396
-482.632	237.827	1150.162	-408.965	212.376	1206.758	-401.395	264.026	1102.348
-482.704	237.960	1150.209	-409.012	212.464	1206.777	-401.456	264.020	1102.382
-482.739	238.016	1150.217	-409.031	212.496	1206.834	-401.492	264.042	1102.310
-482.818	238.110	1150.252	-409.041	212.493	1206.783	-401.513	264.046	1102.356
-482.855	238.127	1150.221	-409.131	212.539	1206.783	-401.591	264.066	1102.256
-482.848	238.214	1150.231	-409.125	212.555	1206.791	-401.638	264.019	1102.225
-482.914	238.100	1150.309	-409.291	212.588	1206.802	-401.677	264.037	1102.277
-482.960	238.040	1150.263	-409.187	212.571	1206.823	-401.756	263.923	1102.265
-483.022	238.023	1150.240	-409.290	212.516	1206.849	-401.829	263.881	1102.234
-483.111	237.925	1150.313	-409.375	212.362	1206.834	-401.850	263.803	1102.226
-483.145	237.826	1150.333	-409.407	212.288	1206.893	-401.991	263.717	1102.264
-483.186	237.668	1150.328	-409.522	212.040	1206.818	-402.004	263.570	1102.223
-483.253	237.513	1150.336	-409.537	212.082	1206.837	-402.044	263.503	1102.238
-483.291	237.291	1150.462	-409.611	211.855	1206.822	-402.169	263.350	1102.169
-483.335	237.090	1150.343	-409.657	211.710	1206.818	-402.251	263.285	1102.299
-483.432	237.052	1150.372	-409.631	211.706	1206.865	-402.329	263.042	1102.188
-483.478	236.774	1150.345	-409.766	211.497	1206.737	-402.382	262.948	1102.188
-483.582	236.740	1150.240	-409.863	211.360	1206.780	-402.519	262.842	1102.133
-483.669	236.450	1150.235	-409.904	211.202	1206.772	-402.569	262.665	1102.219
-483.703	236.231	1150.192	-409.954	211.144	1206.719	-402.684	262.582	1102.216
-483.811	236.099	1150.115	-410.075	210.885	1206.698	-402.766	262.352	1102.158
-483.970	235.934	1150.094	-410.107	210.772	1206.719	-402.850	262.264	1102.164
-484.006	235.620	1150.013	-410.217	210.580	1206.674	-402.890	262.067	1102.155
-484.093	235.528	1149.989	-410.267	210.385	1206.736	-403.006	261.959	1102.128
-484.213	235.268	1149.924	-410.380	210.249	1206.655	-403.106	261.788	1102.088
-484.343	235.186	1149.948	-410.527	210.105	1206.650	-403.117	261.696	1102.151
-484.410	235.017	1149.930	-410.629	209.955	1206.706	-403.213	261.542	1102.162
-484.525	234.813	1149.844	-410.772	209.753	1206.706	-403.281	261.328	1102.090
-484.622	234.814	1149.895	-410.919	209.690	1206.748	-403.367	261.213	1102.166
-484.736	234.677	1149.935	-411.010	209.546	1206.834	-403.389	261.171	1102.205
-484.851	234.620	1149.901	-411.156	209.379	1206.828	-403.445	260.973	1102.123
-484.944	234.604	1149.953	-411.263	209.300	1206.829	-403.536	260.945	1102.205
-485.071	234.568	1149.984	-411.321	209.182	1206.932	-403.635	260.905	1102.300
-485.190	234.483	1150.100	-411.449	209.083	1206.950	-403.669	260.804	1102.385
-485.207	234.475	1150.146	-411.669	208.952	1206.977	-403.731	260.784	1102.514
-485.327	234.448	1150.303	-411.715	208.900	1207.070	-403.813	260.673	1102.554
-485.487	234.390	1150.410	-411.825	208.915	1207.126	-403.865	260.697	1102.706
-485.490	234.471	1150.598	-411.903	208.868	1207.242	-403.901	260.604	1102.817
-485.594	234.476	1150.747	-411.995	208.762	1207.270	-403.975	260.621	1103.007
-485.686	234.562	1150.803	-412.170	208.531	1207.325	-404.040	260.685	1103.210
-485.776	234.546	1150.910	-412.217	208.427	1207.549	-404.086	260.705	1103.382
-485.821	234.698	1151.153	-412.346	208.476	1207.654	-404.139	260.757	1103.553
-485.882	234.772	1151.278	-412.423	208.488	1207.859	-404.265	260.700	1103.691
-485.946	234.909	1151.369	-412.547	208.535	1207.873	-404.240	260.762	1103.937
-486.032	235.048	1151.475	-412.657	208.435	1208.004	-404.299	260.885	1104.048
-486.103	235.238	1151.516	-412.804	208.315	1208.023	-404.407	260.960	1104.246
-486.166	235.372	1151.592	-412.953	208.277	1208.147	-404.347	261.051	1104.370
-486.240	235.481	1151.594	-413.191	208.139	1208.081	-404.328	261.152	1104.514
-486.291	235.658	1151.598	-413.324	207.996	1208.124	-404.324	261.281	1104.686
-486.418	235.859	1151.667	-413.597	207.754	1208.014	-404.321	261.395	1104.769
-486.459	235.769	1151.488	-413.864	207.513	1207.923	-404.266	261.557	1104.971
-486.580	235.877	1151.458	-414.060	207.075	1207.855	-404.250	261.622	1105.119
-486.562	235.689	1151.304	-414.206	206.741	1207.693	-404.274	261.690	1105.196
-486.674	235.652	1151.254	-414.366	206.250	1207.578	-404.236	261.595	1105.393
-486.711	235.374	1151.235	-414.485	206.017	1207.594	-404.316	261.656	1105.441
-486.854	235.397	1151.214	-414.493	205.626	1207.573	-404.371	261.583	1105.578
-486.868	235.158	1151.220	-414.628	205.189	1207.408	-404.330	261.590	1105.751
-486.949	234.999	1151.142	-414.731	204.900	1207.372	-404.416	261.510	1105.865
-487.095	234.964	1151.052	-414.781	204.633	1207.309	-404.352	260.958	1105.478
-487.123	234.834	1151.024	-414.867	204.459	1207.368	-404.365	260.920	1105.561
-487.183	234.882	1151.067	-414.925	204.284	1207.424	-404.411	260.731	1105.664
-487.215	234.817	1151.116	-415.046	204.080	1207.345	-404.447	261.037	1105.809
-487.301	234.993	1151.317	-414.998	204.066	1207.373	-404.506	260.773	1105.742
-487.317	235.178	1151.538	-415.070	204.081	1207.488	-404.518	261.002	1105.902
-487.403	235.288	1151.629	-415.110	204.118	1207.537	-404.596	260.916	1106.033
-487.385	235.361	1151.702	-415.115	204.169	1207.698	-404.632	261.060	1106.170
-487.485	235.586	1151.974	-415.176	204.184	1207.788	-404.688	261.095	1106.230
-487.510	235.766	1152.044	-415.168	204.422	1208.038	-404.675	261.107	1106.252
-487.594	235.966	1152.290	-415.235	204.658	1208.165	-404.720	261.275	1106.407
-487.622	236.281	1152.539	-415.292	204.789	1208.345	-404.890	261.292	1106.433
-487.758	236.549	1152.673	-415.308	205.024	1208.504	-404.817	261.483	1106.590
-487.630	236.564	1152.966	-415.381	205.118	1208.543	-405.015	262.168	1107.200
-487.695	236.739	1153.130	-415.415	205.308	1208.766	-405.031	262.253	1107.234
-487.785	236.967	1153.251	-415.489	205.589	1208.818	-405.125	262.322	1107.308
-487.761	237.126	1153.490	-415.541	205.637	1208.916	-405.248	262.496	1107.351
-487.790	237.354	1153.524	-415.523	205.720	1209.048	-405.249	262.537	1107.438
-487.924	237.317	1153.575	-415.574	205.912	1209.148	-405.317	262.536	1107.523
-487.968	237.409	1153.621	-415.632	205.920	1209.210	-405.369	262.591	1107.456
-488.015	237.406	1153.613	-415.629	206.124	1209.221	-405.497	262.553	1107.491
-488.066	237.415	1153.598	-415.710	206.226	1209.271	-405.484	262.556	1107.486
-488.142	237.449	1153.660	-415.851	206.056	1209.160	-405.535	262.622	1107.460
-488.278	237.459	1153.535	-415.897	205.985	1209.105	-405.661	262.576	1107.462
-488.327	237.401	1153.560	-415.925	206.021	1209.049	-405.685	262.506	1107.411
-488.429	237.258	1153.532	-416.003	205.935	1209.043	-405.729	262.455	1107.408
-488.534	237.229	1153.479	-416.113	205.924	1208.970	-405.766	262.416	1107.348
-488.595	237.133	1153.425	-416.173	205.859	1208.935	-405.867	262.342	1107.291
-488.621	236.984	1153.294	-416.230	205.820	1208.864	-405.865	262.298	1107.342
-488.699	236.879	1153.327	-416.280	205.669	1208.820	-405.945	262.284	1107.238
-488.757	236.748	1153.220	-416.395	205.704	1208.644	-406.021	262.155	1107.112
-488.846	236.790	1153.106	-416.442	205.644	1208.573	-406.112	262.183	1107.036
-488.859	236.578	1152.982	-416.509	205.659	1208.527	-406.098	262.056	1106.997
-488.900	236.666	1152.848	-416.578	205.554	1208.405	-406.151	262.237	1106.925
-488.938	236.548	1152.657	-416.718	205.528	1208.217	-406.196	262.229	1106.877
-489.026	236.569	1152.575	-416.696	205.513	1208.119	-406.236	262.262	1106.760
-489.035	236.523	1152.455	-416.779	205.588	1208.122	-406.324	262.327	1106.739
-489.020	236.561	1152.284	-416.853	205.646	1207.936	-406.318	262.291	1106.579
-489.040	236.686	1152.146	-416.872	205.613	1207.808	-406.398	262.281	1106.400
-488.974	236.566	1151.846	-417.011	205.786	1207.654	-406.398	262.320	1106.323
-488.984	236.563	1151.691	-417.025	205.869	1207.648	-406.479	262.350	1106.144
-489.195	236.895	1151.619	-417.115	205.914	1207.442	-406.494	262.370	1105.965
-489.126	237.030	1151.521	-417.060	205.941	1207.352	-406.557	262.439	1105.837
-489.141	237.078	1151.316	-417.192	206.058	1207.247	-406.462	262.502	1105.739
-489.150	237.406	1151.243	-417.215	205.966	1207.092	-406.457	262.486	1105.633
-489.206	237.263	1151.029	-417.230	206.081	1207.025	-406.512	262.522	1105.323
-489.128	237.487	1150.944	-417.305	206.121	1206.928	-406.421	262.667	1105.238
-489.170	237.555	1150.724	-417.275	206.276	1206.893	-406.501	262.686	1105.172
-489.224	237.481	1150.520	-417.351	206.520	1206.812	-406.407	262.718	1105.085
-489.311	237.584	1150.444	-417.388	206.519	1206.769	-406.443	262.794	1104.822
-489.214	237.417	1150.191	-417.485	206.577	1206.596	-406.437	262.866	1104.795
-489.210	237.507	1150.168	-417.416	206.710	1206.548	-406.431	262.874	1104.676
-489.209	237.478	1149.874	-417.471	206.685	1206.504	-406.404	262.905	1104.554
-489.213	237.487	1149.713	-417.520	206.771	1206.377	-406.412	262.904	1104.490
-489.258	237.480	1149.547	-417.557	206.767	1206.295	-406.398	262.799	1104.403
-489.213	237.440	1149.466	-417.585	206.675	1206.170	-406.389	262.915	1104.219
-489.239	237.407	1149.371	-417.560	206.776	1206.082	-406.449	262.908	1104.203
-489.228	237.376	1149.275	-417.603	206.700	1205.986	-406.323	262.762	1104.046
-489.300	237.280	1149.132	-417.526	206.642	1205.940	-406.418	262.730	1104.039
-489.284	237.235	1149.057	-417.521	206.594	1205.917	-406.418	262.659	1103.908
-489.285	237.217	1149.005	-417.584	206.602	1205.865	-406.432	262.668	1103.835
-489.319	237.160	1148.914	-417.545	206.518	1205.792	-406.445	262.601	1103.702
-489.340	237.164	1148.778	-417.648	206.389	1205.727	-406.438	262.573	1103.696
-489.299	237.176	1148.826	-417.549	206.456	1205.691	-406.405	262.569	1103.581
-489.261	237.068	1148.688	-417.566	206.349	1205.640	-406.362	262.505	1103.573
-489.353	237.038	1148.619	-417.523	206.434	1205.588	-406.462	262.484	1103.481
-489.356	237.046	1148.646	-417.613	206.401	1205.529	-406.458	262.430	1103.489
-489.335	236.948	1148.512	-417.605	206.363	1205.542	-406.447	262.378	1103.333
-489.397	237.083	1148.517	-417.592	206.445	1205.454	-406.469	262.421	1103.306
-489.399	237.064	1148.368	-417.667	206.362	1205.395	-406.465	262.436	1103.304
-489.409	237.075	1148.372	-417.626	206.524	1205.429	-406.444	262.492	1103.240
-489.371	237.069	1148.157	-417.703	206.534	1205.317	-406.452	262.411	1103.204
-489.420	237.243	1148.062	-417.763	206.446	1205.215	-406.429	262.431	1103.110
-489.421	237.198	1147.941	-417.766	206.625	1205.163	-406.459	262.479	1102.979
-489.493	237.307	1147.814	-417.783	206.605	1204.998	-406.529	262.485	1102.918
-489.470	237.346	1147.704	-417.855	206.728	1204.975	-406.471	262.599	1102.877
-489.502	237.464	1147.664	-417.919	206.659	1204.830	-406.505	262.551	1102.668
-489.562	237.365	1147.447	-417.914	206.729	1204.860	-406.536	262.559	1102.624
-489.587	237.408	1147.310	-417.986	206.764	1204.760	-406.503	262.620	1102.607
-489.628	237.517	1147.294	-418.088	206.803	1204.677	-406.472	262.529	1102.448
-489.659	237.487	1147.184	-418.067	206.883	1204.600	-406.546	262.571	1102.441
-489.628	237.558	1147.181	-418.111	206.883	1204.653	-406.546	262.513	1102.386
-489.723	237.535	1147.149	-418.090	206.956	1204.554	-406.538	262.659	1102.355
-489.698	237.571	1147.081	-418.144	206.989	1204.551	-406.547	262.496	1102.175
-489.667	237.611	1147.157	-418.086	207.192	1204.718	-406.606	262.537	1102.255
-489.659	237.591	1147.196	-418.041	207.189	1204.723	-406.667	262.508	1102.212
-489.744	237.582	1147.145	-418.067	207.356	1204.799	-406.666	262.450	1102.177
-489.638	237.598	1147.252	-418.004	207.426	1204.845	-406.687	262.359	1102.143
-489.709	237.666	1147.400	-417.970	207.478	1204.887	-406.740	262.393	1102.137
-489.700	237.658	1147.442	-417.923	207.709	1205.049	-406.735	262.290	1102.137
-489.643	237.594	1147.620	-417.889	207.876	1205.214	-406.799	262.217	1102.106
-489.741	237.498	1147.638	-417.764	207.956	1205.273	-406.895	262.145	1102.068
-489.737	237.396	1147.716	-417.797	207.993	1205.440	-406.983	262.024	1102.102
-489.720	237.317	1147.889	-417.679	208.064	1205.408	-407.009	261.838	1101.996
-489.767	237.094	1147.849	-417.683	208.054	1205.516	-407.113	261.694	1101.939
-489.754	236.938	1147.943	-417.657	208.213	1205.640	-407.178	261.386	1101.894
-489.796	236.522	1147.934	-417.619	208.187	1205.692	-407.249	261.217	1101.834
-489.836	236.346	1148.016	-417.637	208.217	1205.805	-407.326	261.028	1101.779
-489.831	236.152	1148.064	-417.607	208.226	1205.812	-407.407	260.848	1101.634
-489.970	235.830	1148.007	-417.505	208.274	1205.926	-407.455	260.636	1101.674
-489.856	235.583	1148.179	-417.535	208.303	1205.949	-407.530	260.365	1101.496
-489.938	235.398	1148.113	-417.451	208.372	1206.027	-407.630	260.091	1101.459
-489.902	235.198	1148.195	-417.459	208.371	1206.092	-407.769	259.935	1101.400
-489.933	234.998	1148.325	-417.417	208.452	1206.159	-407.778	259.481	1101.110
-489.969	234.718	1148.274	-417.392	208.471	1206.248	-407.813	259.518	1101.181
-489.981	234.482	1148.363	-417.358	208.503	1206.215	-407.948	259.203	1100.972
-490.098	234.250	1148.374	-417.283	208.511	1206.372	-408.018	259.023	1100.964
-490.118	234.104	1148.301	-417.231	208.323	1206.260	-408.075	258.864	1100.896
-490.223	233.968	1148.309	-417.197	208.610	1206.381	-408.107	258.635	1100.756
-490.206	233.838	1148.337	-417.148	208.478	1206.423	-408.190	258.543	1100.796
-490.300	233.665	1148.296	-417.159	208.489	1206.444	-408.293	258.441	1100.646
-490.300	233.516	1148.193	-417.147	208.581	1206.386	-408.212	258.129	1100.570
-490.130	233.458	1148.149	-417.150	208.619	1206.462	-408.395	258.147	1100.516
-490.314	233.277	1148.189	-417.081	208.752	1206.454	-408.336	257.838	1100.440
-490.362	233.229	1148.055	-417.130	208.629	1206.369	-408.378	257.773	1100.332
-490.354	233.116	1148.096	-417.103	208.624	1206.338	-408.414	257.716	1100.291
-490.385	232.924	1147.926	-417.103	208.668	1206.334	-408.396	257.655	1100.199
-490.335	232.945	1147.779	-417.163	208.630	1206.288	-408.418	257.617	1100.187
-490.362	232.907	1147.735	-417.385	209.201	1206.426	-408.404	257.599	1100.109
-490.389	232.920	1147.754	-417.200	208.803	1206.228	-408.398	257.712	1100.099
-490.382	232.854	1147.728	-417.274	209.073	1206.261	-408.478	257.672	1100.089
-490.361	232.844	1147.697	-417.211	208.909	1206.275	-408.422	257.797	1100.116
-490.415	232.922	1147.709	-417.295	209.338	1206.372	-408.463	257.816	1100.134
-490.386	232.940	1147.657	-417.402	209.579	1206.415	-408.469	257.836	1100.101
-490.387	232.913	1147.662	-417.353	209.536	1206.400	-408.479	257.900	1100.112
-490.193	233.144	1147.723	-417.191	209.133	1206.253	-408.465	258.037	1100.132
-490.361	233.150	1147.693	-417.247	209.351	1206.309	-408.534	258.057	1100.127
-490.398	233.205	1147.714	-417.339	209.751	1206.454	-408.499	258.133	1100.112
-490.365	233.195	1147.787	-417.331	209.733	1206.458	-408.527	258.237	1100.160
-490.401	233.246	1147.782	-417.164	209.329	1206.375	-408.489	258.220	1100.186
-490.385	233.146	1147.828	-417.187	209.261	1206.330	-408.523	258.256	1100.215
-490.384	233.240	1147.829	-417.140	209.217	1206.422	-408.488	258.236	1100.224
-490.388	233.173	1147.899	-417.359	209.796	1206.570	-408.561	258.320	1100.317
-490.400	233.123	1147.893	-417.128	209.182	1206.389	-408.607	258.296	1100.282
-490.443	233.092	1147.984	-417.134	209.105	1206.394	-408.580	258.337	1100.391
-490.470	232.936	1147.914	-417.114	209.128	1206.436	-408.646	258.207	1100.358
-490.418	232.970	1147.967	-417.095	209.128	1206.497	-408.654	258.190	1100.424
-490.404	232.816	1148.040	-417.109	209.050	1206.478	-408.686	258.100	1100.509
-490.381	232.739	1148.126	-417.122	208.921	1206.508	-408.831	258.287	1100.607
-490.432	232.684	1148.276	-417.133	208.865	1206.573	-408.783	258.030	1100.588
-490.429	232.545	1148.280	-417.136	208.772	1206.589	-408.956	258.233	1100.692
-490.453	232.478	1148.342	-417.144	208.667	1206.676	-409.022	258.182	1100.686
-490.480	232.365	1148.500	-417.153	208.597	1206.726	-409.020	258.240	1100.923
-490.556	232.212	1148.562	-417.150	208.524	1206.745	-409.081	258.208	1100.985
-490.534	232.217	1148.691	-417.186	208.425	1206.805	-409.069	258.160	1101.027
-490.578	232.143	1148.772	-417.196	208.332	1206.816	-409.136	258.110	1101.120
-490.577	232.100	1148.941	-417.188	208.323	1206.966	-409.196	258.199	1101.203
-490.577	232.075	1149.080	-417.209	208.248	1206.999	-409.281	258.241	1101.310
-490.611	232.018	1149.166	-417.166	208.246	1207.058	-409.307	258.118	1101.395
-490.752	232.161	1149.357	-417.165	208.139	1207.147	-409.340	258.188	1101.462
-490.704	232.054	1149.498	-417.228	208.149	1207.196	-409.398	258.304	1101.606
-490.599	232.049	1149.637	-417.178	208.219	1207.237	-409.449	258.222	1101.694
-490.684	232.218	1149.712	-417.157	208.176	1207.292	-409.461	258.114	1101.770
-490.612	232.034	1149.716	-417.188	208.127	1207.355	-409.507	258.139	1101.815
-490.724	232.091	1149.815	-417.361	208.128	1207.356	-409.543	258.122	1101.848
-490.658	232.103	1149.745	-417.235	208.249	1207.443	-409.576	258.065	1101.921
-490.767	231.993	1149.817	-417.246	208.058	1207.459	-409.542	258.004	1101.894
-490.725	231.879	1149.731	-417.342	208.083	1207.454	-409.609	257.986	1102.036
-490.784	231.951	1149.790	-417.376	208.103	1207.516	-409.559	257.945	1102.005
-490.857	231.777	1149.787	-417.370	207.945	1207.489	-409.568	257.950	1102.007
-490.739	231.748	1149.737	-417.414	207.964	1207.463	-409.625	257.799	1101.976
-490.772	231.797	1149.849	-417.444	207.922	1207.536	-409.685	257.754	1101.963
-490.950	231.645	1149.843	-417.458	207.887	1207.520	-409.645	257.746	1102.038
-490.785	231.500	1149.770	-417.488	207.746	1207.524	-409.630	257.653	1102.002
-490.824	231.452	1149.875	-417.465	207.667	1207.554	-409.658	257.585	1102.068
-490.834	231.454	1149.952	-417.492	207.673	1207.520	-409.706	257.569	1102.067
-490.820	231.412	1149.976	-417.486	207.594	1207.593	-409.729	257.468	1102.036
-490.798	231.271	1150.036	-417.465	207.493	1207.694	-409.753	257.376	1102.008
-490.905	231.150	1150.110	-417.538	207.460	1207.677	-409.772	257.323	1102.077
-490.937	231.229	1150.193	-417.569	207.314	1207.737	-409.879	257.289	1102.183
-491.007	231.037	1150.329	-417.585	207.173	1207.697	-409.921	257.241	1102.195
-490.992	230.710	1150.241	-417.563	207.168	1207.773	-409.930	257.196	1102.220
-491.075	230.894	1150.254	-417.596	207.134	1207.754	-409.933	257.173	1102.307
-491.120	230.795	1150.390	-417.599	207.150	1207.783	-409.941	257.238	1102.392
-491.051	230.802	1150.412	-417.595	207.039	1207.838	-409.969	257.163	1102.413
-491.204	230.551	1150.380	-417.596	207.024	1207.746	-409.945	257.053	1102.424
-491.153	230.643	1150.485	-417.589	206.994	1207.816	-409.975	257.123	1102.345
-491.170	230.540	1150.348	-417.588	206.974	1207.864	-409.998	257.132	1102.379
-491.133	230.588	1150.394	-417.560	206.967	1207.838	-409.977	256.991	1102.425
-491.179	230.781	1150.509	-417.605	206.921	1207.835	-409.976	257.039	1102.379
-491.195	230.424	1150.443	-417.604	206.928	1207.756	-409.964	256.954	1102.314
-491.106	230.346	1150.229	-417.623	206.881	1207.748	-409.902	256.753	1102.120
-491.043	230.702	1150.219	-417.648	206.897	1207.679	-409.952	256.761	1102.084
-491.085	230.653	1150.191	-417.650	206.866	1207.647	-409.875	256.683	1102.021
-491.136	230.290	1150.051	-417.683	206.807	1207.676	-409.946	256.609	1101.877
-491.053	230.521	1149.945	-417.659	206.704	1207.530	-409.905	256.476	1101.789
-491.068	230.212	1149.643	-417.739	206.712	1207.491	-409.870	256.395	1101.722
-491.030	230.103	1149.568	-417.710	206.686	1207.436	-409.831	256.362	1101.635
-491.022	230.118	1149.522	-417.733	206.601	1207.374	-409.837	256.295	1101.497
-491.031	229.951	1149.313	-417.760	206.587	1207.313	-409.828	256.194	1101.480
-491.017	229.901	1149.236	-417.772	206.538	1207.311	-409.839	256.151	1101.445
-491.023	229.945	1149.184	-417.745	206.525	1207.220	-409.756	256.062	1101.372
-491.007	229.768	1149.043	-417.855	206.423	1207.174	-409.720	256.171	1101.253
-491.026	229.716	1148.983	-417.775	206.378	1207.129	-409.840	255.980	1101.235
-491.015	229.676	1148.797	-417.804	206.266	1207.053	-409.805	255.947	1101.203
-491.025	229.563	1148.813	-417.850	206.187	1206.965	-409.811	255.928	1101.164
-491.073	229.431	1148.688	-417.931	206.003	1206.911	-409.614	255.644	1100.991
-491.060	229.471	1148.654	-417.840	206.021	1206.919	-409.793	255.813	1100.929
-491.101	229.367	1148.646	-417.852	205.889	1206.844	-409.657	255.420	1100.747
-491.126	229.367	1148.496	-417.902	205.925	1206.846	-409.608	255.436	1100.827
-491.133	229.417	1148.499	-417.938	205.994	1206.816	-409.658	255.182	1100.670
-491.097	229.329	1148.372	-417.966	205.810	1206.755	-409.614	255.292	1100.680
-491.143	229.314	1148.273	-418.003	205.992	1206.756	-409.652	255.170	1100.596
-491.175	229.418	1148.188	-417.992	205.963	1206.697	-409.594	255.277	1100.591
-491.192	229.501	1148.137	-418.063	206.016	1206.625	-409.568	255.275	1100.513
-491.217	229.531	1147.991	-418.111	206.009	1206.594	-409.526	255.254	1100.429
-491.219	229.613	1147.858	-418.107	206.098	1206.511	-409.499	255.264	1100.413
-491.237	229.688	1147.713	-418.153	206.170	1206.442	-409.498	255.259	1100.331
-491.251	229.759	1147.607	-418.167	206.221	1206.375	-409.428	255.281	1100.233
-491.243	230.000	1147.467	-418.281	206.308	1206.302	-409.402	255.338	1100.183
-491.309	230.260	1147.417	-418.333	206.460	1206.269	-409.317	255.316	1100.089
-491.244	230.501	1147.281	-418.366	206.443	1206.175	-409.275	255.537	1100.007
-491.238	230.798	1147.191	-418.450	206.611	1206.093	-409.179	255.609	1100.009
-491.190	231.089	1147.186	-418.528	206.690	1206.081	-409.038	255.788	1099.972
-491.257	231.294	1147.056	-418.573	206.566	1205.908	-408.916	255.962	1099.951
-491.175	231.444	1147.004	-418.651	206.645	1205.793	-408.791	256.142	1099.895
-491.260	231.965	1147.033	-418.759	206.659	1205.768	-408.643	256.263	1100.047
-491.051	231.910	1146.855	-418.809	206.646	1205.757	-408.501	256.442	1100.104
-491.122	232.425	1146.873	-418.853	206.451	1205.659	-408.429	256.670	1100.146
-490.982	232.287	1146.770	-418.901	206.200	1205.617	-408.258	256.732	1100.260
-490.936	232.333	1146.786	-419.002	205.869	1205.538	-408.116	256.983	1100.441
-490.977	232.595	1146.858	-418.976	205.600	1205.455	-408.057	257.099	1100.588
-490.866	232.282	1146.801	-418.939	205.211	1205.417	-408.095	257.466	1100.841
-490.891	232.347	1147.007	-418.934	204.841	1205.322	-407.993	257.382	1101.020
-490.847	232.306	1147.142	-418.916	204.476	1205.383	-407.927	257.473	1101.297
-490.930	232.258	1147.264	-418.909	204.253	1205.353	-407.854	257.611	1101.594
-490.931	232.302	1147.322	-418.852	203.927	1205.358	-407.855	257.766	1101.866
-490.828	232.424	1147.537	-418.938	203.765	1205.403	-407.767	257.901	1102.147
-490.853	232.614	1147.704	-418.964	203.620	1205.431	-407.720	258.087	1102.408
-490.634	232.905	1147.940	-418.885	203.688	1205.582	-407.683	258.311	1102.558
-490.703	233.103	1148.060	-418.843	203.703	1205.682	-407.664	258.457	1102.819
-490.668	233.305	1148.349	-418.880	203.798	1205.839	-407.646	258.669	1103.040
-490.659	233.676	1148.595	-418.844	203.888	1205.949	-407.640	258.907	1103.223
-490.614	233.788	1148.720	-418.873	203.914	1206.041	-407.596	259.041	1103.485
-490.564	234.077	1148.931	-418.908	204.019	1206.106	-407.656	259.242	1103.632
-490.641	234.363	1149.197	-418.876	204.030	1206.185	-407.659	259.426	1103.802
-490.645	234.534	1149.422	-418.899	204.041	1206.310	-407.643	259.519	1103.962
-490.682	234.752	1149.598	-418.912	204.273	1206.471	-407.670	259.662	1104.119
-490.600	235.069	1149.802	-418.934	204.372	1206.650	-407.638	259.832	1104.267
-490.621	235.134	1149.934	-418.837	204.355	1206.680	-407.623	259.922	1104.423
-490.624	235.279	1150.189	-418.912	204.513	1206.771	-407.709	259.890	1104.529
-490.640	235.410	1150.481	-418.880	204.571	1206.972	-407.684	259.938	1104.695
-490.620	235.333	1150.745	-418.757	204.450	1207.080	-407.737	259.853	1104.754
-490.662	235.516	1151.000	-418.748	204.560	1207.239	-407.857	259.858	1104.849
-490.653	235.544	1151.301	-418.661	204.528	1207.351	-407.817	259.864	1105.083
-490.591	235.571	1151.483	-418.633	204.759	1207.614	-407.884	259.839	1105.092
-490.526	235.741	1151.729	-418.651	204.814	1207.640	-407.942	259.807	1105.283
-490.522	235.714	1151.880	-418.536	204.988	1207.862	-407.946	259.780	1105.282
-490.565	235.834	1152.074	-418.501	205.121	1207.966	-407.922	259.771	1105.298
-490.542	235.945	1152.199	-418.492	205.181	1208.015	-407.954	259.787	1105.353
-490.539	236.046	1152.338	-418.435	205.352	1208.116	-407.992	259.793	1105.278
-490.528	236.185	1152.456	-418.416	205.350	1208.182	-407.971	259.733	1105.307
-490.515	236.213	1152.428	-418.381	205.523	1208.179	-407.944	259.815	1105.303
-490.461	236.192	1152.374	-418.398	205.535	1208.139	-407.927	259.827	1105.323
-490.472	236.285	1152.397	-418.352	205.629	1208.196	-407.963	259.811	1105.236
-490.500	236.284	1152.379	-418.372	205.715	1208.115	-407.948	259.882	1105.207
-490.457	236.458	1152.300	-418.378	205.746	1208.062	-407.911	259.927	1105.143
-490.462	236.439	1152.250	-418.390	205.797	1208.020	-407.900	259.951	1105.080
-490.406	236.514	1152.095	-418.418	205.796	1207.925	-407.883	260.019	1105.032
-490.389	236.597	1151.994	-418.469	205.947	1207.833	-407.807	260.043	1104.944
-490.459	236.778	1151.843	-418.442	206.038	1207.766	-407.819	260.115	1104.823
-490.484	236.836	1151.770	-418.418	206.042	1207.615	-407.742	260.233	1104.813
-490.467	236.853	1151.606	-418.439	206.165	1207.525	-407.748	260.163	1104.630
-490.447	236.907	1151.457	-418.465	206.221	1207.429	-407.676	260.270	1104.486
-490.356	237.156	1151.251	-418.474	206.209	1207.277	-407.597	260.321	1104.379
-490.404	237.237	1151.098	-418.489	206.398	1207.286	-407.589	260.399	1104.148
-490.376	237.334	1150.807	-418.472	206.438	1207.148	-407.435	260.495	1104.018
-490.385	237.433	1150.595	-418.511	206.597	1207.069	-407.443	260.514	1103.823
-490.316	237.536	1150.484	-418.455	206.786	1206.953	-407.438	260.473	1103.620
-490.199	237.561	1150.249	-418.389	206.824	1206.856	-407.391	260.532	1103.458
-490.163	237.640	1150.105	-418.338	206.901	1206.811	-407.338	260.532	1103.244
-490.155	237.840	1149.827	-418.338	207.085	1206.634	-407.290	260.484	1103.109
-490.117	237.793	1149.544	-418.372	207.379	1206.517	-407.256	260.494	1102.815
-490.067	237.887	1149.384	-418.297	207.574	1206.385	-407.178	260.398	1102.596
-490.061	237.826	1148.988	-418.285	207.597	1206.170	-407.117	260.299	1102.420
-490.050	237.784	1148.782	-418.245	207.670	1206.012	-407.055	260.345	1102.102
-489.973	237.845	1148.501	-418.118	207.775	1205.852	-406.918	260.236	1101.785
-489.928	237.918	1148.384	-418.069	207.948	1205.770	-406.935	260.275	1101.497
-489.837	238.073	1148.109	-417.923	208.082	1205.584	-406.864	260.349	1101.294
-489.720	238.297	1147.849	-417.912	208.455	1205.460	-406.748	260.347	1101.059
-489.621	238.319	1147.621	-417.836	208.662	1205.268	-406.621	260.252	1100.635
-489.611	238.381	1147.344	-417.783	208.773	1205.076	-406.491	260.325	1100.363
-489.453	238.524	1147.103	-417.674	208.766	1204.850	-406.346	260.391	1100.047
-489.281	238.616	1146.726	-417.643	208.904	1204.551	-406.175	260.452	1099.796
-489.150	238.895	1146.403	-417.500	209.023	1204.341	-405.912	260.364	1099.382
-488.928	239.043	1146.017	-417.227	209.203	1204.155	-405.770	260.503	1099.176
-488.762	239.155	1145.530	-417.170	209.379	1203.813	-405.462	260.752	1098.941
-488.602	239.340	1145.158	-417.063	209.542	1203.404	-405.385	260.994	1098.616
-488.399	239.587	1144.872	-416.962	209.785	1203.053	-405.173	261.286	1098.273
-488.285	239.867	1144.639	-416.843	209.893	1202.699	-405.040	261.619	1097.997
-488.102	240.222	1144.287	-416.745	210.122	1202.328	-404.824	261.813	1097.662
-487.968	240.432	1144.088	-416.697	210.329	1201.979	-404.581	262.031	1097.415
-487.715	240.588	1143.719	-416.609	210.499	1201.660	-404.420	262.189	1097.198
-487.544	240.892	1143.418	-416.568	210.678	1201.265	-404.238	262.301	1096.942
-487.452	241.045	1143.071	-416.533	210.742	1200.998	-404.061	262.454	1096.719
-487.405	241.114	1142.737	-416.536	210.700	1200.614	-404.013	262.528	1096.430
-487.297	241.137	1142.414	-416.340	210.582	1200.252	-403.849	262.427	1096.255
-487.298	241.290	1142.160	-416.426	210.605	1199.823	-403.724	262.388	1095.955
-487.243	241.252	1141.820	-416.403	210.492	1199.570	-403.471	262.391	1095.682
-487.136	241.249	1141.540	-416.491	210.465	1199.031	-403.323	262.324	1095.348
-487.134	241.131	1141.270	-416.490	210.193	1198.526	-403.296	262.284	1095.127
-487.051	241.097	1140.926	-416.423	210.126	1198.209	-403.182	262.315	1095.006
-487.110	240.919	1140.553	-416.428	209.958	1197.909	-403.151	262.145	1094.756
-487.077	240.629	1140.209	-416.439	209.909	1197.572	-403.137	262.126	1094.516
-487.051	240.303	1139.839	-416.418	209.866	1197.430	-403.165	262.106	1094.366
-487.031	240.009	1139.654	-416.404	209.729	1197.350	-403.189	261.992	1094.244
-487.038	239.590	1139.423	-416.334	209.551	1197.290	-403.201	261.799	1094.117
-487.008	239.315	1139.259	-416.342	209.476	1197.108	-403.298	261.580	1094.051
-487.081	238.891	1139.273	-416.289	209.237	1197.076	-403.317	261.522	1093.990
-487.082	238.702	1139.112	-416.180	209.171	1197.182	-403.392	261.184	1094.019
-487.070	238.243	1139.267	-416.174	208.947	1197.216	-403.458	260.956	1093.981
-487.057	237.937	1139.367	-416.083	208.840	1197.299	-403.563	260.777	1094.012
-487.067	237.693	1139.439	-415.959	208.670	1197.343	-403.521	260.638	1093.994
-487.080	237.509	1139.605	-415.933	208.570	1197.425	-403.621	260.518	1093.995
-487.069	237.358	1139.685	-415.863	208.484	1197.475	-403.639	260.371	1094.093
-487.017	237.091	1139.846	-415.780	208.255	1197.638	-403.654	260.315	1094.160
-487.042	236.970	1139.904	-415.679	208.192	1197.712	-403.703	260.116	1094.169
-487.006	236.687	1140.059	-415.611	208.139	1197.948	-403.757	260.081	1094.285
-487.004	236.494	1140.094	-415.610	207.993	1197.999	-403.732	260.057	1094.345
-486.903	236.446	1140.271	-415.506	207.900	1198.158	-403.777	259.983	1094.497
-486.912	236.393	1140.420	-415.465	207.941	1198.222	-403.806	260.060	1094.499
-486.899	236.292	1140.493	-415.392	207.876	1198.363	-403.922	259.944	1094.582
-486.915	236.040	1140.575	-415.351	207.999	1198.514	-403.888	259.893	1094.677
-486.796	235.949	1140.718	-415.283	207.941	1198.448	-403.903	259.845	1094.671
-486.788	235.728	1140.738	-415.304	207.905	1198.683	-403.880	259.845	1094.822
-486.764	235.600	1140.784	-415.212	207.791	1198.765	-403.894	259.820	1094.885
-486.872	235.328	1140.911	-415.135	207.597	1198.747	-403.912	259.724	1094.913
-486.845	235.154	1140.945	-415.099	207.454	1198.898	-403.937	259.634	1094.927
-486.829	235.114	1141.167	-414.919	207.389	1199.061	-404.005	259.426	1095.039
-486.704	234.532	1141.109	-414.890	207.231	1199.121	-404.025	259.361	1095.060
-486.711	234.217	1141.241	-414.842	206.939	1199.167	-404.048	259.136	1095.182
-486.708	233.744	1141.262	-414.709	206.755	1199.316	-404.096	258.940	1095.219
-486.696	233.474	1141.354	-414.652	206.438	1199.334	-404.084	258.862	1095.333
-486.639	233.009	1141.437	-414.579	206.192	1199.449	-404.152	258.714	1095.425
-486.589	232.752	1141.537	-414.508	205.904	1199.504	-404.177	258.557	1095.492
-486.606	232.333	1141.641	-414.410	205.614	1199.680	-404.186	258.423	1095.675
-486.536	231.792	1141.790	-414.382	205.307	1199.728	-404.159	258.207	1095.815
-486.700	231.508	1141.743	-414.205	204.819	1199.935	-404.174	257.458	1095.669
-486.657	231.049	1142.006	-414.092	204.383	1200.139	-404.094	257.196	1096.069
-486.653	230.639	1142.238	-413.978	204.035	1200.404	-404.131	256.837	1096.399
-486.549	230.212	1142.443	-414.033	203.609	1200.613	-404.092	256.623	1096.691
-486.536	229.796	1142.686	-413.861	203.338	1200.679	-404.169	256.374	1097.032
-486.449	229.622	1143.143	-413.673	203.034	1201.053	-404.070	256.020	1097.204
-486.334	229.019	1143.371	-413.478	202.754	1201.315	-404.089	255.961	1097.480
-486.311	228.818	1143.848	-413.262	202.407	1201.625	-404.138	255.886	1097.771
-486.452	228.547	1144.374	-413.177	202.290	1202.008	-404.167	255.895	1098.171
-486.362	228.439	1144.795	-413.024	202.030	1202.224	-404.161	255.854	1098.609
-486.197	228.123	1145.285	-412.850	201.902	1202.643	-404.228	255.894	1098.976
-486.025	227.748	1145.795	-412.622	201.719	1202.917	-404.231	256.022	1099.519
-485.942	227.565	1146.341	-412.535	201.540	1203.288	-404.213	256.036	1099.953
-485.869	227.549	1146.826	-412.363	201.220	1203.504	-404.171	255.954	1100.321
-485.727	227.398	1147.029	-412.270	201.131	1203.875	-404.214	255.909	1100.763
-485.635	227.168	1147.309	-412.101	200.983	1204.091	-404.171	255.866	1101.040
-485.543	227.048	1147.771	-411.947	200.883	1204.388	-404.077	255.872	1101.456
-485.549	227.056	1148.160	-411.841	200.825	1204.583	-404.080	256.121	1101.846
-485.353	226.785	1148.359	-411.682	200.786	1204.904	-404.063	256.238	1102.306
-485.346	226.978	1148.650	-411.559	200.748	1205.218	-404.033	256.405	1102.613
-485.314	226.992	1148.904	-411.522	200.774	1205.521	-403.976	256.388	1102.888
-485.170	226.607	1149.102	-411.218	200.193	1205.487	-404.037	256.555	1103.246
-485.167	226.481	1149.266	-411.173	199.978	1205.715	-404.036	256.660	1103.549
-485.074	226.475	1149.490	-411.151	199.906	1205.890	-403.924	256.545	1103.810
-485.085	226.333	1149.650	-410.986	199.793	1206.139	-403.851	256.587	1104.175
-485.070	226.269	1149.801	-411.147	199.623	1206.202	-403.831	256.638	1104.352
-484.987	226.123	1149.883	-411.179	199.595	1206.346	-403.771	256.531	1104.663
-484.987	226.142	1149.986	-411.065	199.645	1206.429	-403.782	256.414	1104.855
-484.965	225.930	1150.048	-411.075	199.544	1206.594	-403.686	256.270	1104.976
-484.884	226.039	1150.268	-410.863	199.638	1206.676	-403.679	256.332	1105.147
-484.846	225.830	1150.271	-410.961	199.713	1206.866	-403.611	256.194	1105.260
-484.861	225.918	1150.336	-411.010	199.475	1206.881	-403.498	256.132	1105.440
-484.836	225.856	1150.519	-410.990	199.437	1207.126	-403.463	256.071	1105.597
-484.826	225.742	1150.590	-410.982	199.478	1207.201	-403.577	256.004	1105.723
-484.729	225.606	1150.732	-410.909	199.363	1207.255	-403.577	256.042	1105.880
-484.742	225.608	1150.885	-410.875	199.371	1207.457	-403.651	256.035	1106.058
-484.861	225.553	1151.068	-410.880	199.364	1207.572	-403.706	256.008	1106.094
-484.911	225.356	1151.165	-410.827	199.371	1207.733	-403.578	255.891	1106.154
-484.902	225.370	1151.351	-410.803	199.247	1207.873	-403.564	255.798	1106.306
-484.902	225.427	1151.405	-410.767	199.171	1207.915	-403.598	255.754	1106.391
-484.816	225.077	1151.323	-410.677	199.140	1208.067	-403.607	255.703	1106.464
-484.711	225.041	1151.373	-410.683	199.128	1208.012	-403.641	255.593	1106.483
-484.701	225.177	1151.425	-410.702	199.153	1208.131	-403.598	255.458	1106.430
-484.690	225.089	1151.404	-410.638	199.138	1208.142	-403.582	255.520	1106.438
-484.811	224.889	1151.236	-410.674	199.140	1208.087	-403.666	255.393	1106.335
-484.544	225.017	1151.182	-410.690	199.214	1208.041	-403.603	255.404	1106.294
-484.766	225.053	1151.229	-410.749	199.220	1207.942	-403.429	255.166	1106.031
-484.718	225.097	1151.026	-410.718	199.268	1207.831	-403.367	255.171	1105.977
-484.523	225.219	1150.909	-410.789	199.412	1207.705	-403.317	255.245	1105.841
-484.505	225.406	1150.711	-410.811	199.636	1207.594	-403.238	255.377	1105.605
-484.517	225.701	1150.402	-410.845	199.885	1207.504	-403.144	255.568	1105.467
-484.503	226.288	1150.278	-410.892	200.172	1207.263	-402.848	255.815	1105.267
-484.477	226.804	1150.065	-411.031	200.471	1207.145	-402.705	256.166	1104.980
-484.504	226.997	1149.847	-411.056	200.818	1207.032	-402.603	256.487	1104.843
-484.471	227.406	1149.583	-411.053	201.108	1206.981	-402.558	256.908	1104.582
-484.478	227.781	1149.394	-410.973	201.391	1206.789	-402.535	257.396	1104.440
-484.401	228.490	1149.370	-410.974	201.894	1206.681	-402.346	257.619	1104.317
-484.314	228.863	1149.270	-411.001	202.097	1206.655	-402.281	257.902	1104.255
-484.350	229.298	1149.367	-410.984	202.555	1206.673	-402.104	258.113	1104.185
-484.238	229.642	1149.344	-410.939	202.734	1206.649	-402.042	258.272	1104.102
-484.248	230.015	1149.340	-410.945	203.080	1206.621	-401.963	258.504	1104.110
-484.174	230.497	1149.420	-410.911	203.366	1206.652	-401.855	258.763	1104.044
-483.979	231.016	1149.275	-410.934	203.785	1206.536	-401.736	258.891	1103.935
-483.849	231.426	1149.193	-410.896	204.092	1206.460	-401.610	259.198	1103.801
-483.664	232.023	1149.093	-410.924	204.374	1206.278	-401.374	259.450	1103.588
-483.588	232.516	1148.854	-410.955	204.624	1206.064	-401.129	259.712	1103.393
-483.497	233.064	1148.667	-410.993	204.952	1205.872	-400.877	260.061	1103.151
-483.394	233.809	1148.425	-411.120	205.224	1205.585	-400.639	260.439	1102.872
-483.379	234.116	1147.953	-411.202	205.499	1205.314	-400.379	260.651	1102.555
-483.115	233.827	1147.150	-411.176	205.595	1205.020	-400.312	261.282	1102.670
-482.902	234.201	1146.822	-411.193	205.704	1204.668	-400.122	261.397	1102.429
-482.882	234.334	1146.405	-411.197	205.538	1204.296	-399.990	261.420	1102.190
-482.786	234.396	1146.142	-411.159	205.744	1204.132	-399.915	261.504	1102.006
-482.749	234.485	1146.012	-411.093	205.567	1203.903	-399.845	261.469	1101.804
-482.642	234.383	1145.718	-410.965	205.597	1203.732	-399.776	261.427	1101.597
-482.616	234.451	1145.542	-410.970	205.396	1203.480	-399.684	261.463	1101.509
-482.547	234.498	1145.389	-410.930	205.416	1203.307	-399.592	261.534	1101.276
-482.539	234.503	1145.139	-410.942	205.285	1203.035	-399.467	261.609	1101.288
-482.456	234.456	1144.875	-410.823	204.994	1202.826	-399.407	261.638	1101.134
-482.368	234.513	1144.747	-410.727	204.878	1202.587	-399.344	261.761	1101.020
-482.273	234.554	1144.592	-410.737	204.744	1202.451	-399.159	261.811	1101.031
-482.239	234.641	1144.447	-410.641	204.563	1202.228	-399.077	261.979	1101.083
-482.110	234.586	1144.349	-410.506	204.417	1202.109	-398.909	262.150	1101.085
-482.005	234.713	1144.368	-410.515	204.182	1202.031	-398.801	262.162	1101.099
-481.854	234.749	1144.365	-410.396	204.188	1201.915	-398.743	262.254	1101.137
-481.801	234.898	1144.455	-410.179	204.021	1201.883	-398.587	262.349	1101.249
-481.845	235.616	1144.954	-410.082	204.009	1201.913	-398.226	261.710	1100.918
-481.662	235.699	1145.046	-409.925	204.001	1201.952	-398.124	261.879	1101.016
-481.396	235.311	1144.914	-409.764	203.999	1201.876	-398.171	262.665	1101.565
-481.196	235.474	1145.099	-409.619	204.046	1201.980	-398.067	262.787	1101.654
-481.197	236.160	1145.564	-409.492	204.095	1201.992	-397.698	262.220	1101.196
-481.100	236.417	1145.669	-409.399	204.183	1202.031	-397.653	262.361	1101.382
-480.878	236.124	1145.506	-409.257	204.314	1202.085	-397.676	263.098	1101.772
-480.692	236.268	1145.580	-409.115	204.347	1202.033	-397.544	263.236	1101.777
-480.577	236.439	1145.635	-409.038	204.510	1202.048	-397.438	263.304	1101.775
-480.446	236.514	1145.592	-408.903	204.543	1201.980	-397.352	263.256	1101.670
-480.331	236.643	1145.493	-408.807	204.588	1201.965	-397.268	263.395	1101.667
-480.216	236.679	1145.457	-408.705	204.547	1201.885	-397.184	263.381	1101.535
-480.207	236.731	1145.304	-408.640	204.678	1201.749	-397.048	263.449	1101.598
-480.023	236.770	1145.271	-408.586	204.656	1201.758	-396.957	263.488	1101.435
-479.928	236.727	1145.111	-408.484	204.626	1201.550	-396.861	263.519	1101.350
-479.832	236.814	1145.001	-408.423	204.699	1201.428	-396.774	263.581	1101.287
-479.794	236.846	1144.895	-408.313	204.659	1201.377	-396.710	263.576	1101.198
-479.691	236.754	1144.884	-408.205	204.703	1201.352	-396.560	263.580	1101.167
-479.623	236.753	1144.745	-408.092	204.657	1201.244	-396.517	263.587	1101.104
-479.540	236.682	1144.816	-407.963	204.678	1201.295	-396.511	263.593	1101.110
-479.503	236.544	1144.798	-407.933	204.588	1201.336	-396.380	263.525	1101.098
-479.413	236.538	1144.810	-407.801	204.483	1201.291	-396.349	263.494	1101.167
-479.338	236.503	1144.967	-407.706	204.526	1201.384	-396.332	263.427	1101.236
-479.464	237.049	1145.361	-407.510	204.599	1201.476	-396.111	262.693	1100.785
-479.207	236.535	1145.259	-407.437	204.597	1201.530	-396.241	263.310	1101.219
-479.280	237.077	1145.683	-407.295	204.711	1201.697	-396.058	262.888	1100.897
-479.070	236.571	1145.508	-407.209	204.729	1201.753	-396.131	263.379	1101.349
-478.999	236.683	1145.775	-407.086	204.865	1201.809	-396.133	263.419	1101.263
-478.952	236.781	1145.867	-406.974	204.996	1201.925	-396.124	263.424	1101.283
-478.914	236.893	1145.950	-406.879	205.213	1202.066	-396.049	263.388	1101.318
-478.898	236.983	1146.046	-406.741	205.376	1202.101	-395.998	263.394	1101.216
-478.832	237.105	1146.075	-406.684	205.542	1202.172	-395.937	263.390	1101.198
-478.699	237.298	1146.148	-406.622	205.714	1202.212	-395.919	263.361	1101.156
-478.661	237.466	1146.295	-406.550	205.937	1202.307	-395.855	263.404	1101.135
-478.647	237.600	1146.275	-406.511	206.166	1202.324	-395.808	263.526	1101.182
-478.580	237.791	1146.391	-406.471	206.338	1202.368	-395.804	263.529	1101.067
-478.551	238.037	1146.304	-406.439	206.545	1202.434	-395.743	263.602	1101.037
-478.482	238.243	1146.444	-406.381	206.785	1202.435	-395.709	263.660	1100.992
-478.487	238.455	1146.364	-406.362	206.963	1202.436	-395.656	263.834	1100.851
-478.522	238.648	1146.331	-406.419	207.306	1202.436	-395.691	264.001	1100.932
-478.529	238.949	1146.327	-406.387	207.562	1202.552	-395.655	264.145	1100.865
-478.433	239.181	1146.285	-406.452	207.833	1202.527	-395.629	264.303	1100.864
-478.480	239.418	1146.250	-406.443	208.158	1202.534	-395.560	264.373	1100.846
-478.482	239.687	1146.238	-406.450	208.375	1202.578	-395.562	264.507	1100.761
-478.474	239.956	1146.401	-406.429	208.607	1202.588	-395.593	264.498	1100.768
-478.456	239.951	1146.451	-406.430	208.784	1202.683	-395.609	264.603	1100.720
-478.497	240.148	1146.504	-406.439	208.907	1202.742	-395.565	264.541	1100.717
-478.464	240.146	1146.543	-406.469	209.190	1202.892	-395.570	264.552	1100.616
-478.469	240.299	1146.675	-406.459	209.321	1202.929	-395.649	264.547	1100.639
-478.510	240.229	1146.630	-406.415	209.311	1202.964	-395.662	264.527	1100.630
-478.400	240.311	1146.636	-406.431	209.477	1203.123	-395.619	264.523	1100.662
-478.448	240.331	1146.692	-406.444	209.548	1203.096	-395.619	264.565	1100.621
-478.406	240.444	1146.768	-406.379	209.614	1203.131	-395.618	264.598	1100.578
-478.421	240.432	1146.603	-406.399	209.754	1203.205	-395.568	264.629	1100.668
-478.378	240.623	1146.724	-406.352	209.806	1203.200	-395.493	264.624	1100.592
-478.335	240.753	1146.707	-406.296	210.039	1203.248	-395.502	264.695	1100.512
-478.248	240.838	1146.751	-406.302	210.133	1203.187	-395.462	264.781	1100.506
-478.214	240.936	1146.629	-406.235	210.365	1203.239	-395.355	264.766	1100.416
-478.146	241.105	1146.511	-406.194	210.547	1203.328	-395.281	264.919	1100.503
-478.082	241.238	1146.403	-406.099	210.759	1203.174	-395.187	264.968	1100.487
-477.975	241.407	1146.438	-406.197	210.817	1203.240	-395.160	265.104	1100.460
-477.891	241.543	1146.156	-406.187	210.933	1203.222	-395.032	265.180	1100.341
-477.793	241.636	1146.121	-406.193	211.004	1203.137	-394.845	265.250	1100.231
-477.839	241.771	1145.978	-406.141	211.106	1203.166	-394.868	265.431	1100.122
-477.780	241.863	1145.808	-406.001	211.182	1203.057	-394.819	265.409	1100.027
-477.780	241.970	1145.828	-405.977	211.208	1202.921	-394.734	265.508	1099.892
-477.745	241.997	1145.579	-405.968	211.279	1202.820	-394.676	265.647	1099.858
-477.767	242.003	1145.382	-406.075	211.343	1202.715	-394.615	265.774	1099.671
-477.778	242.197	1145.365	-406.086	211.499	1202.677	-394.545	265.894	1099.688
-477.779	242.250	1145.279	-406.103	211.601	1202.681	-394.570	266.018	1099.606
-477.735	242.329	1145.232	-406.199	211.682	1202.644	-394.484	266.135	1099.556
-477.777	242.465	1145.270	-406.206	211.739	1202.625	-394.494	266.119	1099.488
-477.732	242.600	1145.193	-406.187	211.924	1202.718	-394.587	266.199	1099.622
-477.768	242.779	1145.336	-406.251	212.083	1202.831	-394.479	266.242	1099.648
-477.753	242.681	1145.346	-406.276	212.165	1203.000	-394.493	266.225	1099.707
-477.770	242.871	1145.556	-406.275	212.369	1203.060	-394.533	266.296	1099.760
-477.794	242.925	1145.676	-406.231	212.399	1203.184	-394.512	266.282	1099.788
-477.778	242.966	1145.714	-406.249	212.608	1203.300	-394.514	266.195	1099.955
-477.804	243.002	1146.003	-406.223	212.527	1203.340	-394.535	266.150	1100.044
-477.808	243.030	1146.051	-406.288	212.620	1203.593	-394.577	266.137	1100.161
-477.789	243.024	1146.191	-406.255	212.650	1203.757	-394.556	266.174	1100.366
-477.835	242.894	1146.277	-406.180	212.333	1203.787	-394.598	266.063	1100.556
-477.797	242.886	1146.436	-406.340	212.267	1203.826	-394.592	265.985	1100.660
-477.800	242.821	1146.555	-406.369	212.229	1204.006	-394.553	265.895	1100.865
-477.833	242.778	1146.704	-406.360	212.133	1203.995	-394.777	265.776	1100.906
-477.843	242.562	1146.752	-406.387	212.083	1204.104	-394.845	265.694	1101.052
-477.925	242.401	1146.833	-406.441	212.010	1204.148	-394.849	265.685	1101.098
-478.144	242.288	1146.961	-406.455	211.859	1204.252	-394.949	265.591	1101.207
-478.140	242.208	1147.088	-406.549	211.735	1204.315	-395.025	265.484	1101.268
-478.238	242.027	1147.161	-406.564	211.675	1204.482	-395.077	265.450	1101.325
-478.426	241.832	1147.151	-406.702	211.574	1204.504	-395.148	265.404	1101.351
-478.530	241.720	1147.219	-406.722	211.434	1204.511	-395.258	265.326	1101.440
-478.589	241.570	1147.218	-406.818	211.408	1204.522	-395.382	265.270	1101.489
-478.685	241.562	1147.347	-406.966	211.356	1204.625	-395.519	265.201	1101.400
-478.826	241.482	1147.345	-407.054	211.303	1204.710	-395.611	265.213	1101.445
-479.030	241.444	1147.386	-407.164	211.360	1204.677	-395.734	265.179	1101.495
-479.148	241.496	1147.347	-407.262	211.274	1204.704	-395.851	265.159	1101.546
-479.292	241.489	1147.383	-407.435	211.444	1204.680	-395.955	265.189	1101.523
-479.388	241.692	1147.426	-407.537	211.536	1204.699	-396.080	265.241	1101.579
-479.491	241.789	1147.440	-407.674	211.637	1204.748	-396.167	265.410	1101.595
-479.595	241.988	1147.610	-407.828	211.653	1204.741	-396.305	265.464	1101.581
-479.725	242.064	1147.563	-407.934	211.797	1204.900	-396.421	265.546	1101.797
-479.861	242.230	1147.934	-408.130	212.031	1205.036	-396.582	265.635	1101.822
-479.923	242.376	1147.967	-408.216	212.098	1205.091	-396.682	265.866	1102.015
-480.003	242.568	1148.209	-408.369	212.315	1205.265	-396.891	266.004	1102.263
-480.154	242.698	1148.306	-408.424	212.329	1205.377	-397.034	266.115	1102.362
-480.307	242.843	1148.592	-408.592	212.519	1205.489	-397.214	266.215	1102.495
-480.365	243.095	1148.735	-408.712	212.662	1205.608	-397.368	266.328	1102.726
-480.471	243.125	1148.919	-408.846	212.765	1205.781	-397.482	266.443	1102.789
-480.605	243.162	1149.074	-408.952	212.779	1205.818	-397.626	266.481	1102.908
-480.759	243.311	1149.217	-409.054	212.864	1205.882	-397.765	266.619	1102.970
-480.907	243.334	1149.258	-409.201	212.911	1205.916	-397.949	266.772	1103.075
-481.024	243.368	1149.191	-409.341	212.885	1205.969	-398.104	266.775	1103.171
-481.107	243.461	1149.297	-409.523	212.877	1205.930	-398.276	266.949	1103.221
-481.291	243.451	1149.349	-409.694	212.958	1205.913	-398.400	267.013	1103.162
-481.413	243.415	1149.217	-409.863	213.000	1205.911	-398.585	267.093	1103.273
-481.656	243.460	1149.130	-409.964	212.894	1205.904	-398.746	267.186	1103.207
-481.784	243.401	1149.009	-410.123	212.926	1205.916	-398.862	267.241	1103.262
-481.979	243.430	1148.917	-410.291	212.923	1205.940	-399.049	267.200	1103.076
-482.204	243.411	1148.827	-410.438	212.941	1205.841	-399.198	267.286	1103.047
-482.330	243.239	1148.687	-410.570	212.916	1205.811	-399.371	267.251	1103.006
-482.499	243.221	1148.683	-410.723	212.847	1205.732	-399.480	267.293	1102.964
-482.716	243.161	1148.499	-410.951	212.849	1205.686	-399.630	267.279	1102.928
-482.915	243.172	1148.460	-411.079	212.865	1205.650	-399.719	267.259	1102.816
-483.034	243.220	1148.446	-411.267	212.924	1205.605	-399.771	267.313	1102.701
-483.068	243.179	1148.269	-411.397	212.999	1205.594	-399.813	267.371	1102.655
-483.193	243.327	1148.372	-411.517	213.089	1205.560	-399.982	267.462	1102.730
-483.296	243.332	1148.222	-411.644	213.138	1205.607	-400.031	267.499	1102.721
-483.397	243.439	1148.269	-411.749	213.215	1205.629	-400.043	267.622	1102.635
-483.471	243.573	1148.301	-411.823	213.360	1205.678	-400.136	267.718	1102.680
-483.497	243.782	1148.465	-411.956	213.416	1205.714	-400.241	267.789	1102.734
-483.662	243.898	1148.404	-412.016	213.512	1205.710	-400.273	267.979	1102.775
-483.707	244.115	1148.560	-412.051	213.692	1205.719	-400.320	268.000	1102.713
-483.759	244.254	1148.706	-412.166	213.798	1205.806	-400.403	268.159	1102.884
-483.779	244.391	1148.711	-412.259	213.842	1205.878	-400.457	268.271	1102.895
-483.815	244.681	1148.797	-412.280	213.981	1205.904	-400.462	268.448	1102.929
-483.879	244.808	1148.773	-412.325	214.054	1205.977	-400.525	268.548	1102.969
-483.955	244.881	1148.868	-412.249	214.167	1205.998	-400.628	268.689	1102.894
-483.929	245.065	1148.945	-412.406	214.296	1206.113	-400.634	268.716	1102.975
-483.952	245.133	1148.960	-412.526	214.364	1206.107	-400.648	268.865	1103.111
-483.982	245.220	1149.083	-412.333	214.464	1206.119	-400.651	268.872	1103.067
-484.015	245.282	1149.090	-412.351	214.560	1206.183	-400.675	268.965	1103.158
-483.995	245.420	1149.288	-412.434	214.588	1206.189	-400.629	269.078	1103.279
-483.965	245.510	1149.360	-412.483	214.746	1206.336	-400.651	269.065	1103.343
-484.005	245.522	1149.384	-412.429	214.759	1206.359	-400.712	269.166	1103.473
-483.966	245.604	1149.515	-412.437	214.799	1206.387	-400.687	269.205	1103.524
-483.965	245.551	1149.624	-412.351	214.864	1206.453	-400.657	269.242	1103.627
-483.975	245.654	1149.674	-412.356	214.882	1206.481	-400.650	269.290	1103.669
-483.956	245.563	1149.744	-412.279	214.799	1206.506	-400.686	269.233	1103.671
-483.938	245.600	1149.845	-412.298	214.824	1206.528	-400.629	269.200	1103.736
-483.878	245.597	1149.852	-412.268	214.829	1206.511	-400.680	269.213	1103.810
-483.919	245.597	1149.827	-412.264	214.893	1206.584	-400.632	269.094	1103.744
-483.885	245.610	1149.796	-412.259	214.879	1206.527	-400.613	269.277	1103.797
-483.911	245.700	1149.784	-412.259	214.844	1206.540	-400.576	269.215	1103.808
-483.816	245.671	1149.595	-412.207	214.942	1206.508	-400.536	269.314	1103.721
-483.806	245.719	1149.679	-412.225	215.010	1206.548	-400.474	269.278	1103.524
-483.821	245.854	1149.564	-412.184	214.964	1206.405	-400.453	269.389	1103.524
-483.825	245.839	1149.488	-412.216	215.062	1206.465	-400.438	269.444	1103.386
-483.828	245.835	1149.317	-412.200	215.086	1206.428	-400.433	269.504	1103.367
-483.803	245.901	1149.288	-412.152	215.132	1206.419	-400.359	269.520	1103.279
-483.792	245.849	1149.173	-412.129	215.204	1206.330	-400.409	269.589	1103.272
-483.721	245.907	1149.096	-412.153	215.143	1206.323	-400.419	269.673	1103.143
-483.769	245.926	1149.090	-411.994	215.225	1206.100	-400.398	269.679	1103.013
-483.811	245.968	1148.960	-412.010	215.029	1206.017	-400.421	269.694	1102.990
-483.765	245.937	1148.856	-412.062	215.179	1206.040	-400.405	269.765	1102.884
-483.793	245.936	1148.768	-412.114	215.162	1205.912	-400.478	269.774	1102.852
-483.821	245.957	1148.638	-412.098	215.055	1205.775	-400.447	269.855	1102.801
-483.814	245.970	1148.557	-412.170	215.115	1205.819	-400.459	269.835	1102.646
-483.837	245.905	1148.492	-412.190	215.014	1205.644	-400.507	269.832	1102.620
-483.861	245.868	1148.394	-412.261	214.918	1205.611	-400.461	269.757	1102.569
-483.922	245.820	1148.416	-412.232	214.974	1205.629	-400.491	269.783	1102.635
-483.913	245.685	1148.273	-412.246	214.854	1205.613	-400.566	269.744	1102.541
-483.985	245.678	1148.370	-412.192	214.948	1205.674	-400.564	269.645	1102.544
-483.909	245.576	1148.467	-412.222	214.838	1205.578	-400.626	269.643	1102.586
-483.911	245.536	1148.487	-412.298	214.649	1205.671	-400.581	269.532	1102.586
-483.941	245.426	1148.431	-412.190	214.737	1205.646	-400.581	269.560	1102.615
-483.938	245.460	1148.502	-412.233	214.575	1205.679	-400.554	269.474	1102.686
-483.972	245.287	1148.382	-412.203	214.628	1205.719	-400.558	269.491	1102.622
-483.936	245.389	1148.479	-412.228	214.656	1205.679	-400.557	269.433	1102.695
-483.903	245.371	1148.576	-412.182	214.580	1205.748	-400.534	269.423	1102.758
-483.853	245.311	1148.574	-412.197	214.696	1205.723	-400.526	269.425	1102.764
-483.946	245.399	1148.618	-412.187	214.543	1205.768	-400.529	269.405	1102.804
-483.844	245.420	1148.726	-412.170	214.530	1205.828	-400.535	269.304	1102.862
-483.846	245.462	1148.728	-412.109	214.667	1205.932	-400.499	269.370	1102.860
-483.843	245.455	1148.820	-412.183	214.665	1205.993	-400.536	269.312	1102.875
-483.838	245.426	1148.786	-412.121	214.664	1205.983	-400.488	269.337	1103.020
-483.858	245.429	1148.885	-412.061	214.620	1205.943	-400.511	269.349	1102.956
-483.865	245.414	1148.980	-412.077	214.617	1206.002	-400.487	269.313	1102.990
-483.825	245.384	1149.005	-412.094	214.584	1206.026	-400.533	269.286	1102.976
-483.846	245.337	1148.913	-412.207	214.483	1206.081	-400.541	269.301	1103.068
-483.850	245.260	1148.967	-412.214	214.382	1205.975	-400.567	269.253	1103.026
-483.906	245.272	1148.863	-412.183	214.477	1205.950	-400.587	269.165	1103.035
-483.898	245.156	1148.819	-412.178	214.441	1205.898	-400.593	269.149	1102.912
-483.905	245.112	1148.723	-412.255	214.338	1205.912	-400.569	269.170	1102.913
-483.937	245.099	1148.606	-412.158	214.340	1205.729	-400.616	269.161	1102.745
-483.892	245.052	1148.505	-412.195	214.365	1205.712	-400.660	269.169	1102.644
-483.926	245.111	1148.409	-412.127	214.425	1205.643	-400.573	269.225	1102.552
-483.927	245.122	1148.310	-412.165	214.490	1205.559	-400.624	269.230	1102.438
-483.940	245.102	1148.094	-412.208	214.551	1205.479	-400.577	269.303	1102.373
-483.927	245.137	1147.974	-412.191	214.577	1205.387	-400.550	269.294	1102.262
-483.889	245.261	1147.897	-412.188	214.607	1205.340	-400.586	269.368	1102.135
-483.849	245.315	1147.799	-412.230	214.822	1205.275	-400.577	269.387	1101.941
-483.855	245.470	1147.756	-412.179	214.746	1205.253	-400.467	269.517	1101.913
-483.809	245.515	1147.588	-412.168	214.922	1205.172	-400.498	269.555	1101.893
-483.719	245.620	1147.610	-412.216	214.967	1205.134	-400.455	269.584	1101.935
-483.710	245.781	1147.604	-412.115	215.100	1205.213	-400.360	269.609	1101.931
-483.622	245.857	1147.684	-412.119	215.088	1205.164	-400.348	269.707	1101.968
-483.661	245.842	1147.766	-412.034	215.090	1205.251	-400.356	269.730	1102.073
-483.580	245.905	1147.894	-412.058	215.148	1205.371	-400.230	269.658	1102.117
-483.564	245.810	1148.037	-411.998	215.071	1205.508	-400.273	269.586	1102.215
-483.595	245.777	1148.184	-411.904	215.029	1205.504	-400.284	269.555	1102.339
-483.615	245.783	1148.477	-411.928	214.867	1205.670	-400.236	269.479	1102.551
-483.612	245.731	1148.686	-411.857	214.737	1205.771	-400.263	269.360	1102.772
-483.628	245.579	1148.941	-411.788	214.665	1205.888	-400.280	269.240	1102.820
-483.604	245.457	1149.139	-411.894	214.531	1206.009	-400.284	269.209	1103.075
-483.599	245.358	1149.303	-411.879	214.483	1206.089	-400.306	269.014	1103.277
-483.560	245.297	1149.686	-411.804	214.465	1206.261	-400.311	268.974	1103.417
-483.589	245.112	1149.654	-411.764	214.273	1206.271	-400.372	268.878	1103.693
-483.698	245.019	1149.847	-411.738	214.238	1206.375	-400.529	268.619	1103.771
-483.650	244.922	1150.031	-411.664	214.122	1206.470	-400.461	268.539	1103.874
-483.624	244.741	1150.097	-411.724	213.980	1206.502	-400.509	268.385	1103.861
-483.696	244.676	1150.155	-411.662	213.843	1206.543	-400.570	268.324	1103.918
-483.613	244.669	1150.268	-411.684	213.849	1206.661	-400.560	268.243	1104.104
-483.580	244.490	1150.245	-411.669	213.752	1206.687	-400.516	268.159	1104.175
-483.601	244.506	1150.389	-411.672	213.724	1206.816	-400.574	268.177	1104.286
-483.586	244.682	1150.552	-411.618	213.729	1206.813	-400.576	268.238	1104.310
-483.486	244.760	1150.599	-411.633	213.746	1206.842	-400.543	268.138	1104.310
-483.479	244.860	1150.705	-411.624	213.779	1206.935	-400.506	268.148	1104.384
-483.554	244.663	1150.716	-411.641	213.848	1206.949	-400.522	268.174	1104.337
-483.533	244.728	1150.705	-411.590	213.875	1207.068	-400.507	268.196	1104.400
-483.492	244.699	1150.756	-411.595	213.897	1207.035	-400.513	268.230	1104.439
-483.535	244.840	1150.812	-411.630	213.918	1207.010	-400.473	268.244	1104.466
-483.515	244.813	1150.872	-411.606	214.048	1207.115	-400.504	268.210	1104.505
-483.427	245.233	1151.057	-411.623	214.046	1207.137	-400.546	268.182	1104.607
-483.518	244.754	1150.905	-411.582	213.892	1207.117	-400.491	268.219	1104.674
-483.527	244.651	1151.005	-411.541	213.860	1207.198	-400.497	268.072	1104.641
-483.524	244.579	1151.053	-411.517	213.799	1207.316	-400.597	268.006	1104.708
-483.548	244.406	1151.070	-411.495	213.627	1207.310	-400.559	267.976	1104.780
-483.537	244.299	1151.124	-411.498	213.505	1207.318	-400.656	267.768	1104.696
-483.522	244.165	1151.130	-411.457	213.459	1207.383	-400.588	267.773	1104.766
-483.502	244.011	1151.107	-411.464	213.296	1207.352	-400.704	267.686	1104.871
-483.557	243.876	1151.185	-411.536	213.197	1207.386	-400.664	267.543	1104.880
-483.532	243.778	1151.184	-411.472	213.052	1207.335	-400.654	267.426	1104.811
-483.537	243.504	1151.072	-411.474	212.957	1207.344	-400.644	267.363	1104.916
-483.534	243.443	1151.152	-411.466	212.789	1207.335	-400.829	267.349	1104.888
-483.593	243.381	1151.112	-411.504	212.704	1207.263	-400.661	267.172	1104.801
-483.565	243.289	1151.049	-411.430	212.643	1207.224	-400.697	267.153	1104.833
-483.541	243.240	1151.021	-411.471	212.667	1207.253	-400.694	267.177	1104.847
-483.525	243.160	1150.996	-411.434	212.601	1207.243	-400.641	267.152	1104.663
-483.537	243.183	1150.914	-411.455	212.673	1207.172	-400.624	267.115	1104.758
-483.501	243.279	1150.898	-411.471	212.621	1207.121	-400.567	267.045	1104.637
-483.451	243.248	1150.827	-411.498	212.669	1207.117	-400.501	267.118	1104.663
-483.430	243.292	1150.848	-411.418	212.651	1207.129	-400.486	267.148	1104.655
-483.400	243.294	1150.745	-411.487	212.637	1207.042	-400.407	267.169	1104.569
-483.397	243.373	1150.743	-411.409	212.719	1207.111	-400.421	267.140	1104.537
-483.361	243.283	1150.680	-411.438	212.672	1207.062	-400.400	267.113	1104.563
-483.307	243.314	1150.802	-411.363	212.685	1207.162	-400.362	267.156	1104.654
-483.297	243.313	1150.959	-411.356	212.673	1207.167	-400.360	267.088	1104.656
-483.276	243.325	1151.018	-411.257	212.642	1207.249	-400.410	267.043	1104.726
-483.209	243.231	1151.171	-411.212	212.484	1207.336	-400.302	266.905	1104.839
-483.149	243.144	1151.337	-411.180	212.473	1207.469	-400.287	266.907	1104.937
-483.220	243.007	1151.391	-411.134	212.256	1207.523	-400.322	266.727	1105.039
-483.098	242.888	1151.640	-411.039	212.212	1207.670	-400.342	266.634	1105.160
-483.100	242.669	1151.801	-410.962	212.063	1207.754	-400.363	266.479	1105.341
-483.083	242.295	1151.931	-410.924	212.058	1207.957	-400.409	266.267	1105.359
-483.051	242.190	1152.088	-410.805	211.949	1208.064	-400.394	266.170	1105.510
-483.140	241.990	1152.052	-410.809	211.726	1208.155	-400.459	266.078	1105.572
-483.075	241.935	1152.116	-410.822	211.607	1208.179	-400.473	265.970	1105.718
-483.156	241.751	1152.227	-410.798	211.545	1208.474	-400.504	265.934	1105.769
-483.184	241.546	1152.359	-410.795	211.519	1208.539	-400.544	265.806	1105.865
-483.146	241.384	1152.455	-410.726	211.394	1208.737	-400.554	265.531	1105.871
-483.189	241.190	1152.585	-410.750	211.276	1208.749	-400.620	265.476	1105.933
-483.256	241.005	1152.717	-410.731	211.163	1208.802	-400.712	265.397	1105.971
-483.198	240.875	1152.778	-410.692	211.102	1208.967	-400.802	265.377	1106.033
-483.282	240.778	1152.916	-410.742	211.002	1209.027	-400.802	265.198	1106.122
-483.282	240.692	1153.036	-410.686	210.944	1209.154	-400.878	265.110	1106.178
-483.342	240.458	1153.118	-410.635	210.869	1209.260	-400.919	265.037	1106.153
-483.379	240.412	1153.171	-410.639	210.845	1209.376	-401.027	264.891	1106.304
-483.349	240.006	1153.288	-410.605	210.803	1209.462	-401.195	264.803	1106.380
-483.408	239.974	1153.488	-410.598	210.765	1209.625	-401.329	264.621	1106.501
-483.542	239.752	1153.624	-410.533	210.586	1209.826	-401.427	264.349	1106.561
-483.501	239.397	1153.717	-410.478	210.484	1209.964	-401.579	264.074	1106.570
-483.632	239.093	1153.980	-410.497	210.332	1210.160	-401.827	263.887	1106.783
-483.756	238.637	1154.266	-410.398	210.084	1210.415	-401.969	263.524	1106.789
-483.777	238.121	1154.421	-410.336	209.902	1210.612	-402.160	263.148	1106.775
-483.930	237.698	1154.675	-410.290	209.649	1210.735	-402.408	262.735	1106.821
-483.986	237.269	1154.841	-410.251	209.510	1211.038	-402.507	262.295	1106.886
-484.031	236.641	1155.035	-410.235	209.292	1211.116	-402.669	261.938	1106.929
-484.083	236.115	1155.152	-410.322	208.955	1211.218	-402.768	261.451	1106.953
-484.146	235.644	1155.223	-410.241	208.832	1211.322	-402.872	260.821	1106.958
-484.252	235.016	1155.301	-410.238	208.639	1211.343	-402.931	260.343	1106.896
-484.301	234.469	1155.305	-410.178	208.376	1211.274	-402.989	259.855	1106.867
-484.324	234.014	1155.259	-410.155	208.098	1211.301	-403.054	259.516	1106.937
-484.394	233.536	1155.344	-410.155	207.792	1211.332	-403.194	259.012	1106.907
-484.463	233.085	1155.282	-410.272	207.583	1211.292	-403.287	258.694	1106.938
-484.582	232.697	1155.158	-410.158	207.367	1211.316	-403.329	258.396	1106.985
-484.724	232.323	1155.177	-410.264	207.148	1211.356	-403.617	258.123	1106.895
-484.736	232.240	1155.184	-410.299	207.120	1211.351	-403.707	257.858	1106.928
-484.810	232.045	1155.143	-410.287	206.908	1211.331	-403.758	257.768	1106.913
-484.939	231.902	1155.179	-410.361	206.798	1211.431	-403.858	257.556	1106.896
-484.825	231.729	1155.257	-410.381	206.775	1211.438	-403.839	257.398	1106.929
-484.936	231.486	1155.310	-410.404	206.726	1211.566	-403.950	257.269	1106.947
-484.983	231.346	1155.411	-410.413	206.622	1211.713	-404.037	256.997	1107.023
-485.016	231.090	1155.668	-410.383	206.469	1211.856	-404.120	256.851	1107.067
-485.066	230.802	1155.741	-410.387	206.311	1212.064	-404.219	256.656	1107.188
-485.105	230.516	1155.935	-410.471	206.218	1212.343	-404.359	256.548	1107.365
-485.122	230.433	1156.288	-410.505	205.995	1212.605	-404.542	256.259	1107.549
-485.104	230.191	1156.594	-410.487	205.797	1212.934	-404.667	256.113	1107.725
-485.127	230.059	1156.995	-410.533	205.632	1213.249	-404.703	255.946	1107.936
-485.138	229.755	1157.455	-410.477	205.508	1213.686	-404.790	255.784	1108.208
-485.129	229.551	1157.939	-410.436	205.455	1214.130	-404.934	255.608	1108.410
-485.085	229.339	1158.528	-410.285	205.456	1214.691	-405.050	255.493	1108.783
-485.063	229.043	1159.082	-410.280	205.204	1215.216	-405.131	255.287	1109.041
-485.082	228.776	1159.532	-410.139	204.769	1215.543	-405.210	255.074	1109.425
-485.012	228.381	1160.191	-410.022	204.493	1216.026	-405.211	254.785	1109.794
-485.219	227.980	1160.828	-410.078	204.032	1216.406	-405.167	254.839	1110.292
-485.076	227.525	1161.291	-409.842	203.711	1216.713	-405.353	254.272	1111.014
-484.956	227.085	1162.119	-409.632	203.333	1217.248	-405.364	253.837	1111.846
-485.051	226.623	1162.826	-409.471	202.930	1217.733	-405.519	253.459	1112.516
-484.990	226.175	1163.505	-409.282	202.597	1218.416	-405.671	253.018	1112.988
-485.146	225.681	1164.162	-409.090	202.095	1218.955	-405.750	252.771	1113.650
-485.098	224.988	1164.714	-409.065	201.650	1219.409	-405.860	252.542	1114.183
-485.127	224.509	1165.359	-408.921	201.275	1219.801	-405.973	252.265	1114.686
-485.140	224.223	1165.820	-408.904	200.876	1220.132	-406.065	251.978	1115.122
-485.159	223.802	1166.267	-409.004	200.842	1220.611	-406.242	251.715	1115.674
-485.317	223.473	1166.847	-408.931	200.330	1220.975	-406.370	251.508	1116.167
-485.343	223.302	1167.136	-408.923	200.182	1221.437	-406.480	251.334	1116.770
-485.422	222.898	1167.706	-408.845	199.840	1221.948	-406.626	251.270	1117.309
-485.438	222.503	1168.202	-408.957	199.568	1222.348	-406.704	251.303	1117.781
-485.523	222.256	1168.793	-408.948	199.373	1222.758	-406.820	251.378	1118.402
-485.735	222.643	1169.667	-408.906	199.154	1223.211	-406.776	250.317	1118.183
-485.793	222.527	1170.102	-408.980	198.971	1223.856	-406.894	250.143	1118.802
-485.768	222.184	1170.522	-408.921	198.869	1224.402	-407.120	250.038	1119.317
-485.743	221.787	1170.963	-408.933	198.762	1224.901	-407.448	250.718	1120.318
-485.874	221.784	1171.599	-409.078	198.845	1225.401	-407.557	250.966	1120.909
-485.933	222.082	1172.380	-409.050	198.914	1225.832	-407.732	251.141	1121.451
-485.958	222.185	1173.019	-409.108	199.126	1226.463	-407.728	251.439	1121.992
-486.041	222.396	1173.696	-409.086	199.249	1227.034	-407.746	251.497	1122.433
-486.244	222.811	1174.389	-409.022	199.486	1227.685	-407.841	251.643	1122.856
-486.261	223.103	1174.915	-409.086	199.734	1228.298	-407.937	251.814	1123.365
-486.302	223.482	1175.703	-408.910	199.481	1228.653	-408.025	251.975	1123.799
-486.332	223.770	1176.220	-408.948	199.711	1229.042	-408.298	252.412	1124.349
-486.375	224.182	1176.887	-408.977	199.757	1229.386	-408.379	252.684	1124.842
-486.546	224.598	1177.490	-408.999	199.890	1229.830	-408.456	252.979	1125.303
-486.512	224.640	1177.734	-409.038	200.131	1230.168	-408.607	253.225	1125.840
-486.625	224.853	1178.134	-409.225	200.098	1230.339	-408.679	253.433	1126.118
-486.795	225.139	1178.429	-409.280	200.339	1230.564	-408.825	253.595	1126.573
-486.797	225.253	1178.618	-409.454	200.474	1230.754	-409.010	253.715	1126.833
-486.957	225.438	1178.839	-409.468	200.545	1230.913	-409.114	253.731	1127.036
-487.032	225.555	1179.090	-409.585	200.578	1231.085	-409.119	253.838	1127.182
-487.228	225.673	1179.225	-409.761	200.639	1231.226	-409.247	253.767	1127.323
-487.328	225.711	1179.375	-409.836	200.729	1231.426	-409.304	253.815	1127.486
-487.423	225.684	1179.426	-409.980	200.845	1231.513	-409.445	253.721	1127.497
-487.600	225.826	1179.559	-410.149	201.036	1231.681	-409.509	253.669	1127.589
-487.673	225.779	1179.491	-410.281	201.115	1231.769	-409.621	253.695	1127.749
-487.786	225.884	1179.598	-410.325	201.208	1231.849	-409.700	253.680	1127.738
-487.907	225.979	1179.606	-410.473	201.314	1231.891	-409.759	253.721	1127.866
-487.987	225.994	1179.654	-410.572	201.380	1232.042	-409.862	253.782	1127.837
-488.007	226.116	1179.661	-410.729	201.563	1232.126	-409.879	253.739	1127.845
-488.164	226.170	1179.790	-410.799	201.633	1232.168	-409.962	253.826	1127.891
-488.324	226.286	1179.904	-410.913	201.760	1232.193	-410.026	253.889	1127.969
-488.241	226.449	1179.822	-411.012	201.836	1232.316	-410.008	253.959	1127.981
-488.337	226.527	1179.830	-411.166	201.991	1232.276	-410.026	254.089	1128.093
-488.424	226.694	1179.917	-411.235	202.089	1232.457	-410.011	254.211	1128.118
-488.446	226.795	1179.951	-411.288	202.235	1232.465	-410.070	254.303	1128.210
-488.508	226.946	1179.992	-411.369	202.345	1232.596	-410.102	254.369	1128.282
-488.558	227.082	1180.056	-411.440	202.433	1232.675	-410.066	254.513	1128.375
-488.591	227.277	1180.140	-411.457	202.543	1232.797	-410.103	254.617	1128.416
-488.572	227.432	1180.201	-411.502	202.729	1232.828	-410.110	254.737	1128.538
-488.671	227.572	1180.302	-411.539	202.834	1232.888	-410.133	254.813	1128.606
-488.633	227.925	1180.408	-411.587	202.951	1232.982	-410.073	254.968	1128.658
-488.578	228.146	1180.562	-411.586	203.048	1233.078	-410.110	255.053	1128.723
-488.632	228.285	1180.718	-411.619	203.191	1233.125	-410.103	255.183	1128.842
-488.656	228.411	1180.784	-411.602	203.282	1233.211	-410.088	255.213	1128.850
-488.632	228.581	1180.894	-411.587	203.341	1233.332	-410.056	255.199	1128.894
-488.631	228.680	1180.968	-411.625	203.339	1233.369	-410.042	255.280	1128.904
-488.544	228.794	1180.991	-411.586	203.465	1233.407	-410.174	255.334	1129.090
-488.585	228.920	1180.977	-411.556	203.563	1233.460	-410.060	255.307	1128.979
-488.566	228.872	1181.098	-411.517	203.652	1233.483	-410.059	255.201	1129.009
-488.501	228.990	1181.139	-411.561	203.705	1233.550	-410.096	255.310	1129.013
-488.529	228.976	1181.135	-411.553	203.672	1233.579	-410.032	255.116	1128.942
-488.528	228.954	1181.072	-411.517	203.759	1233.625	-410.097	255.056	1128.899
-488.521	228.884	1181.039	-411.561	203.737	1233.541	-410.005	255.015	1128.949
-488.499	228.820	1180.956	-411.495	203.744	1233.508	-409.995	254.923	1128.768
-488.521	228.821	1180.793	-411.561	203.771	1233.428	-410.002	254.975	1128.675
-488.542	228.663	1180.712	-411.568	203.703	1233.386	-410.002	254.870	1128.573
-488.536	228.552	1180.435	-411.601	203.747	1233.249	-409.928	254.798	1128.418
-488.501	228.467	1180.363	-411.628	203.571	1233.142	-409.955	254.679	1128.278
-488.554	228.279	1180.088	-411.647	203.590	1232.946	-409.920	254.677	1128.177
-488.551	228.220	1179.931	-411.760	203.427	1232.825	-409.880	254.675	1127.999
-488.542	228.033	1179.673	-411.783	203.416	1232.783	-409.833	254.575	1127.902
-488.489	227.979	1179.473	-411.881	203.393	1232.611	-409.813	254.518	1127.792
-488.498	227.826	1179.356	-411.931	203.230	1232.443	-409.815	254.420	1127.646
-488.502	227.777	1179.205	-411.905	203.202	1232.371	-409.841	254.419	1127.536
-488.535	227.684	1178.983	-411.887	203.007	1232.254	-409.736	254.278	1127.340
-488.488	227.537	1178.821	-411.805	202.826	1232.043	-409.794	254.145	1127.192
-488.516	227.348	1178.656	-411.643	202.826	1231.872	-409.778	254.042	1127.034
-488.488	227.324	1178.466	-411.693	202.846	1231.804	-409.805	253.944	1126.828
-488.473	227.228	1178.339	-411.707	202.794	1231.599	-409.717	253.817	1126.673
-488.422	227.233	1178.240	-411.660	202.779	1231.484	-409.750	253.657	1126.392
-488.424	227.184	1178.000	-411.640	202.728	1231.414	-409.682	253.564	1126.167
-488.389	227.040	1177.862	-411.584	202.874	1231.219	-409.600	253.438	1125.990
-488.286	227.072	1177.691	-411.616	203.000	1231.023	-409.552	253.389	1125.724
-488.506	227.203	1177.443	-411.579	203.087	1230.887	-409.598	253.316	1125.506
-488.422	227.166	1177.467	-411.526	203.065	1230.745	-409.529	253.190	1125.214
-488.341	227.108	1177.249	-411.581	203.201	1230.638	-409.443	253.091	1125.003
-488.268	227.129	1177.047	-411.528	203.312	1230.473	-409.402	253.037	1124.722
-488.191	227.181	1176.859	-411.540	203.356	1230.415	-409.403	252.965	1124.519
-488.152	227.038	1176.760	-411.528	203.382	1230.253	-409.272	252.571	1124.127
-488.196	227.056	1176.662	-411.451	203.454	1230.191	-409.275	252.499	1124.010
-488.120	227.052	1176.491	-411.423	203.436	1230.014	-409.267	252.390	1123.713
-488.092	227.100	1176.354	-411.372	203.491	1229.941	-409.178	252.302	1123.581
-488.023	227.007	1176.213	-411.350	203.566	1229.819	-409.153	252.239	1123.400
-488.002	226.909	1176.007	-411.258	203.623	1229.787	-409.134	252.149	1123.269
-487.969	226.888	1175.816	-411.240	203.839	1229.672	-409.132	252.134	1123.125
-487.904	226.906	1175.688	-411.181	203.735	1229.499	-409.063	252.120	1122.916
-487.847	226.929	1175.458	-411.193	203.825	1229.484	-409.053	252.097	1122.735
-487.818	226.957	1175.221	-411.211	203.880	1229.216	-409.035	252.055	1122.623
-487.777	227.024	1174.954	-411.209	204.040	1229.073	-408.924	252.072	1122.391
-487.732	227.112	1174.733	-411.275	204.186	1228.843	-408.885	252.113	1122.174
-487.630	227.229	1174.395	-411.191	204.231	1228.680	-408.775	252.165	1122.048
-487.565	227.303	1174.112	-411.273	204.330	1228.415	-408.654	252.268	1121.850
-487.603	227.474	1173.828	-411.270	204.541	1228.287	-408.638	252.366	1121.762
-487.553	227.684	1173.611	-411.246	204.669	1228.144	-408.509	252.493	1121.611
-487.461	227.900	1173.432	-411.381	205.134	1228.068	-408.457	252.602	1121.458
-487.364	228.078	1173.229	-411.311	205.115	1227.860	-408.360	252.751	1121.182
-487.355	228.170	1172.905	-411.282	205.327	1227.627	-408.179	252.837	1121.038
-487.295	228.338	1172.732	-411.306	205.479	1227.498	-408.085	252.937	1120.852
-487.241	228.560	1172.552	-411.331	205.613	1227.376	-408.096	253.127	1120.573
-487.308	228.662	1172.296	-411.336	205.758	1227.234	-408.060	253.264	1120.319
-487.294	228.773	1172.144	-411.277	205.844	1227.057	-407.986	253.239	1120.174
-487.243	228.859	1171.994	-411.271	205.921	1226.939	-407.898	253.349	1119.970
-487.226	228.843	1171.829	-411.180	205.999	1226.895	-407.914	253.280	1119.822
-487.191	228.824	1171.680	-411.134	205.946	1226.683	-407.885	253.198	1119.688
-487.169	228.874	1171.585	-411.259	205.805	1226.620	-407.826	253.137	1119.614
-487.125	228.715	1171.454	-411.267	205.672	1226.487	-407.804	253.147	1119.493
-487.145	228.563	1171.303	-411.267	205.621	1226.437	-407.740	253.112	1119.412
-487.134	228.491	1171.270	-411.203	205.476	1226.318	-407.706	253.004	1119.349
-487.083	228.375	1171.163	-411.189	205.251	1226.183	-407.598	252.929	1119.293
-486.955	228.276	1171.046	-411.193	205.214	1226.139	-407.644	252.829	1119.271
-486.922	228.084	1170.978	-411.129	205.020	1226.158	-407.390	252.792	1119.188
-486.877	228.072	1170.971	-411.084	204.910	1225.990	-407.411	252.824	1119.240
-486.880	227.957	1170.979	-411.058	204.699	1225.986	-407.372	252.702	1119.239
-486.847	227.966	1170.963	-411.035	204.635	1225.944	-407.392	252.835	1119.294
-486.762	227.963	1171.049	-410.874	204.621	1225.969	-407.326	252.843	1119.337
-486.754	227.911	1171.067	-410.825	204.391	1225.933	-407.285	252.895	1119.474
-486.736	227.977	1171.152	-410.793	204.325	1225.992	-407.240	252.868	1119.552
-486.673	227.882	1171.270	-410.789	204.294	1225.913	-407.216	252.929	1119.577
-486.583	227.850	1171.213	-410.692	204.173	1225.953	-407.152	252.983	1119.593
-486.568	227.916	1171.253	-410.660	204.153	1225.884	-407.224	253.024	1119.654
-486.504	227.929	1171.167	-410.667	204.116	1225.855	-407.111	253.148	1119.666
-486.525	228.061	1171.224	-410.591	204.025	1225.814	-407.116	253.198	1119.670
-486.459	228.156	1171.106	-410.589	203.982	1225.782	-407.013	253.418	1119.647
-486.390	228.268	1171.031	-410.546	204.030	1225.634	-406.948	253.563	1119.675
-486.317	228.634	1170.983	-410.652	204.224	1225.721	-406.862	253.715	1119.606
-486.310	228.824	1170.882	-410.570	204.168	1225.423	-406.817	253.916	1119.592
-486.371	229.284	1170.756	-410.580	204.239	1225.419	-406.668	254.129	1119.542
-486.275	229.612	1170.700	-410.573	204.367	1225.350	-406.525	254.429	1119.490
-486.232	229.891	1170.678	-410.576	204.397	1225.247	-406.433	254.657	1119.463
-486.241	230.101	1170.720	-410.402	204.609	1225.186	-406.411	254.968	1119.432
-486.019	230.397	1170.537	-410.498	204.741	1224.999	-406.330	255.209	1119.460
-486.034	230.750	1170.554	-410.478	204.894	1225.000	-406.251	255.394	1119.451
-486.025	231.035	1170.514	-410.589	204.971	1224.936	-406.220	255.541	1119.458
-486.022	231.188	1170.598	-410.527	205.158	1224.901	-406.170	255.777	1119.537
-485.944	231.433	1170.584	-410.555	205.228	1225.023	-406.107	255.953	1119.596
-485.993	231.613	1170.572	-410.559	205.295	1225.019	-406.113	256.036	1119.624
-485.984	231.776	1170.731	-410.569	205.281	1225.013	-406.064	256.294	1119.633
-486.039	231.879	1170.734	-410.521	205.256	1225.025	-406.059	256.366	1119.723
-486.030	232.044	1170.856	-410.559	205.330	1225.045	-406.062	256.474	1119.779
-486.010	232.207	1170.953	-410.526	205.434	1225.117	-406.047	256.597	1119.863
-486.050	232.166	1171.071	-410.498	205.474	1225.142	-406.074	256.680	1119.840
-485.982	232.203	1171.154	-410.564	205.525	1225.213	-406.064	256.763	1119.991
-485.962	232.379	1171.169	-410.519	205.598	1225.245	-406.094	256.972	1120.120
-485.951	232.554	1171.299	-410.531	205.698	1225.359	-406.070	257.039	1120.155
-485.978	232.690	1171.414	-410.563	205.856	1225.454	-406.062	257.246	1120.198
-485.980	232.831	1171.581	-410.520	205.906	1225.481	-406.104	257.203	1120.279
-486.025	233.008	1171.705	-410.554	206.082	1225.614	-406.090	257.293	1120.314
-485.999	233.109	1171.796	-410.514	206.154	1225.773	-406.098	257.403	1120.355
-485.971	233.264	1171.953	-410.483	206.236	1225.911	-406.089	257.446	1120.480
-486.036	233.408	1171.996	-410.482	206.437	1225.928	-406.123	257.617	1120.512
-485.972	233.569	1172.128	-410.561	206.485	1226.063	-406.166	257.697	1120.567
