NO_OF_FRAMES	2500
NO_OF_CAMERAS	7
NO_OF_MARKERS	5
FREQUENCY	250
NO_OF_ANALOG	0
ANALOG_FREQUENCY	0
DESCRIPTION	--
TIME_STAMP	2012-02-07, 12:12:05	12787.58222477
DATA_INCLUDED	3D
MARKER_NAMES	cylinder_tip	cylinder_left	cylinder_right	weight_top	weight_low
-455.078	122.503	1082.235	-384.624	99.286	1144.777	-369.527	148.324	1040.306	-417.548	115.955	901.675	-420.425	114.825	624.425
-455.041	122.513	1082.142	-384.628	99.194	1144.664	-369.544	148.402	1040.320	-417.539	116.017	901.516	-420.410	114.852	624.480
-455.056	122.456	1082.038	-384.733	99.090	1144.709	-369.594	148.398	1040.360	-417.540	115.928	901.511	-420.318	114.842	624.363
-454.753	122.623	1082.111	-384.675	99.129	1144.804	-369.786	148.859	1040.411	-417.500	115.956	901.531	-420.213	114.851	624.460
-454.696	122.601	1082.142	-384.681	99.010	1144.762	-369.828	148.733	1040.281	-417.389	115.938	901.468	-420.134	114.915	624.424
-454.746	122.493	1082.027	-384.743	99.035	1144.779	-369.885	148.576	1040.219	-417.408	115.885	901.482	-420.080	114.830	624.526
-454.755	122.449	1081.987	-384.685	99.003	1144.719	-369.830	148.683	1040.361	-417.308	115.944	901.473	-419.904	114.827	624.384
-454.631	122.393	1081.868	-384.695	98.901	1144.760	-369.895	148.479	1040.025	-417.302	115.976	901.411	-419.823	114.899	624.342
-454.558	122.265	1081.935	-384.713	98.854	1144.682	-369.920	148.487	1039.987	-417.244	115.978	901.434	-419.692	114.966	624.314
-454.573	122.306	1081.901	-384.739	98.873	1144.661	-369.967	148.307	1039.919	-417.264	115.953	901.358	-419.559	114.962	624.276
-454.623	122.186	1081.826	-384.689	98.746	1144.702	-369.941	148.342	1039.906	-417.194	115.997	901.332	-419.477	114.909	624.235
-454.671	122.135	1081.794	-384.759	98.743	1144.676	-369.911	148.180	1039.831	-417.191	115.838	901.302	-419.359	114.991	624.188
-454.631	122.082	1081.820	-384.808	98.761	1144.559	-369.923	148.150	1039.786	-417.105	115.944	901.248	-419.270	115.016	624.233
-454.621	122.053	1081.795	-384.781	98.726	1144.636	-369.928	148.147	1039.777	-417.121	115.916	901.251	-419.169	115.111	624.188
-454.640	122.094	1081.711	-384.809	98.743	1144.592	-369.928	148.079	1039.770	-417.121	115.924	901.197	-419.134	115.184	624.117
-454.648	121.979	1081.707	-384.846	98.672	1144.547	-369.939	148.106	1039.676	-417.044	115.943	901.199	-418.912	115.055	624.083
-454.729	122.018	1081.719	-384.807	98.668	1144.513	-369.954	148.056	1039.629	-417.020	115.978	901.189	-418.864	115.096	624.102
-454.670	122.127	1081.764	-384.826	98.667	1144.494	-370.009	148.135	1039.668	-416.961	115.948	901.187	-418.754	115.198	624.042
-454.671	122.092	1081.583	-384.888	98.809	1144.483	-369.969	148.042	1039.686	-416.972	115.951	901.142	-418.681	115.260	624.097
-454.705	122.140	1081.596	-384.922	98.680	1144.464	-369.981	148.106	1039.616	-416.943	116.052	901.141	-418.564	115.139	624.073
-454.701	122.143	1081.619	-384.895	98.711	1144.451	-369.963	148.034	1039.600	-416.908	116.047	901.136	-418.436	115.238	624.012
-454.687	122.125	1081.553	-384.909	98.787	1144.426	-370.009	148.031	1039.562	-416.837	116.070	901.109	-418.359	115.271	623.996
-454.701	122.157	1081.558	-384.924	98.762	1144.443	-370.007	148.019	1039.579	-416.802	116.086	901.066	-418.261	115.255	624.018
-454.656	122.110	1081.604	-384.936	98.700	1144.394	-369.952	148.064	1039.457	-416.765	116.090	901.026	-418.146	115.293	623.930
-454.719	122.158	1081.519	-384.961	98.769	1144.383	-369.933	148.004	1039.512	-416.774	116.112	901.062	-417.988	115.328	623.951
-454.724	122.158	1081.483	-384.954	98.817	1144.382	-369.957	147.955	1039.448	-416.729	116.103	901.014	-417.899	115.328	623.990
-454.688	122.188	1081.499	-384.945	98.741	1144.376	-369.934	147.910	1039.466	-416.690	116.065	901.068	-417.795	115.355	624.019
-454.752	122.200	1081.440	-384.994	98.681	1144.348	-369.976	147.998	1039.516	-416.652	116.048	901.055	-417.697	115.385	623.958
-454.765	122.151	1081.425	-384.984	98.793	1144.302	-369.950	148.091	1039.464	-416.577	116.121	901.022	-417.659	115.300	623.906
-454.764	122.139	1081.470	-384.999	98.646	1144.358	-369.951	147.939	1039.483	-416.521	116.092	900.992	-417.555	115.400	623.929
-454.755	122.071	1081.410	-384.998	98.556	1144.373	-369.945	148.026	1039.416	-416.519	116.017	900.967	-417.377	115.365	623.900
-454.729	121.995	1081.432	-384.988	98.562	1144.300	-369.955	147.886	1039.431	-416.480	116.032	900.966	-417.310	115.378	623.966
-454.748	122.006	1081.459	-385.027	98.602	1144.344	-369.979	147.907	1039.420	-416.479	115.909	900.975	-417.181	115.394	623.900
-454.756	121.971	1081.441	-385.043	98.469	1144.333	-369.944	147.745	1039.379	-416.445	115.970	900.933	-417.125	115.326	623.853
-454.709	121.836	1081.439	-384.982	98.352	1144.314	-370.018	147.732	1039.313	-416.377	115.897	900.969	-417.024	115.399	623.950
-454.734	121.850	1081.437	-385.026	98.313	1144.311	-369.936	147.886	1039.428	-416.338	115.828	900.971	-416.877	115.358	624.011
-454.732	121.781	1081.407	-385.075	98.331	1144.337	-369.978	147.597	1039.408	-416.354	115.786	900.986	-416.763	115.323	623.992
-454.709	121.738	1081.482	-385.036	98.219	1144.353	-370.028	147.643	1039.457	-416.286	115.664	900.959	-416.704	115.321	624.019
-454.739	121.548	1081.439	-385.024	98.194	1144.328	-370.010	147.543	1039.465	-416.256	115.687	900.945	-416.524	115.320	623.963
-454.730	121.497	1081.385	-385.068	98.041	1144.419	-370.017	147.435	1039.300	-416.209	115.649	900.986	-416.491	115.325	623.959
-454.768	121.489	1081.417	-385.082	98.077	1144.415	-370.054	147.346	1039.407	-416.193	115.641	901.033	-416.298	115.316	624.006
-454.819	121.356	1081.492	-385.095	97.997	1144.334	-370.081	147.433	1039.441	-416.174	115.551	901.019	-416.214	115.316	624.067
-454.743	121.308	1081.496	-385.083	97.836	1144.390	-370.119	147.273	1039.400	-416.056	115.551	901.035	-416.117	115.345	624.007
-454.731	121.284	1081.474	-385.072	97.886	1144.404	-370.108	147.233	1039.432	-416.091	115.492	900.995	-415.991	115.412	623.989
-454.847	121.287	1081.547	-385.147	97.949	1144.407	-370.155	147.321	1039.545	-416.131	115.472	901.016	-415.884	115.342	624.054
-454.830	121.254	1081.563	-385.069	97.955	1144.445	-370.152	147.255	1039.506	-416.055	115.533	901.088	-415.835	115.440	624.092
-454.816	121.314	1081.562	-385.114	97.827	1144.419	-370.168	147.311	1039.464	-416.017	115.456	901.005	-415.704	115.343	624.123
-454.835	121.349	1081.557	-385.165	97.881	1144.429	-370.230	147.265	1039.559	-415.970	115.494	901.081	-415.580	115.432	624.107
-454.791	121.387	1081.624	-385.152	97.934	1144.435	-370.208	147.190	1039.484	-415.955	115.543	901.089	-415.496	115.567	624.092
-454.920	121.216	1081.561	-385.095	97.793	1144.506	-370.243	147.263	1039.489	-415.940	115.543	901.130	-415.383	115.385	624.122
-454.878	121.293	1081.628	-385.076	97.884	1144.461	-370.240	147.214	1039.469	-415.851	115.597	901.108	-415.306	115.497	624.122
-454.920	121.316	1081.596	-385.231	97.926	1144.482	-370.228	147.311	1039.531	-415.850	115.589	901.159	-415.178	115.444	624.097
-454.851	121.411	1081.696	-385.142	97.947	1144.557	-370.244	147.282	1039.545	-415.849	115.568	901.136	-415.161	115.611	624.159
-454.900	121.370	1081.641	-385.110	97.955	1144.518	-370.285	147.221	1039.586	-415.797	115.581	901.114	-415.045	115.638	624.204
-454.925	121.355	1081.603	-385.175	97.924	1144.566	-370.267	147.277	1039.585	-415.769	115.589	901.196	-414.971	115.656	624.120
-454.893	121.291	1081.733	-385.200	97.920	1144.580	-370.255	147.134	1039.490	-415.753	115.576	901.180	-414.880	115.667	624.140
-454.922	121.263	1081.694	-385.230	97.906	1144.646	-370.267	147.165	1039.575	-415.703	115.509	901.223	-414.740	115.668	624.231
-454.939	121.166	1081.729	-385.155	97.791	1144.651	-370.250	147.141	1039.600	-415.567	115.435	901.239	-414.667	115.686	624.199
-454.896	121.150	1081.769	-385.234	97.747	1144.634	-370.293	147.128	1039.649	-415.567	115.445	901.250	-414.574	115.675	624.229
-454.926	121.219	1081.752	-385.215	97.808	1144.637	-370.301	147.074	1039.683	-415.583	115.413	901.245	-414.468	115.766	624.279
-454.898	121.077	1081.783	-385.220	97.745	1144.710	-370.338	147.095	1039.715	-415.515	115.377	901.269	-414.360	115.726	624.275
-454.853	121.060	1081.799	-385.171	97.572	1144.675	-370.343	146.999	1039.731	-415.449	115.385	901.291	-414.274	115.711	624.332
-454.854	120.876	1081.759	-385.176	97.515	1144.740	-370.281	146.995	1039.663	-415.432	115.392	901.316	-414.196	115.719	624.332
-454.939	120.897	1081.856	-385.158	97.610	1144.740	-370.262	146.984	1039.762	-415.416	115.250	901.344	-414.129	115.829	624.313
-454.925	120.891	1081.844	-385.144	97.534	1144.772	-370.358	146.906	1039.764	-415.353	115.259	901.397	-414.018	115.815	624.389
-454.846	120.882	1081.866	-385.174	97.492	1144.736	-370.365	146.830	1039.778	-415.293	115.242	901.421	-413.927	115.828	624.309
-454.837	120.798	1081.909	-385.157	97.401	1144.773	-370.327	146.714	1039.715	-415.289	115.222	901.359	-413.840	115.868	624.358
-454.798	120.833	1081.988	-385.193	97.397	1144.831	-370.331	146.817	1039.832	-415.237	115.197	901.466	-413.740	115.878	624.410
-454.847	120.769	1081.937	-385.165	97.323	1144.831	-370.305	146.832	1039.870	-415.160	115.160	901.374	-413.663	115.868	624.401
-454.770	120.737	1081.918	-385.211	97.317	1144.851	-370.390	146.857	1039.873	-415.159	115.088	901.457	-413.601	115.925	624.499
-454.873	120.782	1082.034	-385.204	97.353	1144.876	-370.434	146.926	1039.988	-415.160	115.238	901.477	-413.536	115.925	624.504
-454.859	120.810	1082.024	-385.212	97.358	1144.921	-370.341	146.854	1039.966	-415.146	115.189	901.503	-413.507	115.834	624.492
-454.868	120.773	1082.014	-385.177	97.336	1144.937	-370.337	146.865	1039.934	-415.176	115.201	901.464	-413.324	115.863	624.520
-454.863	120.860	1082.047	-385.170	97.329	1144.948	-370.386	146.904	1040.022	-415.082	115.247	901.472	-413.224	115.880	624.527
-454.878	120.828	1082.080	-385.283	97.439	1144.976	-370.385	146.824	1039.977	-415.111	115.234	901.521	-413.264	115.889	624.572
-454.869	120.897	1082.089	-385.193	97.435	1144.986	-370.431	146.945	1040.052	-415.089	115.268	901.546	-413.153	115.945	624.609
-454.889	120.857	1082.116	-385.190	97.438	1145.049	-370.398	146.980	1040.006	-415.057	115.220	901.561	-413.131	115.975	624.649
-454.863	120.935	1082.066	-385.214	97.406	1145.041	-370.356	146.969	1040.015	-415.049	115.291	901.553	-413.055	116.000	624.609
-454.802	121.095	1082.167	-385.251	97.488	1145.016	-370.393	146.990	1040.032	-415.066	115.326	901.599	-412.992	115.992	624.702
-454.900	121.016	1082.058	-385.207	97.562	1144.972	-370.432	146.995	1040.043	-415.045	115.310	901.552	-412.901	116.041	624.652
-454.863	121.038	1082.121	-385.191	97.505	1145.044	-370.379	147.009	1040.092	-414.998	115.368	901.595	-412.847	116.018	624.621
-454.835	121.003	1082.160	-385.196	97.572	1145.106	-370.358	147.038	1040.127	-414.957	115.399	901.525	-412.773	116.072	624.697
-454.831	121.236	1082.196	-385.199	97.663	1145.071	-370.384	147.002	1040.121	-414.937	115.419	901.607	-412.716	116.103	624.748
-454.856	121.085	1082.204	-385.169	97.550	1145.130	-370.395	147.010	1040.010	-414.892	115.339	901.684	-412.632	116.142	624.745
-454.781	121.191	1082.276	-385.173	97.648	1145.187	-370.334	147.138	1040.136	-414.874	115.458	901.619	-412.537	116.089	624.773
-454.749	121.169	1082.339	-385.173	97.627	1145.194	-370.408	147.163	1040.151	-414.829	115.396	901.617	-412.447	116.213	624.806
-454.796	121.024	1082.306	-385.144	97.536	1145.108	-370.337	147.046	1040.136	-414.774	115.469	901.637	-412.384	116.243	624.742
-454.839	121.062	1082.294	-385.207	97.641	1145.164	-370.338	147.074	1040.197	-414.770	115.413	901.696	-412.295	116.220	624.717
-454.785	121.201	1082.309	-385.237	97.613	1145.218	-370.359	147.066	1040.134	-414.711	115.390	901.671	-412.258	116.284	624.735
-454.735	121.223	1082.323	-385.130	97.592	1145.221	-370.301	147.033	1040.153	-414.663	115.517	901.692	-412.167	116.274	624.798
-454.768	121.130	1082.289	-385.131	97.595	1145.229	-370.296	147.097	1040.165	-414.642	115.413	901.678	-412.025	116.292	624.762
-454.706	121.212	1082.290	-385.049	97.529	1145.175	-370.307	147.114	1040.206	-414.655	115.428	901.639	-412.010	116.316	624.751
-454.785	120.989	1082.325	-385.160	97.657	1145.095	-370.360	147.172	1040.196	-414.580	115.520	901.646	-411.959	116.384	624.752
-454.733	121.137	1082.274	-385.135	97.589	1145.128	-370.330	147.062	1040.220	-414.602	115.517	901.677	-411.832	116.401	624.807
-454.679	121.214	1082.378	-385.155	97.643	1145.231	-370.293	147.111	1040.219	-414.533	115.476	901.698	-411.749	116.381	624.763
-454.712	121.269	1082.321	-385.076	97.554	1145.203	-370.252	147.145	1040.168	-414.512	115.537	901.630	-411.686	116.484	624.734
-454.683	121.059	1082.286	-385.134	97.648	1145.220	-370.262	147.283	1040.284	-414.457	115.530	901.631	-411.648	116.452	624.752
-454.668	121.205	1082.325	-385.108	97.635	1145.224	-370.258	147.102	1040.204	-414.488	115.555	901.669	-411.539	116.493	624.743
-454.667	121.253	1082.341	-385.058	97.628	1145.155	-370.266	147.184	1040.237	-414.462	115.591	901.664	-411.445	116.502	624.792
-454.689	121.217	1082.323	-385.016	97.539	1145.222	-370.177	147.144	1040.180	-414.415	115.575	901.658	-411.442	116.545	624.777
-454.644	121.270	1082.296	-385.046	97.577	1145.163	-370.228	147.196	1040.235	-414.390	115.595	901.647	-411.376	116.585	624.731
-454.641	121.251	1082.331	-385.055	97.717	1145.178	-370.211	147.158	1040.286	-414.371	115.626	901.683	-411.273	116.554	624.731
-454.672	121.248	1082.369	-385.063	97.660	1145.115	-370.214	147.146	1040.184	-414.352	115.688	901.670	-411.267	116.641	624.709
-454.623	121.275	1082.376	-385.022	97.577	1145.226	-370.204	147.161	1040.171	-414.326	115.613	901.599	-411.200	116.648	624.746
-454.626	121.235	1082.267	-385.051	97.671	1145.217	-370.176	147.081	1040.166	-414.286	115.711	901.586	-411.165	116.663	624.711
-454.627	121.246	1082.225	-384.960	97.606	1145.148	-370.150	147.202	1040.165	-414.264	115.689	901.554	-411.164	116.683	624.651
-454.632	121.317	1082.255	-384.959	97.648	1145.132	-370.112	147.140	1040.156	-414.256	115.700	901.624	-411.076	116.690	624.629
-454.585	121.297	1082.290	-385.019	97.783	1145.220	-370.128	147.317	1040.203	-414.245	115.685	901.601	-411.030	116.711	624.691
-454.549	121.305	1082.294	-384.947	97.648	1145.145	-370.122	147.242	1040.157	-414.209	115.708	901.609	-410.974	116.737	624.707
-454.593	121.370	1082.294	-384.978	97.750	1145.112	-370.109	147.223	1040.188	-414.228	115.745	901.577	-410.931	116.678	624.672
-454.574	121.317	1082.211	-384.961	97.803	1145.136	-370.086	147.433	1040.193	-414.177	115.735	901.614	-410.957	116.748	624.588
-454.574	121.446	1082.229	-384.968	97.746	1145.121	-370.045	147.281	1040.121	-414.192	115.776	901.611	-410.959	116.694	624.619
-454.521	121.317	1082.207	-384.922	97.831	1145.117	-370.050	147.383	1040.148	-414.135	115.801	901.582	-410.890	116.748	624.647
-454.554	121.369	1082.139	-384.917	97.827	1145.079	-370.057	147.445	1040.073	-414.114	115.825	901.603	-410.860	116.737	624.666
-454.489	121.471	1082.227	-384.957	97.825	1145.093	-369.982	147.438	1040.105	-414.116	115.868	901.590	-410.802	116.714	624.656
-454.492	121.506	1082.192	-384.917	97.886	1145.025	-369.955	147.394	1040.075	-414.031	115.857	901.543	-410.818	116.753	624.649
-454.543	121.427	1082.144	-384.897	97.885	1145.047	-369.976	147.402	1040.049	-414.098	115.915	901.556	-410.770	116.674	624.597
-454.537	121.483	1082.136	-384.939	97.959	1145.138	-369.934	147.480	1040.049	-414.051	115.867	901.472	-410.786	116.756	624.672
-454.548	121.543	1082.146	-384.869	97.908	1145.081	-369.915	147.461	1040.059	-413.991	115.922	901.457	-410.766	116.704	624.597
-454.443	121.460	1082.097	-384.863	97.971	1145.032	-369.944	147.517	1040.123	-413.970	115.903	901.507	-410.731	116.748	624.515
-454.451	121.496	1082.016	-384.866	97.924	1145.028	-369.932	147.466	1040.060	-414.036	115.907	901.501	-410.720	116.803	624.489
-454.425	121.682	1082.133	-384.812	97.844	1145.051	-369.839	147.434	1040.041	-413.996	115.900	901.484	-410.682	116.839	624.565
-454.417	121.513	1082.048	-384.837	97.909	1145.036	-369.814	147.515	1040.053	-413.966	115.975	901.474	-410.706	116.854	624.580
-454.436	121.512	1082.093	-384.808	97.958	1145.012	-369.803	147.370	1040.026	-413.970	115.921	901.520	-410.641	116.828	624.622
-454.378	121.629	1082.057	-384.773	97.918	1144.975	-369.797	147.579	1040.089	-413.940	115.905	901.464	-410.561	116.832	624.615
-454.418	121.447	1082.101	-384.840	97.951	1144.996	-369.852	147.438	1040.002	-413.944	115.933	901.514	-410.643	116.907	624.550
-454.400	121.636	1082.123	-384.784	97.949	1145.059	-369.809	147.398	1040.013	-413.889	115.937	901.445	-410.553	116.806	624.583
-454.388	121.450	1082.173	-384.797	97.922	1145.066	-369.821	147.529	1040.071	-413.895	115.934	901.519	-410.590	116.938	624.534
-454.334	121.586	1082.186	-384.711	97.907	1145.062	-369.800	147.488	1040.068	-413.917	115.945	901.536	-410.528	116.911	624.561
-454.374	121.502	1082.006	-384.722	97.872	1145.091	-369.774	147.388	1040.069	-413.888	115.884	901.512	-410.557	116.897	624.545
-454.326	121.475	1082.149	-384.744	97.970	1145.077	-369.733	147.472	1040.094	-413.844	115.894	901.545	-410.494	116.977	624.568
-454.235	121.554	1082.227	-384.649	97.827	1145.122	-369.766	147.440	1040.119	-413.867	115.910	901.530	-410.501	116.944	624.645
-454.282	121.648	1082.221	-384.597	97.897	1145.111	-369.763	147.492	1040.095	-413.861	115.919	901.587	-410.509	116.896	624.646
-454.293	121.590	1082.207	-384.643	97.980	1145.136	-369.740	147.510	1040.075	-413.833	115.913	901.631	-410.551	116.968	624.629
-454.215	121.644	1082.250	-384.606	97.999	1145.124	-369.713	147.516	1040.109	-413.770	115.937	901.628	-410.475	116.975	624.629
-454.242	121.665	1082.296	-384.607	97.984	1145.197	-369.703	147.607	1040.117	-413.822	115.895	901.669	-410.502	117.030	624.728
-454.209	121.587	1082.301	-384.654	97.954	1145.169	-369.661	147.452	1040.094	-413.829	115.952	901.635	-410.494	116.945	624.671
-454.171	121.644	1082.375	-384.617	97.991	1145.124	-369.684	147.561	1040.218	-413.814	115.937	901.627	-410.488	117.025	624.727
-454.161	121.662	1082.364	-384.509	98.019	1145.197	-369.661	147.497	1040.141	-413.797	116.052	901.651	-410.433	116.998	624.743
-454.137	121.693	1082.289	-384.628	98.011	1145.203	-369.703	147.672	1040.221	-413.734	116.007	901.718	-410.508	117.126	624.757
-454.127	121.805	1082.407	-384.564	98.050	1145.209	-369.714	147.598	1040.241	-413.810	116.026	901.661	-410.544	117.041	624.680
-454.125	121.804	1082.325	-384.501	98.041	1145.257	-369.667	147.765	1040.328	-413.827	116.034	901.677	-410.561	116.999	624.707
-454.163	121.741	1082.341	-384.565	98.140	1145.332	-369.642	147.786	1040.347	-413.854	116.070	901.660	-410.558	117.118	624.775
-454.126	121.764	1082.392	-384.524	98.121	1145.270	-369.685	147.891	1040.392	-413.816	116.127	901.667	-410.576	117.100	624.707
-454.183	121.802	1082.401	-384.533	98.061	1145.276	-369.634	147.843	1040.370	-413.842	116.057	901.759	-410.610	117.117	624.809
-454.106	121.847	1082.441	-384.566	98.103	1145.274	-369.636	147.856	1040.317	-413.855	116.164	901.707	-410.616	117.022	624.800
-454.154	121.791	1082.462	-384.497	98.054	1145.361	-369.689	147.850	1040.382	-413.841	116.083	901.713	-410.656	117.034	624.823
-454.175	121.701	1082.468	-384.524	98.131	1145.263	-369.597	147.801	1040.316	-413.847	116.096	901.773	-410.714	117.049	624.755
-454.100	121.815	1082.467	-384.602	98.119	1145.335	-369.656	147.966	1040.444	-413.880	116.072	901.717	-410.778	117.015	624.764
-454.151	121.851	1082.460	-384.678	98.125	1145.412	-369.621	147.716	1040.355	-413.845	116.108	901.768	-410.759	117.086	624.807
-454.120	121.861	1082.543	-384.611	98.147	1145.344	-369.583	147.909	1040.495	-413.893	116.080	901.770	-410.767	117.073	624.810
-454.140	121.816	1082.526	-384.482	98.054	1145.311	-369.623	147.886	1040.433	-413.922	116.039	901.796	-410.817	117.067	624.812
-454.130	121.800	1082.545	-384.587	98.204	1145.409	-369.647	147.934	1040.494	-413.914	116.104	901.798	-410.870	116.994	624.830
-454.135	121.832	1082.559	-384.542	98.166	1145.393	-369.624	147.858	1040.497	-413.985	116.038	901.871	-410.879	117.087	624.882
-454.160	121.751	1082.526	-384.566	98.066	1145.432	-369.674	147.840	1040.553	-413.947	116.005	901.857	-410.950	116.921	624.970
-454.118	121.762	1082.596	-384.578	98.024	1145.528	-369.660	147.915	1040.466	-413.996	116.000	901.838	-410.962	116.988	624.894
-454.138	121.730	1082.646	-384.576	98.092	1145.552	-369.695	147.792	1040.559	-413.963	115.961	901.877	-411.022	117.011	624.835
-454.119	121.633	1082.713	-384.557	98.121	1145.464	-369.671	147.880	1040.563	-413.946	116.018	901.890	-411.061	116.988	625.052
-454.161	121.753	1082.645	-384.563	98.052	1145.572	-369.717	147.735	1040.552	-413.979	116.010	901.924	-411.031	117.022	624.998
-454.147	121.742	1082.701	-384.550	98.015	1145.497	-369.721	147.799	1040.617	-414.020	115.933	901.890	-411.104	116.936	625.051
-454.188	121.724	1082.725	-384.533	98.085	1145.633	-369.765	147.740	1040.614	-414.068	115.979	901.936	-411.159	117.000	624.985
-454.138	121.743	1082.723	-384.531	98.118	1145.557	-369.708	147.632	1040.581	-414.085	116.006	901.872	-411.212	116.897	624.978
-454.141	121.728	1082.759	-384.558	98.097	1145.583	-369.720	147.777	1040.673	-414.111	115.893	901.938	-411.235	116.887	625.097
-454.165	121.709	1082.746	-384.559	98.071	1145.638	-369.738	147.753	1040.615	-414.055	115.967	901.999	-411.281	116.997	625.116
-454.093	121.612	1082.822	-384.575	98.117	1145.667	-369.761	147.799	1040.666	-414.078	115.905	901.998	-411.284	116.970	625.002
-454.143	121.704	1082.838	-384.491	98.030	1145.656	-369.727	147.774	1040.720	-414.129	115.845	902.015	-411.386	116.916	625.066
-454.127	121.680	1082.840	-384.503	97.965	1145.738	-369.703	147.833	1040.711	-414.138	115.835	902.049	-411.368	116.880	625.054
-454.121	121.603	1082.870	-384.520	98.031	1145.703	-369.738	147.741	1040.704	-414.133	115.878	902.027	-411.433	116.837	625.107
-454.190	121.598	1082.903	-384.450	97.939	1145.697	-369.744	147.748	1040.770	-414.132	115.819	902.100	-411.465	116.812	625.168
-454.069	121.567	1082.941	-384.540	98.069	1145.712	-369.713	147.726	1040.762	-414.165	115.788	902.059	-411.580	116.838	625.190
-454.089	121.650	1082.950	-384.525	97.978	1145.794	-369.700	147.734	1040.780	-414.209	115.829	902.070	-411.562	116.823	625.129
-454.120	121.644	1082.957	-384.564	97.932	1145.736	-369.750	147.654	1040.825	-414.212	115.826	902.076	-411.713	116.920	625.180
-454.080	121.630	1083.036	-384.529	97.940	1145.830	-369.752	147.632	1040.820	-414.164	115.887	902.112	-411.690	116.800	625.157
-454.108	121.619	1082.963	-384.497	97.897	1145.780	-369.783	147.640	1040.833	-414.170	115.860	902.066	-411.699	116.733	625.245
-454.081	121.599	1082.885	-384.552	97.927	1145.827	-369.782	147.653	1040.849	-414.224	115.757	902.107	-411.778	116.724	625.163
-454.096	121.642	1083.019	-384.557	97.980	1145.782	-369.740	147.662	1040.784	-414.232	115.763	902.173	-411.831	116.739	625.203
-454.119	121.567	1083.020	-384.512	97.895	1145.842	-369.767	147.667	1040.936	-414.281	115.738	902.185	-411.866	116.695	625.254
-454.088	121.579	1083.094	-384.461	97.929	1145.838	-369.730	147.705	1040.913	-414.245	115.725	902.162	-411.961	116.757	625.282
-454.108	121.585	1083.044	-384.492	97.854	1145.866	-369.754	147.664	1040.900	-414.323	115.730	902.169	-412.020	116.658	625.294
-454.123	121.561	1083.022	-384.493	97.961	1145.844	-369.768	147.547	1040.845	-414.380	115.712	902.136	-412.133	116.754	625.261
-454.141	121.672	1083.072	-384.515	97.995	1145.855	-369.743	147.556	1040.938	-414.366	115.685	902.269	-412.137	116.673	625.267
-454.140	121.581	1083.081	-384.557	97.878	1145.886	-369.726	147.576	1040.942	-414.350	115.721	902.231	-412.194	116.600	625.289
-454.168	121.664	1083.192	-384.534	97.870	1145.919	-369.748	147.659	1040.932	-414.422	115.769	902.262	-412.273	116.646	625.158
-454.113	121.540	1083.044	-384.492	97.893	1145.866	-369.769	147.536	1040.911	-414.385	115.702	902.280	-412.349	116.636	625.277
-454.109	121.533	1083.095	-384.562	97.923	1145.898	-369.770	147.647	1040.993	-414.430	115.663	902.279	-412.474	116.483	625.326
-454.113	121.602	1083.118	-384.514	97.974	1145.942	-369.808	147.599	1040.971	-414.465	115.738	902.272	-412.494	116.650	625.243
-454.103	121.558	1083.166	-384.512	97.932	1145.905	-369.724	147.643	1040.950	-414.477	115.671	902.283	-412.666	116.503	625.317
-454.089	121.569	1083.176	-384.532	97.885	1145.939	-369.735	147.629	1041.105	-414.543	115.697	902.221	-412.703	116.478	625.398
-454.147	121.598	1083.199	-384.504	97.850	1145.914	-369.737	147.688	1041.049	-414.523	115.734	902.277	-412.806	116.454	625.379
-454.150	121.579	1083.300	-384.471	97.920	1145.996	-369.749	147.617	1041.024	-414.601	115.636	902.352	-412.831	116.446	625.343
-454.113	121.588	1083.183	-384.450	97.882	1145.998	-369.793	147.524	1041.004	-414.612	115.651	902.228	-412.935	116.296	625.402
-454.105	121.515	1083.169	-384.488	97.890	1145.979	-369.736	147.664	1041.032	-414.590	115.627	902.305	-413.047	116.368	625.401
-454.096	121.561	1083.160	-384.527	97.887	1145.974	-369.766	147.578	1041.091	-414.734	115.578	902.301	-413.112	116.351	625.418
-454.196	121.709	1083.230	-384.460	97.885	1145.983	-369.764	147.594	1041.059	-414.723	115.527	902.383	-413.176	116.368	625.387
-454.122	121.618	1083.199	-384.675	97.799	1146.010	-369.819	147.616	1041.064	-414.741	115.604	902.300	-413.252	116.264	625.428
-454.095	121.494	1083.292	-384.532	97.843	1145.997	-369.785	147.513	1041.001	-414.715	115.568	902.363	-413.368	116.336	625.393
-454.080	121.495	1083.226	-384.340	97.819	1146.058	-369.808	147.534	1041.065	-414.789	115.578	902.345	-413.369	116.301	625.492
-454.127	121.532	1083.240	-384.582	97.645	1146.008	-369.817	147.529	1041.032	-414.800	115.550	902.353	-413.494	116.260	625.457
-454.191	121.532	1083.220	-384.454	97.890	1145.951	-369.793	147.577	1041.079	-414.815	115.565	902.291	-413.527	116.318	625.382
-454.155	121.498	1083.185	-384.583	97.710	1146.035	-369.811	147.553	1041.024	-414.829	115.492	902.324	-413.583	116.250	625.372
-454.116	121.456	1083.258	-384.505	97.756	1145.916	-369.792	147.424	1041.086	-414.881	115.535	902.329	-413.681	116.179	625.437
-454.164	121.543	1083.210	-384.431	97.776	1146.022	-369.797	147.509	1041.046	-414.958	115.546	902.301	-413.793	116.295	625.430
-454.130	121.455	1083.222	-384.426	97.675	1145.998	-369.831	147.466	1041.035	-414.929	115.528	902.332	-413.882	116.171	625.422
-454.108	121.448	1083.235	-384.694	97.583	1145.960	-369.789	147.435	1040.999	-414.903	115.426	902.391	-413.972	116.201	625.401
-454.167	121.418	1083.164	-384.546	97.716	1145.957	-369.760	147.482	1041.058	-415.007	115.500	902.310	-413.980	116.291	625.312
-454.153	121.350	1083.127	-384.417	97.695	1145.910	-369.810	147.490	1041.005	-415.011	115.440	902.303	-414.123	116.187	625.360
-454.145	121.371	1083.121	-384.526	97.682	1145.892	-369.775	147.542	1041.037	-415.049	115.390	902.265	-414.118	116.173	625.285
-454.093	121.457	1083.130	-384.449	97.649	1145.890	-369.791	147.437	1041.056	-415.023	115.454	902.286	-414.330	116.288	625.253
-454.142	121.400	1083.044	-384.587	97.710	1145.900	-369.766	147.509	1041.023	-415.062	115.581	902.264	-414.362	116.354	625.244
-454.149	121.404	1083.043	-384.634	97.699	1145.849	-369.743	147.527	1041.027	-415.094	115.506	902.263	-414.430	116.313	625.299
-454.160	121.372	1083.102	-384.484	97.691	1145.860	-369.743	147.564	1040.992	-415.110	115.529	902.189	-414.576	116.268	625.246
-454.121	121.497	1083.078	-384.603	97.616	1145.820	-369.745	147.524	1041.047	-415.202	115.529	902.198	-414.659	116.237	625.224
-454.147	121.432	1082.929	-384.584	97.671	1145.803	-369.722	147.560	1040.970	-415.204	115.609	902.296	-414.707	116.233	625.176
-454.130	121.485	1083.048	-384.598	97.626	1145.827	-369.745	147.551	1041.011	-415.204	115.593	902.169	-414.815	116.194	625.171
-454.153	121.475	1082.883	-384.630	97.717	1145.732	-369.744	147.642	1040.977	-415.239	115.599	902.172	-414.916	116.239	625.250
-454.087	121.495	1082.898	-384.588	97.622	1145.709	-369.738	147.538	1040.913	-415.289	115.584	902.109	-415.009	116.228	625.190
-454.168	121.525	1082.906	-384.717	97.605	1145.700	-369.737	147.631	1040.898	-415.334	115.702	902.220	-415.105	116.223	625.155
-454.144	121.625	1082.840	-384.660	97.767	1145.711	-369.760	147.666	1040.813	-415.373	115.764	902.143	-415.164	116.245	625.171
-454.134	121.473	1082.890	-384.643	97.645	1145.623	-369.716	147.594	1040.900	-415.376	115.772	902.074	-415.285	116.350	625.099
-454.174	121.603	1082.774	-384.658	97.709	1145.722	-369.725	147.682	1040.782	-415.409	115.762	902.064	-415.399	116.415	625.180
-454.139	121.607	1082.767	-384.592	97.674	1145.639	-369.747	147.800	1040.853	-415.500	115.839	902.039	-415.484	116.331	625.172
-454.181	121.606	1082.726	-384.755	97.789	1145.703	-369.740	147.810	1040.810	-415.473	115.940	901.991	-415.588	116.419	625.127
-454.226	121.646	1082.635	-384.737	97.691	1145.579	-369.689	147.789	1040.803	-415.591	115.870	901.999	-415.737	116.363	625.107
-454.174	121.652	1082.737	-384.718	97.664	1145.512	-369.705	147.738	1040.795	-415.535	115.819	901.995	-415.788	116.344	625.091
-454.182	121.605	1082.626	-384.719	97.590	1145.546	-369.722	147.863	1040.741	-415.595	115.918	901.952	-415.893	116.292	624.922
-454.188	121.594	1082.524	-384.699	97.580	1145.504	-369.670	147.830	1040.775	-415.602	115.956	901.954	-415.982	116.375	624.980
-454.208	121.570	1082.575	-384.773	97.516	1145.434	-369.711	147.870	1040.797	-415.584	115.919	901.914	-416.069	116.316	624.873
-454.147	121.575	1082.499	-384.798	97.647	1145.411	-369.653	147.844	1040.820	-415.688	115.971	901.875	-416.188	116.250	624.883
-454.168	121.533	1082.466	-384.787	97.648	1145.439	-369.679	147.918	1040.731	-415.703	116.018	901.841	-416.296	116.350	624.848
-454.164	121.484	1082.421	-384.772	97.275	1145.257	-369.643	147.956	1040.754	-415.716	116.126	901.721	-416.350	116.242	624.817
-454.126	121.584	1082.369	-384.856	97.436	1145.298	-369.633	148.049	1040.710	-415.767	116.053	901.767	-416.561	116.290	624.722
-454.166	121.555	1082.290	-384.730	97.188	1145.224	-369.611	148.051	1040.780	-415.777	116.179	901.669	-416.658	116.298	624.731
-454.201	121.508	1082.277	-384.820	97.157	1145.102	-369.589	148.022	1040.715	-415.767	116.386	901.516	-416.719	116.320	624.668
-454.235	121.477	1082.090	-384.808	97.118	1145.091	-369.591	148.117	1040.721	-415.877	116.353	901.486	-416.835	116.333	624.635
-454.284	121.429	1082.008	-384.872	97.005	1144.956	-369.550	148.209	1040.751	-415.876	116.444	901.378	-416.972	116.359	624.482
-454.343	121.512	1081.977	-384.976	96.951	1144.808	-369.561	148.287	1040.771	-415.861	116.580	901.322	-417.057	116.339	624.424
-454.222	121.402	1081.939	-384.956	96.790	1144.791	-369.527	148.435	1040.753	-415.889	116.721	901.219	-417.194	116.383	624.321
-454.298	121.431	1081.719	-384.973	96.640	1144.729	-369.527	148.428	1040.766	-415.951	116.718	901.190	-417.241	116.373	624.213
-454.310	121.473	1081.692	-385.027	96.522	1144.625	-369.470	148.536	1040.795	-415.962	116.993	901.009	-417.350	116.483	624.156
-454.337	121.473	1081.620	-385.060	96.391	1144.494	-369.490	148.546	1040.762	-416.013	117.087	900.900	-417.507	116.526	624.036
-454.362	121.425	1081.411	-385.137	96.256	1144.313	-369.494	148.617	1040.812	-416.084	117.156	900.805	-417.533	116.532	623.931
-454.369	121.302	1081.382	-385.174	96.059	1144.247	-369.459	148.692	1040.791	-416.084	117.311	900.733	-417.620	116.562	623.765
-454.332	121.382	1081.202	-385.258	95.890	1144.086	-369.461	148.832	1040.827	-416.085	117.388	900.608	-417.778	116.540	623.661
-454.289	121.386	1081.065	-385.283	95.821	1143.962	-369.409	148.844	1040.790	-416.129	117.533	900.430	-417.871	116.620	623.566
-454.388	121.403	1080.896	-385.302	95.534	1143.742	-369.493	149.036	1040.919	-416.151	117.577	900.300	-417.907	116.602	623.397
-454.421	121.290	1080.775	-385.351	95.338	1143.661	-369.499	149.161	1040.860	-416.163	117.674	900.185	-418.008	116.617	623.238
-454.464	121.283	1080.676	-385.374	95.157	1143.528	-369.486	149.141	1040.784	-416.147	117.799	900.011	-418.097	116.579	623.234
-454.488	121.059	1080.540	-385.396	94.986	1143.440	-369.426	149.118	1040.802	-416.207	117.972	899.961	-418.213	116.684	623.020
-454.471	121.179	1080.396	-385.420	94.796	1143.265	-369.461	149.184	1040.792	-416.322	118.005	899.813	-418.275	116.665	622.901
-454.482	121.001	1080.282	-385.536	94.616	1143.112	-369.470	149.217	1040.822	-416.385	118.052	899.729	-418.328	116.654	622.734
-454.526	120.936	1080.180	-385.494	94.338	1143.052	-369.466	149.233	1040.784	-416.400	117.986	899.707	-418.432	116.727	622.658
-454.594	120.710	1079.989	-385.604	94.084	1142.713	-369.511	149.265	1040.795	-416.432	118.003	899.554	-418.443	116.752	622.560
-454.563	120.680	1079.746	-385.570	93.757	1142.519	-369.446	149.331	1040.759	-416.484	118.050	899.488	-418.604	116.731	622.470
-454.507	120.508	1079.587	-385.559	93.441	1142.231	-369.500	149.316	1040.735	-416.456	117.960	899.343	-418.640	116.808	622.367
-454.433	120.378	1079.500	-385.617	93.129	1142.057	-369.462	149.435	1040.729	-416.522	117.957	899.281	-418.730	116.800	622.187
-454.488	120.385	1079.309	-385.550	92.678	1141.804	-369.532	149.460	1040.754	-416.560	117.997	899.230	-418.844	116.789	622.050
-454.440	120.224	1079.220	-385.565	92.485	1141.598	-369.531	149.604	1040.737	-416.557	118.030	899.179	-418.939	116.800	621.966
-454.561	120.318	1079.183	-385.548	92.151	1141.348	-369.511	149.660	1040.678	-416.623	118.096	899.094	-418.987	116.668	621.889
-454.584	120.224	1079.003	-385.563	91.912	1141.142	-369.489	149.689	1040.710	-416.678	118.009	899.078	-418.955	116.754	621.653
-454.561	120.117	1078.875	-385.601	91.636	1140.980	-369.530	149.722	1040.680	-416.646	117.955	898.860	-419.108	116.710	621.488
-454.531	120.065	1078.757	-385.504	91.164	1140.667	-369.545	149.784	1040.684	-416.697	117.893	898.712	-419.199	116.717	621.327
-454.543	120.368	1078.686	-385.544	91.080	1140.501	-369.561	149.710	1040.688	-416.717	117.872	898.661	-419.201	116.810	621.184
-454.631	120.113	1078.581	-385.671	90.797	1140.391	-369.564	149.724	1040.646	-416.805	117.797	898.525	-419.322	116.618	620.962
-454.587	120.185	1078.512	-385.575	90.707	1140.196	-369.480	149.829	1040.661	-416.774	117.696	898.385	-419.410	116.655	620.803
-454.608	120.058	1078.245	-385.643	90.630	1140.168	-369.515	149.888	1040.632	-416.840	117.674	898.262	-419.591	116.546	620.576
-454.565	119.923	1078.090	-385.664	90.466	1139.885	-369.502	149.911	1040.570	-416.823	117.608	898.084	-419.645	116.541	620.362
-454.573	119.848	1077.957	-385.699	90.153	1139.690	-369.463	150.059	1040.637	-416.854	117.526	897.986	-419.731	116.516	620.175
-454.554	119.538	1077.685	-385.715	89.966	1139.552	-369.523	150.043	1040.556	-416.794	117.558	897.902	-419.830	116.528	619.998
-454.504	119.321	1077.390	-385.757	89.849	1139.416	-369.441	150.036	1040.597	-416.862	117.475	897.665	-419.821	116.445	619.720
-454.484	118.936	1077.042	-385.780	89.747	1139.195	-369.465	150.074	1040.555	-416.850	117.424	897.611	-419.950	116.344	619.443
-454.454	118.799	1076.827	-385.753	89.541	1139.098	-369.472	150.133	1040.576	-416.742	117.385	897.437	-420.041	116.408	619.312
-454.443	118.648	1076.613	-385.748	89.410	1138.992	-369.424	150.366	1040.578	-416.731	117.301	897.322	-420.221	116.300	619.065
-454.369	118.440	1076.387	-385.773	89.236	1138.836	-369.445	150.226	1040.505	-416.715	117.257	897.157	-420.181	116.294	618.808
-454.385	118.229	1076.343	-385.822	89.235	1138.683	-369.429	150.370	1040.591	-416.732	117.166	896.987	-420.230	116.224	618.659
-454.361	118.132	1076.169	-385.821	89.078	1138.622	-369.421	150.371	1040.502	-416.787	117.112	896.772	-420.254	116.134	618.469
-454.367	118.090	1076.084	-385.805	88.929	1138.483	-369.394	150.464	1040.507	-416.880	116.973	896.529	-420.458	116.151	618.354
-454.334	118.190	1075.952	-385.826	88.697	1138.297	-369.389	150.496	1040.513	-416.714	117.013	896.465	-420.476	116.101	618.338
-454.360	118.080	1075.842	-385.787	88.433	1138.099	-369.370	150.432	1040.510	-416.788	117.112	896.320	-420.544	115.992	618.131
-454.334	117.901	1075.776	-385.820	88.308	1138.020	-369.352	150.519	1040.434	-416.744	117.047	896.272	-420.585	116.047	618.085
-454.345	117.863	1075.695	-385.808	88.178	1137.928	-369.386	150.586	1040.406	-416.752	117.096	896.210	-420.568	115.950	617.941
-454.310	117.845	1075.572	-385.782	88.160	1137.800	-369.320	150.557	1040.519	-416.771	117.100	896.029	-420.623	115.967	617.866
-454.278	117.843	1075.493	-385.746	87.994	1137.702	-369.359	150.583	1040.487	-416.778	117.172	895.942	-420.707	115.950	617.874
-454.239	117.809	1075.518	-385.769	87.860	1137.567	-369.358	150.546	1040.507	-416.830	117.201	895.815	-420.731	115.934	617.822
-454.260	117.702	1075.396	-385.705	87.677	1137.458	-369.281	150.656	1040.475	-416.769	117.254	895.737	-420.804	115.916	617.735
-454.197	117.629	1075.348	-385.623	87.422	1137.376	-369.312	150.624	1040.526	-416.843	117.182	895.629	-420.822	115.937	617.756
-454.250	117.653	1075.294	-385.677	87.319	1137.257	-369.352	150.611	1040.439	-416.828	117.181	895.602	-420.887	115.951	617.621
-454.195	117.641	1075.296	-385.638	87.087	1137.151	-369.331	150.690	1040.517	-416.824	117.293	895.516	-420.812	115.899	617.518
-454.167	117.444	1075.206	-385.621	86.891	1136.990	-369.310	150.747	1040.592	-416.881	117.208	895.419	-420.947	116.010	617.459
-454.179	117.447	1075.177	-385.599	86.595	1136.905	-369.283	150.729	1040.592	-416.855	117.219	895.374	-421.005	115.896	617.401
-454.176	117.343	1075.118	-385.589	86.462	1136.767	-369.359	150.724	1040.585	-416.925	117.302	895.272	-421.020	115.828	617.379
-454.172	117.297	1075.068	-385.615	86.203	1136.556	-369.330	150.812	1040.646	-416.910	117.279	895.268	-421.072	115.820	617.350
-454.143	117.199	1075.031	-385.504	85.837	1136.380	-369.342	150.786	1040.658	-416.969	117.326	895.186	-421.120	115.913	617.337
-454.152	117.118	1075.024	-385.551	85.583	1136.219	-369.300	151.039	1040.797	-417.000	117.262	895.077	-421.179	115.927	617.266
-454.145	116.993	1074.969	-385.461	85.255	1135.988	-369.306	150.745	1040.719	-417.035	117.235	894.969	-421.141	115.852	617.169
-454.162	117.041	1074.925	-385.428	84.890	1135.844	-369.291	151.005	1040.794	-417.057	117.280	894.873	-421.254	115.872	617.190
-454.124	116.823	1074.831	-385.414	84.713	1135.635	-369.338	151.031	1040.937	-417.060	117.245	894.861	-421.296	115.835	617.096
-454.162	116.843	1074.731	-385.312	84.504	1135.481	-369.321	151.025	1040.924	-417.088	117.265	894.820	-421.327	115.873	617.081
-454.130	116.657	1074.770	-385.328	84.186	1135.365	-369.263	150.973	1040.957	-417.143	117.184	894.723	-421.350	115.840	617.014
-454.113	116.550	1074.758	-385.328	83.948	1135.191	-369.340	151.054	1040.915	-417.195	117.206	894.643	-421.463	115.899	617.134
-454.108	116.525	1074.736	-385.266	83.584	1135.017	-369.318	150.977	1040.983	-417.157	117.059	894.614	-421.463	115.728	616.923
-454.127	116.448	1074.663	-385.354	83.331	1134.778	-369.324	150.973	1041.003	-417.224	117.040	894.538	-421.514	115.826	616.941
-454.067	116.375	1074.617	-385.232	83.169	1134.654	-369.299	151.009	1041.056	-417.382	116.897	894.475	-421.466	115.752	616.897
-454.119	116.260	1074.565	-385.270	82.974	1134.612	-369.384	151.004	1041.010	-417.365	116.848	894.361	-421.597	115.706	616.850
-454.069	116.042	1074.579	-385.293	82.718	1134.453	-369.337	151.114	1041.082	-417.361	116.848	894.369	-421.689	115.696	616.798
-454.107	115.897	1074.503	-385.239	82.506	1134.369	-369.367	150.966	1041.140	-417.465	116.686	894.233	-421.733	115.686	616.719
-454.097	115.913	1074.461	-385.203	82.316	1134.286	-369.414	150.963	1041.135	-417.447	116.814	894.205	-421.771	115.625	616.691
-454.158	115.843	1074.452	-385.205	82.063	1134.154	-369.418	150.946	1041.212	-417.445	116.605	894.056	-421.858	115.641	616.700
-454.117	115.614	1074.391	-385.240	81.898	1134.132	-369.453	150.967	1041.251	-417.469	116.566	894.127	-421.825	115.728	616.690
-454.197	115.632	1074.379	-385.281	81.653	1134.051	-369.485	150.874	1041.249	-417.500	116.372	894.044	-421.938	115.606	616.626
-454.140	115.527	1074.353	-385.257	81.533	1133.977	-369.548	150.842	1041.323	-417.654	116.222	893.974	-421.992	115.560	616.623
-454.214	115.401	1074.289	-385.314	81.347	1133.805	-369.479	150.880	1041.407	-417.706	116.121	894.004	-422.003	115.556	616.598
-454.135	115.194	1074.233	-385.270	81.065	1133.744	-369.492	150.949	1041.486	-417.747	116.214	893.906	-422.012	115.496	616.556
-454.170	115.166	1074.223	-385.307	80.812	1133.588	-369.485	150.920	1041.494	-417.723	116.309	893.892	-422.150	115.433	616.495
-454.224	115.057	1074.221	-385.263	80.683	1133.591	-369.516	150.888	1041.557	-417.739	116.409	893.897	-422.125	115.453	616.453
-454.196	115.071	1074.212	-385.309	80.421	1133.460	-369.552	150.966	1041.564	-417.682	116.372	893.795	-422.217	115.582	616.545
-454.211	114.957	1074.178	-385.316	80.273	1133.367	-369.577	151.259	1041.819	-417.709	116.435	893.750	-422.238	115.594	616.503
-454.240	115.115	1074.068	-385.413	80.182	1133.323	-369.597	151.372	1041.908	-417.802	116.388	893.786	-422.267	115.618	616.508
-454.299	115.073	1074.082	-385.387	79.878	1133.110	-369.585	151.368	1041.903	-417.923	116.398	893.721	-422.258	115.507	616.504
-454.283	115.075	1074.151	-385.446	79.731	1133.075	-369.667	151.409	1041.974	-417.973	116.339	893.645	-422.285	115.562	616.443
-454.345	115.050	1074.120	-385.426	79.608	1132.958	-369.645	151.363	1041.969	-418.003	116.268	893.647	-422.296	115.561	616.433
-454.425	115.034	1074.158	-385.463	79.527	1132.913	-369.732	151.722	1042.315	-418.016	116.188	893.742	-422.309	115.504	616.497
-454.349	115.034	1074.100	-385.381	79.304	1132.758	-369.768	151.936	1042.374	-417.978	116.215	893.750	-422.286	115.562	616.488
-454.450	115.136	1074.068	-385.466	79.330	1132.793	-369.718	151.928	1042.394	-417.979	116.132	893.666	-422.268	115.609	616.493
-454.414	115.105	1074.168	-385.465	79.131	1132.629	-369.809	152.132	1042.654	-417.935	116.249	893.658	-422.217	115.625	616.414
-454.423	115.165	1074.134	-385.514	78.976	1132.595	-369.867	152.264	1042.766	-418.049	116.428	893.730	-422.206	115.588	616.388
-454.502	115.186	1073.998	-385.478	78.802	1132.421	-369.904	152.645	1043.040	-418.025	116.517	893.637	-422.340	115.751	616.425
-454.515	115.257	1074.028	-385.559	78.837	1132.438	-369.868	152.714	1043.114	-418.066	116.606	893.569	-422.276	115.809	616.432
-454.540	115.248	1074.120	-385.515	78.675	1132.198	-370.004	152.879	1043.276	-418.148	116.777	893.764	-422.292	115.916	616.486
-454.606	115.184	1074.008	-385.498	78.273	1132.074	-369.960	152.895	1043.288	-418.183	116.753	893.545	-422.212	115.791	616.394
-454.559	115.253	1074.019	-385.500	78.302	1131.960	-370.054	153.065	1043.381	-418.120	116.855	893.603	-422.199	115.905	616.417
-454.587	115.425	1073.955	-385.541	78.168	1131.890	-370.077	153.236	1043.668	-418.120	116.788	893.505	-422.199	115.937	616.417
-454.591	115.410	1074.059	-385.595	77.922	1131.748	-370.089	153.244	1043.716	-418.114	116.735	893.501	-422.122	116.121	616.326
-454.681	115.383	1073.977	-385.608	77.828	1131.645	-370.137	153.401	1043.874	-418.010	116.581	893.452	-422.109	115.978	616.348
-454.664	115.354	1073.932	-385.669	77.760	1131.472	-370.156	153.540	1043.956	-418.061	116.731	893.504	-421.953	116.041	616.276
-454.753	115.369	1073.941	-385.783	77.806	1131.437	-370.247	153.732	1044.091	-418.101	116.640	893.382	-421.987	115.900	616.214
-454.760	115.381	1073.882	-385.835	77.678	1131.378	-370.246	153.855	1044.156	-418.179	116.658	893.344	-421.872	115.872	616.265
-454.766	115.410	1073.884	-385.858	77.477	1131.223	-370.390	154.208	1044.502	-418.085	116.819	893.283	-421.922	116.089	616.257
-454.823	115.435	1073.873	-385.935	77.150	1131.034	-370.355	154.211	1044.597	-418.094	116.861	893.167	-421.928	116.389	616.159
-454.792	115.346	1073.803	-385.948	77.160	1130.966	-370.442	154.387	1044.768	-418.245	116.865	893.212	-421.914	116.432	616.060
-454.842	115.286	1073.792	-386.065	76.855	1130.768	-370.489	154.587	1045.013	-418.210	116.937	893.083	-421.917	116.403	615.962
-454.996	115.269	1073.789	-386.124	76.672	1130.618	-370.520	154.667	1045.216	-418.350	116.875	893.035	-421.816	116.273	615.965
-455.038	115.211	1073.623	-386.177	76.416	1130.342	-370.680	154.432	1045.062	-418.366	116.648	893.001	-421.838	116.297	615.865
-455.078	115.186	1073.625	-386.178	76.034	1130.166	-370.657	155.373	1045.880	-418.342	116.533	892.932	-421.831	116.442	615.846
-455.145	115.143	1073.597	-386.209	75.726	1129.844	-370.778	155.256	1045.876	-418.296	116.376	892.805	-421.898	116.381	615.827
-455.172	114.970	1073.513	-386.293	75.321	1129.613	-370.783	155.015	1046.000	-418.324	116.309	892.749	-421.715	116.269	615.640
-455.253	114.967	1073.483	-386.366	75.000	1129.389	-370.824	155.102	1046.032	-418.395	116.211	892.681	-421.787	116.327	615.617
-455.252	114.734	1073.403	-386.358	74.562	1129.118	-370.956	155.457	1046.604	-418.421	116.277	892.600	-421.777	116.338	615.370
-455.341	114.633	1073.273	-386.422	74.185	1128.827	-371.006	155.277	1046.445	-418.441	116.261	892.528	-421.823	116.411	615.344
-455.420	114.551	1073.278	-386.399	73.793	1128.580	-371.075	155.210	1046.495	-418.534	116.276	892.452	-422.031	116.490	615.271
-455.408	114.392	1073.179	-386.482	73.552	1128.394	-371.276	156.540	1047.747	-418.581	116.205	892.367	-421.935	116.452	615.143
-455.503	114.272	1073.146	-386.541	73.198	1128.171	-371.367	156.577	1047.859	-418.729	116.079	892.229	-422.034	116.516	615.122
-455.516	114.051	1073.071	-386.613	72.941	1128.103	-371.477	156.393	1048.000	-418.744	115.934	892.184	-421.986	116.468	614.982
-455.630	114.019	1073.020	-386.706	72.645	1127.949	-371.563	156.311	1047.989	-418.797	115.717	892.103	-422.023	116.415	614.868
-455.705	113.796	1072.928	-386.813	72.518	1127.795	-371.624	156.243	1048.033	-418.776	115.530	892.044	-421.964	116.307	614.788
-455.783	113.765	1072.928	-386.873	72.260	1127.625	-371.716	156.339	1048.158	-418.712	115.415	891.953	-421.979	116.319	614.733
-455.856	113.574	1072.808	-386.919	72.111	1127.389	-371.799	156.199	1048.239	-418.779	115.282	891.882	-421.978	116.275	614.666
-455.912	113.389	1072.706	-387.003	71.828	1127.227	-371.843	156.141	1048.198	-418.852	115.292	891.737	-422.005	116.260	614.572
-456.070	113.102	1072.604	-387.104	71.588	1127.011	-371.884	156.162	1048.297	-418.832	115.492	891.651	-422.017	116.313	614.512
-456.135	112.977	1072.515	-387.120	71.286	1126.846	-372.098	156.111	1048.369	-418.950	115.453	891.571	-422.070	116.412	614.422
-456.170	112.956	1072.482	-387.210	71.155	1126.665	-372.151	156.087	1048.487	-419.091	115.501	891.510	-422.129	116.504	614.382
-456.146	112.877	1072.342	-387.289	70.876	1126.347	-372.227	156.168	1048.520	-419.135	115.492	891.402	-422.219	116.466	614.247
-456.233	112.850	1072.391	-387.337	70.595	1126.241	-372.263	156.276	1048.727	-419.184	115.411	891.368	-422.193	116.459	614.231
-456.273	112.825	1072.263	-387.408	70.483	1125.971	-372.339	156.221	1048.680	-419.246	115.283	891.265	-422.166	116.411	614.069
-456.388	112.716	1072.162	-387.360	70.293	1125.752	-372.389	156.397	1048.801	-419.238	115.260	891.264	-422.094	116.357	614.062
-456.413	112.711	1072.207	-387.379	70.207	1125.604	-372.429	156.508	1049.036	-419.202	115.271	891.165	-422.028	116.337	614.007
-456.488	112.661	1072.089	-387.448	70.075	1125.411	-372.465	156.434	1048.946	-419.086	115.300	891.079	-422.061	116.342	613.919
-456.495	112.630	1072.037	-387.469	69.939	1125.249	-372.538	156.631	1049.036	-419.139	115.370	891.020	-421.942	116.522	613.799
-456.577	112.681	1072.031	-387.628	69.573	1124.982	-372.664	156.706	1049.167	-419.180	115.373	890.889	-422.042	116.591	613.782
-456.532	112.691	1071.868	-387.716	69.539	1124.802	-372.665	156.693	1049.171	-419.256	115.437	890.863	-421.967	116.604	613.672
-456.593	112.609	1071.787	-387.759	69.300	1124.553	-372.746	156.865	1049.260	-419.405	115.520	890.814	-421.964	116.659	613.586
-456.685	112.618	1071.550	-387.787	69.004	1124.285	-372.786	156.839	1049.231	-419.505	115.530	890.715	-421.890	116.651	613.566
-456.745	112.565	1071.633	-387.864	68.855	1124.086	-372.968	156.878	1049.452	-419.593	115.488	890.649	-421.876	116.786	613.406
-456.826	112.491	1071.511	-387.818	68.468	1123.800	-372.938	156.922	1049.532	-419.548	115.324	890.572	-421.762	116.864	613.284
-456.782	112.120	1071.241	-387.850	68.153	1123.543	-373.028	156.894	1049.480	-419.391	115.299	890.577	-421.625	116.852	613.237
-456.839	111.985	1071.024	-387.865	67.907	1123.255	-373.128	156.853	1049.588	-419.231	115.287	890.438	-421.494	116.813	613.204
-456.913	111.686	1070.896	-387.910	67.390	1122.945	-373.187	156.857	1049.638	-419.263	115.231	890.343	-421.264	116.823	613.061
-456.999	111.605	1070.711	-387.941	67.077	1122.590	-373.240	156.799	1049.698	-419.283	115.205	890.345	-421.215	116.817	613.045
-456.973	111.366	1070.570	-387.999	66.787	1122.328	-373.312	156.918	1049.788	-419.270	115.266	890.261	-421.146	116.947	612.947
-457.074	111.165	1070.300	-387.993	66.560	1122.081	-373.400	156.779	1049.841	-419.267	115.258	890.129	-421.132	116.981	612.765
-457.091	110.846	1070.142	-388.013	66.179	1121.710	-373.429	156.745	1049.861	-419.448	115.338	890.016	-421.019	117.099	612.647
-457.166	110.632	1070.001	-388.094	65.945	1121.524	-373.518	156.708	1049.869	-419.500	115.300	889.916	-420.987	117.022	612.636
-457.187	110.422	1069.794	-388.045	65.545	1121.342	-373.600	156.762	1049.880	-419.506	115.338	889.819	-420.936	117.228	612.370
-457.266	110.207	1069.672	-388.109	65.351	1121.056	-373.620	156.655	1049.894	-419.443	115.137	889.768	-420.947	117.170	612.285
-457.313	110.183	1069.470	-388.123	65.158	1120.961	-373.733	156.601	1049.953	-419.456	115.044	889.602	-420.845	117.091	612.188
-457.358	110.138	1069.285	-388.173	65.004	1120.765	-373.767	156.550	1049.959	-419.446	114.697	889.388	-420.725	117.111	612.063
-457.441	110.026	1069.174	-388.272	64.910	1120.588	-373.823	156.659	1050.070	-419.397	114.491	889.239	-420.535	117.091	611.923
-457.419	109.921	1069.075	-388.359	64.645	1120.417	-373.944	156.616	1050.096	-419.301	114.338	888.994	-420.548	116.961	611.757
-457.548	109.810	1068.972	-388.352	64.423	1120.175	-374.005	156.517	1050.013	-419.403	114.325	888.776	-420.529	116.943	611.594
-457.531	109.661	1068.797	-388.446	64.259	1120.041	-374.053	156.588	1050.124	-419.379	114.193	888.576	-420.528	117.043	611.413
-457.629	109.771	1068.568	-388.493	64.077	1119.804	-374.114	156.579	1050.053	-419.503	114.149	888.408	-420.566	117.105	611.240
-457.723	109.728	1068.377	-388.553	63.979	1119.595	-374.229	156.610	1050.100	-419.687	114.226	888.176	-420.560	117.197	611.121
-457.727	109.576	1068.108	-388.575	63.771	1119.440	-374.299	156.555	1050.151	-419.828	114.301	887.941	-420.638	117.162	610.955
-457.791	109.586	1068.052	-388.637	63.484	1119.091	-374.334	156.583	1050.142	-419.900	114.023	887.776	-420.595	117.181	610.738
-457.760	109.369	1067.783	-388.630	63.282	1118.810	-374.393	156.656	1050.250	-419.899	113.861	887.518	-420.702	117.203	610.515
-457.977	109.352	1067.581	-388.720	62.946	1118.516	-374.528	156.674	1050.275	-419.832	113.767	887.347	-420.690	117.087	610.315
-458.006	109.312	1067.536	-388.744	62.524	1118.158	-374.543	156.851	1050.497	-419.763	113.367	887.140	-420.693	116.864	610.068
-458.065	109.339	1067.336	-388.800	62.280	1117.812	-374.700	156.811	1050.486	-419.790	113.143	886.895	-420.552	116.850	609.869
-458.076	109.315	1067.131	-388.786	61.868	1117.381	-374.821	156.978	1050.607	-419.872	112.998	886.710	-420.702	116.624	609.659
-458.178	109.065	1066.921	-388.771	61.293	1116.955	-374.873	156.823	1050.536	-419.833	112.922	886.601	-420.707	116.373	609.418
-458.205	109.039	1066.754	-388.812	60.869	1116.559	-375.024	156.955	1050.625	-419.943	112.699	886.414	-420.659	116.306	609.216
-458.309	108.850	1066.471	-388.916	60.430	1116.077	-375.067	156.778	1050.627	-420.049	112.607	886.265	-420.742	116.391	609.060
-458.396	108.710	1066.275	-388.878	60.087	1115.759	-375.113	156.738	1050.571	-420.045	112.683	886.159	-420.798	116.138	608.766
-458.422	108.611	1066.177	-388.905	59.689	1115.393	-375.211	156.857	1050.679	-420.149	112.737	886.029	-420.716	115.976	608.645
-458.528	108.472	1065.983	-389.029	59.297	1114.925	-375.281	156.758	1050.647	-420.189	112.594	885.803	-420.659	115.902	608.455
-458.613	108.391	1065.797	-388.979	59.409	1114.868	-375.399	156.813	1050.603	-420.189	112.397	885.692	-420.596	115.810	608.208
-458.597	108.298	1065.696	-389.038	59.233	1114.560	-375.468	156.684	1050.677	-420.124	112.208	885.537	-420.624	115.674	607.997
-458.671	108.221	1065.530	-389.087	58.857	1114.232	-375.520	156.722	1050.698	-420.084	112.028	885.361	-420.554	115.556	607.973
-458.712	108.076	1065.422	-389.091	58.549	1113.935	-375.625	156.700	1050.693	-420.195	111.806	885.206	-420.354	115.356	607.767
-458.765	107.929	1065.189	-389.048	58.422	1113.586	-375.676	156.677	1050.609	-420.180	111.799	885.132	-420.230	115.209	607.547
-458.808	107.928	1065.020	-389.203	58.375	1113.263	-375.762	156.715	1050.751	-420.078	111.647	884.900	-420.210	115.199	607.364
-458.842	107.796	1064.789	-389.281	58.167	1112.891	-375.881	156.594	1050.710	-420.071	111.736	884.763	-420.246	115.243	607.228
-458.815	107.814	1064.617	-389.282	57.933	1112.620	-375.898	156.603	1050.792	-420.075	111.707	884.577	-420.183	115.212	607.042
-458.889	107.838	1064.473	-389.285	57.844	1112.255	-376.045	156.632	1050.815	-420.151	111.525	884.390	-420.091	115.332	606.966
-458.913	107.716	1064.228	-389.400	57.466	1111.886	-376.049	156.841	1050.841	-420.088	111.517	884.175	-420.019	115.045	606.734
-459.027	107.743	1064.000	-389.446	57.433	1111.500	-376.130	156.632	1050.821	-420.131	111.616	884.003	-419.963	114.962	606.700
-459.079	107.593	1063.853	-389.541	57.227	1111.197	-376.267	156.723	1050.968	-420.030	111.146	883.784	-419.867	114.941	606.494
-459.078	107.364	1063.553	-389.584	57.108	1110.898	-376.400	157.489	1051.503	-420.134	111.085	883.585	-419.735	114.907	606.248
-459.157	107.335	1063.328	-389.637	57.084	1110.532	-376.501	157.530	1051.626	-420.006	110.948	883.406	-419.636	114.722	606.119
-459.264	107.203	1063.099	-389.699	56.987	1110.203	-376.579	157.406	1051.645	-419.938	110.914	883.222	-419.469	114.522	605.824
-459.286	107.054	1062.856	-389.725	56.868	1109.918	-376.693	157.390	1051.644	-419.953	110.892	883.081	-419.428	114.458	605.584
-459.352	106.813	1062.549	-389.734	56.761	1109.600	-376.796	157.458	1051.646	-419.999	111.003	882.848	-419.262	114.426	605.546
-459.393	106.617	1062.248	-389.807	56.553	1109.252	-376.974	157.583	1051.909	-419.944	111.085	882.783	-419.148	114.374	605.378
-459.465	106.305	1061.912	-389.904	56.441	1109.089	-377.030	157.507	1051.857	-420.029	111.102	882.574	-419.139	114.517	605.285
-459.449	106.081	1061.541	-389.913	56.244	1108.847	-377.041	157.485	1051.751	-420.134	111.107	882.447	-419.159	114.560	605.023
-459.471	105.902	1061.296	-389.955	56.012	1108.595	-377.165	157.519	1051.790	-420.191	111.180	882.245	-419.254	114.487	604.849
-459.576	105.846	1061.070	-389.987	55.494	1108.126	-377.315	158.140	1052.271	-420.269	111.207	882.130	-419.135	114.269	604.629
-459.662	105.739	1060.862	-390.028	55.432	1107.938	-377.389	158.030	1052.239	-420.377	111.123	881.865	-419.062	114.378	604.447
-459.659	105.549	1060.671	-390.016	55.234	1107.676	-377.415	157.924	1052.081	-420.324	110.875	881.770	-418.974	114.391	604.453
-459.853	105.501	1060.586	-390.083	54.999	1107.399	-377.444	158.046	1052.140	-420.203	110.821	881.719	-419.043	114.179	604.150
-459.849	105.433	1060.457	-390.070	54.831	1107.137	-377.557	158.083	1052.260	-420.191	110.892	881.602	-418.958	114.172	604.087
-459.867	105.301	1060.392	-390.145	54.446	1106.711	-377.576	158.072	1052.203	-420.257	110.722	881.355	-418.911	114.111	603.828
-459.965	105.315	1060.239	-390.131	54.283	1106.447	-377.629	157.987	1052.175	-420.339	110.754	881.233	-418.888	113.986	603.695
-459.975	105.256	1060.133	-390.132	54.192	1106.149	-377.719	158.057	1052.218	-420.329	110.578	880.987	-418.985	114.041	603.606
-459.985	105.170	1060.058	-390.135	53.878	1105.810	-377.772	158.024	1052.169	-420.420	110.581	880.675	-419.033	114.031	603.444
-460.034	105.026	1059.888	-390.167	53.712	1105.536	-377.806	157.977	1052.187	-420.578	110.456	880.385	-419.083	114.061	603.301
-460.065	105.017	1059.801	-390.099	53.270	1105.190	-377.877	157.958	1052.200	-420.575	110.409	880.280	-419.078	114.051	603.167
-460.164	104.979	1059.613	-390.091	53.121	1104.944	-377.940	158.000	1052.199	-420.636	110.383	880.033	-419.185	113.825	603.003
-460.113	104.858	1059.518	-390.125	53.062	1104.691	-378.033	157.915	1052.221	-420.593	110.276	879.900	-419.119	113.733	602.888
-460.223	104.804	1059.423	-390.117	52.804	1104.344	-378.060	158.096	1052.342	-420.535	110.002	879.698	-419.102	113.772	602.706
-459.919	104.817	1059.205	-390.072	52.522	1103.951	-378.085	158.002	1052.379	-420.517	109.914	879.420	-419.078	113.580	602.574
-460.068	104.696	1059.090	-390.034	52.295	1103.718	-378.270	158.384	1052.609	-420.455	109.842	879.200	-419.015	113.431	602.395
-460.132	104.764	1058.937	-390.056	52.054	1103.391	-378.317	158.838	1053.001	-420.485	109.838	879.025	-419.057	113.427	602.267
-460.141	104.693	1058.825	-390.042	51.678	1103.070	-378.358	158.707	1052.972	-420.566	109.613	878.883	-419.050	113.482	602.188
-460.239	104.732	1058.591	-390.038	51.457	1102.783	-378.435	158.729	1053.018	-420.615	109.577	878.663	-419.053	113.469	602.110
-460.256	104.717	1058.464	-390.225	51.254	1102.370	-378.513	158.795	1053.133	-420.592	109.568	878.481	-419.120	113.371	601.891
-460.338	104.712	1058.381	-390.119	51.028	1101.968	-378.514	158.784	1053.232	-420.656	109.553	878.354	-419.026	113.301	601.762
-460.371	104.655	1058.273	-390.145	50.797	1101.646	-378.540	158.735	1053.251	-420.719	109.587	878.275	-419.031	113.191	601.555
-460.344	104.818	1058.244	-390.081	50.563	1101.193	-378.610	158.889	1053.366	-420.748	109.418	878.151	-418.995	113.086	601.375
-460.442	104.754	1058.047	-390.129	50.442	1100.887	-378.730	158.789	1053.425	-420.653	109.433	878.042	-418.967	112.927	601.201
-460.500	104.695	1057.835	-390.131	50.369	1100.527	-378.787	158.801	1053.479	-420.618	109.507	877.919	-418.937	112.753	601.075
-460.525	104.730	1057.779	-390.125	50.345	1100.239	-378.856	158.827	1053.505	-420.610	109.429	877.723	-418.801	112.612	601.042
-460.560	104.711	1057.617	-390.185	50.308	1099.882	-378.921	158.885	1053.545	-420.611	109.485	877.699	-418.713	112.550	600.737
-460.573	104.764	1057.593	-390.200	50.173	1099.602	-378.947	158.909	1053.624	-420.590	109.565	877.584	-418.754	112.421	600.629
-460.602	104.751	1057.415	-390.179	49.877	1099.173	-378.974	158.915	1053.598	-420.583	109.649	877.391	-418.780	112.336	600.480
-460.664	104.759	1057.274	-390.189	49.830	1098.875	-379.034	158.927	1053.715	-420.634	109.713	877.314	-418.729	112.301	600.249
-460.726	104.873	1057.207	-390.287	49.767	1098.585	-379.105	158.946	1053.605	-420.835	109.829	877.158	-418.643	112.168	600.178
-460.811	104.858	1057.096	-390.275	49.737	1098.354	-379.103	158.965	1053.733	-420.806	109.796	877.017	-418.523	112.057	600.013
-460.867	104.865	1056.959	-390.306	49.731	1098.031	-379.211	158.952	1053.684	-420.707	109.719	876.877	-418.596	111.982	599.916
-460.828	104.815	1056.854	-390.370	49.673	1097.724	-379.324	158.966	1053.807	-420.662	109.644	876.866	-418.537	111.797	599.776
-460.889	104.657	1056.796	-390.336	49.488	1097.547	-379.429	158.964	1054.021	-420.740	109.553	876.696	-418.450	111.688	599.622
-460.957	104.456	1056.680	-390.330	49.345	1097.247	-379.548	158.804	1053.936	-420.774	109.427	876.672	-418.329	111.617	599.660
-460.991	104.390	1056.570	-390.273	49.063	1096.949	-379.579	158.786	1054.066	-420.779	109.365	876.619	-418.347	111.523	599.554
-461.035	104.329	1056.599	-390.389	49.060	1096.822	-379.746	158.739	1054.161	-420.733	109.291	876.560	-418.364	111.388	599.476
-461.117	104.346	1056.522	-390.323	48.801	1096.550	-379.877	158.787	1054.268	-420.842	109.171	876.502	-418.427	111.407	599.401
-461.049	104.122	1056.526	-390.317	48.681	1096.290	-379.960	158.699	1054.276	-420.931	109.182	876.461	-418.351	111.366	599.402
-461.127	104.072	1056.410	-390.383	48.640	1096.042	-380.032	158.630	1054.336	-420.985	109.185	876.384	-418.320	111.175	599.349
-461.193	103.979	1056.345	-390.403	48.467	1095.862	-380.090	158.392	1054.326	-421.013	109.052	876.335	-418.451	111.083	599.305
-461.248	103.903	1056.336	-390.380	48.298	1095.635	-380.110	158.475	1054.485	-421.016	109.062	876.289	-418.482	111.026	599.388
-461.270	103.920	1056.388	-390.360	48.192	1095.437	-380.250	158.229	1054.514	-421.073	109.018	876.355	-418.508	110.880	599.224
-461.352	103.781	1056.307	-390.393	48.149	1095.363	-380.309	158.136	1054.562	-421.139	108.841	876.217	-418.502	110.832	599.200
-461.362	103.739	1056.301	-390.553	47.996	1095.176	-380.431	158.314	1054.874	-421.184	108.664	876.263	-418.434	110.753	599.279
-461.448	103.635	1056.315	-390.566	47.888	1095.044	-380.493	158.285	1054.960	-421.286	108.564	876.311	-418.575	110.357	599.250
-461.525	103.550	1056.311	-390.583	47.656	1094.886	-380.544	158.285	1054.990	-421.362	108.355	876.346	-418.546	110.094	599.198
-461.590	103.372	1056.286	-390.580	47.577	1094.739	-380.614	158.145	1055.130	-421.450	108.251	876.218	-418.605	110.174	599.330
-461.573	103.448	1056.341	-390.519	47.559	1094.615	-380.641	158.222	1055.248	-421.523	108.117	876.301	-418.722	109.948	599.207
-461.641	103.325	1056.300	-390.568	47.419	1094.486	-380.740	158.112	1055.343	-421.523	108.153	876.313	-418.811	109.687	599.190
-461.670	103.250	1056.285	-390.579	47.214	1094.426	-380.788	158.234	1055.427	-421.656	108.085	876.298	-418.810	109.595	599.172
-461.689	103.102	1056.305	-390.558	47.094	1094.190	-380.882	158.140	1055.513	-421.717	108.049	876.271	-418.908	109.555	599.112
-461.789	103.135	1056.271	-390.578	47.072	1094.109	-380.919	158.197	1055.589	-421.804	107.955	876.318	-418.898	109.366	599.173
-461.764	103.074	1056.343	-390.550	46.946	1094.023	-381.088	158.179	1055.695	-421.806	107.938	876.181	-419.064	109.333	599.208
-461.817	103.014	1056.282	-390.630	46.817	1093.793	-381.126	158.081	1055.724	-421.871	107.725	876.292	-419.175	109.101	599.247
-461.831	102.960	1056.280	-390.589	46.725	1093.771	-381.169	158.248	1055.919	-421.920	107.453	876.349	-419.102	108.880	599.170
-461.882	103.007	1056.280	-390.589	46.639	1093.625	-381.215	158.227	1055.991	-422.062	107.362	876.312	-419.148	108.587	599.212
-461.911	102.957	1056.380	-390.635	46.555	1093.418	-381.246	158.250	1056.068	-422.054	107.286	876.338	-419.143	108.561	599.195
-461.918	103.310	1056.515	-390.643	46.713	1093.618	-381.351	158.313	1056.266	-421.980	107.293	876.393	-419.173	108.442	599.220
-461.989	103.032	1056.325	-390.701	46.430	1093.318	-381.371	158.328	1056.255	-422.036	107.344	876.312	-419.272	108.285	599.189
-462.005	103.203	1056.378	-390.677	46.353	1093.155	-381.409	158.382	1056.441	-422.124	107.403	876.267	-419.300	108.254	599.162
-462.036	103.006	1056.271	-390.706	46.185	1092.984	-381.464	158.404	1056.505	-422.071	107.480	876.297	-419.402	108.300	599.192
-462.053	103.416	1056.459	-390.716	46.286	1092.929	-381.399	158.799	1056.675	-422.221	107.532	876.282	-419.383	108.078	599.152
-462.085	103.476	1056.478	-390.713	46.158	1092.948	-381.608	158.330	1056.581	-422.233	107.478	876.294	-419.400	107.914	599.111
-462.169	103.459	1056.422	-390.779	46.230	1092.800	-381.645	158.579	1056.750	-422.272	107.392	876.313	-419.483	107.938	599.160
-462.189	103.488	1056.463	-390.777	46.120	1092.708	-381.671	158.635	1056.985	-422.333	107.362	876.272	-419.451	107.683	599.151
-462.205	103.524	1056.476	-390.681	46.175	1092.682	-381.802	158.835	1057.141	-422.365	107.144	876.333	-419.464	107.659	599.166
-462.251	103.655	1056.558	-390.726	45.947	1092.515	-381.803	158.891	1057.244	-422.259	107.200	876.267	-419.419	107.546	599.106
-462.298	103.517	1056.437	-390.700	45.976	1092.437	-381.863	158.914	1057.395	-422.213	107.288	876.349	-419.411	107.540	599.181
-462.332	103.602	1056.454	-390.724	45.961	1092.355	-381.938	158.951	1057.534	-422.274	107.308	876.393	-419.355	107.443	599.243
-462.358	103.652	1056.544	-390.749	45.868	1092.354	-382.043	159.055	1057.729	-422.328	107.406	876.332	-419.424	107.297	599.275
-462.422	103.577	1056.540	-390.701	45.772	1092.170	-382.177	159.035	1057.824	-422.334	107.507	876.359	-419.494	107.393	599.220
-462.441	103.658	1056.558	-390.749	45.750	1092.135	-382.214	159.050	1058.014	-422.484	107.563	876.387	-419.486	107.283	599.344
-462.436	103.522	1056.583	-390.682	45.603	1092.028	-382.275	159.134	1058.214	-422.543	107.577	876.417	-419.598	107.324	599.362
-462.467	103.587	1056.767	-390.652	45.368	1091.767	-382.325	159.172	1058.304	-422.631	107.411	876.513	-419.536	107.252	599.357
-462.559	103.610	1056.877	-390.601	45.342	1091.776	-382.408	159.112	1058.470	-422.587	107.331	876.564	-419.614	107.019	599.417
-462.546	103.486	1056.887	-390.598	45.233	1091.683	-382.529	159.134	1058.590	-422.548	107.182	876.542	-419.497	106.950	599.582
-462.657	103.454	1056.927	-390.593	45.127	1091.600	-382.613	159.126	1058.677	-422.581	106.993	876.659	-419.543	106.862	599.510
-462.671	103.520	1056.932	-390.580	45.036	1091.518	-382.669	159.063	1058.872	-422.497	106.902	876.767	-419.605	106.732	599.609
-462.738	103.267	1057.071	-390.581	44.943	1091.464	-382.802	158.928	1058.972	-422.457	106.842	876.790	-419.702	106.584	599.640
-462.733	103.225	1057.027	-390.588	44.837	1091.419	-382.891	158.934	1059.197	-422.558	106.773	876.888	-419.806	106.548	599.672
-462.848	103.180	1057.222	-390.592	44.825	1091.420	-382.947	158.784	1059.293	-422.667	106.715	876.946	-419.912	106.518	599.717
-462.587	102.246	1056.881	-390.570	44.562	1091.163	-383.089	158.985	1059.499	-422.734	106.763	877.070	-420.081	106.375	599.817
-462.669	102.288	1057.082	-390.576	44.330	1091.154	-383.139	158.924	1059.839	-422.911	106.655	877.060	-420.194	106.260	599.862
-462.597	101.947	1056.982	-390.545	44.183	1091.088	-383.134	158.772	1060.065	-423.038	106.546	877.170	-420.397	106.290	599.954
-462.761	101.791	1057.148	-390.502	44.025	1090.997	-383.153	158.549	1060.301	-423.150	106.250	877.322	-420.453	105.995	599.898
-462.719	101.753	1057.275	-390.490	43.887	1090.935	-383.245	158.447	1060.473	-423.145	106.134	877.339	-420.627	105.819	600.031
-462.843	101.377	1057.342	-390.433	43.668	1090.722	-383.383	158.228	1060.718	-423.135	105.984	877.500	-420.646	105.638	599.959
-462.884	101.501	1057.502	-390.494	43.671	1090.759	-383.599	158.220	1061.012	-423.207	105.718	877.641	-420.773	105.384	599.982
-462.903	101.385	1057.571	-390.465	43.533	1090.708	-383.680	158.077	1061.213	-423.257	105.461	877.768	-420.963	105.227	600.046
-462.984	101.010	1057.592	-390.397	43.265	1090.470	-383.764	157.953	1061.379	-423.313	105.310	877.874	-421.079	105.258	600.171
-463.241	100.873	1057.704	-390.392	43.135	1090.417	-383.949	157.942	1061.671	-423.417	105.321	877.920	-421.248	105.035	600.205
-463.303	100.794	1057.744	-390.436	42.941	1090.341	-384.030	157.817	1061.826	-423.632	105.204	878.042	-421.343	104.858	600.213
-463.412	100.767	1057.865	-390.423	42.732	1090.240	-384.093	157.736	1062.031	-423.804	105.092	878.037	-421.507	104.723	600.226
-463.416	100.595	1057.871	-390.370	42.596	1090.117	-384.224	157.788	1062.177	-423.993	104.840	878.152	-421.704	104.670	600.455
-463.507	100.660	1057.963	-390.354	42.455	1090.079	-384.216	157.371	1062.267	-423.988	104.795	878.261	-421.864	104.487	600.411
-463.596	100.558	1058.059	-390.383	42.333	1089.984	-384.328	157.228	1062.416	-424.073	104.642	878.380	-421.968	104.406	600.475
-463.692	100.482	1057.963	-390.404	42.186	1089.916	-384.361	157.182	1062.608	-424.213	104.536	878.452	-422.009	104.341	600.547
-463.695	100.350	1058.006	-390.421	42.052	1089.846	-384.412	157.057	1062.635	-424.274	104.318	878.549	-421.943	104.077	600.576
-463.818	100.372	1058.106	-390.394	41.988	1089.834	-384.541	157.101	1062.768	-424.309	104.083	878.660	-422.085	103.874	600.575
-463.844	100.260	1058.043	-390.460	41.891	1089.853	-384.527	156.870	1062.865	-424.386	103.936	878.715	-422.225	103.858	600.692
-463.905	100.246	1058.191	-390.493	41.771	1089.841	-384.604	156.870	1062.934	-424.453	103.811	878.742	-422.247	103.626	600.806
-464.019	100.198	1058.223	-390.518	41.712	1089.784	-384.680	156.992	1063.132	-424.601	103.748	878.790	-422.391	103.486	600.860
-464.057	100.128	1058.303	-390.546	41.672	1089.724	-384.812	157.160	1063.420	-424.786	103.700	878.889	-422.396	103.292	600.975
-464.076	100.076	1058.192	-390.571	41.673	1089.737	-384.901	157.003	1063.423	-424.917	103.700	878.906	-422.580	103.247	601.013
-464.190	100.099	1058.288	-390.651	41.566	1089.665	-384.957	157.015	1063.577	-424.938	103.723	878.967	-422.713	103.083	601.055
-464.252	99.985	1058.393	-390.584	41.619	1089.722	-384.980	156.904	1063.654	-424.981	103.695	878.970	-422.808	102.944	601.163
-464.325	99.982	1058.459	-390.762	41.556	1089.612	-385.066	157.139	1063.904	-424.945	103.682	879.061	-422.859	102.916	601.220
-464.335	100.083	1058.398	-390.748	41.644	1089.633	-385.301	156.821	1063.932	-424.945	103.607	879.102	-422.915	102.763	601.308
-464.457	100.020	1058.486	-390.882	41.624	1089.557	-385.340	156.996	1064.071	-425.061	103.652	879.123	-422.993	102.521	601.353
-464.532	100.078	1058.540	-390.850	41.562	1089.549	-385.433	156.920	1064.137	-425.080	103.638	879.214	-423.070	102.422	601.413
-464.402	99.942	1058.526	-390.902	41.496	1089.486	-385.593	157.275	1064.582	-425.200	103.584	879.208	-423.118	102.398	601.453
-464.634	99.920	1058.573	-390.949	41.419	1089.446	-385.628	157.033	1064.544	-425.323	103.396	879.178	-423.208	102.321	601.551
-464.604	99.854	1058.648	-390.936	41.282	1089.462	-385.679	156.992	1064.769	-425.328	103.311	879.264	-423.308	102.236	601.516
-464.594	99.803	1058.648	-391.025	41.301	1089.402	-385.839	156.933	1064.836	-425.435	103.327	879.336	-423.406	102.019	601.612
-464.722	99.761	1058.723	-391.044	41.182	1089.280	-386.052	157.241	1065.244	-425.492	103.202	879.395	-423.359	101.959	601.674
-464.787	99.569	1058.713	-391.087	41.113	1089.289	-386.183	156.956	1065.290	-425.541	103.103	879.388	-423.392	101.962	601.791
-464.894	99.467	1058.733	-391.099	41.030	1089.235	-386.159	156.952	1065.490	-425.483	103.042	879.443	-423.646	101.757	601.709
-464.919	99.247	1058.777	-391.072	40.869	1089.156	-386.383	156.908	1065.728	-425.450	103.006	879.471	-423.708	101.670	601.897
-464.879	99.109	1058.827	-391.074	40.694	1089.102	-386.477	156.757	1065.787	-425.587	102.920	879.481	-423.739	101.571	601.853
-464.919	98.957	1058.934	-391.103	40.578	1089.005	-386.616	157.313	1066.227	-425.809	102.790	879.591	-423.835	101.473	601.898
-465.023	98.805	1059.004	-391.123	40.417	1088.983	-386.690	156.794	1066.202	-425.901	102.750	879.593	-423.930	101.324	602.041
-465.058	98.792	1059.050	-391.169	40.293	1088.907	-386.823	157.150	1066.622	-425.984	102.511	879.582	-424.081	101.129	602.032
-465.148	98.582	1059.062	-391.170	40.157	1088.840	-386.923	157.057	1066.639	-426.112	102.342	879.614	-424.322	101.015	602.086
-465.153	98.517	1059.106	-391.207	40.018	1088.813	-387.044	157.091	1066.856	-426.226	102.188	879.631	-424.344	100.984	602.122
-465.161	98.196	1059.039	-391.267	39.894	1088.741	-387.093	157.018	1067.032	-426.339	102.156	879.693	-424.444	100.710	602.246
-465.260	98.231	1059.230	-391.248	39.673	1088.650	-387.143	156.857	1067.196	-426.378	102.131	879.675	-424.503	100.497	602.290
-465.291	98.027	1059.252	-391.306	39.706	1088.692	-387.417	157.992	1068.021	-426.476	101.865	879.752	-424.730	100.373	602.302
-465.386	97.875	1059.292	-391.281	39.548	1088.670	-387.205	156.670	1067.653	-426.534	101.774	879.795	-424.857	100.262	602.354
-465.498	97.812	1059.319	-391.332	39.504	1088.668	-387.674	157.744	1068.556	-426.587	101.728	879.800	-425.022	100.060	602.411
-465.502	97.531	1059.396	-391.296	39.246	1088.600	-387.820	157.845	1069.066	-426.683	101.448	879.728	-425.212	99.846	602.429
-465.528	97.384	1059.449	-391.373	39.182	1088.558	-387.815	157.293	1069.092	-426.932	101.352	879.892	-425.326	99.691	602.437
-465.614	97.164	1059.545	-391.355	39.101	1088.495	-387.893	157.356	1069.308	-427.039	101.114	879.755	-425.512	99.489	602.574
-465.749	97.022	1059.671	-391.396	38.931	1088.512	-387.929	157.018	1069.461	-427.119	100.969	879.811	-425.713	99.179	602.643
-465.752	96.906	1059.736	-391.433	38.937	1088.482	-388.187	157.101	1069.660	-427.245	100.787	879.807	-425.899	99.065	602.694
-465.844	96.882	1059.720	-391.449	38.772	1088.425	-388.311	157.114	1069.805	-427.340	100.674	879.830	-426.026	98.826	602.780
-465.950	96.862	1059.786	-391.515	38.808	1088.465	-388.333	156.961	1069.954	-427.380	100.653	879.874	-426.243	98.576	602.836
-465.985	96.837	1059.818	-391.505	38.699	1088.427	-388.570	157.795	1070.596	-427.393	100.639	879.895	-426.388	98.419	602.994
-466.010	96.596	1059.847	-391.670	38.605	1088.399	-388.691	157.759	1070.714	-427.537	100.624	879.968	-426.698	98.195	602.995
-466.030	96.645	1059.911	-391.682	38.662	1088.306	-388.717	157.759	1070.778	-427.571	100.690	879.975	-426.935	98.204	603.016
-466.113	96.607	1059.960	-391.741	38.622	1088.272	-388.678	157.590	1070.885	-427.752	100.641	879.982	-427.109	98.124	603.018
-466.230	96.613	1060.050	-391.768	38.560	1088.300	-388.826	157.618	1070.932	-427.933	100.646	880.042	-427.333	98.046	603.096
-466.233	96.642	1060.127	-391.800	38.548	1088.260	-388.776	157.521	1070.973	-428.201	100.531	880.023	-427.434	97.846	603.225
-466.318	96.754	1060.229	-391.910	38.482	1088.230	-388.850	157.560	1071.130	-428.276	100.405	880.127	-427.622	97.759	603.348
-466.286	96.523	1060.148	-391.920	38.473	1088.215	-388.979	157.567	1071.135	-428.323	100.285	880.182	-427.584	97.517	603.369
-466.402	96.500	1060.275	-392.046	38.522	1088.203	-389.009	157.604	1071.316	-428.402	100.330	880.176	-427.787	97.440	603.428
-466.458	96.528	1060.281	-391.968	38.441	1088.128	-389.048	157.485	1071.187	-428.444	100.121	880.214	-427.855	97.453	603.329
-466.516	96.494	1060.331	-392.050	38.354	1088.165	-389.107	157.436	1071.399	-428.420	100.205	880.245	-427.976	97.260	603.580
-466.546	96.416	1060.394	-392.159	38.379	1088.084	-389.107	157.411	1071.329	-428.631	100.118	880.263	-428.069	97.195	603.471
-466.556	96.425	1060.369	-392.186	38.280	1088.041	-389.228	157.402	1071.307	-428.725	100.140	880.291	-428.201	97.180	603.510
-466.625	96.309	1060.283	-392.217	38.321	1088.078	-389.261	157.441	1071.525	-428.803	100.172	880.346	-428.221	97.126	603.483
-466.692	96.529	1060.444	-392.245	38.390	1088.118	-389.345	157.481	1071.441	-428.971	100.169	880.316	-428.424	97.211	603.502
-466.811	96.406	1060.458	-392.307	38.339	1088.121	-389.398	157.323	1071.406	-429.105	100.154	880.313	-428.622	97.220	603.474
-466.848	96.515	1060.469	-392.309	38.303	1088.106	-389.448	157.553	1071.615	-429.226	100.099	880.308	-428.658	97.178	603.566
-466.824	96.448	1060.329	-392.414	38.319	1088.088	-389.471	157.400	1071.464	-429.232	100.163	880.313	-428.574	97.062	603.557
-466.931	96.496	1060.358	-392.508	38.309	1088.017	-389.549	157.414	1071.414	-429.240	100.077	880.355	-428.732	97.050	603.476
-466.932	96.416	1060.393	-392.494	38.298	1088.089	-389.618	157.438	1071.464	-429.154	100.051	880.340	-428.785	97.059	603.402
-467.022	96.437	1060.326	-392.518	38.409	1088.071	-389.715	157.440	1071.422	-429.158	100.074	880.302	-428.882	97.013	603.494
-467.070	96.494	1060.264	-392.620	38.294	1088.096	-389.719	157.439	1071.396	-429.268	100.141	880.226	-429.023	96.999	603.434
-467.107	96.558	1060.244	-392.627	38.314	1088.103	-389.752	157.324	1071.306	-429.363	100.136	880.207	-429.074	97.021	603.398
-467.138	96.443	1060.220	-392.679	38.324	1088.090	-389.831	157.482	1071.312	-429.473	100.068	880.173	-429.272	96.977	603.357
-467.129	96.447	1060.191	-392.696	38.279	1088.126	-389.862	157.414	1071.254	-429.629	99.946	880.161	-429.427	96.922	603.248
-467.214	96.500	1060.151	-392.741	38.253	1088.026	-389.897	157.408	1071.181	-429.762	99.860	880.124	-429.572	96.812	603.236
-467.267	96.500	1060.030	-392.733	38.328	1088.074	-389.985	157.379	1071.115	-429.851	99.830	880.031	-429.680	96.854	603.093
-467.307	96.518	1059.983	-392.752	38.246	1087.997	-389.978	157.414	1071.088	-429.871	99.738	879.995	-429.871	96.688	603.029
-467.351	96.618	1060.010	-392.906	38.223	1087.986	-390.089	157.383	1070.945	-429.914	99.745	879.911	-429.993	96.630	602.988
-467.377	96.500	1059.930	-392.838	38.239	1087.979	-389.991	157.267	1070.868	-429.871	99.665	879.848	-430.162	96.584	602.878
-467.425	96.513	1059.908	-392.867	38.257	1088.068	-390.104	157.289	1070.822	-429.852	99.495	879.818	-430.257	96.439	602.867
-467.399	96.434	1059.760	-392.949	38.202	1088.078	-390.099	157.207	1070.604	-429.963	99.493	879.713	-430.569	96.416	602.758
-467.436	96.393	1059.729	-392.919	38.130	1088.020	-390.138	157.251	1070.594	-430.075	99.364	879.613	-430.773	96.240	602.694
-467.460	96.319	1059.663	-392.937	38.116	1088.017	-390.121	157.227	1070.456	-430.298	99.240	879.595	-431.006	96.129	602.602
-467.520	96.359	1059.616	-392.938	38.143	1088.071	-390.039	156.454	1069.776	-430.422	99.138	879.539	-431.117	96.062	602.597
-467.510	96.353	1059.656	-392.976	38.080	1088.039	-390.042	156.368	1069.604	-430.524	98.936	879.457	-431.422	95.847	602.466
-467.417	96.332	1059.504	-393.004	38.190	1088.106	-390.041	156.301	1069.435	-430.556	98.862	879.416	-431.579	95.776	602.402
-467.398	96.276	1059.383	-393.078	38.348	1088.224	-390.118	156.480	1069.398	-430.576	98.767	879.323	-431.699	95.616	602.345
-467.530	96.484	1059.297	-393.147	38.390	1088.283	-389.610	155.121	1068.149	-430.614	98.785	879.333	-431.867	95.432	602.274
-467.528	96.604	1059.250	-393.140	38.384	1088.345	-389.642	155.192	1067.857	-430.665	98.667	879.259	-432.033	95.442	602.190
-467.570	96.717	1059.173	-393.255	38.528	1088.395	-389.592	155.403	1067.594	-430.647	98.597	879.187	-432.187	95.340	602.222
-467.572	96.941	1059.129	-393.371	38.754	1088.541	-389.701	155.479	1066.985	-430.798	98.525	879.126	-432.431	95.169	602.154
-467.642	97.144	1059.016	-393.467	38.943	1088.610	-389.661	155.613	1066.646	-430.901	98.480	879.086	-432.578	95.114	602.166
-467.708	97.484	1058.898	-393.596	39.085	1088.760	-389.556	155.694	1066.283	-430.994	98.465	879.033	-432.803	95.033	602.060
-467.767	97.683	1058.694	-393.666	39.469	1088.974	-389.458	155.762	1065.885	-431.094	98.414	878.965	-433.033	94.957	602.019
-467.831	98.097	1058.687	-393.826	39.777	1089.091	-389.334	155.913	1065.443	-431.232	98.445	878.928	-433.256	95.001	601.949
-467.914	98.350	1058.628	-393.944	40.092	1089.315	-389.169	155.921	1064.948	-431.207	98.489	878.916	-433.389	94.894	601.919
-467.962	98.733	1058.431	-394.054	40.335	1089.505	-389.055	155.929	1064.599	-431.231	98.518	878.835	-433.531	94.905	601.811
-467.935	98.923	1058.269	-394.246	40.650	1089.613	-389.071	156.359	1064.390	-431.284	98.542	878.752	-433.690	94.769	601.807
-467.868	99.158	1058.293	-394.257	40.829	1089.646	-388.813	156.127	1063.927	-431.315	98.618	878.695	-433.697	94.768	601.760
-467.925	99.277	1058.175	-394.381	41.091	1089.813	-388.797	156.355	1063.693	-431.325	98.568	878.580	-433.855	94.783	601.656
-467.917	99.475	1058.152	-394.491	41.201	1089.929	-388.641	156.565	1063.464	-431.296	98.520	878.532	-433.938	94.847	601.586
-467.902	99.524	1058.068	-394.570	41.515	1090.124	-388.634	156.664	1063.267	-431.374	98.540	878.501	-434.081	94.884	601.443
-467.910	99.633	1058.037	-394.646	41.805	1090.299	-388.616	156.741	1063.008	-431.426	98.569	878.471	-434.170	95.008	601.394
-467.894	99.687	1057.995	-394.675	41.855	1090.421	-388.548	156.819	1062.778	-431.506	98.495	878.414	-434.233	94.977	601.369
-467.899	99.787	1058.074	-394.866	42.462	1090.799	-388.587	156.937	1062.647	-431.498	98.554	878.380	-434.335	95.030	601.216
-467.880	99.835	1058.031	-394.899	42.604	1090.870	-388.556	156.971	1062.557	-431.443	98.432	878.290	-434.270	95.104	601.290
-467.846	99.860	1057.965	-394.926	42.675	1090.990	-388.501	157.058	1062.458	-431.444	98.361	878.271	-434.396	95.250	601.149
-467.727	99.870	1057.938	-394.927	42.751	1091.106	-388.438	157.110	1062.236	-431.457	98.318	878.242	-434.357	95.243	601.181
-467.847	99.970	1058.081	-395.011	42.944	1091.228	-388.461	157.164	1062.028	-431.398	98.260	878.259	-434.355	95.214	601.188
-467.797	99.939	1058.036	-394.984	43.100	1091.312	-388.356	157.155	1061.735	-431.363	98.214	878.247	-434.396	95.259	601.148
-467.727	100.104	1058.032	-395.019	43.295	1091.484	-388.335	157.251	1061.644	-431.445	98.114	878.223	-434.505	95.344	601.064
-467.616	100.139	1058.040	-395.004	43.328	1091.709	-388.098	157.308	1061.335	-431.529	98.147	878.231	-434.653	95.247	601.156
-467.718	100.248	1058.040	-395.136	43.611	1091.904	-388.061	157.502	1061.057	-431.502	98.161	878.268	-434.706	95.265	601.095
-467.606	100.512	1058.052	-395.227	44.179	1092.223	-388.028	157.760	1060.620	-431.570	98.101	878.265	-434.758	95.317	601.117
-467.596	100.766	1057.864	-395.295	44.386	1092.371	-388.122	158.332	1060.438	-431.620	98.219	878.279	-434.837	95.394	601.152
-467.589	101.026	1058.030	-395.355	44.667	1092.574	-388.060	158.533	1060.087	-431.703	98.192	878.287	-434.926	95.277	601.130
-467.659	101.434	1058.043	-395.463	45.117	1092.901	-387.923	158.772	1059.757	-431.745	98.219	878.258	-435.072	95.329	601.133
-467.598	101.601	1057.869	-395.593	45.601	1093.176	-387.869	159.056	1059.462	-431.704	98.209	878.302	-435.225	95.291	601.192
-467.920	103.099	1058.243	-395.696	45.970	1093.469	-387.757	159.156	1059.210	-431.771	98.229	878.336	-435.259	95.190	601.251
-467.957	103.503	1058.153	-395.859	46.469	1093.752	-387.583	159.340	1058.979	-431.827	98.330	878.294	-435.432	95.095	601.202
-467.991	103.963	1058.100	-396.004	46.937	1094.017	-387.503	159.700	1058.771	-431.919	98.399	878.363	-435.606	95.034	601.230
-467.984	104.400	1058.067	-396.219	47.365	1094.172	-387.376	159.973	1058.390	-431.920	98.472	878.320	-435.766	95.049	601.253
-467.957	104.798	1057.855	-396.325	47.824	1094.482	-387.197	160.394	1058.222	-432.054	98.615	878.298	-435.909	94.950	601.228
-467.980	105.117	1057.920	-396.501	48.454	1094.782	-386.856	160.638	1057.783	-432.103	98.798	878.332	-436.127	94.989	601.194
-467.989	105.898	1057.935	-396.658	49.285	1095.288	-386.821	160.854	1057.562	-432.260	98.845	878.300	-436.269	95.050	601.159
-468.070	105.793	1057.766	-396.815	49.150	1095.124	-386.721	161.067	1057.329	-432.235	98.929	878.312	-436.484	95.036	601.109
-467.927	106.361	1057.898	-396.856	49.951	1095.694	-386.586	161.040	1057.176	-432.344	99.090	878.216	-436.554	94.992	601.141
-468.018	106.651	1057.838	-396.988	50.225	1095.818	-386.555	161.151	1056.887	-432.249	99.075	878.222	-436.800	94.976	601.170
-468.016	106.919	1057.857	-397.132	50.643	1096.115	-386.548	161.238	1056.750	-432.322	99.141	878.232	-436.909	94.918	601.139
-468.047	106.939	1057.824	-397.215	50.675	1096.189	-386.447	161.155	1056.603	-432.390	99.130	878.210	-437.005	94.886	601.205
-468.065	106.909	1057.835	-397.209	50.875	1096.397	-386.419	161.245	1056.455	-432.377	99.037	878.214	-437.157	94.872	601.158
-468.062	107.011	1057.789	-397.323	50.829	1096.493	-386.434	161.085	1056.334	-432.619	98.879	878.339	-437.266	94.880	601.215
-468.133	106.881	1057.813	-397.302	51.100	1096.670	-386.470	161.034	1056.235	-432.714	98.779	878.361	-437.381	94.954	601.256
-468.101	106.809	1057.869	-397.391	51.115	1096.969	-386.486	160.969	1056.101	-432.787	98.754	878.416	-437.466	94.971	601.272
-468.083	106.679	1057.878	-397.364	51.121	1097.131	-386.450	160.638	1055.833	-432.884	98.558	878.444	-437.640	94.864	601.328
-468.223	106.287	1057.806	-397.363	50.740	1097.117	-386.520	160.593	1055.739	-432.952	98.452	878.465	-437.602	94.883	601.403
-468.249	106.551	1058.100	-397.518	51.292	1097.742	-386.532	160.421	1055.633	-432.976	98.326	878.535	-437.739	94.849	601.515
-468.290	106.179	1058.011	-397.609	51.277	1097.867	-386.489	160.179	1055.414	-433.049	98.250	878.645	-437.801	94.940	601.516
-468.281	106.136	1058.144	-397.702	51.385	1098.154	-386.533	159.945	1055.111	-433.126	98.053	878.652	-437.887	94.835	601.661
-468.318	106.163	1058.230	-397.691	51.558	1098.543	-386.564	160.049	1054.973	-433.124	98.051	878.814	-437.933	94.818	601.766
-468.318	106.128	1058.251	-397.724	51.758	1098.925	-386.623	159.920	1054.780	-433.261	97.876	878.859	-438.029	94.898	601.836
-468.352	106.053	1058.283	-397.850	51.855	1099.378	-386.601	159.728	1054.415	-433.350	97.819	878.915	-437.993	94.788	601.935
-468.398	106.131	1058.350	-397.958	52.113	1099.764	-386.658	159.704	1054.200	-433.421	97.680	879.021	-438.084	94.871	601.999
-468.458	106.351	1058.426	-398.048	52.195	1100.063	-386.698	159.738	1053.974	-433.539	97.637	879.091	-438.251	94.939	602.073
-468.537	106.498	1058.571	-398.168	52.486	1100.427	-386.734	159.839	1053.701	-433.674	97.599	879.176	-438.265	94.955	602.042
-468.552	106.587	1058.549	-398.327	52.721	1100.778	-386.717	160.022	1053.503	-433.745	97.618	879.195	-438.393	94.898	602.224
-468.672	106.758	1058.488	-398.423	52.945	1101.034	-386.549	160.048	1053.125	-433.781	97.642	879.270	-438.483	94.923	602.265
-468.704	106.920	1058.474	-398.615	53.372	1101.358	-386.577	160.347	1052.998	-433.866	97.775	879.361	-438.577	94.925	602.325
-468.804	107.153	1058.541	-398.737	53.716	1101.684	-386.549	160.784	1052.842	-433.964	97.838	879.378	-438.685	95.019	602.318
-468.840	107.613	1058.678	-398.918	54.118	1102.040	-386.533	160.738	1052.493	-433.980	97.926	879.424	-438.796	95.016	602.436
-468.873	107.570	1058.520	-398.998	54.504	1102.265	-386.449	161.037	1052.347	-434.093	98.135	879.476	-438.880	95.045	602.442
-468.965	108.104	1058.654	-399.166	54.798	1102.604	-386.447	161.340	1052.115	-434.201	98.286	879.537	-439.060	95.088	602.435
-468.980	108.248	1058.658	-399.410	55.170	1102.827	-386.426	161.384	1051.977	-434.239	98.427	879.572	-439.082	95.110	602.487
-469.065	108.541	1058.715	-399.475	55.377	1103.026	-386.372	161.402	1051.844	-434.282	98.470	879.572	-439.240	95.181	602.507
-469.091	108.699	1058.870	-399.632	55.472	1103.197	-386.422	161.487	1051.839	-434.363	98.644	879.681	-439.363	95.187	602.625
-469.189	108.991	1058.929	-399.712	55.640	1103.454	-386.367	161.522	1051.717	-434.454	98.613	879.655	-439.494	95.289	602.536
-469.202	108.948	1058.888	-399.913	55.755	1103.822	-386.416	161.432	1051.627	-434.526	98.575	879.756	-439.473	95.209	602.707
-469.239	108.994	1059.006	-399.947	55.885	1104.162	-386.417	161.513	1051.575	-434.592	98.502	879.790	-439.539	95.244	602.699
-469.278	108.854	1059.071	-399.989	55.892	1104.453	-386.504	161.273	1051.438	-434.629	98.423	879.862	-439.642	95.248	602.777
-469.313	108.560	1059.069	-400.116	55.980	1104.846	-386.503	161.214	1051.503	-434.637	98.446	879.856	-439.708	95.205	602.787
-469.402	108.598	1059.220	-400.243	56.199	1105.318	-386.482	160.808	1051.204	-434.732	98.385	879.945	-439.763	95.229	602.848
-469.398	108.379	1059.370	-400.325	56.119	1105.633	-386.610	160.638	1051.190	-434.798	98.282	880.004	-439.745	95.235	602.977
-469.345	108.200	1059.515	-400.254	56.279	1106.221	-386.681	160.259	1051.031	-434.882	98.277	880.036	-439.900	95.320	603.018
-469.397	107.877	1059.531	-400.273	56.239	1106.624	-386.662	159.822	1050.670	-434.898	98.285	880.227	-439.945	95.221	603.163
-469.490	107.755	1059.839	-400.360	56.112	1107.080	-386.775	159.579	1050.585	-435.116	98.137	880.298	-439.934	95.177	603.279
-469.573	107.422	1059.909	-400.292	56.290	1107.561	-386.849	159.311	1050.363	-435.200	98.110	880.379	-440.009	95.350	603.357
-469.570	107.216	1060.015	-400.424	56.450	1107.859	-386.928	158.889	1050.138	-435.319	97.991	880.446	-440.072	95.225	603.416
-469.579	107.179	1060.141	-400.539	56.559	1108.143	-386.977	158.790	1050.001	-435.421	97.924	880.544	-440.138	95.258	603.461
-469.720	107.152	1060.370	-400.523	56.790	1108.473	-386.925	158.195	1049.488	-435.363	97.873	880.692	-440.185	95.331	603.597
-469.753	107.125	1060.493	-400.687	57.124	1108.868	-386.933	157.939	1049.259	-435.378	97.712	880.739	-440.131	95.322	603.669
-469.792	107.079	1060.570	-400.748	57.398	1109.155	-386.867	157.321	1048.709	-435.447	97.564	880.895	-440.141	95.245	603.714
-469.844	107.182	1060.778	-400.802	57.622	1109.355	-386.828	157.094	1048.391	-435.471	97.578	880.944	-440.180	95.279	603.818
-469.931	107.408	1060.891	-400.940	57.985	1109.709	-386.834	157.048	1048.222	-435.597	97.666	880.998	-440.322	95.265	603.906
-469.891	107.343	1060.986	-400.986	58.291	1109.970	-386.843	156.904	1048.121	-435.555	97.654	881.131	-440.397	95.402	603.917
-470.010	107.513	1061.150	-401.087	58.533	1110.214	-386.808	156.847	1047.848	-435.667	97.590	881.163	-440.418	95.430	604.003
-470.033	107.654	1061.205	-401.176	58.619	1110.308	-386.860	156.740	1047.745	-435.717	97.782	881.226	-440.572	95.491	604.073
-470.016	107.519	1061.228	-401.316	58.873	1110.653	-386.809	156.617	1047.607	-435.734	97.962	881.249	-440.521	95.363	604.062
-470.076	107.724	1061.393	-401.368	58.901	1110.719	-386.803	156.539	1047.542	-435.823	98.147	881.292	-440.536	95.541	604.122
-470.097	107.659	1061.450	-401.464	58.945	1110.814	-386.796	156.410	1047.518	-435.990	98.013	881.403	-440.684	95.659	604.139
-470.157	107.618	1061.538	-401.506	58.999	1110.978	-386.810	156.413	1047.433	-435.931	98.064	881.485	-440.766	95.834	604.172
-470.140	107.576	1061.658	-401.581	59.027	1111.056	-386.888	156.253	1047.403	-435.825	98.140	881.569	-440.777	95.756	604.213
-470.153	107.509	1061.717	-401.582	59.020	1111.252	-386.932	156.059	1047.354	-435.977	98.132	881.610	-440.731	95.600	604.310
-470.230	107.460	1061.919	-401.649	58.930	1111.452	-386.982	155.952	1047.336	-435.990	98.028	881.635	-440.632	95.740	604.403
-470.280	107.246	1062.134	-401.732	58.986	1111.545	-386.993	155.797	1047.347	-435.979	97.912	881.757	-440.692	95.758	604.443
-470.352	107.091	1062.157	-401.754	58.982	1111.714	-387.130	155.534	1047.247	-435.832	97.853	881.863	-440.777	95.805	604.455
-470.456	106.553	1062.290	-401.779	58.843	1111.897	-387.242	155.183	1047.038	-435.889	97.630	882.002	-440.869	95.892	604.576
-470.521	106.482	1062.313	-401.814	58.760	1112.084	-387.254	155.081	1047.030	-435.966	97.414	882.161	-440.703	95.885	604.652
-470.600	106.353	1062.500	-401.673	58.739	1112.343	-387.415	154.624	1046.863	-436.033	97.251	882.213	-440.625	95.813	604.821
-470.690	106.256	1062.715	-401.728	58.511	1112.757	-387.476	154.299	1046.770	-436.031	97.121	882.372	-440.623	95.811	604.964
-470.718	106.196	1062.863	-401.697	58.479	1112.984	-387.524	154.034	1046.614	-435.961	97.082	882.548	-440.660	95.701	605.178
-470.805	105.986	1063.008	-401.664	58.403	1113.399	-387.604	153.579	1046.270	-436.024	96.920	882.655	-440.698	95.881	605.294
-470.886	105.884	1063.081	-401.691	58.352	1113.830	-387.643	153.343	1046.181	-436.057	96.923	882.785	-440.688	96.123	605.489
-470.886	105.900	1063.370	-401.726	58.429	1114.183	-387.707	153.240	1046.097	-436.019	96.880	882.913	-440.719	96.166	605.651
-470.802	105.744	1063.527	-401.685	58.843	1114.777	-387.691	152.892	1045.814	-436.004	96.823	883.114	-440.831	96.105	605.747
-470.829	105.767	1063.697	-401.709	59.006	1115.215	-387.738	152.830	1045.711	-436.025	96.700	883.242	-440.879	96.307	605.973
-470.788	105.713	1063.809	-401.744	59.222	1115.604	-387.696	152.588	1045.594	-436.083	96.490	883.533	-440.820	96.463	606.159
-470.786	105.882	1064.115	-401.767	59.593	1115.968	-387.695	152.553	1045.588	-436.184	96.649	883.683	-440.862	96.499	606.334
-470.832	105.808	1064.165	-401.839	59.794	1116.281	-387.685	152.442	1045.467	-436.099	96.820	883.774	-440.906	96.664	606.603
-470.806	105.901	1064.260	-401.826	60.178	1116.731	-387.689	152.467	1045.333	-436.160	96.949	883.970	-440.896	96.770	606.735
-470.840	105.952	1064.379	-401.889	60.396	1116.962	-387.642	152.379	1045.206	-436.182	97.086	884.187	-440.902	97.010	606.935
-470.866	106.171	1064.581	-401.902	60.701	1117.256	-387.646	152.422	1045.265	-436.228	97.263	884.261	-441.001	97.044	606.995
-470.858	106.222	1064.689	-401.960	60.889	1117.616	-387.593	152.362	1045.161	-436.163	97.424	884.444	-441.129	97.187	607.192
-470.860	106.097	1064.755	-401.990	61.050	1117.860	-387.575	152.236	1045.027	-436.200	97.476	884.545	-441.191	97.191	607.283
-470.862	106.185	1064.815	-401.973	61.200	1117.987	-387.575	152.138	1044.893	-436.362	97.661	884.660	-441.042	97.445	607.453
-470.906	106.433	1064.998	-402.129	61.245	1118.229	-387.545	152.123	1044.832	-436.420	97.490	884.831	-441.066	97.519	607.488
-470.844	106.447	1065.042	-402.108	61.469	1118.410	-387.523	151.910	1044.766	-436.318	97.601	884.913	-441.130	97.510	607.693
-470.913	106.242	1065.154	-402.006	61.454	1118.635	-387.511	151.914	1044.755	-436.232	97.565	885.016	-441.153	97.735	607.811
-470.939	106.170	1065.234	-402.018	61.515	1118.832	-387.504	151.819	1044.744	-436.320	97.556	885.140	-441.032	97.775	607.915
-470.896	106.246	1065.312	-402.081	61.579	1119.114	-387.477	151.554	1044.565	-436.327	97.656	885.281	-440.974	97.866	607.930
-470.865	106.039	1065.448	-402.045	61.615	1119.221	-387.518	151.415	1044.486	-436.282	97.590	885.393	-440.998	97.920	608.053
-470.959	105.907	1065.526	-402.074	61.706	1119.440	-387.503	151.296	1044.473	-436.155	97.715	885.581	-440.984	98.062	608.264
-470.966	105.581	1065.586	-402.128	61.810	1119.610	-387.496	150.829	1044.204	-436.235	97.716	885.678	-440.954	98.275	608.369
-470.959	105.408	1065.690	-402.025	61.778	1119.716	-387.413	150.673	1044.181	-436.231	97.607	885.849	-440.896	98.424	608.518
-470.968	105.284	1065.821	-401.997	61.908	1119.980	-387.476	150.472	1044.061	-436.292	97.477	885.901	-440.852	98.527	608.556
-471.000	105.044	1066.000	-401.969	62.012	1120.060	-387.427	150.278	1043.991	-436.283	97.602	886.078	-440.855	98.488	608.663
-470.926	104.863	1066.034	-401.883	62.055	1120.213	-387.440	150.130	1044.007	-436.198	97.639	886.180	-440.750	98.577	608.795
-470.984	104.731	1066.177	-401.838	62.196	1120.452	-387.407	149.841	1043.770	-436.111	97.521	886.467	-440.659	98.806	608.895
-470.928	104.674	1066.346	-401.835	62.373	1120.564	-387.418	149.642	1043.613	-436.115	97.351	886.499	-440.645	98.885	609.068
-470.992	104.692	1066.364	-401.746	62.582	1120.830	-387.395	149.536	1043.475	-435.977	97.470	886.627	-440.582	98.892	609.216
-470.867	104.691	1066.540	-401.826	62.790	1121.000	-387.317	149.405	1043.427	-435.968	97.422	886.680	-440.508	98.911	609.321
-470.904	104.703	1066.651	-401.746	63.081	1121.139	-387.297	149.235	1043.306	-436.096	97.468	886.929	-440.266	99.089	609.445
-470.923	104.790	1066.771	-401.687	63.271	1121.379	-387.271	149.253	1043.217	-436.076	97.685	886.985	-440.239	99.257	609.569
-470.881	104.915	1066.818	-401.674	63.465	1121.510	-387.271	149.245	1043.152	-435.979	97.763	887.073	-440.333	99.263	609.669
-470.853	104.959	1066.896	-401.723	63.898	1121.761	-387.243	149.300	1043.106	-435.868	97.752	887.103	-440.367	99.501	609.782
-470.832	105.104	1066.982	-401.658	63.931	1121.929	-387.182	149.190	1042.972	-436.041	98.034	887.209	-440.287	99.573	609.855
-470.778	105.266	1067.109	-401.680	64.339	1122.121	-387.141	149.223	1042.958	-436.072	98.371	887.340	-440.180	99.603	609.907
-470.703	105.519	1067.149	-401.718	64.780	1122.355	-387.073	149.204	1042.798	-435.990	98.391	887.372	-440.107	99.673	610.055
-470.729	105.796	1067.235	-401.692	65.322	1122.699	-386.938	148.677	1042.307	-435.946	98.321	887.495	-440.086	99.831	610.123
-470.720	106.000	1067.328	-401.729	65.756	1123.010	-386.996	148.760	1042.259	-435.916	98.542	887.551	-440.134	99.974	610.245
-470.663	106.143	1067.349	-401.763	66.173	1123.112	-386.853	148.902	1042.288	-435.776	98.637	887.574	-440.002	99.932	610.177
-470.641	106.397	1067.364	-401.754	66.578	1123.477	-386.827	148.456	1041.772	-435.857	98.757	887.596	-439.903	100.020	610.282
-470.640	106.455	1067.411	-401.731	67.035	1123.801	-386.731	148.583	1041.781	-435.836	98.913	887.729	-439.807	100.134	610.370
-470.616	106.780	1067.512	-401.862	67.350	1123.964	-386.617	148.585	1041.639	-435.756	99.131	887.740	-439.808	100.180	610.435
-470.572	106.871	1067.507	-401.837	67.729	1124.183	-386.588	148.322	1041.395	-435.742	99.248	887.721	-439.776	100.361	610.458
-470.562	107.017	1067.567	-401.843	67.938	1124.331	-386.503	148.310	1041.251	-435.674	99.314	887.761	-439.697	100.531	610.444
-470.577	107.085	1067.589	-401.839	68.124	1124.471	-386.521	148.342	1041.170	-435.778	99.401	887.773	-439.673	100.586	610.526
-470.536	107.100	1067.621	-401.836	68.274	1124.542	-386.471	148.279	1041.113	-435.820	99.523	887.804	-439.573	100.571	610.520
-470.571	107.068	1067.630	-401.828	68.498	1124.665	-386.481	148.178	1041.006	-435.737	99.609	887.894	-439.497	100.687	610.536
-470.540	107.067	1067.596	-401.860	68.694	1124.746	-386.432	148.207	1040.985	-435.616	99.333	887.955	-439.405	100.728	610.570
-470.489	107.042	1067.642	-401.821	68.729	1124.842	-386.464	147.919	1040.766	-435.501	99.199	887.995	-439.243	100.854	610.704
-470.453	106.978	1067.679	-401.818	68.882	1125.004	-386.391	147.766	1040.632	-435.511	99.144	888.032	-439.159	100.889	610.668
-470.463	106.941	1067.748	-401.805	69.014	1125.036	-386.326	147.425	1040.400	-435.391	99.139	888.128	-438.958	100.970	610.758
-470.457	106.828	1067.698	-401.851	69.171	1125.224	-386.304	147.295	1040.343	-435.309	99.228	888.151	-438.926	100.949	610.805
-470.429	106.813	1067.810	-401.764	69.313	1125.320	-386.324	146.960	1040.135	-435.270	99.231	888.131	-438.811	101.107	610.812
-470.356	106.743	1067.869	-401.762	69.436	1125.448	-386.199	146.964	1040.056	-435.272	99.405	888.202	-438.764	101.271	610.867
-470.363	106.747	1067.899	-401.738	69.515	1125.500	-386.241	146.699	1039.868	-435.236	99.486	888.308	-438.801	101.477	610.992
-470.320	106.625	1067.966	-401.711	69.635	1125.623	-386.204	146.544	1039.787	-435.258	99.431	888.342	-438.731	101.482	611.063
-470.297	106.672	1068.044	-401.664	69.857	1125.766	-386.149	146.393	1039.668	-435.260	99.354	888.400	-438.567	101.664	611.154
-470.301	106.715	1068.135	-401.726	69.928	1125.867	-386.174	146.345	1039.547	-435.253	99.270	888.416	-438.485	101.738	611.267
-470.254	106.587	1068.196	-401.678	70.134	1125.917	-386.108	146.260	1039.434	-435.170	99.254	888.484	-438.285	101.577	611.258
-470.195	106.792	1068.262	-401.616	70.372	1126.074	-386.033	146.161	1039.301	-435.068	99.263	888.552	-438.314	101.878	611.298
-470.230	106.784	1068.306	-401.617	70.531	1126.169	-386.043	146.224	1039.357	-434.960	99.204	888.582	-438.121	101.685	611.316
-470.176	106.923	1068.370	-401.610	70.773	1126.332	-386.000	145.924	1038.979	-434.869	99.331	888.626	-438.087	101.771	611.377
-470.201	107.034	1068.439	-401.624	71.073	1126.445	-385.950	145.926	1038.973	-434.851	99.534	888.745	-437.965	101.727	611.384
-470.175	107.252	1068.449	-401.612	71.316	1126.577	-385.921	145.944	1038.812	-434.951	99.674	888.787	-437.967	101.891	611.413
-470.192	107.429	1068.489	-401.618	71.668	1126.725	-385.872	145.916	1038.707	-434.948	99.812	888.801	-437.991	102.027	611.496
-470.184	107.596	1068.577	-401.703	72.050	1126.901	-385.838	145.923	1038.563	-434.979	99.976	888.755	-437.999	102.073	611.504
-470.185	107.810	1068.551	-401.661	72.415	1127.039	-385.808	145.892	1038.323	-434.996	100.157	888.794	-437.979	102.168	611.521
-470.243	108.145	1068.594	-401.723	72.752	1127.192	-385.729	145.987	1038.138	-435.043	100.190	888.812	-437.944	102.184	611.539
-470.260	108.482	1068.557	-401.722	73.110	1127.306	-385.686	146.074	1037.986	-435.075	100.303	888.789	-437.839	102.192	611.528
-470.290	108.751	1068.614	-401.841	73.679	1127.570	-385.708	145.983	1037.652	-434.956	100.461	888.825	-437.710	102.121	611.481
-470.316	109.006	1068.600	-401.846	74.187	1127.860	-385.664	146.200	1037.558	-434.970	100.602	888.840	-437.636	102.219	611.596
-470.346	109.244	1068.638	-401.897	74.716	1128.062	-385.623	146.272	1037.389	-434.842	100.789	888.861	-437.592	102.354	611.592
-470.293	109.798	1068.737	-401.936	75.269	1128.316	-385.638	146.172	1037.230	-434.735	100.968	888.868	-437.577	102.468	611.582
-470.332	110.162	1068.690	-402.013	75.857	1128.550	-385.499	146.233	1036.954	-434.794	101.207	888.849	-437.438	102.469	611.555
-470.314	110.343	1068.696	-402.120	76.557	1128.880	-385.433	146.264	1036.773	-434.858	101.512	888.734	-437.321	102.648	611.573
-470.333	110.748	1068.694	-402.137	77.095	1129.035	-385.408	146.438	1036.706	-434.927	101.862	888.812	-437.286	102.621	611.633
-470.342	111.035	1068.751	-402.202	77.722	1129.355	-385.453	146.500	1036.514	-434.920	102.036	888.721	-437.226	102.894	611.648
