NO_OF_FRAMES	2500
NO_OF_CAMERAS	7
NO_OF_MARKERS	5
FREQUENCY	250
NO_OF_ANALOG	0
ANALOG_FREQUENCY	0
DESCRIPTION	--
TIME_STAMP	2012-02-07, 12:02:48	12230.55244690
DATA_INCLUDED	3D
MARKER_NAMES	cylinder_tip	cylinder_left	cylinder_right	weight_top	weight_low
-140.966	386.019	1213.714	-63.175	362.549	1268.766	-65.328	433.433	1175.529	-97.105	383.328	1033.200	-98.482	386.134	753.959
-140.986	386.075	1213.474	-63.068	363.034	1268.904	-65.280	433.471	1175.560	-97.061	383.408	1033.134	-98.420	386.145	753.852
-141.001	386.027	1213.420	-63.105	363.071	1268.808	-65.283	433.452	1175.553	-97.080	383.455	1032.972	-98.435	386.159	753.743
-140.892	386.134	1213.508	-63.201	364.133	1269.473	-65.317	433.372	1175.593	-97.003	383.469	1032.901	-98.602	386.328	753.611
-140.836	386.090	1213.463	-63.224	364.159	1269.405	-65.166	433.401	1175.484	-96.989	383.508	1032.828	-98.544	386.260	753.474
-140.849	386.079	1213.449	-63.216	364.133	1269.279	-65.252	433.306	1175.424	-96.985	383.471	1032.673	-98.642	386.390	753.462
-140.844	385.970	1213.283	-63.206	364.214	1269.232	-65.180	433.203	1175.202	-96.939	383.372	1032.524	-98.606	386.369	753.389
-140.525	385.659	1212.943	-63.177	364.279	1269.341	-65.198	433.163	1175.312	-96.893	383.484	1032.498	-98.540	386.323	753.329
-140.617	385.612	1212.871	-63.205	364.326	1269.278	-65.164	433.165	1175.152	-96.833	383.396	1032.372	-98.554	386.275	753.233
-140.547	385.552	1212.765	-63.157	364.316	1269.164	-65.150	433.033	1175.050	-96.899	383.365	1032.234	-98.527	386.264	753.211
-140.498	385.508	1212.648	-63.277	364.295	1268.736	-65.171	433.016	1174.910	-96.828	383.316	1032.068	-98.584	386.343	753.136
-140.448	385.360	1212.455	-63.270	364.197	1268.638	-65.101	432.954	1174.813	-96.779	383.311	1032.027	-98.593	386.341	753.011
-140.411	385.343	1212.430	-63.301	364.226	1268.515	-65.037	432.901	1174.741	-96.811	383.225	1031.908	-98.604	386.343	752.973
-140.492	385.730	1212.656	-63.359	364.201	1268.285	-65.077	432.810	1174.641	-96.850	383.162	1031.795	-98.613	386.279	752.817
-140.628	385.754	1212.553	-63.329	364.145	1268.217	-65.044	432.807	1174.545	-96.810	383.149	1031.645	-98.688	386.275	752.661
-140.531	385.537	1212.353	-63.351	364.103	1268.043	-64.975	432.809	1174.415	-96.741	383.084	1031.560	-98.643	386.378	752.549
-140.513	385.623	1212.262	-63.351	364.041	1267.880	-64.905	432.756	1174.330	-96.726	383.080	1031.464	-98.708	386.232	752.560
-140.473	385.483	1212.227	-63.388	363.988	1267.688	-64.822	432.655	1174.145	-96.656	383.114	1031.202	-98.741	386.276	752.349
-140.476	385.445	1212.030	-63.362	363.997	1267.633	-64.863	432.611	1174.024	-96.598	382.987	1031.116	-98.682	386.323	752.346
-140.449	385.421	1211.916	-63.395	363.924	1267.574	-64.814	432.563	1174.003	-96.642	383.009	1031.026	-98.719	386.328	752.295
-140.447	385.425	1211.849	-63.344	363.838	1267.393	-64.784	432.516	1173.849	-96.631	382.882	1030.899	-98.807	386.209	752.084
-140.422	385.279	1211.723	-63.439	363.795	1267.244	-64.812	432.522	1173.636	-96.635	382.906	1030.852	-98.831	386.248	752.013
-140.310	385.195	1211.610	-63.382	363.728	1267.104	-64.822	432.487	1173.561	-96.695	382.906	1030.679	-98.847	386.188	751.896
-140.339	385.202	1211.458	-63.346	363.572	1266.987	-64.717	432.312	1173.362	-96.706	382.805	1030.561	-98.848	386.114	751.851
-140.293	385.130	1211.425	-63.356	363.496	1266.840	-64.734	432.332	1173.211	-96.653	382.864	1030.526	-98.848	386.128	751.738
-140.308	384.972	1211.282	-63.323	363.394	1266.608	-64.648	432.240	1173.150	-96.682	382.803	1030.415	-98.869	386.008	751.627
-140.345	385.013	1211.220	-63.367	363.306	1266.601	-64.733	432.068	1172.911	-96.700	382.697	1030.322	-98.912	385.993	751.470
-140.270	384.881	1211.069	-63.308	363.248	1266.526	-64.722	432.127	1172.900	-96.674	382.639	1030.265	-98.953	385.888	751.434
-140.229	384.786	1210.890	-63.301	363.248	1266.414	-64.662	431.996	1172.799	-96.669	382.575	1030.146	-98.930	385.902	751.392
-140.164	384.709	1210.833	-63.348	363.100	1266.217	-64.722	431.927	1172.623	-96.637	382.521	1029.995	-98.971	385.796	751.254
-140.173	384.735	1210.748	-63.288	363.077	1266.151	-64.706	431.983	1172.557	-96.585	382.365	1029.803	-98.964	385.699	751.129
-140.149	384.558	1210.673	-63.324	362.962	1266.049	-64.672	431.824	1172.445	-96.651	382.283	1029.771	-99.002	385.667	750.944
-140.108	384.409	1210.361	-63.314	362.990	1266.036	-64.699	431.760	1172.322	-96.620	382.157	1029.545	-98.948	385.537	750.806
-140.108	384.469	1210.395	-63.344	362.809	1265.823	-64.717	431.664	1172.186	-96.700	382.062	1029.477	-98.957	385.434	750.683
-140.122	384.263	1210.214	-63.293	362.804	1265.766	-64.650	431.564	1172.004	-96.645	381.955	1029.398	-98.976	385.342	750.548
-140.081	384.265	1210.131	-63.253	362.771	1265.552	-64.636	431.353	1171.766	-96.591	381.880	1029.346	-98.938	385.354	750.490
-140.061	384.111	1209.964	-63.316	362.620	1265.488	-64.561	431.344	1171.660	-96.552	381.789	1029.153	-98.873	384.963	750.189
-140.055	384.138	1209.910	-63.229	362.758	1265.455	-64.560	431.361	1171.557	-96.585	381.735	1029.031	-98.857	384.820	750.056
-140.007	384.079	1209.824	-63.265	362.657	1265.287	-64.575	431.298	1171.393	-96.484	381.646	1028.968	-98.800	384.731	749.883
-139.991	384.029	1209.612	-63.248	362.759	1265.272	-64.502	431.269	1171.245	-96.478	381.624	1028.865	-98.829	384.771	749.751
-139.990	384.095	1209.613	-63.275	362.741	1265.177	-64.488	431.201	1171.104	-96.488	381.514	1028.704	-98.773	384.615	749.596
-139.984	384.003	1209.460	-63.223	362.804	1265.184	-64.420	431.169	1170.854	-96.408	381.501	1028.571	-98.774	384.618	749.559
-139.970	384.008	1209.383	-63.286	362.870	1264.981	-64.360	431.073	1170.684	-96.370	381.402	1028.540	-98.733	384.466	749.316
-139.994	384.113	1209.257	-63.236	362.753	1264.878	-64.336	431.100	1170.482	-96.422	381.343	1028.455	-98.747	384.483	749.202
-139.939	383.940	1209.048	-63.267	362.822	1264.869	-64.320	431.030	1170.412	-96.399	381.287	1028.249	-98.713	384.361	749.177
-139.944	383.879	1208.964	-63.308	362.816	1264.676	-64.300	430.925	1170.225	-96.435	381.274	1028.167	-98.717	384.352	748.955
-139.913	383.888	1208.919	-63.351	362.814	1264.616	-64.254	430.841	1170.117	-96.415	381.261	1028.095	-98.773	384.258	748.727
-139.922	383.813	1208.778	-63.310	362.840	1264.693	-64.246	430.775	1170.005	-96.454	381.330	1027.998	-98.675	384.104	748.508
-139.901	383.706	1208.535	-63.377	362.796	1264.459	-64.148	430.810	1169.895	-96.494	381.456	1027.781	-98.695	384.231	748.579
-139.900	383.825	1208.668	-63.368	362.744	1264.439	-64.173	430.817	1169.885	-96.508	381.386	1027.664	-98.745	384.037	748.312
-139.875	383.690	1208.380	-63.376	362.596	1264.349	-64.106	430.687	1169.689	-96.493	381.470	1027.589	-98.785	384.124	748.184
-139.826	383.661	1208.280	-63.368	362.680	1264.200	-64.166	430.749	1169.661	-96.473	381.488	1027.600	-98.817	384.085	748.162
-139.863	383.680	1208.261	-63.396	362.482	1264.057	-64.171	430.643	1169.584	-96.410	381.435	1027.380	-98.755	384.082	748.019
-139.893	383.575	1208.059	-63.344	362.377	1263.978	-64.044	430.689	1169.425	-96.416	381.320	1027.257	-98.741	383.926	747.847
-139.886	383.518	1208.000	-63.336	362.415	1263.892	-64.102	430.673	1169.319	-96.366	381.540	1027.294	-98.643	383.780	747.826
-139.819	383.542	1207.922	-63.361	362.446	1263.897	-64.137	430.575	1169.302	-96.398	381.230	1026.933	-98.565	383.548	747.706
-139.806	383.483	1207.801	-63.388	362.363	1263.778	-64.095	430.581	1169.190	-96.317	381.089	1027.012	-98.568	383.587	747.522
-139.811	383.393	1207.717	-63.336	362.399	1263.585	-64.063	430.552	1169.080	-96.254	380.905	1026.788	-98.595	383.538	747.483
-139.839	383.480	1207.624	-63.347	362.415	1263.554	-64.082	430.348	1168.982	-96.158	380.767	1026.655	-98.607	383.515	747.445
-139.815	383.383	1207.559	-63.393	362.398	1263.432	-64.029	430.457	1168.927	-96.202	380.784	1026.696	-98.446	383.347	747.309
-139.813	383.313	1207.418	-63.324	362.396	1263.421	-63.944	430.260	1168.689	-96.239	380.690	1026.543	-98.456	383.275	747.247
-139.781	383.169	1207.183	-63.387	362.441	1263.350	-63.932	430.321	1168.707	-96.273	380.624	1026.344	-98.493	383.211	747.129
-139.710	383.125	1207.131	-63.373	362.360	1263.350	-63.849	430.186	1168.478	-96.329	380.275	1025.988	-98.477	383.169	747.058
-139.729	383.042	1207.022	-63.417	362.396	1263.232	-63.858	430.049	1168.341	-96.292	380.213	1025.922	-98.455	383.139	747.012
-139.587	383.035	1206.845	-63.441	362.467	1263.214	-63.802	430.088	1168.363	-96.236	380.195	1025.857	-98.518	383.081	746.821
-139.683	382.881	1206.630	-63.382	362.458	1263.174	-63.743	429.935	1168.104	-96.258	380.099	1025.874	-98.510	383.020	746.722
-139.647	382.784	1206.442	-63.429	362.499	1263.169	-63.753	429.880	1167.963	-96.232	379.913	1025.650	-98.492	382.921	746.578
-139.674	382.750	1206.370	-63.447	362.550	1263.057	-63.667	429.713	1167.699	-96.221	380.035	1025.565	-98.404	382.758	746.543
-139.576	382.689	1206.241	-63.426	362.576	1262.982	-63.731	429.715	1167.629	-96.340	379.865	1025.405	-98.444	382.692	746.363
-139.588	382.703	1206.074	-63.473	362.513	1262.948	-63.647	429.697	1167.680	-96.340	380.125	1025.288	-98.388	382.493	746.283
-139.541	382.760	1205.922	-63.501	362.525	1262.833	-63.658	429.626	1167.538	-96.393	380.166	1025.210	-98.386	382.506	746.132
-139.458	382.723	1205.803	-63.528	362.413	1262.765	-63.623	429.600	1167.388	-96.329	380.247	1025.109	-98.421	382.546	746.041
-139.527	382.712	1205.752	-63.559	362.389	1262.646	-63.589	429.544	1167.237	-96.344	380.163	1024.950	-98.549	382.627	745.981
-139.468	382.608	1205.450	-63.582	362.345	1262.639	-63.465	429.256	1166.976	-96.401	380.195	1024.877	-98.526	382.617	745.808
-139.508	382.639	1205.204	-63.542	362.239	1262.480	-63.538	429.363	1166.978	-96.427	380.347	1024.758	-98.518	382.607	745.733
-139.548	382.800	1205.078	-63.632	362.271	1262.313	-63.461	429.310	1166.987	-96.429	380.322	1024.659	-98.450	382.372	745.619
-139.544	382.768	1204.883	-63.590	362.228	1262.317	-63.490	429.424	1166.870	-96.396	380.172	1024.429	-98.425	382.241	745.514
-139.470	382.678	1204.673	-63.664	362.233	1262.151	-63.505	429.434	1166.737	-96.361	380.169	1024.425	-98.336	382.198	745.483
-139.461	382.758	1204.583	-63.728	362.261	1262.070	-63.489	429.403	1166.629	-96.294	379.952	1024.244	-98.315	382.076	745.323
-139.428	382.737	1204.306	-63.667	362.286	1262.061	-63.456	429.374	1166.593	-96.183	379.775	1024.134	-98.279	382.080	745.159
-139.452	382.836	1204.210	-63.747	362.315	1261.961	-63.466	429.280	1166.534	-95.831	379.263	1023.406	-98.315	381.999	745.136
-139.489	382.867	1204.218	-63.740	362.205	1261.792	-63.439	429.227	1166.309	-96.102	379.703	1023.929	-98.173	381.863	745.081
-139.410	382.791	1204.082	-63.690	362.255	1261.856	-63.413	429.110	1166.069	-95.890	379.197	1023.206	-98.114	381.736	744.951
-139.521	382.870	1203.977	-63.673	362.273	1261.697	-63.336	429.080	1166.016	-95.930	379.243	1023.269	-98.042	381.700	744.856
-139.515	382.745	1203.830	-63.720	362.303	1261.689	-63.371	429.056	1166.018	-95.938	379.190	1023.226	-98.088	381.691	744.841
-139.530	382.764	1203.785	-63.699	362.162	1261.542	-63.333	428.877	1165.641	-96.012	379.143	1023.090	-98.073	381.664	744.787
-139.511	382.745	1203.823	-63.599	362.132	1261.517	-63.332	428.761	1165.542	-95.929	378.991	1023.095	-98.083	381.705	744.733
-139.496	382.792	1203.663	-63.696	362.282	1261.524	-63.385	428.705	1165.371	-95.852	378.594	1022.717	-98.008	381.522	744.708
-139.520	382.740	1203.593	-63.621	362.327	1261.378	-63.324	428.633	1165.311	-95.869	378.640	1022.770	-97.884	381.383	744.627
-139.526	382.781	1203.562	-63.730	362.450	1261.472	-63.351	428.514	1165.063	-95.815	378.556	1022.710	-97.863	381.294	744.661
-139.645	383.132	1203.742	-63.853	362.571	1261.429	-63.280	428.456	1164.960	-95.843	378.537	1022.857	-97.716	381.085	744.521
-139.528	382.751	1203.423	-63.804	362.662	1261.433	-63.380	428.294	1164.780	-95.688	378.191	1022.641	-97.692	380.963	744.483
-139.676	382.986	1203.474	-63.822	362.622	1261.339	-63.348	428.271	1164.798	-95.698	378.205	1022.789	-97.701	380.835	744.351
-139.677	383.039	1203.563	-63.777	362.603	1261.318	-63.337	428.246	1164.719	-95.675	378.152	1022.747	-97.664	380.763	744.347
-139.698	382.949	1203.507	-63.816	362.649	1261.255	-63.387	428.170	1164.648	-95.679	377.978	1022.635	-97.594	380.563	744.255
-139.700	382.904	1203.433	-63.810	362.609	1261.388	-63.387	428.068	1164.545	-95.753	377.912	1022.598	-97.577	380.456	744.287
-139.545	382.534	1203.377	-63.806	362.597	1261.255	-63.402	428.099	1164.603	-95.766	378.050	1022.762	-97.477	380.375	744.308
-139.711	382.676	1203.370	-63.655	362.663	1261.308	-63.403	428.160	1164.612	-95.789	377.846	1022.534	-97.550	380.303	744.308
-139.703	382.860	1203.530	-63.808	362.578	1261.231	-63.459	428.064	1164.546	-95.845	377.840	1022.584	-97.563	380.187	744.217
-139.712	382.821	1203.423	-63.841	362.551	1261.279	-63.437	428.144	1164.612	-95.923	378.015	1022.751	-97.566	380.184	744.244
-139.787	382.940	1203.542	-63.643	362.612	1261.249	-63.523	428.105	1164.559	-95.894	377.889	1022.595	-97.543	379.959	744.301
-139.762	383.014	1203.584	-63.600	362.652	1261.278	-63.494	428.158	1164.598	-95.953	378.060	1022.780	-97.461	379.873	744.260
-139.809	383.050	1203.617	-63.847	362.578	1261.312	-63.447	428.260	1164.658	-95.884	377.912	1022.613	-97.412	379.749	744.277
-139.783	383.170	1203.665	-63.637	362.697	1261.212	-63.465	428.253	1164.605	-95.878	378.102	1022.671	-97.364	379.663	744.333
-139.770	383.228	1203.679	-63.757	362.606	1261.286	-63.480	428.328	1164.752	-95.802	378.063	1022.711	-97.417	379.575	744.263
-139.644	382.979	1203.704	-63.662	362.708	1261.305	-63.453	428.385	1164.677	-95.810	378.085	1022.704	-97.383	379.518	744.417
-139.589	383.020	1203.729	-63.778	362.707	1261.320	-63.473	428.479	1164.844	-95.831	378.206	1022.837	-97.317	379.451	744.423
-139.717	383.107	1203.567	-63.891	362.750	1261.473	-63.457	428.681	1165.013	-95.841	378.306	1022.939	-97.286	379.346	744.487
-139.772	383.567	1203.907	-63.853	362.754	1261.426	-63.476	428.614	1164.996	-95.979	378.429	1023.180	-97.222	379.186	744.527
-139.601	383.100	1203.786	-63.838	362.780	1261.446	-63.479	428.690	1165.089	-95.996	378.438	1023.251	-97.211	379.077	744.585
-139.634	383.301	1203.870	-63.817	362.787	1261.554	-63.474	428.791	1165.213	-96.001	378.501	1023.323	-97.107	378.987	744.684
-139.730	383.354	1204.027	-63.797	362.774	1261.637	-63.511	428.698	1165.210	-96.022	378.419	1023.335	-97.128	378.947	744.812
-139.715	383.239	1204.063	-63.700	362.523	1261.467	-63.486	428.690	1165.308	-96.005	378.362	1023.412	-97.077	378.901	744.835
-139.733	383.255	1204.187	-63.837	362.626	1261.655	-63.568	428.794	1165.379	-95.975	378.335	1023.502	-97.031	378.804	745.036
-139.724	383.287	1204.298	-63.741	362.704	1261.813	-63.498	428.681	1165.403	-95.977	378.445	1023.819	-96.966	378.630	744.950
-139.691	383.242	1204.486	-63.717	362.648	1261.804	-63.556	428.689	1165.661	-95.980	378.424	1023.894	-96.805	378.551	745.117
-139.667	383.103	1204.517	-63.732	362.455	1261.854	-63.608	428.690	1165.785	-95.964	378.330	1023.914	-96.715	378.407	745.200
-139.690	383.054	1204.688	-63.762	362.481	1262.033	-63.670	428.758	1165.830	-95.937	378.316	1024.089	-96.711	378.403	745.236
-139.744	382.905	1204.831	-63.729	362.374	1262.012	-63.708	428.784	1165.978	-95.893	378.172	1024.099	-96.683	378.330	745.364
-139.769	382.979	1205.044	-63.699	362.396	1262.160	-63.702	428.794	1166.120	-95.873	378.214	1024.199	-96.617	378.286	745.356
-139.760	382.841	1205.183	-63.761	362.283	1262.225	-63.669	428.739	1166.251	-95.872	378.212	1024.282	-96.538	378.294	745.452
-139.797	382.728	1205.275	-63.757	362.191	1262.354	-63.717	428.722	1166.308	-95.907	378.268	1024.419	-96.495	378.247	745.527
-139.829	382.759	1205.486	-63.724	362.137	1262.303	-63.732	428.738	1166.486	-95.863	378.337	1024.551	-96.459	378.157	745.673
-139.799	382.635	1205.541	-63.795	362.043	1262.433	-63.721	428.572	1166.473	-95.889	378.261	1024.572	-96.464	378.172	745.726
-139.839	382.420	1205.830	-63.763	362.042	1262.542	-63.761	428.517	1166.719	-95.927	378.270	1024.724	-96.394	378.136	745.929
-139.866	382.368	1205.963	-63.847	361.892	1262.557	-63.833	428.461	1166.749	-95.964	378.271	1024.853	-96.340	378.037	745.962
-139.936	382.284	1206.040	-63.806	361.836	1262.630	-63.960	428.671	1166.939	-95.922	378.121	1024.932	-96.391	378.066	746.039
-139.985	382.245	1206.187	-63.803	361.708	1262.708	-64.041	428.687	1167.195	-95.932	378.143	1025.085	-96.287	377.874	746.138
-140.040	382.136	1206.295	-63.773	361.633	1262.798	-64.024	428.540	1167.186	-95.870	378.179	1025.263	-96.282	377.864	746.213
-140.048	382.065	1206.383	-63.818	361.524	1262.897	-64.122	428.623	1167.402	-95.847	377.992	1025.359	-96.200	377.800	746.419
-140.052	382.004	1206.491	-63.843	361.473	1262.926	-64.124	428.601	1167.477	-95.868	377.932	1025.433	-96.187	377.739	746.462
-140.128	382.017	1206.719	-63.833	361.436	1263.005	-64.207	428.519	1167.476	-95.866	377.959	1025.676	-96.232	377.665	746.546
-140.219	381.995	1206.849	-63.875	361.315	1263.082	-64.246	428.570	1167.689	-95.914	377.797	1025.674	-96.181	377.581	746.705
-140.237	381.965	1206.870	-63.880	361.314	1263.214	-64.232	428.617	1167.784	-95.928	377.814	1025.866	-96.190	377.590	746.900
-140.296	381.916	1207.049	-63.836	361.269	1263.210	-64.397	428.542	1168.005	-95.952	377.904	1026.051	-96.135	377.466	746.977
-140.338	381.943	1207.191	-63.895	361.192	1263.323	-64.492	428.452	1168.208	-95.980	377.970	1026.286	-96.206	377.473	747.149
-140.377	381.863	1207.242	-63.906	361.160	1263.374	-64.471	428.537	1168.355	-96.036	378.045	1026.389	-96.222	377.354	747.346
-140.397	381.870	1207.320	-63.934	361.033	1263.385	-64.516	428.281	1168.441	-96.128	377.956	1026.502	-96.267	377.324	747.413
-140.511	381.963	1207.689	-63.906	360.953	1263.504	-64.498	428.142	1168.667	-96.139	377.942	1026.603	-96.254	377.270	747.592
-140.534	382.014	1207.813	-63.979	360.994	1263.642	-64.559	428.288	1168.799	-96.172	378.003	1026.713	-96.247	377.126	747.856
-140.627	381.992	1207.928	-64.038	360.860	1263.748	-64.584	428.258	1168.901	-96.131	377.952	1026.875	-96.091	377.018	747.985
-140.641	381.993	1208.061	-64.092	360.830	1263.860	-64.610	428.125	1169.000	-96.130	377.874	1027.000	-96.131	376.956	748.063
-140.642	381.996	1208.221	-64.044	360.759	1263.915	-64.638	428.112	1169.265	-96.125	377.833	1027.193	-96.247	376.770	748.208
-140.694	382.017	1208.355	-64.100	360.685	1263.989	-64.739	428.032	1169.379	-96.119	377.847	1027.468	-96.215	376.710	748.362
-140.762	381.976	1208.482	-64.125	360.694	1264.117	-64.771	428.066	1169.585	-96.120	377.757	1027.554	-96.191	376.650	748.436
-140.847	381.803	1208.606	-64.204	360.742	1264.298	-64.775	428.090	1169.793	-96.121	377.770	1027.685	-96.240	376.582	748.476
-140.935	381.911	1208.815	-64.235	360.757	1264.405	-64.897	428.122	1169.925	-96.200	377.790	1027.883	-96.144	376.545	748.729
-140.958	381.813	1208.864	-64.234	360.699	1264.515	-64.893	427.995	1170.032	-96.152	377.623	1027.966	-95.979	376.364	748.937
-141.021	381.841	1209.073	-64.346	360.509	1264.679	-64.978	428.013	1170.271	-96.125	377.619	1028.135	-95.990	376.358	748.995
-141.000	381.787	1209.202	-64.363	360.425	1264.769	-64.999	427.922	1170.434	-96.101	377.645	1028.296	-95.917	376.219	749.190
-141.085	381.804	1209.303	-64.390	360.436	1264.908	-64.995	428.005	1170.557	-96.158	377.599	1028.424	-95.828	376.130	749.352
-141.071	381.528	1209.340	-64.391	360.387	1264.967	-65.071	427.919	1170.664	-96.246	377.455	1028.486	-95.772	376.019	749.412
-141.159	381.801	1209.567	-64.442	360.488	1265.234	-65.109	427.939	1170.904	-96.237	377.445	1028.807	-95.692	375.928	749.508
-141.166	381.766	1209.722	-64.467	360.499	1265.450	-65.191	427.794	1170.967	-96.304	377.268	1028.771	-95.637	375.816	749.625
-141.195	381.837	1209.877	-64.432	360.487	1265.590	-65.170	427.804	1171.164	-96.163	377.123	1028.956	-95.513	375.685	749.736
-141.271	381.769	1209.882	-64.567	360.526	1265.700	-65.204	427.782	1171.273	-96.177	377.121	1029.148	-95.447	375.511	749.907
-141.271	381.653	1210.050	-64.582	360.482	1265.917	-65.260	427.642	1171.323	-96.203	376.958	1029.287	-95.353	375.449	750.074
-141.204	381.424	1210.065	-64.620	360.519	1266.006	-65.317	427.752	1171.551	-96.105	376.992	1029.453	-95.310	375.312	750.156
-141.467	381.883	1210.391	-64.623	360.395	1266.158	-65.406	427.573	1171.675	-96.198	376.884	1029.599	-95.245	375.206	750.265
-141.439	381.788	1210.479	-64.636	360.470	1266.321	-65.501	427.521	1171.777	-96.178	376.961	1029.781	-95.220	375.114	750.413
-141.515	381.830	1210.592	-64.656	360.520	1266.486	-65.530	427.454	1171.867	-96.254	376.916	1029.942	-95.162	374.998	750.511
-141.546	381.713	1210.740	-64.710	360.484	1266.598	-65.613	427.469	1172.044	-96.263	376.830	1030.076	-95.142	374.889	750.714
-141.595	381.789	1210.828	-64.751	360.504	1266.718	-65.695	427.573	1172.140	-96.317	376.764	1030.192	-95.134	374.805	750.860
-141.608	381.684	1210.952	-64.764	360.456	1266.896	-65.730	427.486	1172.254	-96.370	376.766	1030.379	-95.113	374.684	750.964
-141.686	381.563	1210.983	-64.847	360.444	1267.048	-65.755	427.437	1172.339	-96.385	376.787	1030.479	-95.104	374.623	751.074
-141.703	381.663	1211.171	-64.821	360.485	1267.231	-65.855	427.453	1172.504	-96.432	376.663	1030.632	-95.103	374.529	751.303
-141.731	381.604	1211.290	-64.894	360.517	1267.343	-65.896	427.480	1172.666	-96.418	376.536	1030.676	-95.079	374.336	751.418
-141.809	381.560	1211.363	-64.908	360.476	1267.558	-65.984	427.451	1172.728	-96.450	376.500	1030.774	-95.100	374.286	751.606
-141.878	381.584	1211.469	-64.900	360.497	1267.616	-66.046	427.432	1172.830	-96.372	376.426	1030.946	-95.079	374.091	751.681
-141.916	381.551	1211.581	-64.930	360.471	1267.903	-66.098	427.462	1172.840	-96.411	376.431	1031.007	-95.123	374.070	751.792
-142.039	381.531	1211.658	-64.898	360.465	1267.988	-66.129	427.500	1173.070	-96.573	376.535	1031.184	-95.172	374.024	751.988
-142.083	381.535	1211.895	-64.937	360.426	1268.042	-66.211	427.493	1173.100	-96.582	376.613	1031.310	-95.224	373.909	752.122
-142.067	381.535	1211.943	-65.009	360.360	1268.445	-66.222	427.513	1173.207	-96.695	376.514	1031.428	-95.199	373.818	752.281
-142.178	381.616	1212.080	-65.221	360.342	1268.584	-66.297	427.525	1173.279	-96.719	376.474	1031.507	-95.243	373.759	752.381
-142.198	381.488	1212.223	-65.306	360.300	1268.750	-66.287	427.445	1173.433	-96.796	376.448	1031.634	-95.285	373.720	752.496
-142.107	381.233	1212.247	-65.366	360.353	1268.978	-66.454	427.478	1173.561	-96.852	376.429	1031.875	-95.314	373.613	752.675
-142.254	381.332	1212.533	-65.314	360.117	1268.898	-66.475	427.445	1173.564	-96.880	376.396	1031.945	-95.334	373.524	752.737
-142.294	381.342	1212.622	-65.444	360.317	1269.131	-66.567	427.449	1173.628	-96.951	376.307	1032.006	-95.388	373.493	752.872
-142.341	381.371	1212.895	-65.510	360.147	1269.244	-66.668	427.568	1173.896	-97.000	376.208	1032.067	-95.396	373.418	753.067
-142.368	381.113	1212.912	-65.586	360.394	1269.515	-66.718	427.567	1173.983	-96.999	376.256	1032.302	-95.389	373.302	753.088
-142.389	381.150	1213.120	-65.626	360.532	1269.775	-66.803	427.680	1174.077	-97.066	376.220	1032.343	-95.451	373.369	753.262
-142.493	381.137	1213.262	-65.745	360.658	1269.974	-66.835	427.544	1174.152	-97.195	376.182	1032.429	-95.428	373.252	753.428
-142.552	381.004	1213.401	-65.767	360.449	1269.930	-66.940	427.684	1174.332	-97.182	376.174	1032.475	-95.432	373.229	753.504
-142.471	381.125	1213.515	-65.810	360.528	1270.057	-66.989	427.609	1174.358	-97.194	376.201	1032.613	-95.484	373.157	753.558
-142.693	381.120	1213.654	-65.759	360.363	1270.177	-67.012	427.602	1174.518	-97.247	376.246	1032.752	-95.444	373.100	753.719
-142.722	381.041	1213.796	-65.778	360.417	1270.337	-67.044	427.577	1174.582	-97.279	376.219	1032.896	-95.492	373.000	753.827
-142.755	380.987	1213.772	-65.809	360.530	1270.396	-67.070	427.507	1174.654	-97.436	376.152	1032.915	-95.528	373.089	753.901
-142.821	381.093	1213.949	-65.857	360.502	1270.493	-67.205	427.578	1174.810	-97.411	376.173	1033.094	-95.673	372.950	754.087
-142.848	381.122	1214.178	-65.938	360.487	1270.614	-67.233	427.521	1174.897	-97.491	376.193	1033.143	-95.638	373.012	754.094
-142.869	381.067	1214.201	-65.928	360.438	1270.703	-67.344	427.720	1175.053	-97.453	376.112	1033.278	-95.675	372.940	754.172
-142.722	380.969	1214.313	-65.882	360.217	1270.688	-67.414	427.706	1175.207	-97.573	376.149	1033.318	-95.709	372.942	754.269
-142.776	380.673	1214.267	-65.938	360.398	1270.762	-67.474	427.664	1175.162	-97.557	376.162	1033.458	-95.669	372.918	754.357
-142.796	380.688	1214.546	-65.928	360.287	1270.865	-67.543	427.802	1175.383	-97.546	376.063	1033.513	-95.633	372.908	754.312
-142.817	380.651	1214.502	-66.007	360.318	1270.978	-67.637	427.841	1175.432	-97.580	375.952	1033.554	-95.687	372.912	754.410
-142.894	380.704	1214.680	-65.970	360.287	1270.998	-67.647	427.755	1175.456	-97.559	376.046	1033.700	-95.617	372.976	754.568
-142.980	380.735	1214.827	-65.992	360.256	1271.016	-67.681	427.807	1175.598	-97.552	376.048	1033.768	-95.525	372.878	754.608
-143.006	380.741	1214.948	-66.048	360.236	1271.173	-67.804	427.922	1175.655	-97.631	376.021	1033.808	-95.580	372.960	754.624
-143.014	380.745	1215.016	-66.130	360.281	1271.221	-67.798	427.878	1175.755	-97.698	376.064	1033.973	-95.534	372.919	754.785
-143.075	380.846	1215.258	-66.160	360.386	1271.270	-67.903	427.990	1175.841	-97.793	376.019	1034.005	-95.513	372.948	754.906
-143.075	380.788	1215.186	-66.140	360.399	1271.392	-68.040	427.858	1175.894	-97.869	376.090	1034.088	-95.556	372.931	754.945
-143.184	380.939	1215.365	-66.138	360.276	1271.416	-68.061	427.907	1175.940	-97.822	376.070	1034.184	-95.498	372.919	755.024
-143.364	380.700	1215.562	-66.246	360.296	1271.546	-68.104	428.014	1176.099	-97.871	376.167	1034.263	-95.607	372.863	755.075
-143.216	380.974	1215.593	-66.222	360.558	1271.534	-68.197	427.976	1176.089	-97.894	376.215	1034.277	-95.611	372.924	755.177
-143.383	380.852	1215.713	-66.236	360.396	1271.627	-68.247	428.036	1176.125	-98.010	376.182	1034.359	-95.610	372.907	755.204
-143.449	380.943	1215.876	-66.270	360.474	1271.737	-68.264	428.074	1176.223	-98.045	376.316	1034.497	-95.665	372.960	755.338
-143.470	380.992	1215.906	-66.342	360.678	1271.878	-68.310	428.149	1176.337	-98.037	376.340	1034.444	-95.686	372.891	755.405
-143.572	381.075	1216.086	-66.365	360.593	1271.882	-68.323	428.133	1176.381	-98.058	376.424	1034.606	-95.667	372.920	755.455
-143.470	381.046	1216.052	-66.363	360.614	1271.886	-68.415	428.223	1176.516	-98.167	376.454	1034.660	-95.778	372.927	755.645
-143.581	381.261	1216.278	-66.458	360.671	1271.986	-68.471	428.179	1176.484	-98.204	376.524	1034.760	-95.810	373.006	755.647
-143.636	381.278	1216.346	-66.438	360.750	1272.073	-68.467	428.222	1176.507	-98.317	376.604	1034.765	-95.825	373.023	755.726
-143.686	381.396	1216.430	-66.461	360.849	1272.165	-68.493	428.314	1176.629	-98.294	376.577	1034.869	-95.893	373.166	755.895
-143.696	381.439	1216.514	-66.494	360.817	1272.115	-68.565	428.444	1176.724	-98.369	376.673	1034.968	-95.977	373.056	755.864
-143.683	381.619	1216.642	-66.490	360.894	1272.250	-68.527	428.362	1176.766	-98.462	376.670	1035.002	-96.006	373.150	756.022
-143.758	381.562	1216.625	-66.552	360.934	1272.373	-68.510	428.277	1176.680	-98.468	376.701	1035.105	-96.066	373.210	756.080
-143.789	381.667	1216.715	-66.562	360.979	1272.419	-68.542	428.592	1176.995	-98.526	376.692	1035.149	-96.128	373.258	756.169
-143.833	381.642	1216.796	-66.578	360.997	1272.504	-68.615	428.686	1176.975	-98.591	376.653	1035.170	-96.204	373.343	756.313
-143.841	381.819	1217.010	-66.598	360.957	1272.504	-68.653	428.578	1177.025	-98.573	376.746	1035.320	-96.234	373.332	756.296
-143.915	381.711	1217.034	-66.645	361.097	1272.519	-68.645	428.536	1177.064	-98.598	376.663	1035.273	-96.228	373.253	756.326
-143.943	381.793	1217.239	-66.665	361.037	1272.624	-68.643	428.373	1176.913	-98.670	376.638	1035.401	-96.349	373.293	756.414
-143.971	381.858	1217.266	-66.633	361.050	1272.730	-68.674	428.301	1176.952	-98.629	376.634	1035.399	-96.312	373.372	756.501
-143.977	381.876	1217.305	-66.656	361.096	1272.755	-68.751	428.591	1177.198	-98.654	376.701	1035.508	-96.325	373.368	756.639
-143.949	381.910	1217.389	-66.657	361.091	1272.878	-68.745	428.357	1177.140	-98.681	376.653	1035.402	-96.370	373.421	756.751
-144.010	381.790	1217.362	-66.677	361.026	1272.839	-68.720	428.699	1177.470	-98.687	376.671	1035.511	-96.438	373.339	756.642
-144.087	382.112	1217.693	-66.743	361.124	1272.892	-68.818	428.557	1177.411	-98.815	376.698	1035.519	-96.438	373.467	756.687
-144.075	381.951	1217.543	-66.775	361.026	1272.884	-68.834	428.640	1177.548	-98.797	376.841	1035.612	-96.470	373.473	756.807
-144.226	381.895	1217.629	-66.757	361.012	1272.896	-68.842	428.629	1177.605	-98.852	376.788	1035.640	-96.524	373.593	756.833
-144.185	381.962	1217.768	-66.812	360.980	1273.001	-68.838	428.632	1177.592	-98.853	376.793	1035.653	-96.576	373.551	756.825
-144.200	381.863	1217.653	-66.853	360.931	1272.943	-68.840	428.782	1177.877	-98.878	376.990	1035.796	-96.582	373.578	756.924
-144.319	382.011	1217.801	-66.852	360.918	1273.019	-68.906	428.736	1177.849	-98.828	376.802	1035.684	-96.594	373.633	756.869
-144.293	381.893	1217.711	-66.931	360.814	1273.047	-68.896	428.758	1178.057	-98.875	376.817	1035.800	-96.657	373.672	757.056
-144.285	381.985	1217.891	-66.925	360.872	1273.128	-68.870	428.731	1178.024	-98.919	376.821	1035.793	-96.655	373.660	757.009
-144.348	382.069	1217.939	-66.951	360.810	1273.062	-68.912	428.810	1178.071	-98.960	377.090	1035.929	-96.663	373.708	757.053
-144.439	382.150	1218.091	-67.014	360.827	1273.150	-68.889	428.792	1178.084	-98.984	377.069	1035.983	-96.683	373.737	757.156
-144.443	382.190	1218.035	-67.038	360.783	1273.145	-68.936	428.788	1178.059	-98.933	377.017	1035.944	-96.731	373.822	757.155
-144.429	382.163	1218.018	-67.125	360.842	1273.089	-68.986	428.894	1178.195	-99.046	377.186	1035.967	-96.744	373.871	757.095
-144.464	382.188	1217.998	-67.014	360.876	1273.167	-68.978	429.029	1178.309	-99.063	377.241	1036.036	-96.857	373.950	757.142
-144.399	382.148	1217.991	-67.056	360.796	1273.153	-69.032	429.007	1178.330	-99.121	377.304	1036.071	-96.926	374.046	757.252
-144.512	382.220	1218.024	-67.040	360.921	1273.284	-68.966	429.042	1178.357	-99.126	377.355	1036.080	-96.944	374.100	757.229
-144.432	382.344	1218.115	-67.100	360.945	1273.231	-69.010	429.075	1178.350	-99.130	377.443	1036.043	-96.982	374.176	757.234
-144.480	382.301	1218.158	-67.104	360.966	1273.225	-69.025	429.156	1178.493	-99.157	377.508	1036.126	-97.103	374.148	757.132
-144.431	382.366	1218.171	-67.083	361.030	1273.288	-68.951	429.079	1178.326	-99.231	377.582	1036.102	-97.155	374.312	757.330
-144.471	382.407	1218.113	-67.083	361.038	1273.204	-69.005	429.240	1178.480	-99.231	377.627	1036.213	-97.194	374.312	757.291
-144.508	382.517	1218.217	-67.102	361.075	1273.365	-68.994	429.157	1178.392	-99.237	377.622	1036.173	-97.246	374.427	757.382
-144.474	382.589	1218.277	-67.091	361.080	1273.344	-68.985	429.065	1178.356	-99.225	377.526	1036.152	-97.298	374.366	757.306
-144.431	382.438	1218.260	-67.103	361.081	1273.269	-69.007	429.090	1178.451	-99.254	377.611	1036.168	-97.343	374.500	757.351
-144.436	382.399	1218.190	-67.118	361.162	1273.345	-68.989	429.217	1178.509	-99.312	377.575	1036.180	-97.414	374.532	757.331
-144.458	382.540	1218.291	-67.118	361.057	1273.379	-69.056	429.161	1178.416	-99.286	377.496	1036.130	-97.527	374.580	757.379
-144.489	382.468	1218.213	-67.144	361.029	1273.362	-69.022	429.147	1178.447	-99.294	377.519	1036.102	-97.595	374.587	757.304
-144.483	382.463	1218.253	-67.081	361.072	1273.455	-69.037	429.064	1178.375	-99.282	377.515	1036.218	-97.715	374.626	757.270
-144.474	382.419	1218.200	-67.122	361.009	1273.348	-69.050	429.139	1178.533	-99.335	377.527	1036.169	-97.778	374.671	757.288
-144.453	382.269	1218.161	-67.179	360.970	1273.340	-69.045	429.092	1178.525	-99.425	377.542	1036.170	-97.838	374.833	757.333
-144.460	382.370	1218.331	-67.115	360.917	1273.447	-69.040	429.077	1178.520	-99.416	377.439	1036.016	-97.916	374.899	757.309
-144.462	382.195	1218.176	-67.157	360.830	1273.325	-69.036	429.018	1178.521	-99.432	377.541	1036.113	-98.025	374.888	757.292
-144.470	382.085	1218.112	-67.165	360.803	1273.390	-69.036	429.071	1178.631	-99.494	377.668	1036.143	-98.093	375.009	757.390
-144.520	382.142	1218.068	-67.102	360.851	1273.273	-69.060	428.992	1178.619	-99.461	377.737	1036.220	-98.203	375.089	757.343
-144.507	382.284	1218.310	-67.138	360.690	1273.287	-68.994	429.017	1178.688	-99.558	377.699	1036.280	-98.232	375.208	757.315
-144.456	381.989	1218.077	-67.191	360.793	1273.404	-69.028	429.070	1178.715	-99.596	377.781	1036.248	-98.365	375.224	757.337
-144.478	382.037	1218.206	-67.162	360.687	1273.370	-69.039	428.930	1178.630	-99.563	377.700	1036.142	-98.411	375.331	757.329
-144.503	381.992	1218.295	-67.136	360.647	1273.438	-69.076	428.890	1178.634	-99.613	377.767	1036.217	-98.463	375.263	757.310
-144.522	382.015	1218.298	-67.104	360.634	1273.359	-69.068	428.818	1178.621	-99.579	377.797	1036.203	-98.474	375.285	757.299
-144.488	382.102	1218.349	-67.161	360.570	1273.487	-69.077	428.901	1178.759	-99.652	377.680	1036.255	-98.571	375.507	757.450
-144.500	381.847	1218.215	-67.138	360.552	1273.448	-69.065	428.792	1178.680	-99.627	377.697	1036.304	-98.703	375.567	757.395
-144.477	381.866	1218.337	-67.099	360.616	1273.483	-69.053	428.769	1178.783	-99.704	377.630	1036.206	-98.761	375.640	757.413
-144.486	381.853	1218.295	-67.103	360.567	1273.471	-69.105	428.785	1178.838	-99.684	377.702	1036.262	-98.785	375.695	757.424
-144.497	381.888	1218.393	-67.133	360.555	1273.535	-69.134	428.687	1178.801	-99.701	377.610	1036.328	-98.833	375.798	757.449
-144.576	381.951	1218.448	-67.135	360.585	1273.531	-69.084	428.739	1178.753	-99.694	377.621	1036.399	-98.946	375.792	757.452
-144.507	381.860	1218.449	-67.111	360.608	1273.519	-69.139	428.709	1178.799	-99.764	377.511	1036.229	-98.937	375.912	757.586
-144.616	381.873	1218.561	-67.136	360.592	1273.601	-69.112	428.641	1178.785	-99.797	377.656	1036.421	-99.028	375.981	757.555
-144.644	382.116	1218.541	-67.110	360.675	1273.648	-69.061	428.660	1178.767	-99.794	377.695	1036.476	-99.105	376.030	757.577
-144.521	381.934	1218.462	-67.113	360.632	1273.677	-69.138	428.650	1178.835	-99.812	377.578	1036.396	-99.108	376.114	757.564
-144.544	381.931	1218.516	-67.073	360.714	1273.593	-69.096	428.659	1178.805	-99.794	377.666	1036.432	-99.162	376.141	757.577
-144.618	381.893	1218.492	-67.112	360.696	1273.647	-69.096	428.724	1178.818	-99.869	377.793	1036.542	-99.334	376.205	757.614
-144.571	381.917	1218.578	-67.075	360.725	1273.671	-69.131	428.670	1178.795	-99.920	377.842	1036.533	-99.279	376.338	757.614
-144.546	382.082	1218.698	-67.067	360.697	1273.666	-69.166	428.734	1178.854	-99.973	377.857	1036.604	-99.551	376.353	757.690
-144.583	382.017	1218.620	-67.082	360.726	1273.661	-69.189	428.860	1178.951	-99.953	377.945	1036.543	-99.646	376.456	757.713
-144.575	382.052	1218.640	-67.034	360.801	1273.785	-69.149	428.900	1178.998	-100.011	377.893	1036.502	-99.722	376.509	757.732
-144.547	382.122	1218.676	-67.136	360.741	1273.730	-69.140	428.894	1178.989	-100.069	377.997	1036.552	-99.786	376.681	757.761
-144.593	382.140	1218.662	-67.082	360.784	1273.698	-69.105	428.982	1178.957	-100.079	378.100	1036.505	-99.941	376.713	757.804
-144.585	382.241	1218.659	-67.136	360.828	1273.729	-69.128	428.949	1178.966	-100.166	378.240	1036.657	-100.031	376.733	757.780
-144.627	382.235	1218.727	-67.170	360.864	1273.762	-69.111	429.166	1179.158	-100.193	378.367	1036.714	-100.103	376.851	757.850
-144.587	382.434	1218.712	-67.146	360.873	1273.735	-69.111	429.232	1179.267	-100.140	378.436	1036.747	-100.202	376.942	757.908
-144.515	382.267	1218.698	-67.113	360.910	1273.700	-69.126	429.222	1179.233	-100.225	378.563	1036.763	-100.332	377.033	757.838
-144.543	382.540	1218.889	-67.084	360.954	1273.798	-69.097	429.392	1179.292	-100.241	378.549	1036.704	-100.188	377.216	757.880
-144.549	382.541	1218.824	-67.138	361.027	1273.892	-69.158	429.422	1179.303	-100.275	378.764	1036.751	-100.319	377.310	757.932
-144.582	382.504	1218.851	-67.098	361.026	1273.907	-69.097	429.527	1179.481	-100.268	378.748	1036.791	-100.479	377.342	757.941
-144.523	382.665	1218.957	-67.103	361.071	1273.908	-69.139	429.549	1179.492	-100.324	378.767	1036.729	-100.599	377.516	757.970
-144.614	382.622	1219.035	-67.104	361.088	1273.879	-69.127	429.644	1179.586	-100.336	378.809	1036.852	-100.611	377.592	758.071
-144.609	382.696	1218.986	-67.117	361.114	1273.993	-69.108	429.531	1179.490	-100.379	378.869	1036.890	-100.677	377.713	758.076
-144.580	382.644	1218.998	-67.068	361.147	1274.015	-69.111	429.588	1179.536	-100.329	378.891	1036.930	-100.878	377.755	758.138
-144.572	382.699	1219.070	-67.104	361.176	1274.039	-69.095	429.611	1179.584	-100.444	378.944	1036.988	-100.890	377.909	758.167
-144.602	382.717	1219.166	-67.065	361.366	1274.098	-69.121	429.720	1179.694	-100.442	378.896	1036.968	-100.924	377.937	758.182
-144.535	382.825	1219.178	-67.118	361.427	1274.170	-69.080	429.622	1179.557	-100.430	378.990	1037.095	-100.976	378.137	758.323
-144.624	382.870	1219.254	-67.093	361.460	1274.236	-69.082	429.710	1179.709	-100.441	378.994	1037.163	-101.065	378.200	758.357
-144.536	382.755	1219.202	-67.094	361.453	1274.170	-69.129	429.771	1179.765	-100.457	379.110	1037.228	-101.152	378.318	758.450
-144.565	382.861	1219.396	-67.061	361.548	1274.391	-69.098	429.770	1179.789	-100.472	379.071	1037.199	-101.227	378.502	758.493
-144.607	382.985	1219.440	-67.100	361.475	1274.343	-69.102	429.723	1179.840	-100.517	379.154	1037.239	-101.310	378.594	758.439
-144.578	382.909	1219.473	-67.046	361.602	1274.486	-69.096	429.768	1179.861	-100.596	379.244	1037.366	-101.421	378.759	758.528
-144.613	383.007	1219.579	-67.031	361.671	1274.481	-69.133	429.874	1179.958	-100.543	379.288	1037.428	-101.436	378.884	758.605
-144.580	383.064	1219.626	-66.985	361.721	1274.529	-69.045	429.839	1179.922	-100.669	379.337	1037.430	-101.558	378.963	758.595
-144.468	382.876	1219.506	-67.056	361.668	1274.545	-69.082	429.818	1180.033	-100.717	379.493	1037.579	-101.632	379.044	758.703
-144.562	383.141	1219.686	-67.102	361.729	1274.579	-69.086	429.994	1180.140	-100.701	379.563	1037.571	-101.701	379.264	758.820
-144.584	383.203	1219.681	-67.071	361.848	1274.617	-69.087	430.016	1180.180	-100.712	379.661	1037.733	-101.776	379.391	758.794
-144.510	383.276	1219.838	-67.030	361.834	1274.675	-69.032	430.046	1180.251	-100.785	379.730	1037.746	-101.854	379.577	758.754
-144.449	383.219	1219.716	-67.135	361.894	1274.682	-69.087	430.238	1180.478	-100.759	379.904	1037.705	-101.995	379.633	758.894
-144.533	383.415	1219.892	-67.061	361.889	1274.744	-69.085	430.322	1180.467	-100.825	380.054	1037.851	-102.100	379.799	758.994
-144.526	383.464	1219.867	-67.048	362.014	1274.809	-69.030	430.443	1180.600	-100.814	380.189	1037.898	-102.176	379.872	759.037
-144.566	383.517	1219.965	-67.091	362.051	1274.846	-69.024	430.365	1180.577	-100.861	380.305	1037.993	-102.188	380.065	759.144
-144.532	383.619	1220.096	-67.023	362.052	1274.910	-69.023	430.494	1180.640	-100.926	380.549	1038.113	-102.293	380.230	759.170
-144.510	383.673	1220.121	-67.111	362.134	1274.901	-68.982	430.638	1180.769	-100.979	380.660	1038.133	-102.445	380.402	759.234
-144.425	383.602	1220.057	-67.085	362.217	1275.007	-69.014	430.742	1180.957	-101.088	380.685	1038.200	-102.504	380.459	759.273
-144.484	383.806	1220.233	-67.042	362.224	1275.013	-68.979	430.764	1180.912	-101.043	380.722	1038.250	-102.669	380.603	759.396
-144.508	383.855	1220.265	-67.037	362.250	1275.090	-68.982	430.813	1181.074	-101.059	380.906	1038.472	-102.705	380.720	759.408
-144.439	383.961	1220.283	-67.049	362.381	1275.142	-68.951	430.952	1181.116	-101.085	380.956	1038.371	-102.828	380.979	759.470
-144.489	384.011	1220.400	-67.045	362.349	1275.209	-68.939	430.913	1181.124	-101.148	381.089	1038.466	-102.940	381.093	759.652
-144.435	384.107	1220.451	-67.049	362.379	1275.319	-68.913	431.018	1181.343	-101.145	381.155	1038.629	-102.979	381.268	759.628
-144.410	384.133	1220.458	-67.014	362.381	1275.285	-68.892	431.022	1181.377	-101.146	381.248	1038.652	-103.059	381.356	759.644
-144.405	384.138	1220.584	-67.041	362.478	1275.359	-68.886	431.148	1181.531	-101.148	381.437	1038.787	-103.140	381.485	759.833
-144.370	384.097	1220.603	-67.039	362.464	1275.413	-68.815	431.248	1181.632	-101.176	381.457	1038.970	-103.224	381.663	759.847
-144.365	384.210	1220.650	-66.985	362.506	1275.567	-68.849	431.310	1181.781	-101.132	381.533	1038.847	-103.339	381.717	759.992
-144.398	384.277	1220.757	-66.976	362.522	1275.562	-68.906	431.296	1181.769	-101.174	381.615	1039.067	-103.347	381.929	760.104
-144.374	384.252	1220.816	-66.961	362.451	1275.654	-68.884	431.255	1181.888	-101.236	381.772	1039.062	-103.521	382.019	760.158
-144.337	384.523	1220.982	-66.938	362.496	1275.679	-68.873	431.453	1182.100	-101.273	381.835	1039.233	-103.574	382.176	760.187
-144.342	384.461	1220.991	-66.956	362.516	1275.750	-68.825	431.495	1182.154	-101.276	382.046	1039.368	-103.684	382.324	760.281
-144.362	384.480	1221.064	-66.923	362.567	1275.790	-68.796	431.504	1182.276	-101.332	382.119	1039.460	-103.774	382.420	760.408
-144.332	384.474	1221.182	-66.926	362.672	1275.864	-68.812	431.643	1182.470	-101.350	382.215	1039.572	-103.819	382.491	760.520
-144.351	384.716	1221.354	-66.887	362.623	1275.901	-68.822	431.594	1182.434	-101.436	382.264	1039.721	-103.849	382.707	760.615
-144.366	384.799	1221.499	-66.863	362.684	1276.045	-68.755	431.729	1182.714	-101.474	382.400	1039.816	-103.940	382.831	760.746
-144.308	384.873	1221.558	-66.892	362.682	1276.139	-68.818	431.819	1182.762	-101.492	382.462	1039.971	-104.088	382.963	760.799
-144.296	384.895	1221.605	-66.817	362.749	1276.237	-68.752	431.796	1182.800	-101.490	382.508	1040.130	-104.101	383.146	760.968
-144.319	384.836	1221.720	-66.810	362.732	1276.331	-68.780	431.744	1182.863	-101.517	382.660	1040.324	-104.133	383.213	761.167
-144.281	385.034	1221.855	-66.784	362.872	1276.431	-68.767	431.788	1183.086	-101.566	382.554	1040.369	-104.177	383.434	761.262
-144.269	385.074	1221.962	-66.702	362.857	1276.504	-68.751	431.909	1183.142	-101.492	382.672	1040.543	-104.305	383.524	761.430
-144.361	385.245	1222.265	-66.677	362.917	1276.573	-68.754	431.853	1183.180	-101.578	382.855	1040.848	-104.355	383.678	761.557
-144.281	385.173	1222.210	-66.667	362.916	1276.844	-68.780	432.016	1183.383	-101.608	382.839	1040.762	-104.432	383.906	761.781
-144.295	385.376	1222.402	-66.746	363.022	1276.946	-68.810	431.928	1183.363	-101.597	382.899	1040.917	-104.530	384.015	761.798
-144.261	385.471	1222.580	-66.601	362.982	1277.171	-68.764	431.972	1183.447	-101.701	383.114	1041.194	-104.618	384.184	761.925
-144.135	385.159	1222.452	-66.583	362.988	1277.186	-68.772	431.936	1183.523	-101.708	382.986	1041.171	-104.708	384.267	762.109
-144.273	385.658	1222.936	-66.592	363.084	1277.452	-68.719	431.845	1183.510	-101.718	383.324	1041.461	-104.720	384.604	762.291
-144.189	385.433	1222.931	-66.585	363.056	1277.514	-68.765	432.024	1183.614	-101.726	383.229	1041.509	-104.800	384.634	762.407
-143.992	385.019	1222.776	-66.602	362.974	1277.461	-68.822	432.140	1183.766	-101.632	383.321	1041.615	-104.892	384.769	762.525
-144.139	385.417	1223.163	-66.653	363.038	1277.646	-68.748	432.044	1183.755	-101.699	383.346	1041.752	-104.960	384.816	762.651
-144.127	385.347	1223.213	-66.782	363.416	1277.954	-68.760	432.101	1183.816	-101.811	383.376	1041.917	-104.970	384.949	762.640
-144.035	385.412	1223.276	-66.656	363.251	1278.037	-68.726	432.202	1183.945	-101.623	383.590	1042.031	-105.028	385.026	762.674
-144.035	385.428	1223.361	-66.695	363.309	1278.100	-68.793	432.274	1184.037	-101.791	383.476	1042.127	-105.053	385.070	762.835
-144.083	385.551	1223.523	-66.623	363.259	1278.114	-68.725	432.305	1184.132	-101.827	383.598	1042.219	-105.153	385.277	762.883
-144.062	385.534	1223.634	-66.597	363.398	1278.264	-68.709	432.343	1184.154	-101.799	383.607	1042.311	-105.193	385.293	763.062
-144.086	385.654	1223.730	-66.598	363.388	1278.308	-68.754	432.439	1184.254	-101.835	383.954	1042.458	-105.248	385.461	763.083
-144.073	385.664	1223.827	-66.596	363.297	1278.391	-68.709	432.390	1184.357	-101.927	383.814	1042.480	-105.365	385.497	763.168
-144.047	385.674	1223.839	-66.673	363.400	1278.523	-68.756	432.507	1184.475	-101.878	383.919	1042.515	-105.407	385.729	763.241
-144.025	385.666	1223.967	-66.648	363.428	1278.499	-68.716	432.528	1184.514	-101.664	384.056	1042.602	-105.446	385.907	763.359
-144.055	385.707	1224.049	-66.631	363.509	1278.749	-68.734	432.552	1184.666	-101.914	384.261	1042.704	-105.494	386.029	763.547
-143.989	385.671	1224.195	-66.636	363.420	1278.781	-68.709	432.575	1184.675	-101.870	384.045	1042.699	-105.507	386.204	763.619
-143.988	385.677	1224.233	-66.629	363.570	1278.885	-68.801	432.722	1184.857	-101.785	384.056	1042.811	-105.603	386.162	763.611
-144.052	385.882	1224.373	-66.640	363.615	1278.971	-68.756	432.721	1184.889	-101.880	384.080	1042.836	-105.677	386.360	763.726
-143.955	385.858	1224.480	-66.587	363.651	1279.140	-68.770	432.698	1184.849	-101.892	384.257	1043.045	-105.672	386.342	763.744
-144.186	385.793	1224.551	-66.644	363.653	1279.139	-68.814	432.821	1184.993	-101.818	384.201	1042.990	-105.677	386.473	763.876
-144.111	385.787	1224.629	-66.626	363.758	1279.245	-68.844	432.883	1185.099	-101.789	384.121	1043.128	-105.620	386.557	763.982
-144.151	385.903	1224.780	-66.657	363.752	1279.370	-68.752	432.886	1185.153	-101.928	384.248	1043.344	-105.653	386.644	763.980
-144.115	385.870	1224.865	-66.625	363.831	1279.508	-68.741	432.850	1185.220	-101.874	384.287	1043.442	-105.649	386.725	764.076
-144.149	385.907	1224.916	-66.651	363.832	1279.594	-68.796	432.758	1185.185	-101.915	384.271	1043.506	-105.763	387.019	764.232
-144.143	385.965	1225.013	-66.590	363.861	1279.693	-68.847	432.956	1185.336	-101.969	384.340	1043.607	-105.756	387.089	764.390
-144.141	386.016	1225.079	-66.614	363.966	1279.853	-68.828	432.927	1185.378	-102.007	384.320	1043.582	-105.693	387.054	764.426
-144.157	386.009	1225.241	-66.627	363.893	1279.858	-68.877	432.907	1185.458	-102.020	384.371	1043.723	-105.835	387.278	764.464
-144.182	386.128	1225.312	-66.653	363.803	1279.888	-68.914	433.039	1185.623	-102.029	384.479	1043.719	-105.821	387.351	764.620
-144.183	386.168	1225.471	-66.615	363.969	1280.022	-68.881	433.011	1185.641	-102.069	384.488	1043.832	-105.875	387.417	764.545
-144.193	386.182	1225.470	-66.641	364.091	1280.245	-68.898	433.081	1185.702	-102.035	384.511	1043.962	-105.858	387.363	764.610
-144.212	386.231	1225.606	-66.580	364.037	1280.147	-68.862	433.017	1185.720	-102.083	384.439	1043.933	-105.915	387.516	764.662
-144.231	386.289	1225.647	-66.629	364.018	1280.219	-68.890	433.134	1185.908	-102.117	384.608	1043.968	-105.943	387.616	764.700
-144.279	386.328	1225.720	-66.674	364.213	1280.410	-68.943	433.206	1185.960	-102.105	384.746	1044.061	-105.961	387.670	764.779
-144.270	386.406	1225.797	-66.664	364.227	1280.508	-68.885	433.258	1186.028	-102.075	384.710	1044.163	-106.033	387.701	764.895
-144.237	386.581	1225.903	-66.667	364.181	1280.373	-68.922	433.425	1186.143	-102.126	384.879	1044.354	-106.093	387.885	764.957
-144.242	386.612	1226.054	-66.667	364.277	1280.587	-68.935	433.436	1186.169	-102.167	384.974	1044.314	-106.117	387.983	764.968
-144.222	386.677	1226.002	-66.656	364.353	1280.645	-68.948	433.490	1186.221	-102.202	385.042	1044.354	-106.152	388.054	765.077
-144.254	386.776	1226.202	-66.689	364.444	1280.728	-68.847	433.303	1186.125	-102.206	385.096	1044.470	-106.243	388.178	765.091
-144.258	386.881	1226.216	-66.725	364.529	1280.846	-68.856	433.410	1186.223	-102.208	385.224	1044.506	-106.254	388.320	765.223
-144.238	387.066	1226.333	-66.725	364.661	1280.871	-68.869	433.548	1186.286	-102.271	385.236	1044.552	-106.353	388.406	765.189
-144.312	387.106	1226.388	-66.669	364.667	1280.988	-68.884	433.670	1186.459	-102.311	385.290	1044.651	-106.372	388.476	765.218
-144.298	387.143	1226.498	-66.680	364.657	1280.949	-68.858	433.537	1186.409	-102.281	385.467	1044.717	-106.400	388.523	765.267
-144.341	387.208	1226.565	-66.690	364.698	1281.019	-68.872	433.592	1186.456	-102.291	385.454	1044.667	-106.421	388.586	765.426
-144.240	387.099	1226.509	-66.669	364.740	1281.023	-68.873	433.665	1186.557	-102.322	385.439	1044.825	-106.438	388.683	765.418
-144.290	387.222	1226.550	-66.685	364.780	1281.159	-68.843	433.679	1186.553	-102.318	385.599	1044.848	-106.395	388.825	765.522
-144.278	387.302	1226.657	-66.658	364.795	1281.142	-68.924	433.739	1186.577	-102.349	385.610	1044.911	-106.419	388.773	765.567
-144.317	387.297	1226.656	-66.644	364.815	1281.145	-68.834	433.810	1186.679	-102.344	385.615	1044.927	-106.420	388.989	765.689
-144.292	387.250	1226.727	-66.642	364.813	1281.171	-68.894	433.872	1186.701	-102.355	385.700	1044.962	-106.494	389.022	765.602
-144.294	387.277	1226.824	-66.687	364.844	1281.268	-68.928	433.855	1186.770	-102.360	385.793	1045.059	-106.509	389.161	765.719
-144.298	387.457	1226.883	-66.681	364.871	1281.345	-68.957	433.897	1186.866	-102.393	385.912	1045.179	-106.462	389.249	765.791
-144.210	387.126	1226.785	-66.653	364.903	1281.395	-68.970	433.931	1186.909	-102.421	385.972	1045.220	-106.467	389.362	765.834
-144.274	387.298	1226.961	-66.643	364.907	1281.461	-69.019	434.046	1187.086	-102.481	385.999	1045.255	-106.480	389.409	765.945
-144.194	387.092	1226.923	-66.593	364.836	1281.555	-69.085	434.044	1187.181	-102.383	386.112	1045.282	-106.474	389.504	765.990
-144.159	387.189	1227.066	-66.617	364.757	1281.454	-69.035	433.983	1187.136	-102.517	386.096	1045.355	-106.479	389.550	766.091
-144.122	386.998	1227.046	-66.584	364.856	1281.656	-69.041	434.071	1187.299	-102.505	386.114	1045.412	-106.407	389.618	766.165
-144.119	386.772	1227.003	-66.619	364.948	1281.721	-69.072	434.117	1187.313	-102.413	386.183	1045.552	-106.442	389.705	766.174
-144.051	387.048	1227.314	-66.521	364.878	1281.811	-69.088	434.094	1187.421	-102.430	386.131	1045.611	-106.373	389.692	766.322
-143.993	386.960	1227.330	-66.513	364.913	1281.864	-69.106	434.060	1187.423	-102.453	386.253	1045.727	-106.290	389.782	766.460
-144.016	387.094	1227.460	-66.438	365.020	1281.844	-68.997	434.029	1187.500	-102.418	386.075	1045.633	-106.321	389.874	766.485
-143.982	387.006	1227.473	-66.419	365.061	1281.979	-69.155	434.065	1187.520	-102.442	386.266	1045.807	-106.313	389.924	766.560
-144.029	387.134	1227.629	-66.416	365.107	1281.994	-69.153	434.048	1187.547	-102.478	386.143	1045.842	-106.300	390.003	766.636
-144.036	387.228	1227.789	-66.387	365.155	1282.089	-69.137	434.110	1187.615	-102.459	386.187	1045.932	-106.304	390.044	766.675
-143.960	387.167	1227.795	-66.325	365.296	1282.055	-69.059	434.186	1187.703	-102.472	386.274	1045.943	-106.252	390.127	766.784
-144.010	387.348	1228.035	-66.381	365.385	1282.239	-69.151	434.130	1187.761	-102.524	386.153	1046.007	-106.305	389.986	766.857
-144.024	387.354	1228.047	-66.357	365.453	1282.329	-69.164	434.201	1187.747	-102.521	386.242	1046.120	-106.227	390.095	766.855
-144.024	387.331	1228.040	-66.273	365.399	1282.292	-69.193	434.131	1187.714	-102.461	386.216	1046.166	-106.180	390.095	767.001
-144.039	387.529	1228.256	-66.306	365.680	1282.451	-69.118	434.210	1187.765	-102.521	386.190	1046.133	-106.172	390.084	767.030
-144.057	387.575	1228.243	-66.279	365.694	1282.469	-69.202	434.316	1187.890	-102.507	386.233	1046.198	-106.204	390.157	767.011
-144.085	387.749	1228.495	-66.270	365.706	1282.524	-69.197	434.400	1187.946	-102.527	386.384	1046.275	-106.174	390.184	767.094
-144.063	387.792	1228.469	-66.288	365.879	1282.575	-69.291	434.452	1188.027	-102.496	386.414	1046.310	-106.222	390.300	767.138
-144.031	387.823	1228.525	-66.300	365.877	1282.573	-69.165	434.533	1187.995	-102.526	386.493	1046.359	-106.144	390.358	767.198
-144.054	387.902	1228.596	-66.299	365.895	1282.571	-69.220	434.567	1188.013	-102.518	386.607	1046.375	-106.190	390.400	767.284
-144.075	387.925	1228.579	-66.170	366.055	1282.660	-69.259	434.584	1188.019	-102.548	386.649	1046.456	-106.184	390.421	767.321
-144.092	388.062	1228.672	-66.241	366.048	1282.663	-69.225	434.672	1188.098	-102.587	386.695	1046.499	-106.185	390.501	767.326
-144.037	388.077	1228.689	-66.182	366.157	1282.675	-69.212	434.720	1188.150	-102.631	386.707	1046.474	-106.194	390.529	767.388
-144.071	388.214	1228.823	-66.186	366.128	1282.611	-69.160	434.855	1188.160	-102.629	386.751	1046.431	-106.125	390.555	767.392
-144.068	388.294	1228.900	-66.144	366.301	1282.727	-69.243	434.817	1188.149	-102.595	386.831	1046.521	-106.164	390.436	767.394
-144.116	388.363	1228.820	-66.161	366.401	1282.826	-69.205	434.920	1188.088	-102.653	386.882	1046.542	-106.090	390.581	767.421
-144.110	388.456	1228.868	-66.166	366.485	1282.846	-69.274	434.916	1188.186	-102.618	386.910	1046.578	-106.078	390.641	767.496
-144.070	388.450	1228.815	-66.160	366.461	1282.742	-69.252	435.063	1188.155	-102.639	386.942	1046.566	-106.040	390.715	767.495
-144.096	388.463	1228.871	-66.106	366.547	1282.809	-69.271	435.030	1188.138	-102.588	386.940	1046.559	-105.967	390.717	767.440
-144.095	388.514	1228.899	-66.173	366.480	1282.755	-69.271	435.012	1188.116	-102.576	386.985	1046.604	-105.950	390.699	767.435
-144.118	388.616	1228.986	-66.146	366.664	1282.950	-69.283	435.062	1188.074	-102.548	386.931	1046.546	-105.885	390.774	767.389
-144.150	388.633	1229.033	-66.154	366.628	1282.865	-69.251	435.087	1188.065	-102.589	387.023	1046.585	-105.802	390.857	767.411
-144.180	388.767	1228.994	-66.161	366.683	1282.865	-69.327	435.174	1188.040	-102.526	387.061	1046.631	-105.824	390.888	767.394
-144.177	388.629	1228.922	-66.115	366.730	1282.851	-69.319	435.155	1188.001	-102.550	387.031	1046.552	-105.734	390.931	767.367
-144.212	388.710	1228.959	-66.149	366.744	1282.794	-69.360	435.169	1187.974	-102.524	387.147	1046.518	-105.618	391.053	767.333
-144.132	388.723	1228.912	-66.120	366.732	1282.779	-69.339	435.170	1188.005	-102.515	387.236	1046.496	-105.616	391.093	767.296
-144.170	388.650	1228.787	-66.214	366.673	1282.722	-69.349	435.148	1187.910	-102.530	387.259	1046.461	-105.533	391.110	767.286
-144.182	388.680	1228.781	-66.228	366.664	1282.659	-69.335	435.271	1187.915	-102.501	387.283	1046.406	-105.568	391.285	767.255
-144.137	388.573	1228.686	-66.246	366.683	1282.567	-69.340	435.174	1187.812	-102.524	387.365	1046.397	-105.492	391.316	767.221
-144.268	388.776	1228.803	-66.252	366.665	1282.556	-69.350	435.155	1187.739	-102.485	387.388	1046.428	-105.380	391.276	767.212
-144.196	388.599	1228.549	-66.295	366.713	1282.527	-69.343	435.221	1187.729	-102.444	387.384	1046.294	-105.339	391.346	767.111
-144.206	388.526	1228.483	-66.371	366.617	1282.565	-69.409	435.182	1187.767	-102.447	387.366	1046.334	-105.271	391.420	767.151
-144.268	388.692	1228.496	-66.292	366.591	1282.411	-69.365	435.243	1187.843	-102.436	387.408	1046.257	-105.209	391.410	767.056
-144.239	388.615	1228.480	-66.359	366.592	1282.433	-69.388	435.229	1187.725	-102.376	387.427	1046.173	-105.164	391.416	766.978
-144.283	388.541	1228.356	-66.486	366.545	1282.339	-69.389	435.237	1187.687	-102.318	387.387	1046.113	-105.175	391.486	766.954
-144.328	388.583	1228.296	-66.434	366.674	1282.328	-69.417	435.292	1187.673	-102.364	387.433	1046.085	-105.083	391.508	766.957
-144.282	388.516	1228.173	-66.442	366.540	1282.227	-69.407	435.246	1187.643	-102.393	387.516	1046.047	-105.065	391.524	766.888
-144.348	388.644	1228.164	-66.510	366.523	1282.125	-69.395	435.200	1187.609	-102.379	387.516	1046.008	-105.023	391.542	766.762
-144.281	388.491	1228.019	-66.517	366.484	1282.135	-69.423	435.326	1187.604	-102.398	387.546	1045.942	-104.993	391.527	766.776
-144.329	388.574	1227.951	-66.561	366.402	1282.002	-69.404	435.188	1187.413	-102.345	387.709	1045.897	-104.934	391.562	766.721
-144.316	388.454	1227.821	-66.554	366.509	1282.037	-69.446	435.307	1187.484	-102.355	387.697	1045.845	-104.946	391.641	766.681
-144.432	388.598	1227.908	-66.508	366.461	1281.959	-69.413	435.234	1187.394	-102.303	387.806	1045.784	-104.879	391.589	766.553
-144.387	388.395	1227.735	-66.571	366.353	1281.830	-69.362	435.199	1187.324	-102.327	387.701	1045.728	-104.821	391.617	766.599
-144.422	388.524	1227.735	-66.620	366.431	1281.930	-69.459	435.235	1187.351	-102.350	387.713	1045.775	-104.817	391.626	766.507
-144.498	388.583	1227.783	-66.630	366.420	1281.791	-69.472	435.279	1187.329	-102.292	387.648	1045.689	-104.755	391.551	766.474
-144.417	388.382	1227.576	-66.611	366.386	1281.794	-69.468	435.175	1187.360	-102.286	387.587	1045.595	-104.725	391.566	766.336
-144.441	388.419	1227.541	-66.659	366.367	1281.695	-69.395	435.156	1187.207	-102.233	387.472	1045.559	-104.681	391.600	766.323
-144.487	388.327	1227.497	-66.677	366.305	1281.694	-69.451	435.110	1187.215	-102.250	387.481	1045.572	-104.596	391.503	766.288
-144.420	388.369	1227.408	-66.670	366.365	1281.616	-69.467	435.161	1187.185	-102.193	387.469	1045.548	-104.593	391.494	766.365
-144.484	388.352	1227.424	-66.644	366.368	1281.660	-69.452	435.046	1187.134	-102.227	387.465	1045.552	-104.553	391.426	766.270
-144.493	388.208	1227.415	-66.679	366.309	1281.586	-69.443	435.007	1187.093	-102.219	387.452	1045.508	-104.482	391.457	766.202
-144.473	388.226	1227.343	-66.698	366.283	1281.570	-69.512	435.162	1187.220	-102.192	387.465	1045.407	-104.430	391.438	766.139
-144.499	388.350	1227.413	-66.700	366.178	1281.553	-69.508	435.043	1187.163	-102.159	387.452	1045.442	-104.405	391.388	766.192
-144.488	388.337	1227.326	-66.699	366.123	1281.525	-69.503	435.017	1187.080	-102.157	387.531	1045.417	-104.354	391.433	766.135
-144.486	388.135	1227.187	-66.675	366.154	1281.569	-69.433	434.960	1186.991	-102.145	387.558	1045.432	-104.265	391.372	766.125
-144.406	388.290	1227.317	-66.703	366.123	1281.488	-69.453	434.944	1187.129	-102.173	387.387	1045.376	-104.233	391.165	766.116
-144.467	388.079	1227.242	-66.705	366.094	1281.515	-69.455	434.924	1187.039	-102.060	387.352	1045.356	-104.130	391.289	766.133
-144.475	388.089	1227.279	-66.636	366.167	1281.588	-69.390	434.784	1186.869	-102.064	387.371	1045.402	-104.072	391.214	766.035
-144.450	388.056	1227.279	-66.566	366.135	1281.538	-69.444	434.962	1187.098	-102.041	387.402	1045.389	-103.912	391.167	766.062
-144.459	388.038	1227.224	-66.679	366.154	1281.498	-69.454	434.910	1186.990	-101.941	387.333	1045.412	-103.866	391.061	766.088
-144.447	388.019	1227.236	-66.569	366.164	1281.534	-69.491	434.992	1187.083	-101.868	387.342	1045.392	-103.813	391.032	766.091
-144.454	388.206	1227.380	-66.561	366.162	1281.575	-69.461	435.020	1187.099	-101.886	387.199	1045.325	-103.736	391.063	766.074
-144.395	388.129	1227.377	-66.559	366.246	1281.568	-69.449	434.995	1187.102	-101.863	387.224	1045.369	-103.627	390.893	766.136
-144.351	388.133	1227.300	-66.500	366.187	1281.543	-69.382	435.018	1187.080	-101.808	387.296	1045.442	-103.581	390.994	766.072
-144.482	388.473	1227.468	-66.473	366.272	1281.659	-69.418	434.992	1187.085	-101.802	387.254	1045.325	-103.498	390.884	766.186
-144.312	388.333	1227.367	-66.461	366.339	1281.640	-69.419	435.222	1187.058	-101.717	387.285	1045.353	-103.363	390.816	766.179
-144.296	388.232	1227.363	-66.458	366.480	1281.691	-69.336	435.096	1187.039	-101.738	387.295	1045.425	-103.285	390.716	766.155
-144.302	388.493	1227.440	-66.429	366.509	1281.649	-69.358	435.277	1187.110	-101.586	387.338	1045.437	-103.245	390.643	766.175
-144.267	388.449	1227.436	-66.361	366.569	1281.703	-69.246	434.990	1186.977	-101.475	387.273	1045.329	-103.116	390.705	766.217
-144.330	388.972	1227.691	-66.377	366.567	1281.720	-69.270	435.150	1187.105	-101.467	387.335	1045.476	-103.003	390.610	766.342
-144.162	388.419	1227.536	-66.294	366.685	1281.802	-69.231	435.185	1187.076	-101.347	387.310	1045.407	-102.891	390.560	766.232
-144.129	388.449	1227.618	-66.336	366.732	1281.797	-69.061	434.968	1186.908	-101.392	387.334	1045.477	-102.834	390.496	766.317
-144.265	388.788	1227.728	-66.315	366.665	1281.789	-69.178	435.320	1187.187	-101.264	387.383	1045.497	-102.689	390.464	766.342
-144.031	388.494	1227.597	-66.272	366.746	1281.824	-69.147	435.267	1187.155	-101.212	387.374	1045.523	-102.611	390.365	766.379
-143.982	388.521	1227.714	-66.241	366.734	1281.877	-69.141	435.371	1187.177	-101.132	387.339	1045.578	-102.506	390.369	766.378
-143.967	388.607	1227.713	-66.199	366.673	1281.932	-69.103	435.342	1187.251	-101.125	387.456	1045.625	-102.356	390.236	766.502
-143.986	388.558	1227.701	-66.133	366.873	1281.994	-69.098	435.371	1187.284	-101.017	387.406	1045.559	-102.324	390.271	766.462
-143.901	388.568	1227.780	-66.094	366.824	1281.958	-69.046	435.408	1187.312	-100.979	387.384	1045.644	-102.190	390.210	766.549
-143.921	388.605	1227.783	-66.118	366.811	1282.079	-69.054	435.427	1187.350	-100.991	387.360	1045.685	-102.077	390.156	766.584
-143.861	388.768	1227.932	-66.079	366.983	1282.124	-69.023	435.536	1187.378	-100.823	387.486	1045.853	-101.995	390.188	766.593
-143.811	388.745	1227.917	-66.033	367.034	1282.244	-68.988	435.581	1187.401	-100.859	387.466	1045.765	-101.894	390.074	766.762
-143.827	388.861	1228.008	-66.018	367.110	1282.252	-68.966	435.567	1187.410	-100.845	387.477	1045.884	-101.891	390.062	766.697
-143.791	388.911	1228.097	-65.918	367.178	1282.430	-68.913	435.603	1187.487	-100.704	387.495	1045.941	-101.766	389.954	766.754
-143.746	388.996	1228.117	-65.903	367.217	1282.470	-68.893	435.758	1187.621	-100.619	387.519	1046.054	-101.725	389.951	766.853
-143.782	388.987	1228.186	-65.853	367.268	1282.491	-68.904	435.781	1187.667	-100.605	387.530	1046.057	-101.617	389.892	766.917
-143.749	389.015	1228.282	-65.805	367.273	1282.533	-68.888	435.863	1187.650	-100.552	387.615	1046.152	-101.641	389.946	766.883
-143.686	389.248	1228.461	-65.861	367.359	1282.633	-68.863	436.036	1187.775	-100.419	387.705	1046.235	-101.546	389.882	766.957
-143.700	389.298	1228.428	-65.722	367.381	1282.651	-68.814	436.074	1187.807	-100.434	387.739	1046.270	-101.525	389.866	767.027
-143.670	389.407	1228.555	-65.715	367.517	1282.701	-68.791	436.094	1187.842	-100.365	387.812	1046.307	-101.395	389.908	767.115
-143.645	389.474	1228.660	-65.760	367.644	1282.753	-68.802	436.317	1188.017	-100.365	387.817	1046.349	-101.302	389.742	767.141
-143.626	389.763	1228.809	-65.668	367.635	1282.795	-68.784	436.362	1188.069	-100.308	387.971	1046.491	-101.275	389.786	767.257
-143.633	389.905	1228.888	-65.619	367.761	1282.885	-68.789	436.476	1188.141	-100.288	387.954	1046.521	-101.167	389.787	767.265
-143.588	389.823	1228.832	-65.583	367.739	1282.911	-68.768	436.698	1188.267	-100.229	388.090	1046.623	-101.109	389.731	767.260
-143.582	390.147	1229.110	-65.479	367.644	1282.922	-68.725	436.752	1188.343	-100.171	388.170	1046.636	-101.138	389.639	767.313
-143.581	390.266	1229.187	-65.468	367.755	1282.873	-68.734	436.946	1188.375	-100.169	388.368	1046.772	-101.076	389.664	767.485
-143.531	390.379	1229.210	-65.395	367.895	1282.998	-68.679	437.066	1188.531	-100.148	388.435	1046.927	-101.008	389.670	767.401
-143.511	390.633	1229.397	-65.366	368.039	1283.088	-68.653	437.244	1188.704	-100.100	388.425	1046.888	-100.928	389.748	767.493
-143.435	390.762	1229.478	-65.315	368.040	1283.138	-68.620	437.268	1188.586	-100.043	388.534	1046.957	-100.846	389.662	767.544
-143.439	390.901	1229.617	-65.273	368.135	1283.245	-68.573	437.496	1188.882	-99.949	388.597	1047.091	-100.699	389.651	767.498
-143.414	391.136	1229.747	-65.231	368.266	1283.381	-68.549	437.539	1188.856	-99.912	388.586	1047.105	-100.596	389.723	767.717
-143.414	391.202	1229.882	-65.188	368.333	1283.368	-68.546	437.647	1188.931	-99.903	388.708	1047.199	-100.442	389.665	767.802
-143.368	391.380	1229.925	-65.161	368.407	1283.354	-68.480	437.705	1189.047	-99.876	388.722	1047.253	-100.374	389.654	767.800
-143.260	391.354	1229.964	-65.080	368.481	1283.451	-68.497	437.845	1189.090	-99.794	388.766	1047.358	-100.261	389.569	768.017
-143.210	391.427	1230.045	-65.036	368.658	1283.529	-68.293	437.954	1189.112	-99.777	388.802	1047.340	-100.120	389.590	768.088
-143.181	391.631	1230.207	-65.033	368.763	1283.642	-68.373	437.971	1189.226	-99.863	389.111	1047.672	-100.067	389.817	768.323
-143.130	391.680	1230.188	-64.944	368.950	1283.774	-68.347	438.080	1189.259	-99.766	389.124	1047.733	-99.935	389.620	768.235
-143.071	391.681	1230.314	-64.936	368.835	1283.725	-68.311	438.124	1189.352	-99.683	389.043	1047.755	-99.837	389.718	768.383
-143.059	392.052	1230.570	-64.897	368.947	1283.747	-68.303	438.266	1189.560	-99.675	389.137	1047.825	-99.712	389.580	768.493
-143.033	391.860	1230.481	-64.832	369.212	1283.917	-68.123	438.293	1189.468	-99.580	389.127	1047.911	-99.632	389.543	768.624
-143.012	391.935	1230.570	-64.809	369.250	1283.999	-68.157	438.446	1189.563	-99.503	389.074	1047.914	-99.554	389.448	768.703
-142.931	391.987	1230.643	-64.817	369.437	1284.054	-68.117	438.502	1189.657	-99.420	389.231	1048.126	-99.437	389.529	768.779
-142.908	392.038	1230.725	-64.825	369.481	1284.079	-68.210	438.508	1189.685	-99.394	389.237	1048.152	-99.401	389.432	768.871
-142.900	392.173	1230.846	-64.753	369.566	1284.148	-68.111	438.592	1189.742	-99.352	389.285	1048.182	-99.366	389.418	768.902
-142.802	392.107	1230.770	-64.727	369.499	1284.132	-68.093	438.681	1189.821	-99.337	389.395	1048.308	-99.236	389.346	768.951
-142.771	392.187	1230.883	-64.665	369.534	1284.177	-68.013	438.818	1189.969	-99.313	389.406	1048.253	-99.198	389.352	769.034
-142.773	392.261	1230.931	-64.596	369.596	1284.217	-68.001	438.973	1190.176	-99.240	389.446	1048.410	-99.157	389.261	769.101
-142.763	392.346	1231.059	-64.649	369.806	1284.322	-67.974	439.028	1190.192	-99.217	389.531	1048.456	-99.061	389.227	769.252
-142.730	392.403	1231.076	-64.516	369.702	1284.313	-67.920	439.324	1190.407	-99.176	389.531	1048.484	-99.028	389.226	769.247
-142.689	392.487	1231.095	-64.576	369.718	1284.257	-67.903	439.271	1190.493	-99.150	389.608	1048.597	-98.906	389.178	769.384
-142.648	392.481	1231.158	-64.522	369.801	1284.444	-67.911	439.513	1190.631	-99.166	389.691	1048.631	-98.852	389.157	769.439
-142.631	392.624	1231.223	-64.514	369.830	1284.432	-67.860	439.607	1190.825	-99.102	389.761	1048.713	-98.803	389.004	769.496
-142.662	392.666	1231.361	-64.457	369.799	1284.506	-67.949	439.616	1190.864	-99.078	389.791	1048.860	-98.664	389.031	769.596
-142.552	392.732	1231.376	-64.462	369.872	1284.577	-67.895	439.797	1191.055	-99.049	389.821	1048.891	-98.585	389.002	769.728
-142.561	392.841	1231.475	-64.417	370.013	1284.582	-67.878	439.956	1191.252	-98.979	389.901	1048.944	-98.544	388.914	769.815
-142.557	392.953	1231.575	-64.378	369.976	1284.646	-67.894	440.076	1191.291	-98.948	389.950	1049.100	-98.446	388.825	769.908
-142.516	392.934	1231.624	-64.318	370.169	1284.744	-67.859	440.122	1191.311	-98.953	389.909	1049.087	-98.416	388.877	770.100
-142.509	393.064	1231.648	-64.288	370.167	1284.754	-67.819	440.116	1191.339	-98.938	390.025	1049.205	-98.344	388.750	770.094
-142.487	393.127	1231.875	-64.270	370.313	1284.904	-67.843	440.229	1191.532	-98.893	390.031	1049.398	-98.244	388.785	770.270
-142.423	393.150	1231.847	-64.177	370.443	1284.923	-67.779	440.243	1191.561	-98.817	390.044	1049.403	-98.183	388.678	770.377
-142.451	393.256	1232.021	-64.227	370.490	1285.006	-67.762	440.305	1191.605	-98.787	390.163	1049.557	-98.102	388.601	770.474
-142.406	393.348	1232.090	-64.091	370.586	1285.005	-67.792	440.393	1191.714	-98.657	390.157	1049.669	-98.063	388.648	770.639
-142.380	393.418	1232.128	-64.019	370.698	1285.197	-67.737	440.450	1191.869	-98.595	390.113	1049.675	-97.998	388.689	770.727
-142.344	393.570	1232.233	-64.038	370.685	1285.170	-67.732	440.424	1191.874	-98.539	390.108	1049.762	-97.882	388.639	770.884
-142.306	393.530	1232.324	-63.983	370.791	1285.250	-67.662	440.622	1191.965	-98.435	390.203	1049.859	-97.793	388.636	770.906
-142.282	393.592	1232.414	-63.929	370.999	1285.382	-67.713	440.696	1192.180	-98.398	390.281	1050.028	-97.695	388.594	771.018
-142.296	393.660	1232.395	-63.892	370.940	1285.420	-67.630	440.681	1192.128	-98.238	390.251	1050.071	-97.649	388.531	771.080
-142.196	393.678	1232.544	-63.814	370.896	1285.422	-67.638	440.777	1192.358	-98.208	390.211	1050.172	-97.564	388.527	771.210
-142.221	393.758	1232.635	-63.791	370.964	1285.479	-67.591	440.892	1192.437	-98.155	390.286	1050.212	-97.473	388.468	771.280
-142.181	393.825	1232.707	-63.806	370.941	1285.614	-67.559	440.930	1192.525	-98.059	390.336	1050.337	-97.391	388.481	771.387
-142.176	393.897	1232.786	-63.746	370.958	1285.611	-67.537	441.010	1192.682	-98.035	390.403	1050.394	-97.267	388.442	771.509
-142.120	393.843	1232.773	-63.651	370.991	1285.630	-67.508	441.009	1192.787	-97.902	390.406	1050.464	-97.165	388.444	771.621
-142.156	394.000	1232.872	-63.739	371.085	1285.829	-67.504	441.151	1192.910	-97.922	390.522	1050.600	-97.063	388.489	771.632
-142.100	394.111	1233.008	-63.753	371.072	1285.879	-67.401	441.174	1193.091	-97.848	390.538	1050.682	-96.968	388.485	771.723
-142.050	394.056	1232.966	-63.709	371.112	1285.938	-67.357	441.187	1193.127	-97.799	390.617	1050.729	-96.838	388.392	771.857
-142.070	394.132	1233.084	-63.687	371.164	1286.073	-67.311	441.404	1193.336	-97.759	390.733	1050.869	-96.813	388.495	771.929
-142.091	394.311	1233.120	-63.623	371.145	1286.120	-67.276	441.334	1193.424	-97.736	390.793	1050.865	-96.767	388.433	771.958
-141.987	394.281	1233.239	-63.619	371.148	1286.051	-67.280	441.455	1193.465	-97.634	390.892	1050.954	-96.588	388.424	772.098
-142.051	394.307	1233.292	-63.532	371.236	1286.211	-67.252	441.548	1193.648	-97.598	390.947	1051.139	-96.541	388.427	772.195
-141.925	394.390	1233.410	-63.542	371.299	1286.323	-67.166	441.626	1193.827	-97.529	391.086	1051.221	-96.458	388.549	772.293
-141.972	394.474	1233.542	-63.517	371.453	1286.454	-67.157	441.622	1193.887	-97.556	391.001	1051.222	-96.460	388.457	772.353
-141.966	394.557	1233.648	-63.505	371.363	1286.410	-67.125	441.760	1193.962	-97.468	391.114	1051.359	-96.352	388.519	772.498
-141.977	394.745	1233.698	-63.442	371.528	1286.514	-67.088	441.830	1194.004	-97.428	391.146	1051.456	-96.371	388.532	772.515
-141.936	394.747	1233.816	-63.433	371.600	1286.627	-67.107	441.876	1194.164	-97.399	391.264	1051.584	-96.246	388.540	772.608
-141.966	394.874	1233.859	-63.377	371.629	1286.686	-66.989	441.844	1194.245	-97.368	391.311	1051.694	-96.145	388.558	772.736
-141.960	394.959	1233.982	-63.317	371.680	1286.811	-67.023	441.958	1194.374	-97.358	391.422	1051.806	-96.124	388.580	772.838
-141.910	395.001	1234.037	-63.330	371.775	1286.861	-66.999	442.126	1194.435	-97.345	391.500	1051.888	-96.055	388.530	772.852
-141.885	395.090	1234.153	-63.387	371.814	1286.965	-66.929	442.051	1194.506	-97.329	391.535	1051.948	-95.974	388.562	772.971
-141.840	395.100	1234.178	-63.345	371.896	1287.025	-66.892	442.110	1194.585	-97.305	391.697	1052.092	-95.954	388.706	773.222
-141.845	395.202	1234.377	-63.283	371.915	1287.050	-66.912	442.149	1194.686	-97.225	391.701	1052.247	-95.923	388.683	773.201
-141.849	395.257	1234.321	-63.262	371.983	1287.077	-66.880	442.334	1194.848	-97.275	391.740	1052.309	-95.874	388.665	773.380
-141.807	395.357	1234.465	-63.247	372.137	1287.253	-66.959	442.463	1194.965	-97.182	391.699	1052.268	-95.836	388.668	773.344
-141.805	395.475	1234.477	-63.243	372.051	1287.232	-66.851	442.437	1195.044	-97.160	391.781	1052.499	-95.768	388.769	773.502
-141.770	395.566	1234.668	-63.263	372.151	1287.393	-66.843	442.534	1195.218	-97.136	391.738	1052.499	-95.774	388.664	773.622
-141.820	395.652	1234.784	-63.207	372.233	1287.428	-66.808	442.567	1195.225	-97.072	391.818	1052.550	-95.638	388.702	773.741
-141.823	395.702	1234.833	-63.234	372.224	1287.514	-66.770	442.594	1195.284	-97.068	391.917	1052.617	-95.619	388.711	773.710
-141.808	395.779	1234.907	-63.118	372.233	1287.468	-66.766	442.581	1195.387	-97.019	391.997	1052.838	-95.606	388.805	773.910
-141.797	395.988	1235.024	-63.157	372.323	1287.675	-66.775	442.794	1195.542	-96.996	392.018	1052.839	-95.560	388.802	773.969
-141.690	395.899	1235.078	-63.131	372.338	1287.716	-66.765	442.675	1195.486	-96.994	392.072	1052.887	-95.453	388.805	774.000
-141.686	396.010	1235.185	-63.088	372.454	1287.756	-66.706	442.539	1195.509	-96.955	391.985	1053.012	-95.426	388.812	774.092
-141.745	396.020	1235.286	-63.084	372.411	1287.748	-66.718	442.639	1195.696	-96.911	392.085	1053.100	-95.380	388.746	774.151
-141.695	396.046	1235.341	-63.115	372.505	1287.910	-66.764	442.775	1195.809	-96.939	392.030	1053.212	-95.374	388.847	774.121
-141.669	396.114	1235.401	-63.063	372.597	1287.907	-66.699	442.731	1195.826	-96.881	392.020	1053.156	-95.367	388.752	774.258
-141.643	396.192	1235.452	-63.020	372.600	1287.945	-66.639	442.732	1195.818	-96.847	392.194	1053.416	-95.322	388.891	774.386
-141.662	396.260	1235.566	-63.077	372.620	1288.005	-66.611	442.788	1195.929	-96.764	392.166	1053.316	-95.211	388.830	774.444
-141.648	396.354	1235.628	-63.079	372.862	1288.213	-66.667	442.867	1195.925	-96.780	392.203	1053.471	-95.160	388.813	774.461
-141.634	396.380	1235.639	-63.010	372.834	1288.284	-66.582	442.830	1196.032	-96.750	392.266	1053.490	-95.119	388.853	774.578
-141.583	396.390	1235.693	-63.021	372.948	1288.247	-66.578	442.930	1196.038	-96.670	392.291	1053.531	-95.051	388.838	774.613
-141.630	396.504	1235.802	-63.069	372.981	1288.417	-66.537	443.003	1196.100	-96.688	392.320	1053.594	-95.059	388.945	774.675
-141.585	396.440	1235.777	-62.982	373.007	1288.371	-66.549	442.933	1196.191	-96.732	392.289	1053.574	-94.991	388.902	774.704
-141.584	396.626	1235.971	-62.975	372.995	1288.499	-66.475	442.979	1196.265	-96.675	392.372	1053.640	-95.037	388.940	774.758
-141.502	396.573	1235.932	-62.978	373.001	1288.504	-66.475	442.973	1196.256	-96.698	392.335	1053.643	-94.927	388.964	774.803
-141.559	396.544	1235.922	-62.964	373.080	1288.590	-66.512	442.974	1196.290	-96.647	392.384	1053.655	-94.841	388.924	774.899
-141.520	396.591	1235.985	-62.943	373.024	1288.499	-66.528	443.075	1196.326	-96.558	392.353	1053.779	-94.827	388.998	774.791
-141.503	396.580	1236.010	-62.938	372.965	1288.522	-66.470	442.935	1196.292	-96.576	392.377	1053.746	-94.800	388.860	774.795
-141.488	396.491	1235.971	-62.914	373.008	1288.622	-66.491	443.004	1196.316	-96.516	392.335	1053.764	-94.718	388.927	774.814
-141.507	396.540	1236.097	-62.904	373.023	1288.681	-66.508	442.975	1196.403	-96.505	392.300	1053.816	-94.695	388.913	774.917
-141.589	396.544	1236.078	-62.977	372.959	1288.669	-66.474	442.934	1196.346	-96.484	392.312	1053.829	-94.685	388.844	774.849
-141.565	396.492	1236.014	-62.921	372.937	1288.578	-66.460	442.899	1196.396	-96.411	392.241	1053.781	-94.618	388.916	774.906
-141.541	396.522	1236.141	-62.878	372.940	1288.647	-66.479	442.916	1196.393	-96.433	392.301	1053.859	-94.631	388.986	774.852
-141.498	396.500	1236.059	-62.881	372.924	1288.540	-66.567	442.941	1196.392	-96.473	392.252	1053.852	-94.550	388.946	774.934
-141.464	396.347	1235.987	-62.895	372.880	1288.518	-66.607	442.971	1196.379	-96.466	392.229	1053.706	-94.543	388.960	774.826
-141.525	396.456	1236.018	-62.873	372.878	1288.486	-66.544	442.918	1196.232	-96.454	392.201	1053.749	-94.506	388.923	774.858
-141.535	396.378	1235.973	-62.876	372.925	1288.542	-66.598	442.858	1196.267	-96.477	392.249	1053.769	-94.554	388.930	774.840
-141.538	396.376	1235.987	-62.847	372.879	1288.397	-66.554	442.888	1196.209	-96.474	392.274	1053.762	-94.475	388.932	774.837
-141.572	396.373	1235.949	-62.782	372.882	1288.459	-66.615	442.885	1196.154	-96.502	392.191	1053.675	-94.529	388.996	774.751
-141.544	396.333	1235.876	-62.902	372.883	1288.321	-66.557	442.865	1196.070	-96.514	392.243	1053.661	-94.453	388.943	774.791
-141.570	396.435	1235.911	-62.785	372.716	1288.184	-66.586	442.818	1195.950	-96.442	392.183	1053.597	-94.502	388.969	774.702
-141.607	396.341	1235.778	-62.932	373.044	1288.271	-66.667	442.845	1195.842	-96.543	392.198	1053.585	-94.519	389.012	774.648
-141.510	396.425	1235.796	-62.806	372.816	1288.074	-66.683	442.865	1195.767	-96.495	392.208	1053.418	-94.476	388.960	774.531
-141.526	396.377	1235.667	-62.886	372.838	1287.960	-66.755	442.802	1195.591	-96.498	392.238	1053.472	-94.512	388.904	774.433
-141.472	396.478	1235.576	-62.821	372.922	1287.818	-66.751	442.966	1195.477	-96.482	392.175	1053.324	-94.531	389.008	774.309
-141.551	396.458	1235.430	-62.865	372.913	1287.751	-66.736	442.876	1195.375	-96.527	392.177	1053.224	-94.499	389.021	774.196
-141.533	396.587	1235.389	-62.872	372.954	1287.604	-66.767	443.018	1195.195	-96.538	392.053	1053.057	-94.504	389.088	774.146
-141.588	396.548	1235.182	-62.855	373.006	1287.535	-66.777	443.063	1194.925	-96.573	392.184	1052.915	-94.503	389.107	773.982
-141.565	396.594	1235.164	-62.854	373.092	1287.428	-66.794	443.098	1194.803	-96.599	392.105	1052.783	-94.539	389.145	773.919
-141.558	396.583	1234.989	-62.870	373.169	1287.257	-66.788	442.992	1194.529	-96.628	392.108	1052.543	-94.567	389.172	773.676
-141.558	396.590	1234.844	-62.855	373.135	1287.134	-66.782	442.957	1194.215	-96.614	392.022	1052.283	-94.579	389.186	773.515
-141.562	396.596	1234.650	-62.851	373.244	1286.976	-66.836	443.016	1193.904	-96.718	392.203	1052.164	-94.569	389.143	773.350
-141.633	396.620	1234.485	-62.798	373.340	1286.770	-66.729	442.793	1193.483	-96.760	392.240	1051.997	-94.669	389.143	773.080
-141.512	396.523	1234.177	-62.782	373.219	1286.551	-66.787	442.814	1193.145	-96.725	392.153	1051.605	-94.730	389.311	772.905
-141.549	396.445	1233.919	-62.888	373.409	1286.287	-66.770	442.940	1192.779	-96.700	392.052	1051.377	-94.710	389.210	772.508
-141.564	396.485	1233.716	-62.907	373.461	1286.215	-66.801	442.823	1192.351	-96.662	392.058	1051.080	-94.703	389.111	772.070
-141.573	396.365	1233.357	-62.983	373.448	1286.011	-66.827	442.770	1191.838	-96.658	391.964	1050.707	-94.678	389.042	771.760
-141.593	396.269	1233.041	-63.016	373.542	1285.787	-66.909	442.687	1191.481	-96.697	392.001	1050.488	-94.707	389.150	771.273
-141.528	396.145	1232.645	-63.080	373.503	1285.516	-66.782	442.582	1191.115	-96.763	391.899	1050.128	-94.610	389.086	770.978
-141.484	396.139	1232.369	-63.119	373.517	1285.321	-66.815	442.402	1190.712	-96.715	391.864	1049.720	-94.558	388.979	770.420
-141.506	396.053	1231.898	-63.083	373.447	1284.962	-66.786	442.324	1190.318	-96.784	391.782	1049.286	-94.568	388.893	769.924
-141.531	395.877	1231.557	-63.145	373.330	1284.649	-66.777	442.076	1190.000	-96.731	391.773	1048.927	-94.451	388.979	769.528
-141.576	395.800	1231.176	-63.167	373.221	1284.331	-66.811	442.159	1189.796	-96.752	391.614	1048.441	-94.478	389.008	769.021
-141.519	395.803	1230.808	-63.216	373.166	1283.892	-66.846	442.073	1189.462	-96.683	391.565	1047.989	-94.386	389.087	768.538
-141.829	396.194	1230.514	-63.290	373.092	1283.532	-66.915	442.028	1189.117	-96.701	391.458	1047.438	-94.471	389.310	768.176
-141.837	396.141	1230.086	-63.378	373.027	1283.043	-66.856	441.950	1188.716	-96.752	391.572	1046.994	-94.418	389.435	767.780
-141.875	396.272	1229.494	-63.453	372.898	1282.542	-66.904	441.908	1188.368	-96.663	391.417	1046.390	-94.503	389.526	767.393
-141.958	396.289	1228.891	-63.373	373.050	1281.989	-66.915	441.993	1187.882	-96.683	391.541	1045.841	-94.538	389.608	766.908
-142.068	396.236	1228.199	-63.595	373.416	1281.583	-66.937	441.918	1187.266	-96.628	391.548	1045.422	-94.486	389.756	766.550
-142.205	396.229	1227.773	-63.585	372.950	1280.865	-66.979	441.943	1186.906	-96.693	391.547	1044.964	-94.564	389.665	766.219
-142.256	395.987	1227.229	-63.660	372.751	1280.245	-67.001	441.931	1186.509	-96.730	391.569	1044.520	-94.391	389.814	765.897
-142.347	396.048	1226.805	-63.719	372.617	1279.758	-67.103	441.863	1186.007	-96.794	391.583	1044.056	-94.485	389.941	765.532
-142.297	395.885	1226.305	-63.782	372.513	1279.254	-67.170	441.893	1185.420	-96.829	391.551	1043.628	-94.537	390.158	765.027
-142.279	395.594	1225.693	-63.902	372.274	1278.571	-67.247	441.836	1184.900	-96.918	391.569	1043.292	-94.603	390.098	764.539
-142.316	395.485	1225.202	-63.950	372.181	1277.982	-67.391	441.722	1184.275	-96.906	391.388	1042.740	-94.713	390.224	763.973
-142.339	395.333	1224.627	-63.960	372.078	1277.443	-67.444	441.854	1183.981	-96.894	391.310	1042.396	-94.786	390.404	763.466
-142.376	395.177	1224.060	-64.034	371.767	1276.841	-67.386	441.462	1183.247	-96.917	391.267	1041.848	-94.827	390.417	762.909
-142.467	395.017	1223.479	-64.120	371.746	1276.203	-67.482	441.207	1182.683	-96.961	391.164	1041.188	-94.806	390.352	762.290
-142.430	394.613	1222.674	-64.265	371.682	1275.612	-67.462	440.874	1182.024	-97.056	391.126	1040.438	-94.887	390.461	761.627
-142.467	394.506	1222.039	-64.283	371.668	1275.059	-67.455	440.579	1181.373	-97.091	390.735	1039.746	-95.023	390.568	760.809
-142.391	394.553	1221.190	-64.339	371.634	1274.403	-67.435	440.339	1180.667	-97.107	390.632	1039.063	-95.105	390.710	760.032
-142.469	394.677	1220.256	-64.398	371.752	1273.779	-67.390	439.887	1179.723	-97.105	390.367	1038.311	-95.044	390.537	758.939
-142.560	394.685	1219.418	-64.578	371.786	1273.141	-67.403	439.684	1179.015	-97.238	390.257	1037.471	-95.044	390.464	758.093
-142.758	394.933	1218.745	-64.656	371.754	1272.538	-67.413	439.741	1178.233	-97.349	390.187	1036.681	-94.928	390.305	757.171
-142.806	394.827	1218.134	-64.806	371.922	1271.853	-67.402	439.891	1177.386	-97.330	390.064	1035.759	-95.005	390.301	756.431
-142.902	394.696	1217.302	-64.912	371.810	1271.247	-67.465	439.994	1176.521	-97.337	390.155	1034.967	-95.117	390.378	755.734
-142.899	394.638	1216.530	-65.002	371.827	1270.564	-67.488	440.138	1175.772	-97.325	390.050	1034.022	-95.256	390.385	754.989
-142.873	394.622	1215.968	-65.040	371.867	1269.941	-67.499	440.298	1174.986	-97.308	390.140	1033.318	-95.358	390.479	754.243
-142.981	394.597	1215.365	-65.065	372.032	1269.245	-67.514	440.192	1174.329	-97.381	390.269	1032.695	-95.373	390.507	753.655
-142.989	394.399	1214.595	-65.207	372.019	1268.463	-67.507	440.155	1173.605	-97.431	390.386	1032.062	-95.378	390.694	753.108
-143.041	394.422	1213.805	-65.211	372.117	1267.655	-67.544	440.050	1172.980	-97.535	390.515	1031.298	-95.539	390.850	752.488
-143.029	394.530	1212.767	-65.219	371.989	1266.711	-67.506	439.882	1172.220	-97.590	390.513	1030.537	-95.635	391.108	751.899
-143.001	394.744	1211.449	-65.242	372.090	1265.494	-67.440	439.888	1171.432	-97.678	390.566	1029.629	-95.660	391.121	750.885
-143.122	394.689	1210.504	-65.523	372.073	1264.394	-67.532	439.838	1170.072	-97.886	390.625	1028.669	-95.809	391.123	750.022
-143.145	394.757	1209.731	-65.600	372.058	1263.440	-67.562	439.727	1168.622	-97.862	390.473	1027.850	-95.832	391.210	749.089
-143.130	394.730	1208.692	-65.637	372.141	1262.814	-67.554	439.626	1167.221	-97.831	390.554	1027.033	-95.647	391.020	747.978
-143.111	394.930	1207.898	-65.874	372.398	1262.236	-67.481	439.622	1166.185	-97.900	390.452	1025.995	-95.739	390.983	746.785
-143.439	395.141	1207.119	-65.862	372.287	1261.293	-67.527	439.538	1165.472	-97.874	390.369	1025.068	-95.810	391.092	745.634
-143.480	395.133	1206.133	-65.916	372.414	1260.311	-67.511	439.341	1164.635	-97.942	390.305	1024.085	-95.843	391.108	744.621
-143.333	394.959	1204.601	-65.900	372.623	1259.547	-67.524	439.184	1163.829	-97.987	390.113	1022.829	-95.782	391.148	743.598
-143.657	395.452	1203.615	-66.059	372.806	1258.317	-67.591	439.191	1163.130	-97.905	389.785	1021.553	-95.854	391.125	742.583
-143.636	395.204	1202.530	-66.246	372.997	1257.230	-67.541	439.078	1162.062	-97.781	389.577	1020.302	-95.927	391.194	741.539
-143.572	394.678	1201.451	-66.306	372.862	1256.174	-67.686	439.148	1160.843	-97.872	389.670	1019.385	-95.883	391.301	740.579
-143.464	394.665	1200.309	-66.286	372.698	1255.193	-67.765	439.201	1159.478	-97.866	389.586	1018.515	-95.819	391.416	739.992
-143.541	394.479	1199.258	-66.337	372.458	1254.066	-67.657	439.062	1158.025	-98.040	389.624	1017.407	-96.006	391.636	739.007
-143.619	394.481	1198.288	-66.454	372.237	1252.839	-67.653	438.460	1156.447	-98.191	389.701	1016.386	-96.067	391.551	737.648
-143.696	395.025	1197.208	-66.628	372.265	1251.868	-67.720	438.262	1155.374	-98.302	389.660	1015.331	-96.080	391.481	736.226
-143.871	395.306	1195.798	-66.657	372.654	1250.565	-67.618	438.059	1154.282	-98.356	389.479	1014.226	-96.006	391.336	734.917
-144.075	395.149	1194.580	-66.755	372.972	1249.430	-67.603	437.969	1153.067	-98.312	389.177	1012.647	-96.049	391.362	733.702
-144.151	394.911	1193.415	-66.876	372.777	1248.438	-67.805	438.164	1151.988	-98.172	389.233	1011.153	-96.136	391.398	732.437
-144.034	394.525	1192.104	-66.881	372.827	1247.346	-67.878	438.068	1150.528	-98.355	388.898	1009.797	-96.180	391.492	731.246
-144.166	394.302	1190.925	-67.067	372.979	1246.333	-67.851	437.939	1149.570	-98.291	388.928	1008.791	-96.302	391.317	729.869
-144.185	394.240	1189.610	-67.255	372.812	1245.182	-67.881	437.634	1148.477	-98.449	388.962	1007.812	-96.261	391.478	728.892
-144.201	394.605	1188.149	-67.349	372.944	1243.948	-67.853	437.270	1147.103	-98.614	388.980	1006.695	-96.386	391.653	727.984
-144.371	394.641	1187.052	-67.536	372.928	1242.351	-67.761	436.639	1145.529	-98.660	388.935	1005.739	-96.559	391.815	726.825
-144.409	394.385	1185.896	-67.642	372.871	1241.343	-67.736	436.577	1144.029	-98.866	388.926	1004.660	-96.661	391.866	725.359
-144.737	394.660	1184.886	-67.880	372.706	1240.202	-67.924	436.349	1142.539	-98.956	389.208	1003.526	-96.728	391.549	723.734
-144.734	394.172	1183.507	-67.913	372.482	1238.952	-68.038	436.186	1141.082	-98.979	389.467	1002.157	-96.754	391.618	722.370
-144.682	393.579	1182.128	-68.059	372.364	1237.775	-68.100	436.076	1139.684	-98.907	389.298	1000.614	-96.963	391.864	721.405
-144.633	393.147	1180.604	-68.085	372.235	1236.535	-68.100	435.787	1138.600	-98.977	389.145	998.931	-97.012	391.956	719.948
-144.773	393.427	1178.929	-68.119	372.348	1235.523	-68.141	435.494	1137.566	-99.040	389.007	997.401	-97.109	392.202	718.659
-144.965	393.448	1177.596	-68.426	372.529	1234.209	-68.209	435.268	1136.229	-99.018	388.779	996.222	-97.226	392.326	717.483
-144.986	393.122	1176.350	-68.832	372.305	1232.799	-68.059	434.803	1134.454	-99.157	388.827	995.041	-97.343	392.267	716.039
-144.927	392.901	1175.021	-68.834	372.080	1231.379	-68.063	434.695	1132.542	-99.221	388.915	993.527	-97.496	392.244	714.975
-145.092	392.801	1173.854	-68.986	371.884	1230.216	-68.193	434.236	1130.877	-99.395	388.750	992.197	-97.641	391.968	713.303
-145.096	392.357	1172.171	-69.069	371.578	1228.648	-68.160	433.899	1129.873	-99.665	388.861	991.135	-97.862	391.807	711.563
-145.333	392.301	1170.374	-69.033	371.308	1227.425	-68.110	433.598	1128.924	-99.649	388.483	989.720	-97.651	391.775	710.489
-145.467	392.196	1169.124	-69.210	371.278	1225.802	-68.153	433.520	1127.996	-99.587	388.201	988.202	-97.818	392.046	709.162
-145.414	392.103	1167.985	-69.384	371.215	1224.655	-68.091	433.019	1126.877	-99.478	387.674	986.481	-97.995	392.057	707.755
-145.358	391.814	1166.773	-69.567	371.102	1223.682	-67.991	433.047	1125.716	-99.432	387.364	985.087	-98.221	392.178	706.452
-145.409	391.558	1165.562	-69.704	371.058	1222.725	-67.979	433.023	1124.276	-99.456	387.409	983.948	-98.323	392.264	705.143
-145.454	391.216	1164.152	-69.984	371.038	1221.776	-67.974	433.016	1122.487	-99.683	387.509	982.897	-98.415	392.245	703.654
-145.467	391.072	1162.515	-70.275	370.850	1220.654	-67.893	432.538	1120.926	-99.743	387.701	981.681	-98.553	392.019	702.555
-145.781	391.351	1160.938	-70.462	370.659	1219.409	-67.889	432.489	1119.860	-99.792	387.769	980.588	-98.420	391.843	701.285
-145.770	391.129	1159.601	-70.499	370.698	1217.898	-67.930	432.430	1118.858	-99.948	387.966	979.596	-98.602	391.818	699.923
-145.783	391.063	1158.508	-70.665	370.461	1216.485	-67.903	431.815	1117.687	-100.046	388.213	978.643	-98.708	392.106	698.738
-145.867	390.933	1157.292	-70.944	370.084	1215.223	-67.834	431.862	1116.796	-100.123	388.019	977.227	-98.946	392.304	697.784
-145.926	390.763	1156.146	-71.113	370.074	1214.367	-67.836	431.959	1115.698	-100.447	388.008	975.688	-99.002	392.407	696.862
-145.869	390.916	1155.156	-71.288	370.073	1213.485	-67.925	432.153	1114.650	-100.423	387.727	974.708	-99.086	392.758	695.901
-146.090	390.995	1153.750	-71.465	370.115	1212.703	-67.977	432.286	1113.750	-100.501	387.535	973.469	-99.229	392.846	694.844
-146.146	390.744	1152.640	-71.580	370.212	1212.038	-67.908	432.202	1113.146	-100.426	387.343	972.496	-99.253	392.670	693.805
-146.092	390.528	1151.641	-71.636	370.547	1211.351	-67.836	432.023	1112.391	-100.317	387.371	971.663	-99.359	392.423	693.093
-146.330	391.110	1151.143	-71.937	370.645	1210.299	-67.624	431.348	1111.218	-100.343	387.292	970.864	-99.182	392.313	692.374
-146.339	390.782	1150.106	-72.225	370.901	1209.754	-67.571	431.242	1110.306	-100.355	387.333	970.301	-99.454	392.421	691.491
-146.362	390.921	1149.475	-72.453	371.016	1209.061	-67.630	431.259	1109.643	-100.559	387.274	969.415	-99.478	392.100	690.498
-146.442	390.750	1148.896	-72.517	370.978	1208.425	-67.611	431.055	1109.078	-100.521	387.315	968.824	-99.449	392.082	689.587
-146.578	390.791	1148.395	-72.545	370.809	1207.943	-67.634	430.924	1108.579	-100.685	387.413	968.375	-99.674	392.095	688.926
-146.682	390.956	1147.961	-72.674	371.062	1207.607	-67.544	430.998	1108.148	-100.893	387.545	968.008	-99.721	392.138	688.472
-146.699	391.027	1147.584	-72.774	371.105	1207.273	-67.639	430.978	1107.641	-100.973	387.752	967.689	-99.841	392.031	687.939
-146.725	391.062	1147.269	-72.867	371.073	1206.998	-67.680	431.073	1107.287	-101.160	387.972	967.410	-99.972	392.087	687.642
-146.684	391.010	1146.951	-72.982	371.212	1206.860	-67.720	431.341	1107.102	-101.258	387.981	967.169	-100.026	392.255	687.466
-146.635	391.227	1146.693	-73.029	371.189	1206.700	-67.777	431.449	1107.007	-101.380	388.114	966.993	-100.133	392.248	687.250
-146.720	391.475	1146.722	-73.124	371.426	1206.686	-67.878	431.608	1106.888	-101.489	388.216	967.038	-100.264	392.272	687.217
-146.818	391.603	1146.722	-73.210	371.545	1206.781	-67.851	431.662	1106.946	-101.389	388.336	967.152	-100.384	392.335	687.273
-146.887	391.797	1146.901	-73.310	371.676	1206.912	-67.943	431.814	1107.043	-101.420	388.440	967.205	-100.454	392.313	687.332
-146.977	392.004	1147.156	-73.322	371.864	1207.125	-68.000	431.944	1107.321	-101.498	388.544	967.407	-100.575	392.214	687.483
-146.967	392.150	1147.579	-73.394	372.128	1207.557	-68.028	432.002	1107.620	-101.624	388.646	967.644	-100.724	392.131	687.793
-147.139	392.004	1147.884	-73.471	372.254	1207.895	-68.032	432.324	1108.185	-101.728	388.576	968.022	-100.864	392.219	688.301
-147.290	392.330	1148.467	-73.514	372.467	1208.351	-68.173	432.641	1108.866	-101.822	388.696	968.467	-100.983	392.264	688.953
-147.391	392.413	1148.988	-73.533	372.524	1208.905	-68.333	432.736	1109.679	-101.992	388.736	968.910	-101.143	392.547	689.834
-147.426	392.613	1149.650	-73.508	372.759	1209.564	-68.426	433.094	1110.247	-102.091	388.678	969.435	-101.390	392.695	690.788
-147.439	392.802	1150.277	-73.577	372.919	1210.277	-68.492	433.371	1111.003	-102.211	388.752	970.245	-101.525	392.831	691.729
-147.491	393.124	1151.164	-73.676	373.110	1211.018	-68.555	433.581	1112.009	-102.394	389.047	971.230	-101.666	392.905	692.579
-147.496	393.384	1152.340	-73.619	373.309	1211.832	-68.678	434.158	1113.030	-102.475	389.412	972.264	-101.928	392.707	693.580
-147.692	393.919	1153.480	-73.555	373.439	1212.935	-68.828	434.418	1113.982	-102.589	389.800	973.381	-102.150	393.048	694.499
-147.750	394.489	1154.729	-73.615	373.377	1214.122	-69.001	434.797	1114.847	-102.687	390.112	974.706	-102.189	393.307	695.626
-147.824	394.966	1155.944	-73.621	373.550	1215.092	-69.085	435.116	1115.791	-102.807	390.516	976.107	-102.151	393.301	696.975
-147.769	394.970	1157.239	-73.726	374.077	1216.520	-69.175	435.364	1117.235	-102.898	390.942	977.670	-102.361	393.178	698.027
-147.869	395.095	1158.835	-73.843	374.813	1218.236	-69.097	435.472	1118.719	-103.105	391.294	979.113	-102.599	393.038	699.349
-148.028	395.955	1160.738	-73.986	375.705	1219.908	-69.195	435.513	1120.005	-103.253	391.320	980.460	-102.723	393.103	701.032
-148.116	396.817	1162.562	-73.590	376.072	1221.550	-69.317	436.294	1121.598	-103.341	391.478	981.860	-103.063	393.405	702.703
-148.129	396.736	1164.203	-73.561	375.846	1223.324	-69.468	436.877	1123.492	-103.392	391.663	983.346	-103.143	393.464	704.456
-148.010	397.101	1166.394	-73.569	376.085	1224.848	-69.647	437.315	1125.428	-103.417	391.771	985.095	-103.306	393.853	706.023
-148.204	397.124	1168.312	-73.545	376.319	1226.329	-69.749	437.327	1127.488	-103.674	392.227	986.989	-103.370	393.765	708.188
-148.341	397.653	1170.236	-73.529	376.848	1228.153	-69.926	437.501	1129.573	-103.628	392.534	989.327	-103.499	393.802	710.305
-148.580	398.433	1172.444	-73.465	377.496	1230.313	-70.006	437.941	1131.088	-103.855	393.134	991.950	-103.590	393.926	712.618
-148.601	399.109	1174.625	-73.412	377.864	1232.924	-70.098	438.419	1132.735	-104.032	393.142	993.651	-103.796	394.001	714.726
-148.402	398.713	1177.057	-73.213	378.183	1234.977	-70.335	439.015	1134.879	-104.019	393.458	995.819	-103.897	394.056	716.843
-148.398	399.216	1179.384	-73.056	378.398	1236.904	-70.500	439.837	1138.375	-104.141	393.886	998.057	-104.068	394.133	719.206
-148.655	400.155	1181.960	-72.936	378.369	1239.312	-70.586	439.900	1140.386	-104.405	394.395	1000.818	-104.250	394.512	721.568
-148.600	400.285	1184.817	-72.986	378.917	1241.849	-70.741	440.385	1142.317	-104.516	395.066	1003.686	-104.329	394.781	724.343
-148.415	400.246	1187.034	-72.830	379.785	1244.408	-70.788	440.779	1144.663	-104.590	394.979	1005.816	-104.569	394.701	726.349
-148.570	400.898	1189.697	-72.709	379.766	1246.537	-70.957	441.029	1148.340	-104.643	395.232	1008.094	-104.701	394.655	728.855
-148.812	401.740	1192.501	-72.485	379.504	1249.089	-71.144	441.904	1150.904	-104.651	395.300	1010.496	-104.767	394.661	731.365
-148.739	401.560	1195.399	-72.400	379.916	1251.474	-71.374	442.541	1152.857	-104.839	395.692	1013.085	-104.986	395.302	734.783
-148.601	402.229	1197.978	-72.482	380.559	1254.193	-71.341	442.699	1155.799	-104.905	396.321	1016.249	-104.980	395.233	737.639
-148.694	402.485	1201.231	-72.220	380.717	1257.536	-71.451	443.123	1158.829	-105.136	396.759	1019.077	-105.191	395.232	740.043
-148.577	402.224	1204.270	-72.097	380.880	1260.026	-71.709	443.975	1161.634	-105.093	397.107	1021.850	-105.281	395.323	742.670
-148.578	402.673	1206.758	-72.088	380.962	1262.333	-71.648	444.002	1164.724	-105.147	397.486	1025.026	-105.548	395.827	745.825
-148.550	403.167	1209.699	-71.794	381.125	1265.396	-71.793	443.974	1167.226	-105.278	398.120	1028.319	-105.646	395.899	749.134
-148.613	403.345	1213.380	-71.737	381.661	1268.449	-71.894	444.640	1169.915	-105.351	398.148	1030.865	-105.784	395.606	751.409
-148.596	403.072	1215.951	-71.462	381.865	1271.233	-71.985	445.487	1173.865	-105.203	398.252	1033.580	-105.816	395.738	754.417
-148.666	403.599	1219.547	-71.164	381.660	1274.093	-72.151	445.354	1176.545	-105.441	398.426	1036.691	-105.959	396.100	757.722
-148.460	404.091	1222.508	-70.986	382.036	1276.684	-72.386	445.904	1179.040	-105.597	398.921	1039.993	-106.095	396.304	761.048
-148.509	404.426	1225.478	-70.870	382.596	1279.924	-72.302	446.222	1182.820	-105.455	399.183	1043.084	-106.321	396.086	763.833
-148.419	404.100	1228.921	-70.710	382.636	1283.294	-72.386	446.714	1185.985	-105.612	399.363	1046.205	-106.488	396.456	766.928
-148.531	405.281	1232.073	-70.567	383.031	1286.121	-72.569	447.189	1188.415	-105.685	399.582	1049.112	-106.489	396.509	770.212
-148.118	404.682	1235.571	-70.337	382.738	1288.935	-72.371	446.881	1191.617	-105.748	400.301	1052.573	-106.832	396.662	773.621
-148.242	405.081	1238.770	-70.006	383.102	1292.299	-72.717	447.807	1195.240	-105.789	400.162	1055.410	-106.704	396.446	776.322
-148.357	405.682	1241.558	-69.912	383.473	1295.113	-72.622	448.057	1198.625	-105.515	400.126	1058.415	-106.821	396.884	779.543
-147.975	405.108	1245.081	-69.655	383.095	1298.335	-72.774	448.220	1201.987	-105.632	400.482	1061.744	-107.065	396.745	782.601
-148.058	405.569	1248.267	-69.446	382.791	1300.842	-72.891	448.657	1204.520	-105.750	400.879	1065.124	-107.225	396.911	785.981
-147.863	405.507	1252.078	-69.004	383.084	1304.469	-72.847	448.892	1208.179	-105.660	401.180	1068.195	-107.251	396.934	789.168
-147.722	405.191	1254.653	-68.981	383.174	1307.557	-72.915	449.145	1211.510	-105.662	401.471	1071.295	-107.325	396.747	791.999
-147.751	405.780	1258.056	-68.628	382.734	1309.880	-72.846	449.074	1214.700	-105.782	401.520	1074.622	-107.599	396.977	795.506
-147.720	405.680	1261.896	-68.398	382.779	1313.016	-73.084	449.459	1218.493	-105.587	402.092	1078.029	-107.693	397.464	799.103
-147.647	406.053	1264.467	-68.207	383.368	1316.424	-73.245	450.251	1221.411	-105.587	402.179	1081.134	-107.692	397.386	801.700
-147.264	405.290	1268.345	-67.682	383.097	1319.890	-73.260	450.461	1224.634	-105.637	402.024	1084.264	-107.750	397.338	804.714
-147.326	406.055	1271.633	-67.441	382.806	1322.425	-73.431	450.670	1227.940	-105.772	402.232	1087.060	-107.943	397.351	808.361
-147.308	406.284	1274.639	-67.242	382.969	1325.127	-73.436	451.227	1231.052	-105.626	402.634	1090.515	-108.087	397.722	811.702
-146.955	405.766	1277.745	-67.088	383.166	1328.589	-73.267	451.236	1234.739	-105.558	402.921	1093.789	-108.151	397.703	814.704
-147.072	406.685	1281.454	-66.651	383.390	1331.490	-73.603	451.435	1237.289	-105.693	402.873	1096.782	-108.110	397.836	817.857
-146.972	406.122	1284.859	-66.246	383.352	1334.306	-73.652	451.874	1240.211	-105.595	403.323	1099.992	-108.334	397.875	821.099
-146.773	406.207	1287.107	-66.191	383.146	1337.192	-73.741	452.265	1244.040	-105.658	403.712	1102.985	-108.582	398.272	824.122
-146.570	406.515	1291.053	-66.157	383.583	1340.185	-73.682	452.653	1246.677	-105.639	403.734	1106.285	-108.427	398.090	826.854
-146.514	406.442	1294.162	-65.592	383.598	1343.328	-73.774	452.559	1249.832	-105.596	403.765	1109.102	-108.453	398.153	830.212
-146.335	406.520	1296.624	-65.424	383.515	1346.030	-73.867	452.582	1252.533	-105.654	403.905	1111.884	-108.653	398.053	833.412
-146.312	406.211	1300.297	-65.063	383.711	1348.898	-73.884	453.150	1255.262	-105.548	403.920	1115.048	-108.766	398.259	836.062
-146.270	406.687	1303.384	-65.020	383.763	1351.718	-73.829	452.950	1258.193	-105.400	404.294	1118.326	-108.794	398.336	838.745
-146.087	406.401	1306.002	-64.465	384.401	1354.649	-74.043	452.998	1261.163	-105.622	404.115	1120.646	-108.789	398.413	841.965
-146.023	406.470	1308.772	-64.246	384.524	1357.318	-73.999	453.138	1263.745	-105.328	403.932	1123.467	-109.034	398.318	845.000
-145.894	406.558	1311.604	-63.978	384.210	1359.936	-73.948	453.167	1267.046	-105.262	404.206	1126.435	-109.098	398.422	847.552
-145.738	406.142	1315.191	-63.781	384.483	1362.593	-74.090	453.005	1269.289	-105.444	404.335	1129.550	-108.908	398.514	850.152
-145.689	406.281	1317.510	-63.362	384.679	1365.390	-74.267	453.511	1271.714	-105.257	403.896	1132.181	-109.101	398.320	852.947
-145.493	406.199	1319.469	-63.270	384.242	1367.854	-74.199	453.213	1274.206	-105.143	403.782	1134.290	-109.297	398.303	855.750
-145.438	406.025	1323.152	-63.071	384.163	1370.225	-74.303	453.446	1276.862	-105.343	403.973	1136.592	-109.248	398.426	858.132
-145.334	406.157	1325.646	-62.788	384.205	1372.602	-74.290	453.655	1279.836	-105.172	404.386	1139.992	-109.444	398.462	860.597
-145.186	405.898	1327.967	-62.588	383.866	1374.666	-74.346	453.719	1282.786	-105.030	404.448	1142.438	-109.607	398.312	862.859
-145.151	405.442	1330.353	-62.442	383.977	1377.006	-74.545	453.953	1284.910	-105.116	404.302	1144.378	-109.651	398.455	865.560
-145.002	405.519	1332.527	-62.005	383.420	1379.509	-74.413	454.206	1287.080	-105.081	404.037	1146.678	-109.632	398.930	868.415
-145.084	405.978	1335.151	-61.896	383.338	1381.623	-74.523	454.539	1290.135	-105.037	404.540	1149.287	-109.674	398.465	870.545
-144.934	405.313	1337.810	-61.844	383.233	1383.668	-74.598	454.455	1292.642	-105.170	405.220	1152.061	-109.926	398.601	872.548
-144.841	405.480	1339.609	-61.553	382.699	1385.381	-74.578	454.657	1294.597	-105.234	405.286	1153.922	-110.019	398.865	874.420
